tree
version=v4
num_class=1
num_tree_per_iteration=1
label_index=0
max_feature_idx=11
objective=binary sigmoid:1
feature_names=ATR14 ATR50 ATR_ratio RSI14 VolRank Mom_5 Mom_20 SMA50 SMA200 HOUR DOW AsianRangePips
feature_infos=[0.081702779923172014:3.476712212082993] [0.12372812216305207:2.2603910516888499] [0.31523502353194538:2.3288012087749395] [5.8940993070892169:94.752276916793306] [0.00069444444444444447:1] [-0.0099080082078584208:0.012588734513812039] [-0.017286780749748543:0.016323070626872438] [1617.81726:1808.7255200000002] [1619.3623599999999:1808.0620599999997] [0:23] [0:4] [425.99999999999909:1925]
tree_sizes=6880

Tree=0
num_leaves=63
num_cat=0
split_feature=3 2 4 9 10 2 7 8 3 3 8 5 4 5 2 4 7 1 9 6 7 7 5 7 3 1 0 8 7 0 9 0 7 7 7 1 7 7 2 2 7 9 0 1 4 7 1 9 7 7 10 0 4 4 4 4 4 0 7 5 7 7
split_gain=91.0182 34.3879 29.607 24.0193 21.7412 21.7738 19.7438 22.3881 19.0476 19.4848 19.9231 19.6603 18.213 18.1382 18.0255 18.4061 18.324 17.3447 18.2495 17.0028 16.1291 25.1753 15.5157 17.9955 16.9477 15.2666 15.0187 23.9171 14.6644 14.0796 13.8754 13.6496 18.3214 20.8159 17.0539 23.4239 17.0484 15.2232 40.5346 20.9139 15.3484 15.1286 20.3962 17.1282 14.3145 13.6492 15.1874 18.7164 15.5575 19.7288 16.1823 15.5446 15.025 16.5819 13.9437 16.4726 13.6051 19.5266 24.4479 15.864 14.3458 13.5835
threshold=41.604651077262325 0.91386460453224794 0.028125000000000001 20.500000000000004 2.5000000000000004 0.88038338630352764 1751.2325300000002 1758.792025 74.182808898280271 53.956511284576095 1696.1735800000004 -0.00087477249432343907 0.35729166666666673 -0.00015306908820506002 1.3842005674905997 0.0031250000000000006 1668.3876700000003 1.1108742384536481 17.500000000000004 3.0218823357852646e-05 1718.4779800000003 1676.4242500000003 0.00033448134264479906 1793.6642400000003 48.505314329718821 0.21300523185322787 0.84481873801028551 1670.6150875000001 1795.0728700000004 0.4197687075046504 3.5000000000000004 0.27557203249293954 1762.8457300000002 1779.5121400000005 1753.2392700000003 0.2732883421212825 1751.6368600000003 1775.5248100000001 1.1760080340112125 1.1992736883219914 1775.1971100000003 5.5000000000000009 0.45953307283098405 0.34881239658495328 0.40729166666666672 1744.5115900000003 0.70213015857060423 18.500000000000004 1649.1498000000001 1643.605 1.5000000000000002 0.36705320043508732 0.71423611111111118 0.9281250000000002 0.92395833333333355 0.72951388888888891 0.10937500000000001 0.27837756710754857 1697.7766400000003 -0.00030116811392533188 1673.2171200000005 1627.6430600000001
decision_type=2 2 2 2 2 2 2 2 2 2 2 2 2 2 2 2 2 2 2 2 2 2 2 2 2 2 2 2 2 2 2 2 2 2 2 2 2 2 2 2 2 2 2 2 2 2 2 2 2 2 2 2 2 2 2 2 2 2 2 2 2 2
left_child=1 2 6 56 14 30 -1 -8 9 10 12 -11 13 -7 15 16 -2 20 -19 -18 21 -16 23 31 -24 -21 -14 -28 -12 -10 -6 32 -17 -34 35 -33 -37 39 41 40 -36 43 -43 -39 -44 46 48 52 49 50 51 -26 -48 -54 55 -50 59 58 60 -3 -58 -13
right_child=4 3 -4 -5 5 8 7 -9 29 11 28 61 26 -15 17 22 19 18 -20 25 -22 -23 24 -25 45 -27 27 -29 -30 -31 -32 34 33 -35 37 36 -38 38 -40 -41 -42 42 44 -45 -46 -47 47 -49 54 -51 -52 -53 53 -55 -56 -57 57 -59 -60 -61 -62 -63
leaf_value=0.0067653778467169981 0.019294792243503125 0.029347444123580424 -0.026832915015680938 0.0047108702563248527 -0.0083262063317659611 -0.0046684945569217262 -0.068602489803377908 -0.0094940525420881897 -0.025791706131489005 0.023920700309453098 -0.024399831494748746 -0.042012798920658456 -0.04185002602777281 -0.031627600037319528 -0.0073289547404849116 -0.028128296577983387 0.003224683935620639 -0.070607337659251479 -0.0035630057277577648 -0.073839566777178123 -0.021303331610648617 0.055216617091104411 -0.017894411195317643 -0.040642284707086182 -0.059329861556517864 -0.02028644894506507 -0.019613160733316305 -0.068911264313463214 -0.041220251693752624 -0.053796492181812046 -0.021627571369183415 0.0018799034550032907 -0.052749646741134595 -0.028588889013208878 -0.021307916933753442 -0.027594799011614844 -0.052946941554593702 -0.021102016398082825 -0.059251187140145795 0.0081924847621059546 0.013234970044093408 -0.011406247255314922 -0.077218347665551496 -0.06643310574175286 -0.027310249311377998 -0.027506633210139131 -0.048391487194013344 -0.07446504350085606 -0.03761088899926264 -0.0031192563775306846 -0.064417950191848511 -0.017999279972093683 -0.015536379032900366 -0.036298174622454923 0.006529501514202736 -0.052857287651826776 -0.04021392239015055 -0.017899449053248508 -0.024660494520800682 -0.013204504871340674 -0.10269993219010162 -0.022463640765637588
leaf_weight=115.43892019987106 38.458068579435349 31.623214423656464 2050.8120571672916 118.45825588703156 218.49472633004189 91.400431990623474 21.905069321393967 59.626497477293015 77.729279965162277 22.426275193691254 1965.8699804842472 91.713660091161728 586.92934158444405 196.57871004939079 56.34397280216217 1014.7284708321095 41.681050896644592 23.661386609077454 17.774879038333893 20.128904581069946 80.308243304491043 22.518896639347076 216.44731307029724 246.88773986697197 28.989880830049515 39.272655099630356 181.93707931041718 28.450271219015121 138.72176149487495 106.20457074046135 1909.5832653641701 66.830393701791763 187.96480372548103 169.57525640726089 1149.64854824543 5575.1935778558254 67.110542714595795 42.055265069007874 89.995593994855881 67.902997106313705 33.083263635635376 295.01391443610191 15.090062618255613 41.303949296474457 299.97047916054726 957.09646007418633 63.111225068569183 20.378861933946609 955.58288156986237 68.310290366411209 36.528296321630478 105.68769600987434 295.36166533827782 142.60343813896179 16.018561750650406 217.48106253147125 18.195403933525085 4247.0787316262722 110.15384927392006 71.263467878103256 18.549770653247833 2853.6767709851265
leaf_count=454 151 124 8101 466 861 360 87 235 307 88 7763 363 2323 777 222 4009 164 94 70 80 317 88 854 977 115 155 718 113 549 421 7538 263 745 670 4538 22025 266 166 357 267 130 1163 60 164 1185 3781 250 81 3780 269 145 417 1165 564 63 862 72 16757 435 281 74 11266
internal_value=-0.0249904 -0.019983 -0.0250545 -0.0175131 -0.0266042 -0.0246382 -0.0065383 -0.0253747 -0.0261068 -0.0256332 -0.0283461 -0.0227173 -0.0338488 -0.0230712 -0.0279024 -0.0281387 -0.01008 -0.0130322 -0.0418474 -0.0212559 -0.00553089 0.0105306 -0.0283405 -0.0273224 -0.031392 -0.0384335 -0.0377415 -0.0262796 -0.0255085 -0.0419618 -0.0202619 -0.0269617 -0.0315577 -0.0412906 -0.0261472 -0.0275478 -0.0278963 -0.022216 -0.0276812 -0.0187924 -0.0203417 -0.0235839 -0.020854 -0.0435633 -0.0297006 -0.0323969 -0.0347971 -0.0274935 -0.037463 -0.0258372 -0.0349015 -0.0268959 -0.0255832 -0.0222965 -0.0398048 -0.0404375 -0.0180985 -0.0185193 -0.0364415 -0.000125753 -0.0717582 -0.0230724
internal_weight=28158.9 6863.11 2247.78 4615.32 21295.8 8469.72 196.97 81.5316 6341.64 6157.7 3189.89 2967.82 1085.3 287.979 12826.1 12625.5 139.541 200.607 41.4363 101.083 159.171 78.8629 12486 9362.35 3123.6 59.4016 797.317 210.387 2104.59 183.934 2128.08 9115.47 1372.27 357.54 7743.2 5709.13 5642.3 2034.06 783.429 1250.63 1182.73 693.434 610.074 83.3592 315.061 2907.15 1950.05 521.455 1428.6 239.516 171.206 134.678 501.076 437.965 1189.08 1173.06 4496.86 4393.98 146.899 102.887 36.7452 2945.39
internal_count=111205 27086 8877 18209 84119 33447 776 322 25048 24320 12603 11717 4291 1137 50672 49881 550 791 164 399 627 310 49331 36985 12346 235 3154 831 8312 728 8399 36008 5424 1415 30584 22554 22291 8030 3095 4935 4668 2738 2408 330 1245 11492 7711 2060 5651 946 677 532 1979 1729 4705 4642 17743 17338 581 405 146 11629
is_linear=0
shrinkage=1


end of trees

feature_importances:
SMA50=18
VolRank=9
ATR14=6
ATR50=5
ATR_ratio=5
HOUR=5
RSI14=4
Mom_5=4
SMA200=3
DOW=2
Mom_20=1

parameters:
[boosting: gbdt]
[objective: binary]
[metric: binary_logloss,auc]
[tree_learner: serial]
[device_type: cpu]
[data_sample_strategy: bagging]
[data: ]
[valid: ]
[num_iterations: 2000]
[learning_rate: 0.05]
[num_leaves: 63]
[num_threads: 0]
[seed: 64]
[deterministic: 0]
[force_col_wise: 0]
[force_row_wise: 0]
[histogram_pool_size: -1]
[max_depth: -1]
[min_data_in_leaf: 60]
[min_sum_hessian_in_leaf: 0.001]
[bagging_fraction: 0.8]
[pos_bagging_fraction: 1]
[neg_bagging_fraction: 1]
[bagging_freq: 2]
[bagging_seed: 7489]
[bagging_by_query: 0]
[feature_fraction: 0.9]
[feature_fraction_bynode: 1]
[feature_fraction_seed: 2393]
[extra_trees: 0]
[extra_seed: 964]
[early_stopping_round: 0]
[early_stopping_min_delta: 0]
[first_metric_only: 0]
[max_delta_step: 0]
[lambda_l1: 0]
[lambda_l2: 0]
[linear_lambda: 0]
[min_gain_to_split: 0]
[drop_rate: 0.1]
[max_drop: 50]
[skip_drop: 0.5]
[xgboost_dart_mode: 0]
[uniform_drop: 0]
[drop_seed: 17665]
[top_rate: 0.2]
[other_rate: 0.1]
[min_data_per_group: 100]
[max_cat_threshold: 32]
[cat_l2: 10]
[cat_smooth: 10]
[max_cat_to_onehot: 4]
[top_k: 20]
[monotone_constraints: ]
[monotone_constraints_method: basic]
[monotone_penalty: 0]
[feature_contri: ]
[forcedsplits_filename: ]
[refit_decay_rate: 0.9]
[cegb_tradeoff: 1]
[cegb_penalty_split: 0]
[cegb_penalty_feature_lazy: ]
[cegb_penalty_feature_coupled: ]
[path_smooth: 0]
[interaction_constraints: ]
[verbosity: -1]
[saved_feature_importance_type: 0]
[use_quantized_grad: 0]
[num_grad_quant_bins: 4]
[quant_train_renew_leaf: 0]
[stochastic_rounding: 1]
[linear_tree: 0]
[max_bin: 255]
[max_bin_by_feature: ]
[min_data_in_bin: 3]
[bin_construct_sample_cnt: 200000]
[data_random_seed: 247]
[is_enable_sparse: 1]
[enable_bundle: 1]
[use_missing: 1]
[zero_as_missing: 0]
[feature_pre_filter: 1]
[pre_partition: 0]
[two_round: 0]
[header: 0]
[label_column: ]
[weight_column: ]
[group_column: ]
[ignore_column: ]
[categorical_feature: ]
[forcedbins_filename: ]
[precise_float_parser: 0]
[parser_config_file: ]
[objective_seed: 13628]
[num_class: 1]
[is_unbalance: 1]
[scale_pos_weight: 1]
[sigmoid: 1]
[boost_from_average: 1]
[reg_sqrt: 0]
[alpha: 0.9]
[fair_c: 1]
[poisson_max_delta_step: 0.7]
[tweedie_variance_power: 1.5]
[lambdarank_truncation_level: 30]
[lambdarank_norm: 1]
[label_gain: ]
[lambdarank_position_bias_regularization: 0]
[eval_at: ]
[multi_error_top_k: 1]
[auc_mu_weights: ]
[num_machines: 1]
[local_listen_port: 12400]
[time_out: 120]
[machine_list_filename: ]
[machines: ]
[gpu_platform_id: -1]
[gpu_device_id: -1]
[gpu_use_dp: 0]
[num_gpu: 1]

end of parameters

pandas_categorical:[]
