tree
version=v4
num_class=1
num_tree_per_iteration=1
label_index=0
max_feature_idx=11
objective=binary sigmoid:1
feature_names=ATR14 ATR50 ATR_ratio RSI14 VolRank Mom_5 Mom_20 SMA50 SMA200 HOUR DOW AsianRangePips
feature_infos=[0.080996529973401579:6.1329640268971461] [0.13403231322705064:2.948705968751316] [0.34827648938480898:2.3795504679133788] [4.7540834910022287:95.406944541067944] [0.00069444444444444447:1] [-0.012823630856309109:0.015347023940259108] [-0.013511847608008609:0.020318700564832426] [1808.3116199999997:2056.6934999999999] [1808.66283:2052.1508799999997] [0:23] [0:4] [277.99999999999727:4143.2999999999765]
tree_sizes=6871

Tree=0
num_leaves=63
num_cat=0
split_feature=3 7 0 8 1 6 6 4 7 11 9 1 4 5 11 1 1 8 11 4 7 7 1 10 7 4 3 11 8 1 11 7 1 10 4 3 0 6 9 7 7 1 0 3 10 9 11 4 9 0 11 6 7 1 1 3 0 8 3 1 0 4
split_gain=80.1098 25.2692 31.1721 35.2133 22.8983 23.3599 22.0655 43.9805 20.1242 18.5603 18.6988 27.94 22.9271 19.4875 17.9283 23.9653 23.7863 20.8913 16.9552 16.704 16.687 16.2005 15.918 16.219 15.3797 19.6347 16.7441 14.4401 20.3104 26.1799 18.8009 18.8937 14.5367 14.3548 26.6495 17.5327 17.4113 16.6175 15.353 14.3153 14.2718 15.0716 16.8344 15.22 14.2186 13.9618 26.2702 22.9154 23.2085 27.7265 25.9939 31.3239 17.1189 22.7745 16.824 16.7899 14.7365 13.8913 13.8218 13.7842 16.3774 13.7405
threshold=44.531601043894661 1960.3736000000001 1.2187805850871565 1909.85436 0.18264113992884298 0.00012035068846716347 6.118344083072548e-05 0.031597222222222228 2031.4390000000001 616.35000000000002 15.500000000000002 0.60764554256301684 0.97673611111111114 7.6632587380887087e-05 473.74999999999551 0.85693434801036239 0.79476475594665474 1959.9762275000005 641.64999999999293 0.97673611111111114 1957.8578600000003 1972.8530500000002 0.76653688812954768 1.5000000000000002 1959.6967300000001 0.8690972222222223 56.353478391764902 1455.000000000007 1955.5889325000001 0.67221365143631806 1235.5999999999997 1934.6175700000003 0.47848672542982812 3.5000000000000004 0.35868055555555561 63.897114919104958 0.54408415510235586 0.00099439481602936496 7.5000000000000009 1919.2387200000001 1910.2748600000002 1.1322121603546123 0.92057431938529899 44.924942322539792 3.5000000000000004 5.5000000000000009 529.84999999999911 0.83298611111111132 3.5000000000000004 0.30267277613244919 1003.3500000000005 -0.0011566092792563152 1971.54591 0.26561761012178853 0.2779608228231305 34.693163399680465 0.23526530997995129 1934.2058500000001 36.233398942372581 0.81459828296889614 0.60694184670081774 0.98506944444444466
decision_type=2 2 2 2 2 2 2 2 2 2 2 2 2 2 2 2 2 2 2 2 2 2 2 2 2 2 2 2 2 2 2 2 2 2 2 2 2 2 2 2 2 2 2 2 2 2 2 2 2 2 2 2 2 2 2 2 2 2 2 2 2 2
left_child=45 2 3 40 5 -5 8 -8 21 10 11 13 -13 -9 20 16 17 19 39 27 -6 -3 23 -12 25 26 -19 28 30 33 -16 57 -33 35 -35 -30 37 -37 -36 -4 41 42 43 -2 -15 46 55 48 50 -50 51 58 -53 -54 56 -1 -52 -32 -48 60 -45 -41
right_child=1 6 18 4 14 -7 7 9 -10 -11 22 12 -14 44 15 -17 -18 24 -20 -21 -22 -23 -24 -25 -26 -27 -28 -29 29 -31 31 32 -34 34 38 36 -38 -39 -40 61 -42 -43 -44 59 -46 -47 47 -49 49 -51 54 52 53 -55 -56 -57 -58 -59 -60 -61 -62 -63
leaf_value=0.017952150257440805 -0.054805740632568281 -0.027383366158445516 -0.051918927567360357 0.058938467068868523 -0.025358070219639553 -0.013420758377213375 -0.053693005494776264 -0.023597039619363533 -0.037667756331426751 -0.023809467576675958 -0.033829451916987011 -0.00053717119215002801 -0.05188371883641691 -0.034052230929709069 -0.018211016640503366 -0.035405507865791788 0.011287793733505073 -0.017003509339533655 0.0051536530227129194 -0.053686985353713926 0.027359249407044949 -0.016955109850250553 -0.030893763229935461 -0.078519645476545941 -0.0571618791479587 0.028224901605321658 -0.061250131271629954 -0.0051088162720552346 -0.00092633052206856845 -0.065647934620730153 -0.039855102383486829 -0.028462066407586875 -0.088820240635507447 -0.044058381172863155 0.015510026406750879 -0.019706714793177375 0.019785908574376336 -0.068221267177302175 -0.024399891354628923 0.024718023945180613 -0.05450437806165169 -0.073232952946771041 -0.0035859782486167939 -0.026254132893152225 -0.054865141894706766 -0.017313332789479784 0.027016317056246096 0.021992703324205172 -0.018414438762974085 0.0032285530423950617 -0.02953708494008838 -0.024559619128099838 0.027004808824807387 -0.014379621702921098 -0.035088801433560059 -0.006426645583426125 0.037952501017780083 0.0089287674724551416 -0.020282715194805373 -0.048878683421006194 -0.01284404644832335 -0.039120226069303272
leaf_weight=88.014839097857475 44.550286263227463 480.62178580462933 27.695060148835182 19.106705337762833 1025.8325626403093 26.796925157308578 145.245963960886 324.24679605662823 160.36918492615223 3176.9915453493595 32.540923714637756 128.09240797162056 26.184517875313759 281.76244127750397 2069.6430946290493 171.7571614086628 76.546531572937965 60.901945173740387 179.33649045228958 29.200247019529343 15.233952403068541 1654.4692150056362 81.251422643661499 53.97959865629673 51.08168837428093 15.489279717206953 32.949825689196587 293.00203916430473 502.47613146901131 20.61551558971405 41.343494638800621 16.153509005904198 26.082765221595764 73.830864325165749 48.940781250596046 80.337221443653107 20.802954688668251 22.62064628303051 47.47135017812252 19.037085101008415 42.78977207839489 16.328505277633667 88.066661104559898 1862.3796890228987 115.77967882156372 4453.2768901884556 58.648574590682983 40.600666329264641 304.71685455739498 287.69009621441364 16.908780142664909 456.27275775372982 37.829553693532944 274.26139257848263 314.01590526103973 357.47321133315563 15.505345925688742 22.552758067846298 20.967240154743195 60.193140640854836 259.38987554609776 15.126844346523283
leaf_count=347 177 1904 110 75 4063 106 577 1284 636 12581 129 506 104 1117 8191 681 302 241 708 116 60 6547 322 215 203 61 131 1158 1985 82 164 64 104 293 193 318 82 90 188 75 170 65 348 7377 460 17623 231 160 1206 1136 67 1807 149 1085 1245 1413 61 89 83 239 1026 60
internal_value=-0.0201751 -0.0223185 -0.0203128 -0.0209064 -0.0184475 0.0166977 -0.0245543 -0.0266409 -0.0205856 -0.02571 -0.0314944 -0.0285658 -0.00925192 -0.032694 -0.0187861 -0.0171644 -0.0162824 -0.0168896 -0.00263216 -0.0160369 -0.0245867 -0.0193026 -0.0467865 -0.0617114 -0.0345118 -0.0239301 -0.0325378 -0.0157023 -0.0167394 -0.010018 -0.0192635 -0.0397882 -0.0657359 -0.00857817 -0.0214522 -0.00507834 -0.0219358 -0.0303657 -0.0041408 -0.0252042 -0.0258897 -0.0253644 -0.0250267 -0.0258748 -0.0401138 -0.0156859 -0.0124972 -0.0151513 -0.0159953 -0.00790397 -0.0200085 -0.0152939 -0.0183872 -0.00936328 -0.0315487 -0.00161014 0.00274666 -0.0226364 0.0145599 -0.0252841 -0.0246147 -0.00354779
internal_weight=20813.4 14087.2 7425.66 7184.47 4810.77 45.9036 6661.54 4366.08 2295.46 4220.83 1043.84 876.066 154.277 721.789 4764.87 3723.8 3552.04 3475.5 241.195 3315.07 1041.07 2135.09 167.772 86.5205 160.423 109.341 93.8518 3285.87 2992.87 817.095 2175.78 106.133 42.2363 796.48 170.243 626.237 123.761 102.958 96.4121 61.859 2373.7 2330.91 2314.58 2226.51 397.542 6726.18 2272.91 1827.42 1786.82 592.407 1194.41 847.98 768.364 312.091 346.43 445.488 32.4141 63.8963 79.6158 2181.96 2121.77 34.1639
internal_count=82390 55777 29395 28442 19040 181 26382 17295 9087 16718 4137 3471 610 2861 18859 14736 14055 13753 953 13117 4123 8451 666 344 636 433 372 13001 11843 3231 8612 421 168 3149 674 2475 490 408 381 245 9402 9232 9167 8819 1577 26613 8990 7230 7070 2342 4728 3355 3041 1234 1373 1760 128 253 314 8642 8403 135
is_linear=0
shrinkage=1


end of trees

feature_importances:
ATR50=11
SMA50=9
VolRank=7
AsianRangePips=7
ATR14=6
RSI14=6
Mom_20=4
SMA200=4
HOUR=4
DOW=3
Mom_5=1

parameters:
[boosting: gbdt]
[objective: binary]
[metric: binary_logloss,auc]
[tree_learner: serial]
[device_type: cpu]
[data_sample_strategy: bagging]
[data: ]
[valid: ]
[num_iterations: 2000]
[learning_rate: 0.05]
[num_leaves: 63]
[num_threads: 0]
[seed: 69]
[deterministic: 0]
[force_col_wise: 0]
[force_row_wise: 0]
[histogram_pool_size: -1]
[max_depth: -1]
[min_data_in_leaf: 60]
[min_sum_hessian_in_leaf: 0.001]
[bagging_fraction: 0.8]
[pos_bagging_fraction: 1]
[neg_bagging_fraction: 1]
[bagging_freq: 2]
[bagging_seed: 28463]
[bagging_by_query: 0]
[feature_fraction: 0.9]
[feature_fraction_bynode: 1]
[feature_fraction_seed: 24405]
[extra_trees: 0]
[extra_seed: 20597]
[early_stopping_round: 0]
[early_stopping_min_delta: 0]
[first_metric_only: 0]
[max_delta_step: 0]
[lambda_l1: 0]
[lambda_l2: 0]
[linear_lambda: 0]
[min_gain_to_split: 0]
[drop_rate: 0.1]
[max_drop: 50]
[skip_drop: 0.5]
[xgboost_dart_mode: 0]
[uniform_drop: 0]
[drop_seed: 8682]
[top_rate: 0.2]
[other_rate: 0.1]
[min_data_per_group: 100]
[max_cat_threshold: 32]
[cat_l2: 10]
[cat_smooth: 10]
[max_cat_to_onehot: 4]
[top_k: 20]
[monotone_constraints: ]
[monotone_constraints_method: basic]
[monotone_penalty: 0]
[feature_contri: ]
[forcedsplits_filename: ]
[refit_decay_rate: 0.9]
[cegb_tradeoff: 1]
[cegb_penalty_split: 0]
[cegb_penalty_feature_lazy: ]
[cegb_penalty_feature_coupled: ]
[path_smooth: 0]
[interaction_constraints: ]
[verbosity: -1]
[saved_feature_importance_type: 0]
[use_quantized_grad: 0]
[num_grad_quant_bins: 4]
[quant_train_renew_leaf: 0]
[stochastic_rounding: 1]
[linear_tree: 0]
[max_bin: 255]
[max_bin_by_feature: ]
[min_data_in_bin: 3]
[bin_construct_sample_cnt: 200000]
[data_random_seed: 263]
[is_enable_sparse: 1]
[enable_bundle: 1]
[use_missing: 1]
[zero_as_missing: 0]
[feature_pre_filter: 1]
[pre_partition: 0]
[two_round: 0]
[header: 0]
[label_column: ]
[weight_column: ]
[group_column: ]
[ignore_column: ]
[categorical_feature: ]
[forcedbins_filename: ]
[precise_float_parser: 0]
[parser_config_file: ]
[objective_seed: 32432]
[num_class: 1]
[is_unbalance: 1]
[scale_pos_weight: 1]
[sigmoid: 1]
[boost_from_average: 1]
[reg_sqrt: 0]
[alpha: 0.9]
[fair_c: 1]
[poisson_max_delta_step: 0.7]
[tweedie_variance_power: 1.5]
[lambdarank_truncation_level: 30]
[lambdarank_norm: 1]
[label_gain: ]
[lambdarank_position_bias_regularization: 0]
[eval_at: ]
[multi_error_top_k: 1]
[auc_mu_weights: ]
[num_machines: 1]
[local_listen_port: 12400]
[time_out: 120]
[machine_list_filename: ]
[machines: ]
[gpu_platform_id: -1]
[gpu_device_id: -1]
[gpu_use_dp: 0]
[num_gpu: 1]

end of parameters

pandas_categorical:[]
