tree
version=v4
num_class=1
num_tree_per_iteration=1
label_index=0
max_feature_idx=11
objective=binary sigmoid:1
feature_names=ATR14 ATR50 ATR_ratio RSI14 VolRank Mom_5 Mom_20 SMA50 SMA200 HOUR DOW AsianRangePips
feature_infos=[0.088432169680414327:5.239860574447758] [0.12631192975829703:4.093224013039503] [0.19619982072054068:2.3252069529729207] [3.5120634019950137:94.304132619621654] [0.00069444444444444447:1] [-0.0095488125038157845:0.0071288070009356552] [-0.014178589793267471:0.012412863965607146] [1934.2295999999999:3053.7466199999999] [1935.4663949999999:3051.7915350000003] [0:23] [0:4] [351.70000000000528:7353.1000000000404]
tree_sizes=6841

Tree=0
num_leaves=63
num_cat=0
split_feature=3 7 1 2 3 9 11 9 11 1 11 8 1 2 6 8 9 2 6 5 4 4 10 1 4 2 9 4 6 11 11 1 2 5 8 4 9 7 11 6 6 4 6 6 4 7 6 1 4 8 2 5 7 5 7 3 8 1 4 4 7 7
split_gain=104.072 36.9525 42.9985 28.8976 25.2773 24.6283 23.4678 22.5358 36.2738 26.4451 23.9004 35.4122 26.076 24.3577 21.9288 18.4433 38.8706 22.1375 21.5063 19.747 17.672 17.3923 17.1655 17.4547 19.192 23.3488 16.9052 19.4186 16.8522 16.7891 16.7351 16.4253 19.2471 18.8897 23.8677 28.8988 22.5543 21.1378 16.0318 15.9889 15.6364 15.4861 15.8427 15.2529 14.7013 13.7844 16.4607 15.6837 13.8267 13.6838 23.5362 13.6572 14.9608 13.1956 13.1483 12.9865 12.8011 12.8022 12.6114 13.8962 12.5658 12.3289
threshold=46.530244833113066 1997.6865800000003 0.24205068577151112 1.2035102536307243 55.052159874539548 1.0000000180025095e-35 780.20000000000221 5.5000000000000009 658.6500000000002 0.32490455187450024 1448.4999999999902 3031.6403050000004 0.42863580127837181 0.76128740829338948 -0.0008527029443491373 2915.2181725000005 9.5000000000000018 0.83765666559379726 -0.0022674512915467067 -0.0001389279797747722 0.99270833333333341 0.03229166666666667 2.5000000000000004 1.7393892680183869 0.22118055555555557 0.9356028784672068 3.5000000000000004 0.55520833333333341 0.00016069048816935719 3179.1499999999819 1168.5499999999936 0.26476895885512736 0.68447107266695462 0.00018687630573022143 1958.6807250000002 0.22951388888888891 11.500000000000002 1992.0043000000003 460.15000000001015 0.00073633600661948695 0.00042571738816266086 0.011458333333333336 0.00041670152182105019 -0.00074762488460960997 0.83368055555555565 2925.8599700000004 -0.0004352355840152588 1.4878360851965764 0.011458333333333336 2939.5045550000004 0.82333972231206387 -0.00016236101703498426 2015.5702300000003 -9.6034354357232829e-05 1946.8778600000003 67.194997872424182 1993.5924675000003 0.70107765185043902 0.15451388888888892 0.070486111111111124 2914.4097900000006 2031.9234600000002
decision_type=2 2 2 2 2 2 2 2 2 2 2 2 2 2 2 2 2 2 2 2 2 2 2 2 2 2 2 2 2 2 2 2 2 2 2 2 2 2 2 2 2 2 2 2 2 2 2 2 2 2 2 2 2 2 2 2 2 2 2 2 2 2
left_child=3 2 6 15 7 30 -2 10 -9 -10 13 12 -12 -3 -14 19 17 -17 -18 60 31 -8 41 24 28 26 27 -26 -24 54 -4 -7 -33 34 35 -34 -36 38 -35 40 -27 42 -6 -21 -19 46 -20 48 -47 -30 -51 -15 -53 -41 -5 -52 58 -58 59 -38 -1 -16
right_child=1 4 5 29 22 20 21 8 9 -11 11 -13 14 51 61 16 18 44 45 43 -22 -23 23 -25 25 39 -28 -29 49 -31 -32 32 33 37 36 -37 56 -39 -40 53 -42 -43 -44 -45 -46 47 -48 -49 -50 50 55 52 -54 -55 -56 -57 57 -59 -60 -61 -62 -63
leaf_value=0.030158705433327687 0.025730629573725371 0.05739970488981376 0.03004573822120923 0.082747948898299228 -0.0082055099705752102 -0.001919640315394891 0.02880739793806859 0.038354531700328473 0.046039338957855794 0.024589621334792866 -0.024411418530685965 -0.032011577865712869 -0.025979329893756127 0.026698676133945016 0.076407446740231921 0.044720108847919993 -0.007572748948676912 0.011408124978927493 0.030996473903328388 0.031581202192339772 0.050710934988410929 0.072336772270882699 0.0092562390194436996 0.040785957331360721 -0.039003328717787729 0.01782728033504663 0.010803437913383807 0.01459613548385098 0.02580417747094544 0.011291295420446502 0.083954688072275949 0.058434039022984899 -0.035846821309567241 -0.0090587044859826368 0.025936380060926419 0.010938943479517816 0.0258629141186318 -0.0091699220573938298 0.013973335418828397 0.03018008714332749 0.032048453758395531 0.02333875803128066 0.040199949606035325 0.023005557201157486 0.048457951948992314 0.076055494524550599 0.0028519301038920572 0.070212254904495744 0.031773107771151346 0.10407861050305869 0.012697739702595748 -0.025794902425131556 0.012746333720199114 0.012035579794638152 0.037146412125665551 0.058036300258193417 -0.041970815577477512 0.016864703068891602 0.017327391819763407 -0.030558846170614808 0.050911198622721018 0.032060592733293376
leaf_weight=4407.4036361575127 270.30303946137428 33.778265118598938 74.621370404958725 16.081225365400314 73.206931561231613 156.96374195814133 38.70802903175354 613.52331975102425 148.93970158696175 4080.7006159424782 21.396349251270294 23.966868013143539 16.050485759973526 180.93900942802429 16.094120651483536 58.070965707302094 37.363015651702881 754.32605960965157 134.80806943774223 689.92319422960281 32.797770172357559 56.358436673879623 133.40652588009834 83.613463640213013 38.024125665426254 432.46434912085533 731.30894693732262 30.414233058691025 456.57501709461212 63.136130124330521 17.837389290332794 24.952311992645264 38.774004071950912 83.129437208175659 780.77063536643982 221.87388032674789 17.21001610159874 137.2799217402935 829.10712248086929 115.09201100468636 349.49310576915741 4783.6435894966125 21.978588938713074 2086.9672957062721 27.75989493727684 18.106691688299179 84.526031732559204 29.445134788751602 666.38681969046593 15.286213457584379 32.196187555789948 25.985886693000793 811.23749497532845 774.54848462343216 927.24988132715225 31.002920389175415 20.67870905995369 16.722992449998856 439.0793528854847 29.825545728206635 74.17153400182724 598.33531954884529
leaf_count=17424 1068 134 295 64 288 618 153 2428 590 16121 84 94 63 715 64 230 147 2975 533 2728 130 224 526 331 149 1707 2884 120 1804 249 71 99 152 327 3085 875 68 540 3271 455 1382 18895 87 8243 110 72 333 117 2635 61 127 102 3200 3055 3669 123 81 66 1733 117 294 2366
internal_value=0.0241479 0.0218662 0.0170744 0.0282151 0.0229396 0.0150521 0.0332456 0.025244 0.026993 0.0253449 0.0203416 0.0276783 0.0298728 0.015628 0.0317151 0.0273231 0.0228088 0.0149348 0.0296243 0.0284493 0.0142222 0.054613 0.0210707 0.0182394 0.0176389 0.0156059 0.0085796 -0.0151835 0.0251553 0.0362531 0.040446 0.0137942 0.0147287 0.0143116 0.017792 0.00397909 0.0205524 0.00912182 0.0118745 0.0189675 0.0241834 0.0229414 0.00297144 0.0251362 0.0127232 0.0311135 0.0201503 0.0344815 0.0329445 0.0291194 0.048405 0.0142422 0.0115501 0.0143829 0.0379238 0.034939 0.0125228 -0.0156644 0.0146915 -0.00991448 0.0305022 0.0332222
internal_weight=28035.9 17960.2 3286.99 10075.7 14673.2 2921.62 365.37 6570.95 4843.16 4229.64 1727.78 675.843 651.876 1051.94 630.48 9069.26 1810.79 840.157 970.636 7258.47 2829.17 95.0665 8102.25 3223.43 3139.81 2471.35 799.747 68.4384 668.467 1006.47 92.4588 2796.37 2639.4 2614.45 1564.94 260.648 1304.29 1049.52 912.237 1671.6 781.957 4878.83 95.1855 2776.89 782.086 933.273 219.334 713.939 684.494 535.06 78.4853 1018.16 837.223 889.64 943.331 63.1991 523.517 37.4017 486.115 47.0356 4481.58 614.429
internal_count=110751 70928 12973 39823 57955 11528 1445 25961 19139 16711 6822 2671 2577 4151 2493 35841 7152 3315 3837 28689 11162 377 31994 12724 12393 9752 3153 269 2641 3982 366 11032 10414 10315 6177 1027 5150 4138 3598 6599 3089 19270 375 10971 3085 3690 866 2824 2707 2115 311 4017 3302 3510 3733 250 2065 147 1918 185 17718 2430
is_linear=0
shrinkage=1


end of trees

feature_importances:
VolRank=10
Mom_20=8
ATR50=7
SMA50=7
ATR_ratio=6
AsianRangePips=6
SMA200=5
HOUR=5
Mom_5=4
RSI14=3
DOW=1

parameters:
[boosting: gbdt]
[objective: binary]
[metric: binary_logloss,auc]
[tree_learner: serial]
[device_type: cpu]
[data_sample_strategy: bagging]
[data: ]
[valid: ]
[num_iterations: 2000]
[learning_rate: 0.05]
[num_leaves: 63]
[num_threads: 0]
[seed: 75]
[deterministic: 0]
[force_col_wise: 0]
[force_row_wise: 0]
[histogram_pool_size: -1]
[max_depth: -1]
[min_data_in_leaf: 60]
[min_sum_hessian_in_leaf: 0.001]
[bagging_fraction: 0.8]
[pos_bagging_fraction: 1]
[neg_bagging_fraction: 1]
[bagging_freq: 2]
[bagging_seed: 27418]
[bagging_by_query: 0]
[feature_fraction: 0.9]
[feature_fraction_bynode: 1]
[feature_fraction_seed: 4945]
[extra_trees: 0]
[extra_seed: 11390]
[early_stopping_round: 0]
[early_stopping_min_delta: 0]
[first_metric_only: 0]
[max_delta_step: 0]
[lambda_l1: 0]
[lambda_l2: 0]
[linear_lambda: 0]
[min_gain_to_split: 0]
[drop_rate: 0.1]
[max_drop: 50]
[skip_drop: 0.5]
[xgboost_dart_mode: 0]
[uniform_drop: 0]
[drop_seed: 17563]
[top_rate: 0.2]
[other_rate: 0.1]
[min_data_per_group: 100]
[max_cat_threshold: 32]
[cat_l2: 10]
[cat_smooth: 10]
[max_cat_to_onehot: 4]
[top_k: 20]
[monotone_constraints: ]
[monotone_constraints_method: basic]
[monotone_penalty: 0]
[feature_contri: ]
[forcedsplits_filename: ]
[refit_decay_rate: 0.9]
[cegb_tradeoff: 1]
[cegb_penalty_split: 0]
[cegb_penalty_feature_lazy: ]
[cegb_penalty_feature_coupled: ]
[path_smooth: 0]
[interaction_constraints: ]
[verbosity: -1]
[saved_feature_importance_type: 0]
[use_quantized_grad: 0]
[num_grad_quant_bins: 4]
[quant_train_renew_leaf: 0]
[stochastic_rounding: 1]
[linear_tree: 0]
[max_bin: 255]
[max_bin_by_feature: ]
[min_data_in_bin: 3]
[bin_construct_sample_cnt: 200000]
[data_random_seed: 283]
[is_enable_sparse: 1]
[enable_bundle: 1]
[use_missing: 1]
[zero_as_missing: 0]
[feature_pre_filter: 1]
[pre_partition: 0]
[two_round: 0]
[header: 0]
[label_column: ]
[weight_column: ]
[group_column: ]
[ignore_column: ]
[categorical_feature: ]
[forcedbins_filename: ]
[precise_float_parser: 0]
[parser_config_file: ]
[objective_seed: 28784]
[num_class: 1]
[is_unbalance: 1]
[scale_pos_weight: 1]
[sigmoid: 1]
[boost_from_average: 1]
[reg_sqrt: 0]
[alpha: 0.9]
[fair_c: 1]
[poisson_max_delta_step: 0.7]
[tweedie_variance_power: 1.5]
[lambdarank_truncation_level: 30]
[lambdarank_norm: 1]
[label_gain: ]
[lambdarank_position_bias_regularization: 0]
[eval_at: ]
[multi_error_top_k: 1]
[auc_mu_weights: ]
[num_machines: 1]
[local_listen_port: 12400]
[time_out: 120]
[machine_list_filename: ]
[machines: ]
[gpu_platform_id: -1]
[gpu_device_id: -1]
[gpu_use_dp: 0]
[num_gpu: 1]

end of parameters

pandas_categorical:[]
