tree
version=v4
num_class=1
num_tree_per_iteration=1
label_index=0
max_feature_idx=11
objective=binary sigmoid:1
feature_names=ATR14 ATR50 ATR_ratio RSI14 VolRank Mom_5 Mom_20 SMA50 SMA200 HOUR DOW AsianRangePips
feature_infos=[0.055030485892040702:3.1731482017001253] [0.09988273917467845:2.0365624923921768] [0.36465306665014613:2.3203843423757] [6.7655555096050879:95.420860719570982] [0.00069444444444444447:1] [-0.006693912457505391:0.011039389153800094] [-0.010233524026317498:0.012787319926440999] [1723.51836:1905.7932999999998] [1724.553345:1899.8306150000001] [0:23] [0:4] [269.99999999998181:2236.1000000000104]
tree_sizes=6897 6921 6913 6941 6913 6897 6907 6898 6896 6914 6846 6928 6928

Tree=0
num_leaves=63
num_cat=0
split_feature=3 3 8 0 11 11 0 8 3 4 10 2 1 5 0 0 8 3 4 11 7 7 1 4 0 7 2 1 4 11 8 4 5 1 0 1 2 0 1 5 1 11 7 11 6 2 2 6 8 8 7 8 2 2 1 5 11 6 1 4 11 4
split_gain=83.3594 33.0184 26.2554 25.0476 23.2895 21.0792 20.416 20.4803 19.4572 19.4568 30.2737 20.1499 19.6392 23.4897 19.1197 19.03 20.3136 20.2598 18.6022 18.4375 18.167 17.9203 18.1046 17.7556 17.676 16.6952 15.5569 15.1428 19.4586 16.3742 15.0148 17.9862 16.5804 14.8431 14.1888 18.3715 14.0114 23.8491 13.7901 13.5785 13.395 21.0749 13.3224 13.234 13.2036 13.1721 12.977 13.2037 12.899 12.7287 12.1134 12.3203 15.1544 12.0509 12.0414 11.8152 11.7235 14.2571 12.7254 12.4479 13.7851 12.5522
threshold=42.215600480774619 61.081993965601143 1728.5640400000004 0.1093024567697834 349.00000000000097 727.70000000001585 0.20823725649641919 1780.3554175000002 63.128129248884534 0.59201388888888895 3.5000000000000004 0.69117817201519582 0.42446151555264994 8.1639343818107349e-05 0.37043100068275164 0.30309083799216002 1758.9586925000001 28.773759757628966 0.86493055555555565 413.49999999999915 1782.8827100000001 1758.6520700000003 0.50058212309812344 0.99131944444444453 1.0924226370013062 1761.0407700000001 1.2293235583979054 0.63797964595254386 0.81631944444444449 410.8499999999936 1775.7764550000002 0.81354166666666672 0.00013572681745421813 0.93319789762871241 0.36674436036316327 0.32958826988914897 1.0230540911595714 1.2621129312548671 1.3086653612722514 -8.4169274591594498e-05 0.28926180128719808 647.64999999999884 1756.8009600000003 382.29999999999797 0.00053963143451440942 1.0951220405683053 1.3126630140186475 -4.1801338635016887e-05 1778.9533800000002 1788.8438975000001 1785.3482400000003 1775.2508825000002 1.1212603868787028 0.67435479597859982 1.230350695152455 -0.00065837786465811055 379.14999999999287 0.00020052755324340146 0.18801158738371823 0.10104166666666668 512.99999999999966 0.053125000000000006
decision_type=2 2 2 2 2 2 2 2 2 2 2 2 2 2 2 2 2 2 2 2 2 2 2 2 2 2 2 2 2 2 2 2 2 2 2 2 2 2 2 2 2 2 2 2 2 2 2 2 2 2 2 2 2 2 2 2 2 2 2 2 2 2
left_child=3 2 -2 -1 18 6 56 24 -9 11 14 12 13 25 -11 16 42 -18 34 45 -20 22 -12 27 30 -6 -22 28 40 33 31 -8 -32 -29 35 -4 37 -23 54 -14 41 -17 -5 -25 -24 -10 47 -31 -34 50 51 52 -38 -42 -16 -49 58 -58 -3 60 61 -59
right_child=1 5 4 15 9 -7 7 8 19 10 21 -13 39 -15 38 23 17 -19 20 -21 26 36 44 43 -26 -27 -28 29 -30 46 32 -33 48 -35 -36 -37 49 -39 -40 -41 53 -43 -44 -45 -46 -47 -48 55 -50 -51 -52 -53 -54 -55 -56 -57 57 59 -60 -61 -62 -63
leaf_value=-0.033633548852932106 0.033636367318764605 -0.050302517189983791 -0.015479021976289958 -0.0052852925091369353 -0.064239574639435013 -0.0019976696906144177 -0.0051844077058636881 -0.0041294402633452118 0.0027395845335456089 0.011217440128762069 0.062852908105241412 -0.0015636294631991214 -0.0078742272818664756 0.026557572014815237 -0.00096186180963145633 0.041542694153080158 0.015823643012570623 0.00053905591454493987 -0.028389569475742515 -0.018491221670557584 0.041516907916240839 -0.00068849205524381622 0.032183952092553127 0.031128558909367041 0.027236599810417657 -0.009700230440301565 -0.014187583025839978 -0.019400102593953722 -0.0043740076387518449 0.014588475589249849 -0.029066868926940426 -0.044917057485424322 0.039282360958706089 0.029700132944806248 -0.032309997780607426 0.020688549017381635 -0.040560800482974509 0.048717249720843174 -0.027959216552536369 -0.047802113229577968 -0.033633548852932106 0.003854951161111416 -0.036014773661033152 -0.014994072824270501 -0.015854330985537839 -0.022808439047018292 0.041710533510596615 -0.047994451260084357 -0.005453057859518582 0.015274190588533847 -0.033633548852932106 0.044313709989733448 0.016094622045973873 0.0065875802930275172 0.0286857393846826 0.010812531449115544 -0.020059500492625094 0.035065405217722556 0.003956914253938462 0.024948092939620907 -0.015027416118159597 -0.0063590415618629279
leaf_weight=42.75472417473793 55.262266278266907 20.001657605171204 263.5370474755764 95.265001326799393 15.25091168284416 2324.87876278162 230.28630155324936 509.08113977313042 197.53373226523399 343.06340339779854 28.507707864046097 8873.2019792497158 33.005055695772171 43.75919970870018 4560.0007293820381 70.516576051712036 245.04715886712074 1881.0643648207188 22.252652168273926 1084.3970295786858 41.259696990251541 576.84522941708565 39.258619546890259 17.503812491893768 51.760940194129944 175.52635592222214 18.002569288015366 66.7589510679245 423.31729876995087 831.40830129384995 18.252154886722565 32.502983689308167 48.011105954647064 20.004309773445129 100.76135459542274 40.508122265338898 19.251906245946884 25.506298899650574 47.005635857582092 60.005221456289291 18.752072006464005 78.263509482145309 56.005967378616333 139.51972550153732 22.503149449825287 67.758702427148819 42.259945631027222 16.251408964395523 24.253812491893768 510.59779870510101 26.252900809049606 16.253895372152328 30.505884498357773 2705.229213654995 34.507376343011856 18.003315210342407 41.755552977323532 41.00919970870018 23.504061132669449 101.02096870541573 64.50911682844162 33.005138576030731
leaf_count=171 221 80 1054 381 61 9298 921 2036 790 1372 114 35487 132 175 18237 282 980 7523 89 4337 165 2307 157 70 207 702 72 267 1693 3325 73 130 192 80 403 162 77 102 188 240 75 313 224 558 90 271 169 65 97 2042 105 65 122 10819 138 72 167 164 94 404 258 132
internal_value=-0.000308303 -0.00186771 -0.000768108 0.00451557 -0.000887182 -0.00545337 -0.00855696 -0.0102389 -0.012459 -0.000548726 0.00159683 -0.00201319 -0.0141918 -0.00648181 -0.000172967 0.0047581 0.0010411 0.0023007 -0.0116611 -0.0156007 0.0101309 0.00840638 0.029894 0.00666129 -5.14613e-05 -0.0140602 0.0245951 0.00726563 0.0056339 0.0126727 -0.00404928 -0.0100987 0.0135135 -0.00807945 -0.0160492 -0.0106604 0.00679698 0.00140357 -0.00101485 -0.0336335 0.00710862 0.0217176 -0.0166625 -0.00985267 0.014681 -0.00378567 0.0146558 0.0133351 0.0242681 0.0121858 -0.00490546 0.00651973 -0.00582606 0.0063107 -0.000739191 -0.0170872 0.00316581 0.00690154 -0.0209887 0.0116012 0.00186768 0.016593
internal_weight=27703.8 20935.9 16022.4 6767.93 15967.1 4913.52 2588.64 2263.84 1858.77 15480.8 6280.06 9200.75 327.547 234.536 4984.58 6725.17 2277.38 2126.11 486.321 1349.69 81.5149 1295.48 90.2695 4447.79 405.067 190.777 59.2623 4290.76 3296.08 994.686 353.306 262.789 90.5171 86.7633 404.807 304.045 1205.21 602.352 4641.51 93.0103 2872.76 148.78 151.271 157.024 61.7618 265.292 907.923 865.663 72.2649 602.862 92.2646 66.0117 49.7578 2723.98 4594.51 34.2547 324.806 281.3 43.5057 239.544 138.523 74.0143
internal_count=110797 83730 64079 27067 63858 19651 10353 9054 7434 61913 25116 36797 1310 938 19935 26896 9108 8503 1945 5398 326 5181 361 17788 1620 763 237 17160 13182 3978 1413 1051 362 347 1619 1216 4820 2409 18563 372 11489 595 605 628 247 1061 3631 3462 289 2411 369 264 199 10894 18375 137 1299 1125 174 958 554 296
is_linear=0
shrinkage=1


Tree=1
num_leaves=63
num_cat=0
split_feature=3 3 8 9 11 0 2 0 11 2 11 11 0 8 10 11 3 0 9 11 8 3 11 5 0 2 9 8 3 10 9 4 0 4 10 7 9 4 0 9 7 2 6 7 8 8 11 7 7 5 8 8 4 5 0 7 0 10 6 11 3 8
split_gain=75.2342 29.8008 23.7023 23.2546 26.4264 22.6105 21.9176 21.8364 20.1131 19.7429 19.206 19.0271 18.4262 18.4836 17.6506 17.6366 17.5632 17.1757 19.8117 23.2964 18.335 18.3202 16.6424 16.1949 15.9555 14.6234 14.2687 28.2691 19.9643 18.4732 14.0731 13.9003 13.86 18.4795 21.4275 14.1618 15.966 14.0444 13.8129 13.7673 26.0214 19.5003 19.232 16.6252 24.804 15.3009 15.322 14.6094 13.8005 13.5903 13.5751 13.553 16.244 14.9677 13.5065 13.3841 13.3776 13.2415 13.1606 13.144 15.7249 12.9418
threshold=42.215600480774619 61.081993965601143 1728.5640400000004 7.5000000000000009 552.99999999999739 0.1093024567697834 1.0118067616971806 0.45737202679497141 334.69999999999806 1.3126630140186475 933.00000000000421 727.70000000001585 0.20823725649641919 1780.3554175000002 1.0000000180025095e-35 859.0000000000033 63.128129248884534 0.30309083799216002 1.5000000000000002 812.19999999999584 1758.9586925000001 29.4129528337536 413.49999999999915 0.00015328293109406757 1.0924226370013062 1.0784433057888438 5.5000000000000009 1790.8451225000003 51.732062349662193 3.5000000000000004 3.5000000000000004 0.99687500000000007 0.5896307480984212 0.81631944444444449 1.0000000180025095e-35 1822.5700900000002 13.500000000000002 0.66701388888888891 0.7699929952081207 18.500000000000004 1804.5309100000002 0.83833838079228118 0.00093428190342503836 1781.8357400000002 1784.6040475000002 1803.4253350000001 395.50000000000415 1778.7739600000002 1784.3279300000002 0.00026210403087401085 1859.4000650000003 1775.7764550000002 0.81354166666666672 0.00013572681745421813 0.64396757729279219 1781.8357400000002 0.57874371648694212 1.5000000000000002 -0.00014164654334553048 361.50000000001234 55.440166731962002 1760.4300625000003
decision_type=2 2 2 2 2 2 2 2 2 2 2 2 2 2 2 2 2 2 2 2 2 2 2 2 2 2 2 2 2 2 2 2 2 2 2 2 2 2 2 2 2 2 2 2 2 2 2 2 2 2 2 2 2 2 2 2 2 2 2 2 2 2
left_child=5 2 -2 7 8 -1 10 59 -5 26 15 12 -3 24 -11 -6 -15 20 19 -19 -7 25 -18 -17 51 -22 27 56 50 -28 -23 32 33 -20 -35 36 -36 54 -12 41 49 45 43 47 -45 48 -47 -43 -10 55 -29 52 -14 -53 -34 -41 -9 -21 -40 60 -4 -32
right_child=1 11 3 4 6 17 -8 9 39 14 38 -13 13 16 -16 23 22 18 31 57 21 30 -24 -25 -26 -27 29 28 -30 -31 61 -33 37 34 35 -37 -38 -39 58 40 -42 42 -44 44 -46 46 -48 -49 -50 -51 -52 53 -54 -55 -56 -57 -58 -59 -60 -61 -62 -63
leaf_value=-0.031646028579628178 0.032278788317216409 0.0033229773129976382 -0.0087281958843029965 -0.011119326621889351 -0.0025536183093061368 -0.015516384250212227 0.0031576451869568009 0.041810695514815338 0.026636926776127626 -0.058380609137347543 -0.0066970705453883719 -0.00158283639634551 -0.0046102654441453964 -0.0036080354785003443 -0.0054446651469795731 0.012873948299753236 -0.0032815635281702965 0.032380608689918808 0.0053512604877979826 0.023157723381916 0.020221694827754527 -0.0059941159517329454 -0.017253210579853819 -0.0066195422815434196 0.026194660132630596 -0.0081119516606276559 -0.005925342426147613 0.0074908985961513151 -0.012459487588859687 0.027493227580209573 0.043196408399059076 -0.012452779630552602 0.059116311368193432 0.036672642173799529 0.002995662049423275 -0.042815837747691099 -0.034502281186123418 0.0093885274939017171 -0.0055298542683496514 -0.0097368123051577715 -0.0079849885148159556 0.010880354094932357 0.02308071692000907 -0.023655461110698967 0.0036017134422467244 -0.005842085484713419 0.030350870027597288 0.045991570489326179 -0.00092679946810439668 -0.028483215316565603 0.047467203660754569 -0.027304443475066525 -0.042377999853468032 0.023375860698092985 0.01105495363131657 0.017802956884701918 0.0053152775226657061 -0.0083690038531891407 -0.037049718592548339 -0.003700931342284405 -0.037166244569342054 0.0029128987316233302
leaf_weight=42.742635995149612 55.246638044714928 324.7564722597599 239.27473531663418 192.99110129475594 3362.240521043539 151.25215145945549 2301.3495983034372 102.51560661196709 64.012644529342651 19.25132143497467 798.61378242075443 2324.8764755129814 230.28475727140903 509.07898455858231 86.507775261998177 373.81381130218506 265.28326444327831 156.52364921569824 2589.1456409543753 55.510647624731064 222.53243178129196 551.58592940866947 1084.3043554127216 149.02076369524002 51.751342222094536 57.255608856678009 233.53632310032845 75.762559026479721 100.51389065384865 50.25095209479332 20.254806712269783 102.25686840713024 28.50658418238163 21.254675418138504 91.014949038624763 39.503425866365433 41.253879249095917 1209.3895862847567 56.757535636425018 53.257777646183968 454.30581600964069 148.52422869205475 138.77191931009293 88.51041105389595 1463.9774878919125 34.004497602581978 208.79293671250343 37.008876234292984 156.26897068321705 21.002475321292877 29.507088124752045 18.248300477862358 32.486596256494522 72.246222779154778 30.004066810011864 257.04966838657856 33.255148664116859 83.261868894100189 79.507122874259949 4495.6945686042309 61.003773063421249 1274.4673580527306
leaf_count=171 221 1299 957 772 13447 605 9204 410 256 77 3194 9298 921 2036 346 1495 1061 626 10355 222 890 2206 4337 596 207 229 934 303 402 201 81 409 114 85 364 158 165 4837 227 213 1817 594 555 354 5855 136 835 148 625 84 118 73 130 289 120 1028 133 333 318 17980 244 5097
internal_value=2.20646e-05 -0.00145941 -0.000414758 -0.00052788 0.000860527 0.00460489 -0.000856721 -0.00315037 0.00454566 0.00489902 -0.00277343 -0.00486596 -0.00781479 -0.00941265 -0.0150806 -0.00122517 -0.0115217 0.00483529 0.00664343 0.0191571 0.00130402 0.00250063 -0.0145069 0.00731782 0.000266102 0.0144235 0.00827801 0.0151625 0.0034784 -7.82918e-06 0.000693849 0.00575351 0.00621319 0.00423862 -0.0106856 -0.0165456 -0.00869973 0.010546 -0.00920756 0.00551294 -0.000214051 0.00743578 0.00516846 0.00373825 0.00204773 0.0166249 0.0252819 0.0178841 0.00708307 0.0104418 0.0186963 -0.00353228 -0.00927952 0.0131561 0.0344706 0.0130763 0.0328717 0.00424206 -0.0239209 -0.00437742 -0.0145056 0.0035431
internal_weight=27703.1 20935.4 16022.1 15966.9 10439.8 6767.72 7121.3 5527.07 3318.48 731.101 4819.95 4913.32 2588.44 2263.68 105.759 3885.08 1858.67 6724.97 4447.63 295.296 2277.35 2126.1 1349.59 522.835 405.017 279.788 625.342 341.554 205.784 283.787 1846.31 4152.33 4050.07 2782.17 193.027 171.772 132.269 1267.9 934.878 3125.49 785.616 2339.87 1876.79 1738.02 1552.49 463.079 242.797 185.533 220.282 331.31 105.27 353.266 262.771 90.4945 58.5107 310.307 135.771 138.773 136.265 4795.97 300.279 1294.72
internal_count=110797 83730 64079 63858 41753 27067 28481 22105 13272 2924 19277 19651 10353 9054 423 15538 7434 26896 17788 1181 9108 8503 5398 2091 1620 1119 2501 1366 823 1135 7384 16607 16198 11127 772 687 529 5071 3739 12500 3142 9358 7506 6951 6209 1852 971 742 881 1325 421 1413 1051 362 234 1241 543 555 545 19181 1201 5178
is_linear=0
shrinkage=0.05


Tree=2
num_leaves=63
num_cat=0
split_feature=3 4 3 2 8 0 4 6 1 11 9 4 8 8 7 11 4 0 8 7 3 8 0 7 11 2 8 11 11 0 2 4 7 7 11 8 6 8 1 7 2 8 3 9 0 10 3 6 11 11 11 7 11 3 0 7 10 6 8 2 11 10
split_gain=76.2141 30.5714 25.5838 27.5181 25.0543 21.8544 19.285 19.2458 26.5337 18.9028 18.7551 23.1442 21.6616 19.2119 34.4714 17.3303 26.6537 17.8214 17.6631 17.5028 16.3846 17.5739 16.2568 24.5074 20.3847 17.6442 15.0758 14.9994 18.9432 20.5217 15.0553 14.9829 22.7716 17.8287 14.5261 23.1402 14.2396 14.1193 13.9227 22.0245 16.8269 16.4669 15.7967 13.8129 13.7391 14.4178 13.6996 15.7145 13.697 14.9725 15.6723 27.3832 20.2242 19.4996 18.9319 18.0545 28.3654 15.2095 14.1619 20.3673 13.6429 13.6233
threshold=45.954786553886507 0.47048611111111116 68.315026992861604 1.0192361335042526 1728.5640400000004 0.1093024567697834 0.99131944444444453 -0.00075351194316991544 0.27186865486614875 419.84999999999678 4.5000000000000009 0.57951388888888899 1756.1636225000004 1774.4767575000003 1785.3482400000003 379.14999999999287 0.68715277777777783 0.57874371648694212 1797.8205100000005 1738.2068000000002 39.669487365882283 1797.8205100000005 0.42344924763040165 1797.8903200000002 535.14999999999884 1.0405505688181451 1799.5462900000002 334.69999999999806 552.99999999999739 1.1493328059941539 0.83643435488387718 0.16284722222222225 1819.8040300000002 1809.4886200000003 647.64999999999884 1838.9565350000003 5.2105557589832159e-05 1840.7569525000001 0.35586524670012515 1796.5879400000003 0.73170067678440909 1805.8053400000001 62.719473957695293 7.5000000000000009 0.32132303774178939 2.5000000000000004 66.021079860125766 0.00089213156720791009 371.00000000000369 812.19999999999584 1250.0000000000002 1778.3657100000003 1049.3000000000054 59.797102428489495 0.24848956014310353 1786.5395300000002 3.5000000000000004 0.00044704008556462066 1834.3158175000001 0.77298525684931219 569.29999999999848 3.5000000000000004
decision_type=2 2 2 2 2 2 2 2 2 2 2 2 2 2 2 2 2 2 2 2 2 2 2 2 2 2 2 2 2 2 2 2 2 2 2 2 2 2 2 2 2 2 2 2 2 2 2 2 2 2 2 2 2 2 2 2 2 2 2 2 2 2
left_child=1 5 4 34 -2 -1 15 8 -7 -8 11 48 -13 -14 -15 16 44 18 -18 -17 21 -21 23 -16 -24 -25 -23 -12 29 30 38 32 33 -32 35 -4 -26 -19 39 40 -29 -41 -40 -36 45 -3 47 -33 -6 58 52 53 54 -52 -51 56 -56 -53 -50 -60 -30 -27
right_child=2 6 3 -5 10 7 9 -9 -10 -11 27 12 13 14 22 19 17 37 -20 20 -22 26 24 25 36 61 -28 28 60 -31 31 46 -34 -35 43 -37 -38 -39 42 41 -42 -43 -44 -45 -46 -47 -48 -49 49 50 51 57 -54 -55 55 -57 -58 -59 59 -61 -62 -63
leaf_value=-0.030109450504819391 0.027282494000109615 -0.029051102843673966 -0.0064354301747606901 -0.015029849677744315 -0.019856798902273827 0.030684777220633959 0.030285874723337183 -0.00028503314719153372 0.0042679205752542537 -0.016349860611793655 -0.013841583681496242 0.034516697104531223 -0.034668304106388631 0.040803804646317228 -0.02105465317330028 -0.017311372545792757 -0.054863125406151174 0.005380256553075554 -0.013648519552452588 0.016154375547373499 0.0050849743600748527 -0.01842872767221344 -0.059308242854440543 -0.0038595249237111324 0.012339714522064751 0.022620306837979026 0.0083278411445746135 -0.010877520515930524 -0.018184269130256527 0.024165624538889933 0.016855512970268115 -0.0013887328690740483 -0.016960013936872256 0.072270782928430463 0.014475948750972674 -0.055199152775698535 -0.013103010491912327 -0.041081792716087376 0.017070144332974765 -0.035847549867125572 0.027926004942975174 -0.0024945470252685153 -0.0059496741012776177 -0.0024470335459509879 0.026151071666820094 0.029033201358173 -0.017258011788638398 0.011406510995192168 -0.0051448633762243498 -0.030406246758025786 0.045559370900804835 -0.023503706606110883 -0.052699809965385883 -0.0082859825485745858 -0.030852666103115947 -0.0010735067735339217 0.020396795930913418 0.013328867368856207 0.053804148703345912 0.0031928717955993762 -0.0015129662438560117 0.066893629629730833
leaf_weight=57.208890929818153 75.711612731218338 28.751366004347801 297.47440692782402 748.98018389940262 185.48677375912666 115.7556885778904 25.251147255301476 4100.9933886677027 531.54404401779175 155.75407983362675 212.47502239048481 53.483818843960762 34.999837532639503 55.502042800188065 44.504009678959846 69.003547966480255 37.749262586236 127.76040995121002 83.493432030081749 974.3358408510685 2248.4871343523264 55.252089142799377 18.500209599733353 43.755519598722458 81.005811929702759 61.25886832177639 1115.8253512233496 39.752226933836937 124.51262353360653 105.73936139047146 135.76526169478893 2349.7621834278107 47.253055572509766 16.251944363117218 176.02704156935215 26.49526347219944 171.25759360194206 18.751284405589104 417.0254352837801 46.001789823174477 94.008958905935287 189.26198594272137 90.740892231464386 382.79174423217773 90.511559903621674 17.00113445520401 121.48251987993717 267.25463528931141 1507.9271120876074 124.76317054033279 45.25636200606823 95.008434653282166 34.00161212682724 26.753560870885849 143.51314516365528 300.54673354327679 33.255549371242523 39.75603149831295 21.504987791180611 262.78473578393459 8512.3071956932545 24.255457282066345
leaf_count=229 303 115 1190 2996 742 463 101 16402 2126 623 850 214 140 222 178 276 151 511 334 3897 8993 221 74 175 324 245 4463 159 498 423 543 9398 189 65 704 106 685 75 1668 184 376 757 363 1531 362 68 486 1069 6031 499 181 380 136 107 574 1202 133 159 86 1051 34045 97
internal_value=-6.70701e-05 0.00346397 -0.00201231 -0.0079806 -0.00141315 0.000609526 0.00618133 0.000979638 0.00899201 -0.00984394 -0.00154744 -0.00484223 0.00417675 0.0011439 0.00365054 0.00677732 -0.00313907 -0.0123007 -0.0264808 0.00767503 0.00806743 0.0111932 -0.00098817 0.0109472 -0.00864819 0.0219646 0.00706545 -0.000667836 -0.000444927 0.00243757 0.00183527 0.000119215 0.0133563 0.0227799 -0.00199984 -0.0104235 -0.00493294 -0.000566184 0.00758507 0.000194335 0.0163941 -0.00901615 0.0129564 0.00288368 0.0148631 -0.0074676 -0.000844001 -8.20587e-05 -0.00672409 -0.00579966 -0.0112956 0.000662676 -0.0151829 0.0255544 -0.0130642 -0.00853125 -0.0212111 -0.012638 -0.003215 0.00702134 -0.00175331 0.0351781
internal_weight=27739.6 9853.43 17886.2 1631.77 16254.4 4805.5 5047.93 4748.29 647.3 181.005 16178.7 3409.08 588.523 535.039 500.04 4866.92 404.018 267.754 121.243 4462.9 4393.9 2145.41 444.537 173.774 270.764 129.27 1171.08 12769.6 12557.1 3920.3 3814.56 2937.77 199.27 152.017 882.788 323.97 252.263 146.512 876.791 369.025 133.761 235.264 507.766 558.819 136.264 45.7525 2738.5 2617.02 2820.56 2635.07 842.855 206.774 636.08 72.0099 602.079 477.315 176.769 134.764 1792.22 284.29 8636.82 85.5143
internal_count=110948 39410 71538 6527 65011 19220 20190 18991 2589 724 64708 13635 2354 2140 2000 19466 1616 1071 485 17850 17574 8581 1778 695 1083 517 4684 51073 50223 15680 15257 11750 797 608 3531 1296 1009 586 3507 1476 535 941 2031 2235 545 183 10953 10467 11281 10539 3371 827 2544 288 2408 1909 707 539 7168 1137 34543 342
is_linear=0
shrinkage=0.05


Tree=3
num_leaves=63
num_cat=0
split_feature=3 1 3 11 5 8 0 1 6 3 9 7 11 7 6 6 9 10 1 11 7 7 11 7 7 0 2 6 2 11 11 1 2 6 2 0 0 7 10 0 8 11 11 11 5 0 10 1 7 8 2 2 5 8 2 11 0 6 11 0 8 5
split_gain=68.7872 24.3703 24.044 27.7151 21.1683 20.0227 19.0036 20.6197 34.471 18.6307 17.3702 18.4433 19.9373 17.7837 16.7461 16.8014 16.8363 16.7056 15.6697 15.2841 14.4813 14.1265 21.8606 17.817 13.7424 13.6283 17.6562 13.5825 13.4523 13.2427 23.1998 20.4441 20.0199 20.2715 17.2899 15.091 13.9483 13.7725 13.2671 14.6759 19.3324 15.6988 12.944 12.7981 14.774 13.0617 12.6737 33.0306 23.4488 30.8713 21.2395 21.4407 18.9818 17.3521 15.95 15.226 13.6657 14.5291 13.2391 22.8277 13.0849 12.6961
threshold=45.954786553886507 0.32213457414617147 61.081993965601143 842.79999999999984 0.00058739747945035792 1728.5640400000004 0.1093024567697834 0.27524059135826989 -0.0007372516476145673 76.367532178110835 2.5000000000000004 1783.86707 781.85000000000866 1784.5620900000001 0.00063965787140640728 0.0021999274566597564 14.500000000000002 1.0000000180025095e-35 0.19868782700635343 334.69999999999806 1788.8918000000001 1819.3940700000001 807.29999999998665 1818.3597800000002 1786.2605500000002 0.20823725649641919 0.75089253790618693 -0.00055358034978325577 1.1568058364929703 371.00000000000369 552.99999999999739 1.0945561669794712 0.83643435488387718 0.00093428190342503836 0.64626246153182954 0.14523743734679492 0.15794495380315757 1791.3568700000003 2.5000000000000004 0.22277278696559202 1822.0308400000001 512.99999999999966 415.99999999999687 964.99999999999784 0.00037560581143170074 0.37213120281499601 2.5000000000000004 0.66121722426143015 1865.4915900000003 1865.6609450000001 1.1325694993776934 0.99873258578443347 -0.00039879177129281679 1775.2508825000002 1.382279185577783 621.85000000000639 0.82976552620629052 -0.0024872494172663013 334.69999999999806 0.39960161350446693 1890.9620375000002 -0.00035809131883579587
decision_type=2 2 2 2 2 2 2 2 2 2 2 2 2 2 2 2 2 2 2 2 2 2 2 2 2 2 2 2 2 2 2 2 2 2 2 2 2 2 2 2 2 2 2 2 2 2 2 2 2 2 2 2 2 2 2 2 2 2 2 2 2 2
left_child=1 6 5 4 19 -2 -1 8 -8 14 -9 12 -12 -13 43 -16 28 21 25 -4 24 23 -23 -10 -6 26 -7 -15 -17 37 31 32 38 -34 35 -32 -36 -20 39 -31 41 -41 -27 -5 -45 -46 48 53 54 52 51 61 -50 55 -3 -48 -56 -58 59 -55 -49 -51
right_child=2 46 3 9 20 18 7 10 17 -11 11 13 -14 27 15 16 -18 -19 29 -21 -22 22 -24 -25 -26 42 -28 -29 -30 30 34 -33 33 -35 36 -37 -38 -39 -40 40 -42 -43 -44 44 45 -47 47 60 49 50 -52 -53 -54 58 56 -57 57 -59 -60 -61 -62 -63
leaf_value=-0.028634012069153138 0.030748047769556888 0.0085123378083189864 -0.037878600753406322 0.0020411265736284844 -0.0098046134981065042 -0.025462438243435272 0.02584636077701857 0.0083967086451169192 0.013345512755996861 -0.020736209030908288 -0.0067276460949295975 0.049069877792971464 -0.034634321692072999 -0.013655434622651466 0.010330451951393781 -0.058603131192251606 0.01345829869751909 -0.00043839986470889185 0.0075985841010755874 -0.0047527030953539171 -0.019987335694252952 -0.034756422461792773 0.019138897074804345 0.064448200960869881 0.023568797611237199 -0.0046192996555243747 -0.0022760526911383104 0.00034289447948680866 -0.0091781211267360323 -0.0081416810898203903 0.0068843598457213901 0.034996449826642205 -9.9280356481985269e-06 0.020846492248615074 -0.031942242721908758 -0.046878980315261089 -0.0011759970725295334 -0.011029419483168247 0.021242845152025402 -0.0069967414755706201 0.027407890994306867 0.03179037215205005 -0.055223154577648287 -0.029509085552998079 0.029219460667086784 -0.017634697447783853 0.038247290200453483 0.011033816443876103 -0.0073676586937602836 -0.037025150292056275 -0.029876379130952715 0.059122721946457048 -0.071033881607381374 0.032897659439890814 -0.029340495294177728 0.0057535801275226256 -0.012370945658640437 0.028237270529172451 -0.0016990969565337359 -0.032892710691072524 0.05117225231347261 0.017151163835707788
leaf_weight=57.150303736329079 50.152292460203171 3443.6786266118288 35.245950773358345 235.78014075756073 247.20367136597633 100.24416537582874 157.6988480091095 209.75300732254982 259.7906761020422 87.00651253759861 146.75384998321533 15.752856418490408 113.50117206573486 268.00575716793537 670.8489258736372 23.250488966703415 38.506076619029045 1719.1877686828375 122.47522374987602 2890.083585113287 466.16444280743599 37.503437757492065 37.756713271141052 18.254868492484093 35.243871003389359 22.248735338449478 453.75643011927605 490.31368969380856 33.753069028258324 129.25518405437469 19.749246582388878 50.726847127079964 2385.778408870101 122.48681335151196 37.001656115055084 38.491040289402008 8395.8295958042145 522.6850701123476 210.48577436804771 128.24181124567986 119.98619700968266 32.749437108635902 29.251042798161507 89.758288443088531 26.004534527659416 34.753565341234207 42.001285895705223 612.95698806643486 19.750144600868225 15.750484898686407 33.495631784200668 22.254088073968887 28.748903036117554 15.998425051569937 50.746117383241653 254.51128134131432 58.732937067747116 35.244747489690781 1557.105384722352 74.972676753997803 21.000028058886528 34.504302203655243
leaf_count=229 201 13774 141 943 989 401 631 839 1039 348 587 63 454 1072 2683 93 154 6876 490 11561 1865 150 151 73 141 89 1815 1961 135 517 79 203 9542 490 148 154 33580 2091 842 513 480 131 117 359 104 139 168 2452 79 63 134 89 115 64 203 1018 235 141 6228 300 84 138
internal_value=-6.3718e-05 0.00329096 -0.0019118 -0.00489047 -0.00707176 -0.000783482 -3.60339e-05 0.000434391 0.00331134 0.00157415 -0.00472295 -0.00738351 -0.0188982 -0.0035121 0.00325822 0.00753702 -0.0120838 0.00159662 -0.000905866 -0.00515182 -0.0145743 0.011499 -0.00771807 0.0167006 -0.00564027 -0.00875861 -0.00647154 -0.0046044 -0.0293375 -0.000519794 -0.000134308 0.00350861 0.00299813 0.00100856 -0.0014985 -0.0286479 -0.00131099 -0.00749314 0.0110378 0.00580172 0.012216 0.000893477 -0.0333615 -0.00523033 -0.0166209 0.00241893 0.00514956 0.00245225 0.00700777 -0.0120647 0.00305288 0.0182646 -0.0451072 -0.000778895 0.00782896 0.0103563 -0.0084318 0.00285848 -0.00278228 -0.0213226 0.0123634 0.000171623
internal_weight=27738.1 9852.88 17885.2 4913.6 3673.94 12971.6 3531.42 3474.27 2230.19 1239.66 1244.08 1034.33 260.255 774.072 1152.66 766.359 95.5096 2072.49 12921.4 2925.33 748.612 353.306 75.2602 278.046 282.448 605.5 554.001 758.319 57.0036 12315.9 11670.8 3179.71 3128.98 2508.27 8491.07 58.2403 8432.83 645.16 620.718 410.233 280.977 160.991 51.4998 386.297 150.516 60.7581 6321.45 2578.55 3742.91 154.504 106.005 72.5089 48.499 1944.59 3588.4 296.513 144.724 93.9777 1648.08 90.9711 633.957 50.2548
internal_count=110948 39410 71538 19655 14697 51883 14125 13896 8920 4958 4976 4137 1041 3096 4610 3065 382 8289 51682 11702 2995 1413 301 1112 1130 2422 2216 3033 228 49260 46679 12718 12515 10032 33961 233 33728 2581 2483 1641 1124 644 206 1545 602 243 25285 10314 14971 618 424 290 194 7778 14353 1186 579 376 6592 364 2536 201
is_linear=0
shrinkage=0.05


Tree=4
num_leaves=63
num_cat=0
split_feature=3 11 3 8 7 11 2 7 6 2 11 4 1 10 7 4 4 0 4 11 6 1 1 3 1 7 8 4 3 8 4 11 6 3 3 8 10 8 4 4 3 1 1 6 3 7 5 4 0 1 11 1 4 4 2 4 1 11 0 4 11 2
split_gain=58.0369 22.9043 18.883 24.7864 17.1213 20.1566 16.7195 16.2808 18.8125 18.6924 16.5297 15.597 14.6357 15.0529 21.1501 18.717 19.8953 15.3837 20.3328 16.3828 18.5004 18.1271 15.2661 21.9952 15.2355 18.3072 17.2357 15.0639 15.0028 16.1218 14.9176 23.3579 13.8909 13.8898 13.692 13.6367 13.4402 13.0377 12.8724 13.2515 14.6216 12.8706 13.3709 18.5858 12.6515 14.5289 12.6426 12.3725 21.8025 12.6685 12.297 14.2594 17.6493 18.503 14.364 14.064 16.2283 20.42 21.7333 18.3751 15.142 16.5682
threshold=40.981681393068968 297.69999999998623 68.315026992861604 1728.5640400000004 1800.0655500000003 464.85000000000133 1.017381908959589 1862.4646900000005 -0.00025738837691163802 0.66264447228308132 1271.499999999992 0.30520833333333341 0.33373289379108956 3.5000000000000004 1753.7267800000002 0.61701388888888908 0.53506944444444449 0.34540918200975251 0.12187500000000001 492.15000000000379 0.00018864210080449253 0.36015308088200237 0.38402529647899042 58.723387484467004 0.37066003368268757 1805.8157699999999 1811.8124650000002 0.23854166666666668 59.478060908670507 1855.2239099999999 0.93298611111111118 754.49999999999602 -0.00017284137240730632 58.420022096856947 30.921561967077345 1865.2980475000002 1.0000000180025095e-35 1795.8619850000002 0.74687500000000007 0.76840277777777788 69.09605066802105 0.42261718455128144 0.39557099189890144 -8.811683866449814e-05 61.786089647829179 1768.0108900000002 0.00073052467355017036 0.42951388888888892 0.33227615257718163 0.47136410917617316 379.14999999999287 0.94952669703549197 0.70729166666666676 0.48715277777777782 1.0927226119394007 0.99687500000000007 0.58125599570767394 429.85000000001043 0.47881377173112416 0.89895833333333341 824.50000000000057 0.82453684917315617
decision_type=2 2 2 2 2 2 2 2 2 2 2 2 2 2 2 2 2 2 2 2 2 2 2 2 2 2 2 2 2 2 2 2 2 2 2 2 2 2 2 2 2 2 2 2 2 2 2 2 2 2 2 2 2 2 2 2 2 2 2 2 2 2
left_child=7 44 3 -3 6 -6 46 8 10 -10 50 -11 35 17 33 16 22 19 -19 20 -14 -22 23 -16 -21 47 36 -25 41 30 -30 -32 -9 -15 -12 -5 -27 -36 -8 -40 -41 42 43 -17 45 -2 -4 49 -49 -26 51 52 53 -1 -55 56 57 58 -52 60 -59 -62
right_child=1 2 4 12 5 -7 38 32 9 11 34 -13 13 14 15 28 -18 18 -20 24 21 -23 -24 27 25 26 -28 -29 29 -31 31 -33 -34 -35 37 -37 -38 -39 39 40 -42 -43 -44 -45 -46 -47 -48 48 -50 -51 55 -53 -54 54 -56 -57 -58 59 -60 -61 61 -63
leaf_value=-0.005722651992328999 0.022394947206838125 0.025815076179711533 0.008002106986355886 -0.0029759483350451001 -0.029224580208432868 -0.007975874798213 -0.016923076085141122 -0.008949470314212853 -0.045229039992383778 -0.0070970807158010178 0.046073821274960639 0.007977600217507385 0.025066393988225813 0.062514179328294076 0.0011277832914755885 -0.018453767048766997 -0.014194257257407195 -0.058228090713590724 -0.0013668517650434653 0.0062559988407716489 -0.019591585668322059 0.01696225574625183 0.0087386539395625032 -0.063081956919923993 0.0093356579276581298 -0.072520752246499842 -0.0092491290409209854 -0.015237554564289296 0.0058962432975102549 -0.035052806166377078 0.00080883790358365426 -0.069459314273275438 0.037474315044252443 0.0028427626328006309 0.020393694698844472 0.01193800456709816 -0.016928254003031544 -0.013267208468726822 0.041444279616349701 0.04087631814651882 -0.0089321637519934657 0.0072594745638681919 0.039851294251748687 0.028259386488751516 -0.058850337327881475 -0.020729301590959218 -0.014468112263770559 -0.054841003194070384 0.0065678112565411692 -0.034069467259032787 0.026190023464515318 0.044643702542093135 -0.017349818729281173 0.0096766271178288614 0.056344384038624386 -0.016862633279860918 0.013233111486777674 0.0066764320483028569 -0.016773318277851126 -0.029465234953297378 0.016977635426297773 -0.0038114773354411624
leaf_weight=155.98971909284592 22.747056782245636 87.800886780023575 414.25793409347534 6882.9718996137381 136.91257210075855 603.84693719446659 229.45770817995071 309.19262908399105 24.713276088237762 423.97469894587994 39.735547497868538 288.24255095422268 173.50100223720074 24.987911567091942 309.03408293426037 34.748202636837959 256.99881254136562 15.750016614794729 8793.1108294576406 686.56433914601803 61.747755467891693 75.245488360524178 397.2769251614809 21.998344838619232 256.76209136843681 21.997708961367607 148.25518353283405 65.250396698713303 264.22028005123138 34.247511699795723 34.487465888261795 17.998600840568542 16.999434679746628 15.994537875056265 143.21227486431599 156.7635677754879 21.496427968144417 35.997518837451935 18.247275292873383 16.49634063243866 137.94192887842655 1000.919892847538 65.749688893556595 54.991247907280922 17.984968140721321 138.15501675009727 73.740828827023506 24.498853981494904 35.251696571707726 17.988323330879211 192.50183135271072 15.239723265171049 161.45360569655895 52.734887823462486 23.989147320389748 64.726498737931252 759.05842234194279 2263.8838299363852 34.748850211501122 40.248822420835495 109.9994550794363 744.48712280392647
leaf_count=624 91 352 1657 27531 548 2416 918 1237 99 1696 159 1153 694 100 1236 139 1028 63 35171 2746 247 301 1589 88 1027 88 593 261 1057 137 138 72 68 64 573 627 86 144 73 66 552 4004 263 220 72 553 295 98 141 72 770 61 646 211 96 259 3037 9056 139 161 440 2978
internal_value=-7.30257e-05 -0.00126043 -0.00111347 -0.000692798 -0.00628736 -0.0119032 -0.00161396 0.00432724 0.00496251 -0.00247955 0.00609609 -0.000996183 -0.000809339 0.000189371 0.00359082 0.00301989 -0.00210333 -0.000666213 -0.00146852 0.00397329 0.0142213 0.000486132 0.00181238 -0.00513126 0.00134967 -0.00505129 -0.0173686 -0.0273007 0.00659052 -0.00246426 0.00105976 -0.0232876 -0.0065301 0.0392258 0.01952 -0.00264384 -0.0450449 0.0136323 -0.00916264 0.00114911 -0.00361187 0.00933852 0.0227218 0.0101715 -0.0190783 -0.0146327 0.00460666 0.00200949 -0.018611 0.00649386 0.00545979 -0.00281275 -0.00464756 0.00416509 0.0242681 0.00626433 0.00662548 0.00514415 0.0196205 0.00410263 0.0045359 -0.00113526
internal_weight=27769.5 21868.4 21689.5 20058.6 1630.9 740.76 890.142 5901.13 5574.94 736.931 4838.01 712.217 19970.8 12931.1 2598.9 2557.92 1050.56 10332.2 8808.86 1523.31 310.494 136.993 793.56 396.283 1212.81 526.25 191.749 87.2487 1507.36 350.954 316.706 52.4861 326.192 40.9824 218.945 7039.74 43.4941 179.21 402.143 172.686 154.438 1156.41 155.489 89.7395 178.887 160.902 487.999 334.501 59.7506 274.75 4619.06 409.407 394.167 232.714 76.724 4209.65 4144.93 3385.87 227.251 3158.62 3118.37 854.487
internal_count=111081 87474 86758 80233 6525 2964 3561 23607 22302 2948 19354 2849 79881 51723 10396 10232 4202 41327 35234 6093 1242 548 3174 1585 4851 2105 767 349 6030 1404 1267 210 1305 164 876 28158 174 717 1609 691 618 4626 622 359 716 644 1952 1338 239 1099 18478 1638 1577 931 307 16840 16581 13544 909 12635 12474 3418
is_linear=0
shrinkage=0.05


Tree=5
num_leaves=63
num_cat=0
split_feature=3 11 3 9 4 8 0 2 8 0 2 7 11 0 6 7 6 9 2 6 11 4 3 0 8 6 8 0 8 11 4 11 10 8 7 2 11 5 2 7 0 8 2 11 8 4 6 2 3 7 11 3 4 2 10 4 6 2 0 6 10 9
split_gain=52.3852 20.6872 17.189 19.4052 28.0672 17.5964 25.1821 22.9984 20.1768 27.972 19.4918 15.9701 15.8983 15.3644 14.7157 14.6951 17.0003 28.2202 19.4468 17.1826 15.7372 16.4165 15.5274 13.9511 34.6224 20.8952 15.2966 25.1647 23.4167 13.7144 13.2162 24.2814 19.0889 13.2133 13.9208 15.4472 14.4245 13.1717 12.8191 17.183 12.666 16.8696 15.5719 19.7352 12.6524 12.5732 12.5421 12.4554 18.6454 11.9472 11.8055 16.6167 11.7083 12.3424 11.5983 13.8406 12.1202 11.5852 11.5651 14.7244 11.5618 11.4994
threshold=40.981681393068968 297.69999999998623 74.047328320341421 4.5000000000000009 0.56006944444444462 1783.7477700000002 0.40145233682540638 1.0405505688181451 1780.9375850000001 0.45737202679497141 1.3485505796973472 1738.2068000000002 507.00000000000506 0.50447152679411256 0.0010933169559909086 1862.4646900000005 -0.00042433982774642271 1.5000000000000002 0.80431681931349885 -0.00064966550157174996 379.14999999999287 0.99687500000000007 40.335881746627635 0.40531270646059259 1790.6511225000002 0.0010933169559909086 1812.4039450000002 0.16854983889679695 1807.1041000000002 1271.499999999992 0.15034722222222224 1271.499999999992 3.5000000000000004 1769.9962050000001 1792.6639700000003 0.78425324450886957 683.80000000000803 7.8216529228569711e-05 0.74717899159949652 1762.3869400000001 0.36175529405000301 1793.2546700000003 1.1241515074624127 1152.5000000000093 1789.2635725000002 0.15451388888888892 -0.00017284137240730632 1.0902189043427886 55.31672803374402 1769.6083400000005 750.80000000000393 55.187632167743779 0.98854166666666676 0.86831635368860538 2.5000000000000004 0.4135416666666667 -0.0007695369278135632 0.76392210356262469 0.14027556020161322 1.1395060239061118e-05 3.5000000000000004 1.5000000000000002
decision_type=2 2 2 2 2 2 2 2 2 2 2 2 2 2 2 2 2 2 2 2 2 2 2 2 2 2 2 2 2 2 2 2 2 2 2 2 2 2 2 2 2 2 2 2 2 2 2 2 2 2 2 2 2 2 2 2 2 2 2 2 2 2
left_child=15 -2 3 4 11 8 7 37 9 -6 12 47 -8 -10 44 16 17 19 33 54 52 29 -20 26 25 -25 27 28 38 -22 -29 32 40 -18 35 -35 -36 -7 -13 -40 42 -42 43 61 -14 -4 -17 -3 -49 -33 -26 -52 53 -19 56 -56 -1 -38 -41 -60 -9 -32
right_child=1 2 45 -5 5 6 10 60 13 -11 -12 23 14 -15 -16 46 18 20 22 -21 21 -23 -24 24 50 -27 -28 30 -30 -31 31 49 -34 34 36 -37 57 -39 39 58 41 -43 -44 -45 -46 -47 -48 48 -50 -51 51 -53 -54 -55 55 -57 -58 -59 59 -61 -62 -63
leaf_value=0.056942838687261368 -0.018136447113300438 0.031711230146958425 0.0071082633600311577 -3.7331427229712456e-05 -0.012575747410095048 0.010660183096220291 -0.051114792762645057 0.0215174398184119 0.068923194014018127 0.028716253903494471 -0.029267907715031311 -0.0097218593414567112 -0.037395879325213481 0.0070487363797188986 -0.029616573488319215 -0.0085016735203131549 -0.029190553010523108 0.014141333316472535 0.0010297649571512175 0.0076894319304245803 0.0059627013471439359 -0.01749625347082958 0.017522817598392162 0.029874418055157337 0.010347064602382511 -0.028636071356137868 -0.0023715265074171427 -0.018021752780854178 -0.035369328836544971 0.020195133732768031 0.0019546101473936245 0.061052080153736143 0.0019606815341477002 0.024034506197092576 -0.022450309228296692 -0.029069685144001319 0.019765631465218949 -0.030950066181058462 -0.014216492655908512 0.059728339005583865 -0.035643835168652459 0.0024188573328671353 -0.026261750248868971 -0.058527974935629279 0.0063154269381477781 -0.013202170098122974 0.035624057388526691 0.031413198820858877 -0.044720746427811431 0.0092074573098628234 -0.008678331651594217 -0.054643676881595452 0.035681925523877549 -0.012270972074226855 0.044211931978598608 0.0014662044906775243 0.018602994211755125 -0.019391938093445284 0.045278265514012539 0.004437362231139122 0.061577171662851607 -0.011010022332493367
leaf_weight=59.701339527964592 178.77309438586235 50.212250202894211 91.495078191161156 16584.444201633334 78.479353576898575 48.004101067781448 15.491595968604086 99.746899604797363 28.489684596657753 85.912568956613541 75.979884937405586 47.480035990476608 17.493697091937065 15.487033218145369 36.239820033311844 309.20404545962811 71.417486026883125 53.733551502227783 1017.2219025790691 135.72889982163906 3153.8536477833986 71.446971789002419 165.9901138395071 119.23408898711205 35.503017991781235 17.498033329844475 1169.9774519354105 528.48758208751678 28.999039903283119 178.86039613187313 249.00460334122181 15.501016214489935 266.00082632899284 62.974576562643051 127.46956370770931 17.499392941594124 48.979930311441422 31.498002171516418 28.994334071874619 23.999219045042992 116.99521727859974 38.752588286995888 138.98636907339096 18.98951543867588 308.46877637505531 455.77524688839912 16.988476514816284 15.486228689551352 16.729001373052597 39.246778428554535 59.999237090349197 29.245590955018997 16.472090169787407 250.10808737576008 30.487119644880295 49.984543085098267 31.484080135822296 30.746362537145615 36.751820534467697 55.241175547242165 21.980556055903435 546.26189884543419
leaf_count=239 716 201 366 66339 314 192 62 399 114 344 304 190 70 62 145 1237 286 215 4069 543 12618 286 664 477 142 70 4680 2114 116 716 996 62 1064 252 510 70 196 126 116 96 468 155 556 76 1234 1824 68 62 67 157 240 117 66 1001 122 200 126 123 147 221 88 2185
internal_value=-6.93771e-05 -0.00119747 -0.00105785 -0.000831376 -0.00372126 0.00439558 0.000369007 0.0150906 0.0170511 0.00900379 -0.00616082 -0.00561835 -0.00151241 0.0471332 0.000609109 0.00411146 0.00471508 0.00642289 0.000250545 0.0209838 0.00522116 0.00621814 0.00334354 -0.00611507 0.00500821 0.0223866 -0.00698337 -0.00945884 0.00651636 0.00672653 -0.0112656 -0.0087682 -0.0100684 -0.00994103 -0.00516211 0.0124868 -0.0120169 -0.00582542 0.0128273 0.0202117 -0.0129537 -0.0261732 -0.0107938 -0.00815354 0.00396954 -0.00980658 -0.00620356 0.016143 -0.00812229 0.0238865 -0.0140397 -0.0237412 -0.00537426 -0.00760003 0.0314956 0.0176607 0.043705 0.00466456 0.0288176 0.0207536 0.0287511 -0.00695069
internal_weight=27767.7 21867.3 21688.6 21141.3 4556.85 863.272 654.903 201.23 208.369 164.392 453.674 3693.58 377.694 43.9767 362.202 5900.35 5574.16 4031.86 1542.3 307.386 3724.47 3404.16 1183.21 3611.15 261.48 136.732 3349.67 2179.69 221.466 3332.71 1958.23 1429.74 1374.99 359.087 287.67 80.474 207.196 79.5021 192.467 144.987 1108.99 155.748 953.242 814.256 325.962 547.27 326.193 82.4275 32.2152 54.7478 124.748 89.2448 320.314 303.842 171.657 80.4717 91.1854 79.7263 115.992 91.993 121.727 795.267
internal_count=111081 87474 86758 84568 18229 3454 2620 805 834 658 1815 14775 1511 176 1449 23607 22302 16132 6170 1230 14902 13620 4733 14445 1046 547 13399 8719 886 13334 7833 5719 5500 1437 1151 322 829 318 770 580 4436 623 3813 3257 1304 2190 1305 330 129 219 499 357 1282 1216 687 322 365 319 464 368 487 3181
is_linear=0
shrinkage=0.05


Tree=6
num_leaves=63
num_cat=0
split_feature=3 2 11 8 0 1 8 6 11 5 8 7 7 6 4 11 0 6 8 6 1 10 8 1 11 4 1 7 8 4 11 2 3 10 0 0 6 11 6 2 1 7 1 5 0 2 1 7 7 7 2 10 5 5 2 2 7 8 6 2 0 11
split_gain=45.7795 22.8032 19.4961 19.2139 18.2262 19.0386 17.4953 17.4266 15.9125 16.2439 15.7006 13.4313 19.0527 13.4216 24.6289 27.3153 13.8591 13.2869 13.0055 12.1031 20.7411 12.0978 11.8612 11.2809 16.041 20.0169 20.3166 33.035 19.1481 13.9977 19.8937 14.363 14.2666 13.4634 14.479 15.2432 13.2211 15.7568 13.3734 12.7308 12.8662 12.6193 12.575 22.807 15.4998 22.4996 20.0882 15.5951 14.8496 17.1426 11.6701 11.4552 14.5246 12.2406 10.9574 10.9406 10.7835 17.3109 12.3019 12.9136 12.6367 12.5985
threshold=41.146309070527614 0.79466128248934043 817.25000000000148 1728.5640400000004 0.12914265053502155 0.17755563831588259 1856.1020350000001 -0.00056455609136551999 361.50000000001234 -0.00038176293634539776 1770.8572900000001 1774.6587400000001 1784.3279300000002 0.0021999274566597564 0.99687500000000007 395.50000000000415 0.65171882578751938 0.00072106803782778794 1811.2546100000002 0.0018691129970772604 0.42634640157313763 3.5000000000000004 1865.2980475000002 0.58125599570767394 745.70000000001085 0.81354166666666672 0.50058212309812344 1809.4886200000003 1795.5080250000003 0.99131944444444453 410.8499999999936 0.92048797378964875 33.633262038768031 2.5000000000000004 0.38296076280511748 0.66724120722306046 -0.00075351194316991544 504.80000000001161 -0.0013204483361088923 0.87001565868276776 0.37951376159146782 1825.2364200000002 0.40811751768566934 -0.00063517516744476799 0.3045178343701857 1.0784433057888438 0.27524059135826989 1838.4096500000001 1790.6703100000004 1814.5153200000002 0.86290541297868339 1.5000000000000002 -0.00063517516744476799 -0.00015054531189051532 0.86651473389676337 1.2947200924414273 1804.8241500000001 1804.4942425000002 0.00033603586968256055 0.8065115015848342 1.1493328059941539 334.69999999999806
decision_type=2 2 2 2 2 2 2 2 2 2 2 2 2 2 2 2 2 2 2 2 2 2 2 2 2 2 2 2 2 2 2 2 2 2 2 2 2 2 2 2 2 2 2 2 2 2 2 2 2 2 2 2 2 2 2 2 2 2 2 2 2 2
left_child=1 2 6 -2 5 -5 11 18 56 17 -9 -1 -13 19 15 -15 -17 21 -4 -11 -21 -10 -8 24 25 36 27 51 -28 30 31 -25 -33 34 39 -36 37 38 -3 -26 -41 -34 43 -38 45 46 -45 54 -47 -50 -44 52 -27 -53 -48 -32 57 58 61 -60 -61 -6
right_child=3 23 7 4 8 -7 22 10 9 13 -12 12 -14 14 -16 16 -18 -19 -20 20 -22 -23 -24 29 33 26 28 -29 -30 -31 55 32 41 -35 35 -37 42 -39 -40 40 -42 -43 50 44 -46 48 47 -49 49 -51 -52 53 -54 -55 -56 -57 -58 -59 59 60 -62 -63
leaf_value=-0.02440379506877402 0.02030549878621116 -0.019629245740278554 0.042310509145431136 -0.02288608282089781 -0.0099318477100495545 0.013007483283581098 -0.057969588626583038 -0.029372256912325853 -0.00071088888738202812 -0.0012714626209620493 0.0090529195928169652 0.044989876663393859 -0.005558358014263895 0.034512516610242135 0.031881430557663466 0.0061252635159377775 -0.023698568832951059 0.01501540926405087 -0.0035439858353102614 -0.036218989377825493 0.017013733726768274 0.012275740782773839 -0.0071312347258954446 0.021014784439525428 0.011402921212398075 -0.020050818913333733 -0.018903744359700984 -0.048437282829600511 0.034266052908244776 -0.0052061344548885446 0.012202657042058786 0.0055613817211416332 -0.017494741854053506 -0.0054387229280371185 0.01221613664199158 -0.031404007158494812 0.045105406714961348 0.01987482359964424 0.0094675854962916438 -0.0074908414913510725 0.024174706121027227 -0.076755395522341119 0.017097826049439161 0.010807146745018441 0.014301794059524482 0.016166704157805727 0.014961796900427102 -0.044704315110935589 -0.034556338158104098 0.0024472902550140146 -0.014088469071634972 -0.00096517856407052393 0.039389584296604656 -0.052771003332137779 -0.010205440487276216 0.03306395476270179 -0.012453795429102351 0.036349712551149285 0.021228503130896765 -0.026388963780892085 0.01716358543846231 0.011810295767404014
leaf_weight=89.653153270483017 102.41350556910038 48.473886236548424 49.472092479467392 179.90294772386551 119.56078998744488 46.49091249704361 30.241379246115685 38.687617793679237 847.77562341094017 18563.613805010915 84.974397972226143 19.744029745459557 333.87647619843483 25.734428137540817 30.731987714767456 45.957787841558456 255.59774495661259 241.46334329247475 22.494212627410889 20.481130018830299 171.70570117235184 227.44198517501354 18.487059473991394 23.992693170905113 148.96921746432781 15.996682882308958 27.240639388561249 56.706599280238152 44.750235989689827 143.33131678402424 772.89265428483486 23.48964861035347 19.736434102058411 696.99455879628658 438.09413120150566 20.987652853131294 37.740030720829964 397.79959172010422 213.08335447311401 458.64018799364567 34.491206541657448 16.488395929336548 38.237248495221138 574.77341586351395 376.60556396842003 32.500025719404221 63.254144951701164 24.249431669712067 88.253133475780487 48.498848348855972 139.20680296421051 39.729133427143097 28.745300978422165 15.991598561406134 136.7487764954567 68.412115126848221 515.80122059583664 27.74892683327198 21.239892676472664 124.14897979795933 19.235664814710617 150.49159634113312
leaf_count=359 411 194 198 720 479 186 121 155 3391 74258 340 79 1336 103 123 184 1023 966 90 82 687 910 74 96 596 64 109 227 179 574 3094 94 79 2788 1753 84 151 1592 853 1835 138 66 153 2299 1507 130 253 97 353 194 557 159 115 64 547 274 2064 111 85 497 77 602
internal_value=-0.00023311 0.00363217 -0.00493568 -0.00130049 -0.00140277 -0.0155152 -0.0102445 0.00841593 -0.00125353 -0.00095525 -0.00296838 -0.0071184 -0.00273605 -0.00132528 -0.0109151 -0.0149337 -0.0191533 0.00441642 0.027978 -0.00114223 0.0113408 0.00203619 -0.038682 0.00474061 0.00358527 0.00621866 -0.00785027 -0.0179261 0.0141471 0.00933323 0.0115861 -0.0116599 -0.0247883 -6.34441e-07 0.00344141 0.010222 0.0076713 0.0136073 0.00407513 -0.00140648 -0.00527605 -0.0444683 0.00516247 0.00677064 0.00569489 0.00234729 0.00585516 -0.00683712 -0.0142131 -0.0214331 -0.00736816 -0.000703938 0.0181377 -0.0158332 -0.0022459 0.013899 -0.00748318 -0.00193882 -0.00438309 -0.0151564 -0.0205462 0.00218436
internal_weight=27740.3 6002.74 687.63 21737.5 21635.1 226.394 492.002 195.628 21408.7 20430.5 123.662 443.274 353.621 19113.8 358.022 327.29 301.556 1316.68 71.9663 18755.8 192.187 1075.22 48.7284 5315.1 4246.76 2448.58 229.16 157.169 71.9909 1068.34 925.012 83.7072 59.7145 1798.18 1101.18 459.082 2219.42 659.357 261.557 642.101 493.131 36.2248 1560.07 1382.62 1344.88 968.278 799.026 224.252 169.252 136.752 177.444 100.463 44.742 55.7207 200.003 841.305 978.227 462.426 434.677 164.625 143.385 270.052
internal_count=110979 24020 2752 86959 86548 906 1969 783 85642 81727 495 1774 1415 76460 1433 1310 1207 5267 288 75027 769 4301 195 21268 16991 9797 917 629 288 4277 3703 335 239 7194 4406 1837 8880 2639 1047 2569 1973 145 6241 5531 5380 3873 3196 897 677 547 710 402 179 223 800 3368 3915 1851 1740 659 574 1081
is_linear=0
shrinkage=0.05


Tree=7
num_leaves=63
num_cat=0
split_feature=3 2 8 8 11 5 4 1 6 10 9 4 6 10 1 11 11 11 2 0 8 8 4 2 3 2 11 8 0 4 1 0 1 2 0 11 5 1 3 9 6 1 9 4 1 4 8 8 0 9 10 4 4 2 8 10 11 6 11 11 8 0
split_gain=41.3522 16.8344 18.6524 16.1495 15.5075 15.04 13.5315 18.1062 12.2707 13.1969 12.2481 24.2666 24.1364 23.1566 19.2731 17.1093 19.8963 19.6752 16.2851 15.1396 21.9603 14.5598 13.4941 13.277 14.1357 13.0246 12.7296 12.4486 14.3727 13.0728 22.5815 13.1704 12.2436 12.9224 17.689 21.195 14.8871 12.0607 13.2432 13.684 11.8926 11.8834 21.1779 20.105 17.8122 15.7909 13.7043 14.5766 19.2711 16.2493 11.9006 25.0861 20.3923 13.3095 20.4727 13.6102 13.039 12.6544 14.6509 21.0387 12.6243 11.751
threshold=42.215600480774619 0.66264447228308132 1806.3499750000003 1728.5640400000004 361.50000000001234 -0.00038176293634539776 0.48715277777777782 0.46602891269792707 0.00072106803782778794 3.5000000000000004 14.500000000000002 0.85243055555555569 0.0021999274566597564 1.0000000180025095e-35 0.15881014420812786 791.80000000001212 415.99999999999687 859.0000000000033 1.017381908959589 0.72557681979468414 1778.3931400000001 1794.4449050000001 0.99687500000000007 0.79466128248934043 45.59231189626157 0.95952402606903708 834.50000000000284 1769.5952150000003 0.6365370284291324 0.45034722222222229 0.35166503167774604 0.22475126908699589 0.63029673334892744 0.94557396481241607 0.87911717168511838 500.45000000000078 0.00089424223109435552 0.44619650207024797 28.062516124100878 3.5000000000000004 -0.00025062706200434931 0.42446151555264994 13.500000000000002 0.50798611111111114 0.43948511291622216 0.99131944444444453 1741.5234950000001 1798.0763825000001 1.4014066148260669 18.500000000000004 2.5000000000000004 0.91979166666666667 0.9281250000000002 1.0878254660431619 1759.9465750000002 1.5000000000000002 641.35000000000002 -0.0012251429074106033 512.99999999999966 800.15000000000794 1808.9525800000004 0.14523743734679492
decision_type=2 2 2 2 2 2 2 2 2 2 2 2 2 2 2 2 2 2 2 2 2 2 2 2 2 2 2 2 2 2 2 2 2 2 2 2 2 2 2 2 2 2 2 2 2 2 2 2 2 2 2 2 2 2 2 2 2 2 2 2 2 2
left_child=1 2 -1 -2 -5 8 7 37 9 -6 12 14 -7 -14 -12 16 18 -17 25 27 26 -20 -15 -22 -25 -13 -21 28 29 30 31 -16 -18 36 35 -35 -34 38 39 -3 -37 -8 44 -44 -43 46 -45 -48 49 -49 51 53 -52 -46 -55 56 -56 58 -53 -60 -54 -29
right_child=3 6 -4 4 5 10 41 -9 -10 -11 11 15 13 22 19 17 32 -19 21 20 23 -23 -24 24 -26 -27 -28 61 -30 -31 -32 -33 33 34 -36 40 -38 -39 -40 -41 -42 42 43 45 50 -47 47 48 -50 -51 52 57 60 54 55 -57 -58 -59 59 -61 -62 -63
leaf_value=-0.039643665490396447 0.018647173760692453 0.028653812953393965 0.0096684293941853017 -0.0076085951942510156 -0.0013261884732398827 -0.0020819815390758028 0.010105120819175443 0.017782932762387071 0.014448418659133436 0.013089749919621769 -0.028982276320092433 -0.01412232533716783 -0.062588596819966133 -0.017263413913520376 -0.00096247057988671557 -0.017080325591529267 0.041951585809009977 0.010169892336390702 -0.004828452360794145 -0.011491696375487852 0.010880764756429656 -0.073665786988210899 0.025374261280492184 0.010274689608464031 -0.031579687093836288 0.044905935482866137 0.040518039230540981 -0.012285960055863174 0.025336056713005452 -0.017920764962030915 0.013781607476212723 -0.022612070078669402 0.030889071629137173 0.023295895419547959 0.018054421499920207 0.0081737805939865061 -0.021476565160294198 -0.021364801162143995 -0.00029612898660695222 0.0046408253637889698 -0.039912279411250119 -0.023502803398432623 0.063703440527768246 -0.02609163719235414 0.0021470863179212005 -0.012319000201904001 0.017009093687302693 0.0069753641010947363 0.057832612905234997 -0.017136390037824242 -0.0086995987774233889 -0.044851923526028521 0.04226336088892834 -0.014177736494950372 -0.0052613385356735419 0.051763169756435329 0.028017394099079614 -0.046339471204914051 0.038120269503592159 -0.017707222544505127 -0.0083732813604972273 0.0014119091335123002
leaf_weight=47.370296895503998 100.80332453548908 77.663131475448608 32.219484254717827 963.69182971119881 736.03591848909855 12081.550655975938 1050.3448665589094 156.92056782543659 240.18815566599369 202.4118782132864 60.211017444729805 22.493583917617798 26.460795342922211 176.03239232301712 152.48746010661125 118.00719065964222 45.995410770177841 150.99741464853287 15.747540190815927 20.999387219548225 29.249244660139084 14.996804207563398 20.743252396583557 23.500379294157028 142.4871997833252 15.987131819128988 26.753222227096558 162.22432294487953 34.003258436918259 219.2508088350296 137.25583110749722 130.25562988221645 143.7264359742403 32.994749993085861 157.70176708698273 18.002438604831696 14.987777873873709 62.485172510147095 2795.1203806996346 251.30136199295521 44.996968194842339 82.702269569039345 16.237593919038773 26.494895204901695 221.83704002201557 90.891223177313805 453.49751651287079 465.88814215362072 16.731454655528069 82.203218728303909 435.29292105138302 19.478304639458656 34.188928350806236 37.972738891839981 40.234376728534698 40.463150978088379 109.65098786354065 25.48269622027874 27.700092136859894 43.185991242527962 19.233431577682495 4492.1447252184153
leaf_count=190 405 311 129 3858 2944 48330 4204 628 961 810 241 90 106 705 610 472 184 604 63 84 117 60 83 94 570 64 107 649 136 877 549 521 575 132 631 72 60 250 11183 1006 180 331 65 106 888 364 1816 1865 67 329 1742 78 137 152 161 162 439 102 111 173 77 17969
internal_value=-0.000221464 0.00317848 -0.0196812 -0.00131766 -0.00141407 -0.00111426 0.00345072 0.00120216 0.00436414 0.00178316 -0.00145896 0.000310036 -0.002383 -0.018674 -0.000845541 0.00847795 0.01371 -0.00178426 -0.0112753 -0.00054142 -0.0127467 -0.0384067 -0.0127687 -0.0201806 -0.025654 0.0104015 0.0176466 1.52557e-05 -0.00633958 -0.00802449 -0.00285836 -0.0109361 0.0174831 0.0147542 0.00775366 -0.0091687 0.0259441 0.000385647 0.00082068 0.0103099 -0.0261714 0.00570182 0.00368162 0.00846021 -0.00115796 0.00767037 0.0094093 0.010333 0.0049727 0.00335906 0.000594129 0.00552931 -0.00512155 0.0108693 0.0193437 0.0260309 0.0190842 -0.0152206 -0.00644511 0.00410844 0.0240329 0.000934481
internal_weight=27738.2 6762.79 79.5898 20975.4 20874.6 19910.9 6683.2 3343.49 1178.64 938.448 18732.2 6427.46 12304.8 223.236 5630.82 796.635 527.631 269.005 69.2251 5570.61 242.989 30.7443 196.776 195.237 165.988 38.4807 47.7526 5327.62 673.253 639.25 419.999 282.743 458.406 412.41 253.696 95.9942 158.714 3186.57 3124.08 328.964 62.9994 3339.71 2289.37 1151.94 1137.42 1135.71 1044.82 1018.32 564.823 548.091 1054.72 566.005 488.715 450.158 228.321 190.349 149.885 115.847 90.3644 70.8861 53.4224 4654.37
internal_count=110979 27066 319 83913 83508 79650 26747 13378 4715 3754 74935 25711 49224 894 22524 3187 2111 1076 277 22283 972 123 788 781 664 154 191 21311 2693 2557 1680 1131 1834 1650 1015 384 635 12750 12500 1317 252 13369 9165 4612 4553 4547 4183 4077 2261 2194 4222 2266 1956 1802 914 762 600 464 362 284 214 18618
is_linear=0
shrinkage=0.05


Tree=8
num_leaves=63
num_cat=0
split_feature=3 7 11 5 1 9 4 3 3 4 0 10 10 0 9 1 3 0 11 0 10 6 8 4 11 3 10 3 9 0 1 7 4 1 11 1 9 1 1 11 7 7 1 9 1 1 7 4 7 9 8 3 6 4 9 1 7 5 7 11 8 0
split_gain=34.0833 17.7459 19.5206 19.4921 20.3064 16.2386 23.357 16.1004 15.4307 21.0566 22.6385 17.3137 21.5377 14.7359 13.9147 22.1913 21.4651 19.5245 22.0995 13.361 20.7836 19.8465 18.1255 13.0644 12.6977 12.2108 11.9179 23.1575 23.0505 18.6724 14.5598 14.3009 14.0814 14.0443 13.174 12.7868 29.1145 18.0743 13.0321 12.6486 25.6448 30.494 21.2688 16.0404 16.504 14.585 13.9109 16.7738 12.5657 17.4003 18.7722 12.2932 16.2798 12.9788 22.9347 12.5819 11.4831 11.3961 11.2103 12.3311 11.899 14.3221
threshold=43.635436625051405 1753.7267800000002 988.24999999999375 0.00062458178920277174 1.1235123959887023 4.5000000000000009 0.56006944444444462 74.047328320341421 70.546829363669488 0.8031250000000002 0.18837049036725681 2.5000000000000004 1.5000000000000002 0.1093024567697834 2.5000000000000004 0.45102605939509416 52.918081014158794 0.40729253662167469 552.99999999999739 0.38649943745446808 3.5000000000000004 0.00080028158651179748 1750.9303425000001 0.70729166666666676 662.00000000000057 55.704318003445088 1.5000000000000002 73.202043261334097 5.5000000000000009 0.33227615257718163 0.35721486249384177 1867.3406700000003 0.15451388888888892 0.53729963311084861 349.00000000000097 0.55050997180525663 18.500000000000004 0.52505618258055742 0.16435013910611676 487.75000000000551 1791.3568700000003 1797.8903200000002 0.43065273670351295 8.5000000000000018 0.41372521457313777 0.48518278910678664 1802.9723200000001 0.44201388888888893 1805.1026800000002 14.500000000000002 1804.2437800000005 67.939172032776739 0.00075126636125799628 0.23854166666666668 5.5000000000000009 0.25671112717227279 1759.4070800000002 -0.00017945810382680169 1859.6449400000004 1297.3000000000072 1856.1020350000001 0.43009580381881501
decision_type=2 2 2 2 2 2 2 2 2 2 2 2 2 2 2 2 2 2 2 2 2 2 2 2 2 2 2 2 2 2 2 2 2 2 2 2 2 2 2 2 2 2 2 2 2 2 2 2 2 2 2 2 2 2 2 2 2 2 2 2 2 2
left_child=13 2 8 5 -5 6 7 58 9 10 -2 12 -11 -1 17 -16 -17 -8 -19 22 21 -21 25 -23 -9 -12 28 34 30 32 56 35 -29 -31 48 37 -37 38 -30 40 43 -42 46 -36 -45 -44 47 -43 49 -28 -51 53 -53 54 -48 -56 -7 -39 60 -60 61 -3
right_child=1 3 -4 4 -6 26 14 24 -10 11 19 -13 -14 -15 15 16 -18 18 -20 20 -22 23 -24 -25 -26 -27 27 29 31 33 -32 -33 -34 -35 39 36 -38 57 -40 -41 41 42 45 44 -46 -47 51 -49 -50 50 -52 52 -54 -55 55 -57 -58 -59 59 -61 -62 -63
leaf_value=-0.024890890280474243 0.040046526654181819 -0.0069556127630205069 0.043761417934918383 -0.0087725355636530562 0.0099049661470723624 0.04125794459032639 0.020415273240985816 -0.0091558792015739628 -0.026046932226934452 0.058128263580356304 0.01468769466924329 0.057251782514635634 -0.013213161743101727 0.0030727278826804751 -0.030402739927381552 0.06128803414366521 -0.015274297194055545 -0.031212154443712527 0.0053466010973673437 0.010083755952906918 0.042988245081372833 -0.0079091493268737129 -0.04162598200312953 -0.062312835699140846 0.035069587746164095 -0.018220709666817585 -0.012100910997561998 -0.0092673581558815679 -0.024229461976590354 0.009581600380895644 0.058115298031981066 -0.022746406368638488 -0.055374507226089636 -0.044561504927063358 0.0018531448861502779 -0.005388317726135486 -0.053326702787972372 0.046260507617025083 -0.0010991401209307985 0.00071145583257010362 -0.011478051569487197 -0.0085930653102661448 0.028997631157767063 0.037878290371031964 0.012152019429240823 0.0092680000626918242 0.04468540246435547 0.038648657598891488 -0.017224609327677585 0.0070363478913740606 0.067902157320300124 -0.047716994884086851 0.0094193570634656682 -0.002382138310004475 -0.0067949043345104376 0.020620127982348798 0.0057881553313217093 0.0098855313861858293 0.011278733954709937 -0.019461586120989076 -0.02763909475442923 0.010119545691633784
leaf_weight=47.398208171129227 37.589183107018471 2801.3938574492931 35.247685313224792 1330.2459355443716 163.39990542829037 24.503594979643822 196.13273227214813 25.980717331171036 36.475392863154411 15.993232890963553 55.63543763756752 35.222064107656479 31.251881793141365 7800.7140980511904 64.222730964422226 16.235442161560059 20.990749835968018 46.450116500258446 375.53084640204906 141.87115404009819 34.185898810625076 31.491683587431908 38.745073139667511 16.987575307488441 43.244853019714355 57.138262555003166 108.08635759353638 27.244505614042282 61.927604854106903 59.710547238588333 15.251729339361189 86.746594801545143 42.224035367369652 14.982506036758421 115.25175416469574 1245.9298931360245 32.498609811067581 27.004611358046532 3656.5385055840015 5452.4936715662479 311.98919683694839 29.750282093882561 117.23171989619732 118.99708910286427 130.93823125958443 466.09970371425152 42.234046176075935 51.000950917601585 177.57903395593166 69.412897527217865 15.496058881282805 30.215768754482269 21.224087163805962 691.24184800684452 109.48951324820518 67.746402829885483 331.74944347143173 106.25712455809116 168.00983630120754 40.484111100435257 66.226415053009987 128.43529513478279
leaf_count=191 151 11209 141 5324 654 98 785 104 146 64 223 141 125 31221 257 65 84 186 1503 568 137 126 155 68 173 229 433 109 248 239 61 347 169 60 461 4984 130 108 14626 21810 1248 119 469 476 524 1865 169 204 711 278 62 121 85 2765 438 271 1327 425 672 162 265 514
internal_value=0.000113158 -0.000986659 0.0077255 -0.00124237 -0.00672928 -0.000783304 -0.00359258 -0.00538534 0.00534057 0.00764826 0.00304885 0.0307183 0.0109371 0.00290384 0.00456386 -0.0125987 0.0181168 0.0073807 0.00132235 -0.000649308 0.0070927 0.000646059 -0.0121222 -0.0269727 0.0184715 -0.00198578 2.61604e-05 0.00123141 -0.00175757 -0.0186328 0.0102759 -0.00261449 -0.037292 -0.00127884 0.0015838 -0.00227408 -0.00660695 -0.000835954 -0.00148435 0.00202384 0.00513045 0.00284043 0.0055874 0.0172847 0.0244006 0.0132331 0.00131092 0.0212439 -0.00762612 0.00120565 0.0181445 -0.000362009 -0.0241425 0.000981189 0.0115743 0.00368418 0.00822782 0.0172567 -0.0059007 0.00530976 -0.00668083 -0.00620709
internal_weight=27762 19913.9 567.835 19346 1493.65 17852.4 3993.34 3273.78 532.587 496.111 413.644 82.4672 47.2451 7848.11 719.563 101.449 37.2262 618.114 421.981 376.055 224.536 190.35 151.519 48.4793 69.2256 112.774 13859 8270.64 5588.41 144.162 371.505 5216.9 69.4685 74.6931 8126.48 5130.16 1278.43 3851.73 3718.47 7755.9 2303.41 1938.22 1626.23 365.187 249.935 583.331 1042.9 80.7512 370.574 192.995 84.909 962.152 51.4399 910.712 219.47 177.236 356.253 133.262 3204.55 208.494 2996.06 2929.83
internal_count=111083 79671 2274 77397 5978 71419 15979 13099 2133 1987 1657 330 189 31412 2880 406 149 2474 1689 1506 899 762 607 194 277 452 55440 33086 22354 577 1486 20868 278 299 32509 20521 5114 15407 14874 31025 9215 7754 6506 1461 1000 2334 4172 323 1484 773 340 3849 206 3643 878 709 1425 533 12822 834 11988 11723
is_linear=0
shrinkage=0.05


Tree=9
num_leaves=63
num_cat=0
split_feature=3 7 11 5 1 9 10 2 5 3 0 0 0 6 1 7 0 2 8 3 1 9 1 0 7 1 8 7 6 7 8 1 0 2 11 0 6 7 5 6 6 1 7 11 6 1 0 1 0 5 9 3 2 7 0 7 7 0 9 6 8 8
split_gain=30.7621 16.0242 17.62 17.5946 18.329 15.1161 17.3824 15.2031 15.1652 14.0241 20.1182 19.0322 15.3686 19.8052 17.8584 14.0621 13.3238 12.7365 12.4532 13.0381 12.0609 20.0051 16.4281 17.1414 18.0345 14.5356 13.4551 13.4191 25.6968 22.7087 19.4482 15.4349 26.3566 18.2688 15.4203 14.3843 13.5306 13.4463 15.6388 12.3732 12.3415 12.6253 12.3077 11.8542 17.0657 18.9839 11.6362 14.2613 15.2905 20.0983 15.8118 12.6513 12.84 11.3463 15.5793 11.2434 20.1668 12.1743 19.7454 11.1438 11.1118 12.5063
threshold=43.635436625051405 1753.7267800000002 988.24999999999375 0.00062458178920277174 1.1235123959887023 7.5000000000000009 1.5000000000000002 0.69117817201519582 0.00041756069930509737 71.112200439817229 0.92376142560629282 0.18837049036725681 0.37213120281499601 0.00085218455726765463 0.64564269610817038 1738.2068000000002 0.1093024567697834 0.70516847361297785 1750.9303425000001 55.840145497714722 0.55050997180525663 18.500000000000004 0.33236448512282352 0.27540577362612811 1822.1674700000001 0.16932866747641484 1787.3768600000001 1816.7375100000002 0.00015660597205358065 1806.0832400000002 1816.1885725000004 0.39041574260952711 0.51482043749315909 1.0762643814444257 512.99999999999966 0.48801403087414136 0.00015660597205358065 1797.1826400000002 -0.00020102009583006228 -0.00044234637378082192 0.001191884565807322 0.35586524670012515 1802.9723200000001 371.00000000000369 -7.6003765882792771e-05 0.15166045315854992 0.45988165901263395 0.52505618258055742 0.35185977368812205 -4.3326430549273092e-05 8.5000000000000018 52.083339548462121 0.76081116313108432 1813.2759800000001 0.46754508592586336 1780.5941200000004 1786.7526100000002 0.40935403300581602 16.500000000000004 0.0003885883231812271 1823.6360450000002 1860.9060775000005
decision_type=2 2 2 2 2 2 2 2 2 2 2 2 2 2 2 2 2 2 2 2 2 2 2 2 2 2 2 2 2 2 2 2 2 2 2 2 2 2 2 2 2 2 2 2 2 2 2 2 2 2 2 2 2 2 2 2 2 2 2 2 2 2
left_child=16 2 9 5 -5 43 20 53 -9 10 11 -2 18 14 -14 -12 17 -1 19 -13 22 -22 23 24 25 26 -7 29 -29 31 -30 34 33 42 36 -35 -24 -34 -39 -31 41 -32 46 44 -3 -46 47 48 49 -33 -50 -51 -53 54 -8 59 -57 -58 -59 -52 -55 -62
right_child=1 3 -4 4 -6 6 7 8 -10 -11 15 12 13 -15 -16 -17 -18 -19 -20 -21 21 -23 27 -25 -26 -27 -28 28 30 39 40 32 37 35 -36 -37 -38 38 -40 -41 -42 -43 -44 -45 45 -47 -48 -49 50 51 55 52 -54 60 -56 56 57 58 -60 -61 61 -63
leaf_value=-0.045536877167345495 0.037636537259712728 0.007611446997794008 0.041584785115806523 -0.0083352318201216583 0.0094098615291970146 -0.058470488480362071 -0.023925216369581517 0.0031726935687081646 -0.0048440120151216548 -0.027033825433434196 0.0071481967053166453 0.013797447035727245 0.019637368483233757 -0.016443858149486918 -0.030036979926133047 0.06050426130670912 0.002919219016436421 0.0071316182221800271 -0.03921097184152305 -0.022081394444684131 -0.0048730916943869277 -0.03676426858542086 0.010922603904740515 -0.016323299248862267 -0.016386379374390431 0.0031467494873510908 -0.0081851804500151591 0.021199055641514537 0.046235175547129331 0.030929890312082438 0.014883558103674211 0.038024147386509652 0.031053589476087114 -0.053440015174195832 0.01725161744740111 -0.0065773369908917944 -0.031680839929363068 0.040412098138123208 -0.020525635995310834 -0.015361214172890934 0.028714071743816062 -0.011294793312472049 0.022148657428880593 -0.0021520800571812322 -0.062749292780096749 -0.013597144553721819 0.013818329002937259 0.03198984944028721 0.023859337111527323 -0.041866249347483196 -0.017024355198413658 -0.024125108848538156 0.022039915197284564 0.030984415951864675 0.024902538633140441 -0.046780630113896972 -0.025462521658623772 -0.014371877148085866 0.045503038578231049 0.017884148262332571 -0.032319598954846346 0.016039591584903409
leaf_weight=27.685211569070816 38.005974397063255 91.147891283035278 35.238094657659531 1330.039993584156 163.39744551479816 17.454923525452614 139.91924041509628 5974.2312885224819 654.56086590886116 31.961182504892349 21.955159887671471 50.128450572490692 190.45941157639027 66.165644407272339 19.992550745606422 28.22264401614666 7800.3816371709108 19.608462631702423 34.22564435005188 51.165010198950768 1238.149614110589 51.208280578255653 41.250122204422951 260.50623726844788 178.4823056012392 767.24483671784401 55.923881500959396 242.51064297556877 21.254256591200829 15.252269923686979 57.255657747387886 35.498532220721245 86.753843411803246 32.746229380369186 271.75993669033051 32.752539783716202 33.995705559849739 15.250856682658194 34.00294391810894 269.49150289595127 27.750388324260712 235.48384308815002 47.75550140440464 6002.4350856542587 21.198206827044487 268.02678453922272 76.755444794893265 22.250384882092476 25.24888026714325 19.747269406914711 55.753228202462196 24.741376355290413 38.499059036374092 26.991336330771446 18.495829865336418 64.991945177316666 95.249591037631035 50.00063656270504 19.002392500638962 38.752403423190117 26.993381574749947 26.488944977521896
leaf_count=112 153 365 141 5324 654 70 560 23900 2619 128 88 201 763 265 80 113 31221 79 137 205 4953 205 165 1042 714 3069 224 970 85 61 229 142 347 131 1087 131 136 61 136 1078 111 942 191 24016 85 1074 307 89 101 79 223 99 154 108 74 260 381 200 76 155 108 106
internal_value=0.000107503 -0.000937411 0.0073437 -0.00118036 -0.00639374 -0.000744204 0.000341249 0.00193449 0.00238108 0.00507687 0.00712815 0.00378064 0.000658559 0.00741669 0.0149184 0.0371585 0.0027588 -0.0237 -0.0131359 -0.00432555 -0.00203704 -0.00613969 -0.000439586 -0.00487727 -0.00195141 0.00111344 -0.0201468 0.00235529 0.00875122 -0.000226292 -8.20863e-05 0.00287283 -0.000884382 -0.00490455 0.0117054 -0.0300064 -0.00832543 0.0192078 -0.00165699 -0.0128816 -0.00315376 -0.00617468 -0.00222787 -0.00269451 -0.0112542 -0.0171997 -0.00428282 -0.00711978 -0.00898124 0.00653818 -0.0142501 -0.00693014 0.0039789 -0.0104577 -0.0182243 -0.0172222 -0.0232049 -0.0138764 0.00211677 -0.00270999 0.00483099 -0.00836806
internal_weight=27759.8 19912.2 567.52 19344.7 1493.44 17851.2 11468.4 6867.68 6628.79 532.282 500.32 450.143 412.137 276.618 210.452 50.1778 7847.68 47.2937 135.519 101.293 4600.73 1289.36 3311.37 1279.61 1019.11 840.624 73.3788 2031.76 584.255 1447.5 341.744 1162.76 815.753 679.745 347.006 65.4988 75.2458 136.008 49.2538 284.744 320.49 292.74 614.247 6382.81 380.373 289.225 566.491 489.736 467.485 118.486 348.999 82.9877 63.2404 238.889 158.415 323.75 229.245 164.253 69.003 94.5056 80.4737 53.4823
internal_count=111083 79671 2274 77397 5978 71419 45879 27475 26519 2133 2005 1804 1651 1108 843 201 31412 191 543 406 18404 5158 13246 5119 4077 3363 294 8127 2337 5790 1367 4651 3263 2719 1388 262 301 544 197 1139 1282 1171 2457 25540 1524 1159 2266 1959 1870 474 1396 332 253 956 634 1295 917 657 276 378 322 214
is_linear=0
shrinkage=0.05


Tree=10
num_leaves=63
num_cat=0
split_feature=5 3 8 3 8 7 7 6 8 0 4 8 9 7 7 3 2 2 1 7 2 4 6 5 2 6 6 8 8 0 3 3 3 4 0 3 0 2 2 4 6 9 7 4 4 9 0 0 9 2 6 3 4 4 8 5 5 6 9 4 2 2
split_gain=38.4305 24.468 16.2945 13.9733 13.8051 17.0354 14.417 14.3658 13.3302 12.8349 13.7785 19.9521 12.9292 16.2035 18.7576 14.8236 14.6389 20.5963 17.5701 19.1408 18.5506 16.4332 20.9185 12.4053 12.133 12.0095 12.8949 11.7707 17.3758 14.7396 14.6371 12.2776 11.6377 11.4118 11.1843 10.922 10.895 10.468 10.4184 12.2772 11.1406 10.6767 10.4076 10.3508 10.0009 13.7202 10.5819 10.4703 12.3467 10.3067 11.511 10.1124 9.88541 9.86819 9.8009 9.78718 9.70324 9.60854 9.50632 16.2785 12.4095 9.37062
threshold=-0.00034296903676989116 33.939968086738489 1728.5640400000004 74.047328320341421 1798.0763825000001 1839.77883 1850.8001600000002 0.0011247947070199828 1758.9586925000001 0.12914265053502155 0.0052083333333333348 1806.3499750000003 22.500000000000004 1770.2536700000003 1820.8265400000003 46.948264858949493 1.1382718350365579 0.88561705934295032 0.43065273670351295 1807.0912300000002 0.8065115015848342 0.44618055555555564 -5.7486079232393897e-06 -0.00017945810382680169 1.0079504980045482 -0.00011180676470839977 0.00028026623053289962 1799.5462900000002 1790.6511225000002 0.16854983889679695 52.435621013513774 57.308217272187314 63.787135005486 0.67881944444444453 0.12166528125839095 55.97132227445681 0.30607599392414775 0.86108630971289923 1.0651281123801166 0.20937500000000003 -0.00023670389236341014 2.5000000000000004 1859.6449400000004 0.048263888888888898 0.45868055555555559 4.5000000000000009 0.38108957641831026 0.37572848009351523 9.5000000000000018 1.2581225596832557 -0.00034366870839408476 40.513897906138389 0.23854166666666668 0.12604166666666669 1826.3450925000004 -0.00036541345245755247 -0.001220075448319313 -0.0008642908292207373 12.500000000000002 0.85243055555555569 1.1024150298825595 0.9680810969917043
decision_type=2 2 2 2 2 2 2 2 2 2 2 2 2 2 2 2 2 2 2 2 2 2 2 2 2 2 2 2 2 2 2 2 2 2 2 2 2 2 2 2 2 2 2 2 2 2 2 2 2 2 2 2 2 2 2 2 2 2 2 2 2 2
left_child=44 8 32 9 7 54 -7 24 23 10 34 -12 -11 35 16 -16 17 18 19 25 -21 22 -18 -2 -5 -15 43 28 31 -29 -30 -19 -3 37 -4 53 -26 -9 40 -40 42 -41 -10 -27 -1 46 -46 48 51 -48 -51 -47 -17 -14 -6 57 58 -50 59 -49 -60 -8
right_child=1 2 3 4 5 6 61 33 38 12 11 -13 13 14 15 52 21 27 -20 20 -22 -23 -24 -25 36 26 -28 29 30 -31 -32 -33 -34 -35 -36 -37 -38 -39 39 41 -42 -43 -44 -45 45 47 49 56 55 50 -52 -53 -54 -55 -56 -57 -58 -59 60 -61 -62 -63
leaf_value=-0.00016201627169412021 -0.032273784041722937 0.031026914972979165 -0.0075203924511530592 0.024843625755748278 -0.023209996026083972 0.03021352780210608 -0.044169740829102806 0.0084372078181088762 0.015712525980413609 -0.0012024213216557623 -0.033923154562482821 0.0024113606543029516 -0.019032184013651764 0.047337419959470661 0.014267831595335942 -0.0071783586419606324 -0.062579003581736944 0.050766984624462289 0.052311273835861871 -0.075321057130301475 -0.0007104304556881675 0.027754044107259086 0.0033303912919476495 0.0084070578652957195 -0.033882440567316457 -0.025050464667748375 0.026584734109355398 0.0022142776701753191 0.016054084175632755 0.053566877226784319 -0.044623697281115371 0.012915945738146263 -0.0070088664376487938 0.0016228471348440699 0.028999388545306478 -0.047988010735615969 0.021539623982565377 -0.032150309178597736 -0.036104796680058143 0.029041716616441837 -0.019472565082596201 -0.0013634281681971731 -0.008763360976645632 0.015154097244743068 -0.00095090629622106488 -0.011909943265333039 0.03040771756484198 0.0057128608020235424 0.002905298123733789 0.023496274920784821 -0.018178708541024432 0.029354772146951508 -0.041310686421484138 0.02891380739224228 -0.060745292889602856 -0.0088291691848988128 0.0028045313096659646 0.040132976342675986 0.023065702338074787 0.061585341420038776 0.00049884907221804415 -0.00085513152276661068
leaf_weight=951.9940399825573 39.723819732666016 66.082606583833694 81.429301187396049 69.975226327776909 135.28834129869938 26.712916627526283 17.970316171646118 20.492852747440338 539.34231260418892 21033.460977107286 106.14431741833687 58.664144456386566 36.230063930153847 17.251126289367676 74.992536947131157 126.72220973670483 19.996979832649231 41.755416765809059 17.497873231768608 14.993709236383436 18.748011782765388 23.499878644943237 30.249134302139282 35.475616902112961 21.227040037512779 43.73783141374588 35.98837411403656 17.744570925831795 25.002967417240143 65.749218672513962 16.496212497353554 43.998688444495201 28.907679557800293 96.82869778573513 28.23393177986145 20.496197775006294 15.229566186666487 70.670169115066528 21.483839944005013 34.441837355494499 26.382222771644592 178.55332438647747 47.236079052090645 25.251734912395477 65.175885736942291 52.198770716786385 132.03899227082729 28.22497034072876 22.228037476539612 40.678740948438644 27.956387385725975 20.748448148369789 25.477990135550499 15.248665198683737 19.956430464982986 17.240379631519318 2406.3412131369114 78.701066240668297 92.83459797501564 24.225692957639694 177.19969312846661 40.917613476514816
leaf_count=3810 159 267 327 280 542 107 72 82 2159 84159 426 235 145 69 300 507 80 167 70 60 75 94 121 142 85 175 144 71 100 263 66 176 116 388 113 82 61 283 86 138 106 715 189 101 261 209 529 113 89 163 112 83 102 61 80 69 9633 315 372 97 710 164
internal_value=-0.000110242 -0.000888986 -0.00121347 -0.00130033 -0.00928265 -0.0181608 -0.000252833 -0.00202013 0.0070928 -0.00110669 -0.0118515 -0.0209898 -0.000971347 0.00544801 0.00781877 -0.00392702 0.0136458 0.0175622 0.00480233 -0.000527546 -0.0338649 -0.00675878 -0.0229003 -0.0130824 0.0126584 0.00867535 0.00232197 0.0280651 0.0184935 0.0426531 -0.00806576 0.0313464 0.0194518 -0.0103304 0.001882 -0.01712 -0.0107301 -0.0230265 0.0088831 -8.04517e-05 0.012312 0.00355316 0.0137415 -0.0103347 0.00433473 0.00567846 0.016553 0.00468838 0.016002 0.022238 0.00652127 -0.00017298 -0.012892 -0.00482996 -0.0280351 0.025987 0.00389601 0.0319342 0.0120405 0.031519 0.00825707 -0.0140731
internal_weight=27755.7 23618 22695.3 22600.3 535.269 240.846 85.6008 294.424 922.639 22065.1 274.472 164.808 21790.6 757.129 685.154 227.193 457.962 384.216 173.469 155.971 33.7417 73.746 50.2461 75.1994 106.432 122.229 104.978 210.747 127.253 83.4938 41.4992 85.7541 94.9903 187.992 109.663 71.9749 36.4566 91.163 847.44 234.479 612.961 212.995 586.578 68.9896 4137.79 3185.79 265.85 2919.94 191.117 200.674 68.6351 72.9472 152.2 51.4787 155.245 118.169 2728.83 100.929 322.485 52.4507 270.034 58.8879
internal_count=111075 94510 90816 90433 2144 965 343 1179 3694 88289 1101 661 87188 3029 2741 909 1832 1537 694 624 135 295 201 301 426 489 420 843 509 334 166 343 383 753 440 288 146 365 3393 939 2454 853 2348 276 16565 12755 1065 11690 765 804 275 292 609 206 622 473 10925 404 1292 210 1082 236
is_linear=0
shrinkage=0.05


Tree=11
num_leaves=63
num_cat=0
split_feature=5 3 8 11 0 11 1 7 5 8 7 11 1 5 4 7 8 2 6 2 6 1 2 11 7 4 0 6 11 0 4 2 8 11 7 1 11 3 4 4 11 4 1 3 0 3 8 7 4 6 2 2 0 2 11 8 7 1 7 4 5 6
split_gain=34.6888 22.0877 14.7357 13.8652 16.4681 15.5251 24.5677 21.057 13.3958 20.8018 17.4787 15.793 15.3672 14.4599 14.3025 13.9375 15.1623 14.166 13.4716 14.0002 13.4701 13.3756 13.2956 13.2656 19.6591 15.4533 21.2619 15.2575 15.9352 15.4396 13.1522 22.9487 15.417 14.2586 13.434 27.2088 13.9027 13.022 12.6959 12.5486 12.3538 12.9504 16.7193 12.3385 12.2322 21.8667 12.0335 12.0325 11.7619 16.7762 11.7121 11.633 11.4923 11.4921 11.48 14.0763 11.4227 11.2369 12.0309 11.3194 11.1983 11.1245
threshold=-0.00034296903676989116 33.939968086738489 1728.5640400000004 696.20000000001039 0.39564811872381761 807.29999999998665 0.40284472672587007 1803.9793700000002 0.0004488352815417152 1757.7349800000004 1764.44084 334.69999999999806 0.80246373334763266 0.000338409815194396 0.15868055555555557 1785.3482400000003 1785.4256625 0.99688042577544256 0.0010372275956127555 1.3639993844617475 -0.00013516986352868352 0.31911864703858156 0.81372926417839031 484.50000000000279 1770.2536700000003 0.67534722222222243 0.57340468524369204 -0.00072238781447853107 487.75000000000551 0.41323163388307599 0.47048611111111116 1.1506139057778382 1799.9867400000001 492.15000000000379 1793.2504500000002 0.24713625110078979 683.80000000000803 42.934454260611595 0.47465277777777781 0.87118055555555574 450.4999999999996 0.55590277777777797 0.55525692825723072 69.526496429834765 0.36175529405000301 55.440166731962002 1758.9586925000001 1792.1449100000002 0.81979166666666681 -1.796651177010666e-05 0.89812302487675078 0.64626246153182954 0.92376142560629282 0.98231555910571888 512.99999999999966 1860.9060775000005 1785.8464700000002 0.22418749495418858 1784.8639400000004 0.035069444444444452 -0.00017945810382680169 0.00025928737768587956
decision_type=2 2 2 2 2 2 2 2 2 2 2 2 2 2 2 2 2 2 2 2 2 2 2 2 2 2 2 2 2 2 2 2 2 2 2 2 2 2 2 2 2 2 2 2 2 2 2 2 2 2 2 2 2 2 2 2 2 2 2 2 2 2
left_child=3 46 -3 23 22 6 -6 39 10 -10 12 14 13 51 20 37 17 -17 19 -11 -12 -19 -5 24 -1 38 -27 -25 29 -29 31 53 34 -32 35 36 -33 57 -26 -8 41 -39 -43 -34 45 -16 60 -28 -14 -50 -49 -4 -52 56 -30 -56 -18 59 -59 -13 -2 -24
right_child=1 2 8 4 5 -7 7 -9 9 18 11 15 48 -15 44 16 30 21 -20 -21 -22 -23 61 27 25 26 47 28 54 -31 33 32 43 -35 -36 -37 -38 40 -40 -41 -42 42 -44 -45 -46 -47 -48 50 49 -51 52 -53 -54 -55 55 -57 -58 58 -60 -61 -62 -63
leaf_value=0.058814697585301147 -0.030666284811565043 0.018519910431187916 -0.045080018352723981 0.015045451346059075 0.027907937021360626 0.0071248533699046924 -0.0069677602111822895 -0.024094811339483237 0.010851151952572994 -0.0020522910274307919 0.0068459632008275074 0.018880118620189554 0.052556242380433021 -0.023023378161974469 0.013107742232430658 -0.0046031862766406006 0.034899774635063704 -0.062736547276114468 -0.01062328453928948 -0.021859867614400515 -0.046666001458378903 -0.017686388739337085 -0.0061662557830322803 0.018574156206299427 -0.00020608891839789278 -0.020253026171539065 -0.012673646967864298 -0.00089536717239677664 -0.011674042139574639 0.058454928899298833 0.0051523354134267244 -0.050926678673239072 -0.0029602399603807714 -0.00024902844263540558 -0.047832064489210992 0.019503808778040539 -0.00063935214105932604 0.051429560902417085 0.022015509555112292 0.013518311073841577 0.00092564747283375374 -0.029672971261236161 0.034200690790084164 -0.045140104148773924 -0.017789522329588088 -0.023965418069923385 0.0084414636375771453 0.038781330389214774 0.030577216951716824 -0.012965992686248373 -0.0053691762163266196 -0.0048345267067581707 0.020862618492933957 0.002233779497360255 0.0093767036635639053 -0.022624472862818535 -0.0024949179859616861 0.010240301763049197 0.045344406558853537 -0.035194358175264451 0.007986897183425162 -0.033362534648444894
leaf_weight=14.985050365328787 39.715919151902199 94.789924159646034 18.162395924329758 69.199121847748756 56.918636232614517 1227.9297304749489 232.81340493261814 128.90083582699299 207.06341001391411 1693.760586053133 15.952440500259398 15.420564249157904 15.994931951165198 123.93407618999481 132.80137823522091 195.20558674633503 20.496397137641907 21.74787312746048 890.27271358668804 94.16957925260067 44.748474806547165 67.973031103610992 488.28758092224598 407.61522917449474 131.40533129870892 147.32121440768242 85.849806755781174 18.232621937990189 96.411257669329643 27.464247971773148 1673.4510872215033 43.974904716014862 236.68929623067379 4527.3460965305567 48.731475710868835 35.241439625620842 19.993005260825157 24.736775040626526 125.82266944646835 110.1022447347641 2601.0855774283409 18.490760162472725 22.974274858832359 18.708172425627708 132.67838518321514 56.780293643474579 847.19738015532494 29.479451015591621 39.228359460830688 50.721966505050659 108.42013239860535 1575.8775271475315 67.903140649199486 1799.445866972208 484.46813441812992 36.987032309174538 5589.66688375175 474.20852164924145 25.731952473521233 25.987456247210503 35.474781155586243 40.73839920759201
leaf_count=60 159 383 73 277 228 4917 932 516 829 6778 64 62 64 496 532 781 82 87 3566 377 180 272 1954 1633 526 590 344 73 386 110 6696 176 947 18113 195 141 80 99 504 441 10407 74 92 75 532 228 3393 118 157 203 434 6307 272 7199 1939 148 22364 1898 103 104 142 163
internal_value=-0.000104735 -0.000844596 -0.00115287 0.0041186 0.0016004 0.00404042 -0.00312283 -0.0068663 -0.00123538 -0.0044174 -0.00076968 -0.000294312 -0.00543242 -0.00657214 -0.0103388 -7.45959e-05 -0.000742887 -0.0121616 -0.00559787 -0.00309555 -0.0326028 -0.0286063 -0.00556465 0.00744569 0.00215182 0.000932203 -0.00477014 0.0109604 0.00628348 0.0347747 -0.000510723 -0.00187533 -0.0134899 0.00120867 -0.0263339 -0.0157741 -0.0352095 0.00290351 0.0106636 -0.000390159 0.00146851 0.0227979 0.00571711 -0.00604997 -0.00614511 0.00200422 0.00674009 0.00305066 0.0130489 0.0060237 0.00960999 -0.00529308 0.00473284 -0.0012431 0.0041763 0.00710685 -0.0023583 0.00997392 0.0120471 -0.0150567 -0.0124298 -0.00826054
internal_weight=27753.9 23616.6 22694.2 4137.26 2354.89 1756.66 528.735 471.816 22599.5 2885.27 19714.2 17890.3 1823.92 1717.97 382.961 17507.3 14298.7 284.926 2678.2 1787.93 60.7009 89.7209 598.225 1782.37 711.187 696.202 438.974 1071.18 663.563 45.6969 14013.7 7812.95 403.338 6200.8 147.941 99.2093 63.9679 3208.64 257.228 342.916 2667.29 66.2018 41.465 255.397 322.26 189.582 922.388 291.653 105.945 89.9503 205.803 1594.04 176.323 7409.61 617.866 521.455 5610.16 541.348 499.94 41.408 75.1907 529.026
internal_count=111075 94510 90816 16565 9428 7034 2117 1889 90433 11550 78883 71583 7300 6876 1536 70047 57208 1140 10721 7155 244 359 2394 7137 2848 2788 1758 4289 2656 183 56068 31259 1614 24809 592 397 256 12839 1030 1373 10672 265 166 1022 1292 760 3694 1168 424 360 824 6380 706 29645 2473 2087 22446 2167 2001 166 301 2117
is_linear=0
shrinkage=0.05


Tree=12
num_leaves=63
num_cat=0
split_feature=3 2 4 8 7 11 5 1 11 1 1 8 11 1 1 11 4 11 11 1 7 9 8 8 4 5 1 7 7 8 7 4 1 1 4 6 11 4 1 11 4 10 3 11 4 2 2 7 5 6 4 2 9 11 8 7 7 4 11 9 4 2
split_gain=29.1092 19.2488 14.2165 23.1864 19.8619 18.9 14.0678 13.7753 16.2996 20.8211 19.4297 22.8721 24.1867 16.1867 15.8846 17.8906 14.2953 13.5009 18.4932 17.5348 17.357 14.0086 12.9151 12.6308 21.1193 13.0784 12.7169 12.62 25.1859 23.1562 15.9094 13.6536 12.6029 12.4384 12.3966 12.7498 12.332 13.4148 12.4401 12.3164 12.1392 22.192 28.2872 23.379 18.0771 21.4961 24.7586 17.8462 20.6643 16.779 15.9509 15.589 15.0581 21.3257 21.1379 28.0078 20.9605 19.6213 21.0918 16.4605 22.6746 20.1472
threshold=40.981681393068968 0.78958841298047433 0.21770833333333336 1769.9962050000001 1792.6639700000003 817.25000000000148 0.00041756069930509737 0.54596084260142475 824.50000000000057 0.26142732593868345 0.31772587588584672 1784.6040475000002 842.79999999999984 0.32815367443031968 0.9027002979047557 507.00000000000506 0.81354166666666672 371.00000000000369 415.99999999999687 0.15166045315854992 1826.1678400000003 1.0000000180025095e-35 1820.7958375000003 1755.0058600000004 0.57951388888888899 -0.00010015910152511019 0.4009567813349238 1797.1826400000002 1802.4163700000001 1785.4256625 1782.6118300000003 0.8031250000000002 0.53304119115399795 0.76435703541723898 0.67881944444444453 -0.0009582076900145341 696.20000000001039 0.012847222222222223 0.18149129948977796 724.20000000000766 0.59201388888888895 2.5000000000000004 59.010935156409722 807.29999999998665 0.99131944444444453 1.5050566050525485 1.3639993844617475 1753.7267800000002 0.00049588476609208076 -0.0004329527637789154 0.64201388888888899 0.77876100329752018 3.5000000000000004 444.15000000000197 1755.0058600000004 1762.3869400000001 1786.2605500000002 0.035069444444444452 770.00000000000466 1.5000000000000002 0.30520833333333341 0.98950090032654081
decision_type=2 2 2 2 2 2 2 2 2 2 2 2 2 2 2 2 2 2 2 2 2 2 2 2 2 2 2 2 2 2 2 2 2 2 2 2 2 2 2 2 2 2 2 2 2 2 2 2 2 2 2 2 2 2 2 2 2 2 2 2 2 2
left_child=1 2 3 -1 -5 34 7 8 16 -10 -11 23 -13 -14 15 -9 32 19 20 -2 21 -19 -18 26 25 -25 -12 29 31 30 33 -29 -3 -17 35 -4 37 38 -6 -36 49 42 44 51 45 46 -42 -43 -49 -20 -45 -44 54 56 -51 -56 -54 58 -57 60 -59 -61
right_child=17 6 5 4 36 -7 -8 14 9 10 11 12 13 -15 -16 27 22 18 40 -21 -22 -23 -24 24 -26 -27 -28 28 -30 -31 -32 -33 -34 -35 39 -37 -38 -39 -40 -41 41 47 43 50 -46 -47 -48 48 -50 52 -52 -53 53 -55 55 57 -58 59 -60 61 -62 -63
leaf_value=-0.036409202604208067 -0.041992865127953131 0.0062213624620132144 0.039349955030938057 0.016322180637352714 -0.023284594508785641 0.026831642245536792 -0.022106801904186294 -0.0009419535920983952 0.016115331229172164 -0.020004666180476832 0.025359950912915864 -0.032264845781001271 0.043877075369013696 -0.0045437847864867901 0.00028443816408529231 0.012174191262724711 0.00032788285358281819 -0.019200790809445388 -0.0094531770816439487 -0.0048909889572345423 -0.040452886825567004 0.0069877323152452474 -0.025790194422888053 -0.0011110546435688119 0.044549634258130653 0.039776829175023176 -0.031352461527614194 -0.060462519576840894 0.01525173738572813 0.0404719298662016 -0.021277643822538207 -0.0015300617800695659 -0.037306439198747342 0.04572847873681217 -0.0075999826277845812 -0.0027635039174179698 0.0014459573560624325 -0.029701855965960075 0.039159349715948005 -0.058635308488184268 0.0018790116448193922 0.024943183550329803 0.012942600779839561 0.025697040421939411 -0.026879120145159821 0.054795212346755863 -0.022976258663751237 0.0054659791003621692 -0.0045835179461345714 0.015279133609967688 -0.0023141927547199992 -0.014605711178144918 0.04446826528929046 0.00015247609052162575 -0.035278347782043584 0.041562531079845033 -0.014493035500941729 -0.0084655991647302354 -0.0096478911554610872 -0.0064418393632940914 0.0059873775134626928 -0.022599328936018823
leaf_weight=72.552889361977577 32.723244428634644 2738.4372199475765 21.719218567013741 80.877775818109512 16.434013858437542 68.125030159950256 50.396910026669502 178.00577218830585 133.94235914945602 174.44260945916176 14.997414588928221 81.194798365235329 17.997912779450417 420.80284884572029 346.83595947921276 136.21032911539078 173.32672341167927 53.216996103525162 690.86459046602249 1187.3219537287951 20.485655516386032 1261.9397726356983 65.112913981080055 101.40871684253216 52.445341289043427 24.230047851800919 28.995522528886795 17.473688751459122 267.56889651715755 127.54776076972485 28.661096513271332 22.462790206074715 16.731060922145844 34.643585696816444 36.47222413122654 104.17456366121769 97.396961852908134 112.41793845593929 15.497337475419043 17.491134166717529 3189.239162877202 98.031265124678612 54.976250946521759 57.732068374752998 57.483865112066269 18.744081601500511 103.44056759774685 2333.158956810832 655.17319437861443 124.07278700172901 424.68291173875332 779.23470070958138 15.730843573808668 7954.6477984338999 78.400805398821831 45.990124672651291 360.59318216145039 555.29197576642036 35.725507944822311 861.46865038573742 530.74977250397205 248.61166478693485
leaf_count=292 132 10964 87 324 66 273 202 713 536 698 60 325 72 1684 1391 546 694 213 2764 4756 82 5050 261 406 210 97 116 70 1072 512 115 90 67 139 146 417 390 450 62 70 12759 394 220 231 230 75 414 9336 2623 498 1700 3120 63 31828 314 184 1443 2222 143 3447 2124 995
internal_value=6.65533e-05 0.0031836 -0.00498102 -0.0108698 -0.00512634 0.00440307 0.00418308 0.0044377 0.00306023 -0.00229845 -0.0049895 -0.00145981 -0.00719637 -0.00255775 0.00924238 0.013066 0.00494059 -0.000775477 -0.00047294 -0.00588611 0.00521665 0.00592803 -0.00680442 0.0119724 0.0178991 0.00677437 -0.0120189 0.0169954 0.00972347 0.0238325 0.013195 -0.0273152 0.00595704 0.0189779 -0.00409226 0.00450192 -0.0123021 -0.0215783 0.00702151 -0.0241421 -0.000867214 0.000659315 -0.00150913 -0.00772353 0.000919559 0.00140212 0.00109818 0.00395132 0.00326269 -0.00189868 0.001038 -0.0127902 -0.00141593 -0.000397753 -0.00483581 -0.00589501 -0.0120284 -0.00488366 0.0191737 -0.00577881 -0.00140241 -0.0100604
internal_weight=27726.8 5897.03 643.159 395.177 322.624 247.982 5253.87 5203.48 4044.07 1050.46 916.515 742.073 519.996 438.801 1159.41 812.574 2993.61 21829.7 20609.7 1220.05 1335.64 1315.16 238.44 222.077 178.084 125.639 43.9929 634.568 307.505 327.063 199.515 39.9365 2755.17 170.854 179.857 125.894 241.746 144.349 31.9314 53.9634 19274 7771.9 4685.53 1316.63 3368.91 3311.42 3292.68 3086.36 2988.33 11502.1 482.415 834.211 10811.3 8330.97 2480.31 2356.24 376.324 2277.84 81.7156 2196.12 1086.04 1110.08
internal_count=110977 23617 2577 1584 1292 993 21040 20838 16190 4204 3668 2970 2081 1756 4648 3257 11986 87360 82472 4888 5345 5263 955 889 713 503 176 2544 1232 1312 800 160 11031 685 720 504 968 578 128 216 77127 31102 18749 5271 13478 13248 13173 12353 11959 46025 1931 3340 43261 33334 9927 9429 1506 9115 327 8788 4346 4442
is_linear=0
shrinkage=0.05


end of trees

feature_importances:
AsianRangePips=100
SMA200=87
SMA50=85
ATR14=80
VolRank=80
ATR50=76
ATR_ratio=75
RSI14=62
Mom_20=60
Mom_5=36
HOUR=36
DOW=29

parameters:
[boosting: gbdt]
[objective: binary]
[metric: binary_logloss,auc]
[tree_learner: serial]
[device_type: cpu]
[data_sample_strategy: bagging]
[data: ]
[valid: ]
[num_iterations: 2000]
[learning_rate: 0.05]
[num_leaves: 63]
[num_threads: 0]
[seed: 57]
[deterministic: 0]
[force_col_wise: 0]
[force_row_wise: 0]
[histogram_pool_size: -1]
[max_depth: -1]
[min_data_in_leaf: 60]
[min_sum_hessian_in_leaf: 0.001]
[bagging_fraction: 0.8]
[pos_bagging_fraction: 1]
[neg_bagging_fraction: 1]
[bagging_freq: 2]
[bagging_seed: 30554]
[bagging_by_query: 0]
[feature_fraction: 0.9]
[feature_fraction_bynode: 1]
[feature_fraction_seed: 30558]
[extra_trees: 0]
[extra_seed: 6244]
[early_stopping_round: 0]
[early_stopping_min_delta: 0]
[first_metric_only: 0]
[max_delta_step: 0]
[lambda_l1: 0]
[lambda_l2: 0]
[linear_lambda: 0]
[min_gain_to_split: 0]
[drop_rate: 0.1]
[max_drop: 50]
[skip_drop: 0.5]
[xgboost_dart_mode: 0]
[uniform_drop: 0]
[drop_seed: 23688]
[top_rate: 0.2]
[other_rate: 0.1]
[min_data_per_group: 100]
[max_cat_threshold: 32]
[cat_l2: 10]
[cat_smooth: 10]
[max_cat_to_onehot: 4]
[top_k: 20]
[monotone_constraints: ]
[monotone_constraints_method: basic]
[monotone_penalty: 0]
[feature_contri: ]
[forcedsplits_filename: ]
[refit_decay_rate: 0.9]
[cegb_tradeoff: 1]
[cegb_penalty_split: 0]
[cegb_penalty_feature_lazy: ]
[cegb_penalty_feature_coupled: ]
[path_smooth: 0]
[interaction_constraints: ]
[verbosity: -1]
[saved_feature_importance_type: 0]
[use_quantized_grad: 0]
[num_grad_quant_bins: 4]
[quant_train_renew_leaf: 0]
[stochastic_rounding: 1]
[linear_tree: 0]
[max_bin: 255]
[max_bin_by_feature: ]
[min_data_in_bin: 3]
[bin_construct_sample_cnt: 200000]
[data_random_seed: 224]
[is_enable_sparse: 1]
[enable_bundle: 1]
[use_missing: 1]
[zero_as_missing: 0]
[feature_pre_filter: 1]
[pre_partition: 0]
[two_round: 0]
[header: 0]
[label_column: ]
[weight_column: ]
[group_column: ]
[ignore_column: ]
[categorical_feature: ]
[forcedbins_filename: ]
[precise_float_parser: 0]
[parser_config_file: ]
[objective_seed: 6962]
[num_class: 1]
[is_unbalance: 1]
[scale_pos_weight: 1]
[sigmoid: 1]
[boost_from_average: 1]
[reg_sqrt: 0]
[alpha: 0.9]
[fair_c: 1]
[poisson_max_delta_step: 0.7]
[tweedie_variance_power: 1.5]
[lambdarank_truncation_level: 30]
[lambdarank_norm: 1]
[label_gain: ]
[lambdarank_position_bias_regularization: 0]
[eval_at: ]
[multi_error_top_k: 1]
[auc_mu_weights: ]
[num_machines: 1]
[local_listen_port: 12400]
[time_out: 120]
[machine_list_filename: ]
[machines: ]
[gpu_platform_id: -1]
[gpu_device_id: -1]
[gpu_use_dp: 0]
[num_gpu: 1]

end of parameters

pandas_categorical:[]
