tree
version=v4
num_class=1
num_tree_per_iteration=1
label_index=0
max_feature_idx=11
objective=binary sigmoid:1
feature_names=ATR14 ATR50 ATR_ratio RSI14 VolRank Mom_5 Mom_20 SMA50 SMA200 HOUR DOW AsianRangePips
feature_infos=[0.042744467231107079:9.1897404722124456] [0.0802067213707892:4.3341403804014877] [0.36465306665014613:2.5970916638107413] [5.7336818216538159:92.159905580657025] [0.00069444444444444447:1] [-0.011453700611153028:0.018090522051041447] [-0.037233751144205129:0.01570992515284142] [1701.74712:1914.99982] [1721.9326550000001:1912.9011800000001] [0:23] [0:4] [269.99999999998181:9396.0000000000036]
tree_sizes=6885 6925 6892 6902 6873

Tree=0
num_leaves=63
num_cat=0
split_feature=3 1 7 9 7 9 3 2 0 11 1 7 2 1 1 11 11 11 8 10 11 3 2 10 1 8 9 3 1 9 0 7 4 8 2 3 2 1 3 11 2 7 9 11 2 11 1 9 3 2 3 7 4 2 2 7 1 11 4 8 2 3
split_gain=68.0122 59.2206 35.6202 48.6748 37.8681 32.5499 32.1542 30.1777 25.1916 25.0296 23.6082 22.9081 22.8957 21.5942 35.0393 20.9549 20.6439 19.4553 19.1846 19.1006 24.19 20.4691 21.2122 18.8485 23.6273 19.2634 18.4747 18.3054 18.0365 22.0024 17.7035 17.6504 17.4852 17.4774 17.0709 16.5491 28.3862 16.4728 17.5861 16.3083 27.2216 17.2859 15.9031 15.8412 26.2805 32.8535 21.0219 18.8287 17.8063 16.5375 16.7997 27.5993 34.1026 22.8093 16.8571 14.7821 15.0718 20.0408 14.7591 14.7324 15.6601 14.6762
threshold=29.125701801497261 0.3255658217574971 1801.7807000000005 3.5000000000000004 1731.7450700000002 15.500000000000002 51.247236641277858 0.7770721536318399 0.46863235866856673 899.69999999999584 1.3286295003710027 1728.3802700000003 1.3238575600426488 0.39240867991231415 0.51732597628681443 569.00000000000557 899.69999999999584 1102.499999999998 1798.8526425000002 1.0000000180025095e-35 1229.5000000000075 56.276384684853745 0.96091840988090149 3.5000000000000004 0.42948421682497689 1808.8027775000003 8.5000000000000018 66.417956706186814 0.47263502942688768 9.5000000000000018 0.24591437499408417 1909.0080800000003 0.6815972222222223 1750.7141025000001 1.0240272971648487 48.118115864752532 1.2153222171616449 0.23649819415225362 64.757335794829928 484.64999999999924 0.86172474591601689 1804.1907700000002 20.500000000000004 841.99999999999602 0.81717076136056521 1046.7499999999975 0.64747981781026198 17.500000000000004 44.285367429996704 0.68439706939523892 53.164068547038141 1808.2934800000003 0.80451388888888908 0.88022677751406464 0.79454214183700289 1788.3025000000002 0.36528380015165057 716.50000000000784 0.92534722222222243 1801.1855725000003 1.0563806854102851 25.065775111596359
decision_type=2 2 2 2 2 2 2 2 2 2 2 2 2 2 2 2 2 2 2 2 2 2 2 2 2 2 2 2 2 2 2 2 2 2 2 2 2 2 2 2 2 2 2 2 2 2 2 2 2 2 2 2 2 2 2 2 2 2 2 2 2 2
left_child=26 7 3 4 27 6 10 11 32 12 18 -2 23 -7 -15 -5 -13 -18 -4 21 -21 22 -9 24 -8 -26 55 -3 29 -28 -22 -20 33 -6 39 -35 -37 38 -23 40 41 -16 -17 49 46 47 -45 -46 -48 -41 51 -51 53 -53 -54 56 57 -1 -36 60 -31 -57
right_child=1 2 5 15 8 13 9 19 -10 -11 -12 16 -14 14 34 42 17 -19 31 20 30 37 -24 -25 25 -27 28 -29 -30 59 -32 -33 -34 35 58 36 -38 -39 -40 43 -42 -43 -44 44 45 -47 48 -49 -50 50 -52 52 54 -55 -56 61 -58 -59 -60 -61 -62 -63
leaf_value=0.0029522364068368945 0.023377185393001081 0.034162000333082684 -0.076355620852556649 -0.018151963969598717 -0.00051621165569891783 -0.0095941966484751999 -0.027159232827863471 -0.024055812976290981 -0.0041143683964150017 -0.024701896012734065 0.028930779233347467 -0.039862658877744497 -0.014666068632021228 -0.032790897326515564 -0.013852450644348265 -0.024438420015405252 -0.014340545838708956 -0.039113182780756386 -0.024263435760907406 -0.027997246462329546 -0.026747147611971289 -0.036956144516686426 -0.0088816776122639107 -0.049079075508415296 -0.058622980855613446 -0.037049920781611859 -0.062726790549977027 -0.026443277619233346 -0.0089566872518665429 -0.01956193771488798 -0.060155989724537964 -0.056304711356112265 0.011133938680821947 -0.013855661208607916 -0.063282242734347294 -0.032652323027455847 0.035072515405191504 -0.024787993904601187 -0.083684051017962224 0.015055562288811827 0.0059665479776003123 -0.075567225094274243 -0.0092038711301040861 -0.018938334509467435 -0.038599285297099245 0.033508671994604097 -0.017814489083986546 0.012617494089592864 -0.075437146065701677 0.032062608102528603 -0.020905892849554825 0.020098816118709433 -0.059555864739357603 -0.046619892006462202 -0.015531445061712178 0.02028839318093122 0.011198340946806652 -0.038511037580186383 -0.017160256283061913 -0.03576712482315389 0.020089031243138347 -0.0052915610788101496
leaf_weight=45.480651170015335 16.304333820939064 60.46159365773201 18.108046516776085 1840.1168718189001 88.126846164464951 362.49440671503544 584.3977587223053 572.98458547890186 381.7899603843689 749.90673790872097 20.395113870501518 981.16352546215057 121.42835192382336 584.47963908314705 16.225951984524727 7520.3364727646112 179.74179570376873 141.76817794144154 2925.6118507087231 5926.6058135777712 64.542808592319489 101.36332756280899 385.10648718476295 276.10642027854919 123.01173201203346 651.64963488280773 36.531369641423225 15.693376064300535 300.11631016433239 117.80482959747314 102.82563637197018 43.621650621294975 43.494047522544861 246.17801320552826 36.024921000003815 413.26558992266655 16.07397086918354 306.08615145087242 25.126477479934692 66.16491436958313 25.163919135928154 37.728907138109207 175.29479886591434 65.114575430750847 60.906222626566887 35.71267768740654 18.751663371920586 25.440004825592041 47.036154717206955 47.182888045907021 241.14140333235264 83.014887750148773 35.538067817687988 15.147736504673956 56.018095344305038 89.637911006808281 41.205230906605721 81.124977365136147 33.451737612485886 102.89573712646961 31.576174899935722 149.74853566288948
leaf_count=179 64 237 72 7262 347 1429 2309 2263 1504 2962 80 3883 479 2311 64 29703 709 561 11555 23419 255 401 1518 1094 488 2578 145 62 1183 465 408 173 171 971 143 1634 63 1209 100 260 99 150 691 257 241 140 74 100 187 185 952 326 141 60 221 352 162 321 132 407 124 590
internal_value=-0.0247088 -0.025182 -0.0235541 -0.0217227 -0.0125073 -0.0262246 -0.0281665 -0.0285489 -0.0146967 -0.032349 -0.0246811 -0.0355224 -0.0356136 -0.0205671 -0.0231665 -0.0229453 -0.0362596 -0.0252639 -0.0250471 -0.02732 -0.0285266 -0.0220326 -0.0179565 -0.0371692 -0.0347495 -0.0404756 -0.0118784 0.021673 -0.0175404 -0.0264603 -0.0472724 -0.0247342 -0.0197023 -0.0214586 -0.0172186 -0.0241908 -0.0301168 -0.0310603 -0.0462384 -0.0153271 -0.0369785 -0.0570076 -0.0240914 -0.0131783 -0.0235164 -0.00682673 -0.0390786 -0.0235094 -0.0590128 -0.0083728 -0.0116155 -0.00215879 -0.0106696 0.00980327 -0.0326198 -0.00368937 -0.0150676 -0.0236161 -0.0410754 -0.0212086 -0.0111805 0.00428682
internal_weight=28007.5 27011.4 18207.8 10800.8 1265.08 7406.98 5514.24 8803.62 1188.93 2506.5 3007.74 1318.98 1756.59 1892.74 1530.24 9535.75 1302.67 321.51 2987.34 7484.64 6093.97 1390.67 958.091 1635.17 1359.06 774.661 996.122 76.155 588.924 288.808 167.368 2969.23 807.138 763.644 945.765 675.518 429.34 432.576 126.49 876.288 79.1188 53.9549 7695.63 797.169 252.961 122.059 130.902 86.3462 65.7878 544.208 478.043 236.902 189.719 98.1626 91.5562 407.197 167.811 126.606 69.4767 252.277 149.381 239.386
internal_count=110625 106697 71907 42645 4989 29262 21790 34790 4690 9910 11880 5217 6948 7472 6043 37656 5153 1270 11800 29573 24082 5491 3781 6469 5375 3066 3928 299 2324 1141 663 11728 3186 3015 3732 2668 1697 1710 501 3457 313 214 30394 3144 999 481 518 341 261 2145 1885 933 748 386 362 1604 662 500 275 996 589 942
is_linear=0
shrinkage=1


Tree=1
num_leaves=63
num_cat=0
split_feature=5 7 1 1 1 2 7 9 4 6 7 11 11 7 4 9 1 7 1 6 9 9 8 1 1 9 1 11 1 2 11 11 11 7 7 8 5 10 9 9 1 7 8 6 11 2 8 4 6 9 8 11 11 1 7 10 9 7 11 7 9 6
split_gain=71.3565 37.7075 32.6363 37.8931 29.1956 28.2262 19.77 26.1643 23.7468 18.9828 20.9435 18.3603 22.2644 17.9788 19.8297 22.186 19.3783 18.41 16.744 16.6137 19.296 28.3919 19.0415 16.1439 15.7071 15.1403 26.3671 22.983 23.7394 20.4532 19.0898 19.0796 18.7764 17.1582 15.9054 23.0369 15.778 15.4003 14.9924 14.8603 14.7713 20.7755 16.2932 15.4878 14.6234 18.184 16.3181 15.0527 15.6095 15.5784 14.5607 14.3602 14.7536 14.2458 13.9237 16.0073 25.4202 20.3368 14.9215 18.1082 16.2921 18.5857
threshold=-0.00019644616665170919 1728.3802700000003 0.3255658217574971 0.38647333231950121 0.58096080597300914 0.7770721536318399 1800.1636200000005 4.5000000000000009 0.64409722222222243 0.00018802296616127204 1804.4696300000003 899.69999999999584 1217.8500000000101 1751.0996900000002 0.2260416666666667 19.500000000000004 0.36528380015165057 1758.5263100000002 0.34952766141435559 -0.0010977630882585407 8.5000000000000018 13.500000000000002 1749.8011950000002 0.52715950553797308 0.36342463357979632 5.5000000000000009 0.27840888732618663 1217.8500000000101 0.27668997404752066 0.92540170501922359 657.30000000000939 664.00000000001012 448.85000000000451 1759.3203400000004 1801.5246900000004 1786.4136075000001 -5.6499314054325727e-05 2.5000000000000004 4.5000000000000009 18.500000000000004 0.24989006606914041 1753.6251400000001 1751.1525250000002 6.7224569742951892e-05 645.15000000000111 0.67679979413427882 1794.2547125000003 0.65659722222222239 -0.00084273533055700945 8.5000000000000018 1777.7928650000001 873.40000000000384 1378.3000000000018 0.40791928544460593 1731.7450700000002 2.5000000000000004 7.5000000000000009 1743.0463500000003 1252.200000000005 1778.2685900000004 12.500000000000002 0.0006971785679318333
decision_type=2 2 2 2 2 2 2 2 2 2 2 2 2 2 2 2 2 2 2 2 2 2 2 2 2 2 2 2 2 2 2 2 2 2 2 2 2 2 2 2 2 2 2 2 2 2 2 2 2 2 2 2 2 2 2 2 2 2 2 2 2 2
left_child=19 -2 5 13 6 11 7 23 9 10 -8 -3 -13 16 17 24 38 -15 -17 20 22 -22 -1 -5 -16 27 36 30 33 32 -7 -32 -28 -29 35 50 -27 -31 -4 -12 41 42 -33 -42 45 -9 47 49 -49 -47 -34 -19 -53 -51 -6 58 -57 -58 59 60 61 -56
right_child=1 2 3 4 54 25 8 44 -10 -11 39 12 -14 14 15 18 -18 51 -20 -21 21 -23 -24 -25 -26 26 29 28 -30 37 31 40 34 -35 -36 -37 -38 -39 -40 -41 43 -43 -44 -45 -46 46 -48 48 -50 53 -52 52 -54 -55 55 56 57 -59 -60 -61 -62 -63
leaf_value=0.067270394254713928 0.022841370759657597 -0.013582971567006 0.022240629078755379 0.0073677206737296462 -0.027777862768152015 -0.0073877561156934007 -0.016767987292896688 -0.049712067770043007 -0.011590850820522604 -0.0081545637466753692 0.003353759768431293 0.009614091155888644 -0.019915009033722165 -0.037846315986128226 0.0085061895984734018 0.0024782896372799361 0.040991012105317248 -0.011067217338609029 0.036743109739021354 0.0041331600171520128 -0.0024378148001716819 0.01398391237330231 0.017887506487136252 0.038447971647203878 -0.00013666593023983818 0.011119137011165296 -0.043531172284370652 0.028719195015350037 -0.053674714148057301 0.0067005534972096039 0.029058238224805862 0.0030873700987687769 -0.013486183486665138 -0.023721634550376566 -0.00036410603247288354 -0.039248158147294189 0.0012200579578429843 -0.009995305878554038 -0.01327316420603651 0.026204464764538155 -0.0028485632078134836 -0.010042428334275938 0.051320721828247186 0.011461276484997472 -0.0042295032075582691 0.036217172193676116 0.023004557106793191 0.042036642740754582 -0.0099822318378322492 -0.014781573852443034 0.031153189785026122 0.01738401011849397 -0.016547533689836188 0.0098844310243134097 0.013661029868148315 0.027326810343106234 0.055287659385829427 -0.0026499903624507526 -0.0036041587916018172 0.0044328322578731085 0.019517876443067402 -0.028973012429829262
leaf_weight=20.940931424498558 172.1486564874649 943.02657894790173 76.681100845336914 476.15282320976257 36.82756944000721 1547.1792143434286 120.22919461131096 15.596558168530462 1100.4244619160891 722.62953542172909 717.16057275235653 209.12073624134064 91.87975025177002 39.551263228058815 1387.0052734166384 54.958576112985611 72.28399920463562 198.44459080696106 101.50012743473053 5886.1875054091215 455.01442456245422 624.38976801931858 287.76499362289906 45.799737006425858 846.51308473944664 537.67384123802185 46.56751923263073 22.106441140174866 46.729111403226852 369.14855071902275 56.660034596920013 65.079811781644821 126.59493845701218 52.981282249093056 215.65419244766235 88.907081127166748 1601.5314099192619 220.69001099467278 48.522951051592827 78.985254853963852 387.41197000443935 529.11787956953049 23.952608644962311 369.36446863412857 2117.1883481889963 44.003561556339264 106.39167664945126 15.272969916462896 258.65879334509373 74.289883852005005 21.348396092653275 126.10348704457283 42.945427253842354 276.05123746395111 69.740305989980698 77.230742424726486 15.298720121383665 1518.5566283017397 346.39596621692181 1275.4669190198183 444.643420830369 40.354026898741722
leaf_count=82 678 3733 302 1879 146 6118 476 62 4354 2858 2832 825 364 157 5473 217 284 785 399 23240 1798 2462 1134 180 3344 2121 185 87 186 1457 223 257 501 210 852 353 6326 873 192 311 1531 2093 94 1457 8368 173 419 60 1023 294 84 497 170 1089 275 304 60 6001 1369 5036 1752 160
internal_value=0.0010328 -0.000462133 -0.000657247 0.00086386 -0.000614529 -0.00326607 -0.00274247 -0.000212639 -0.00590949 -0.00209504 0.00268334 -0.0101512 0.000600397 0.00579757 0.00476811 0.00650553 0.0203778 -0.0054332 0.0247071 0.00529355 0.0102141 0.00706146 0.0212374 0.0100949 0.00523051 -0.00191267 0.000484107 -0.00440803 -0.0256951 -0.00584958 -0.00353749 0.00062366 -0.0132993 -0.00828262 -0.0101881 -0.019133 0.00370812 0.000453744 0.00847722 0.00562077 -0.000548114 -0.00628235 0.0160637 0.00413573 -0.00206308 0.00374098 0.00481716 0.00192167 -0.00708194 0.00817603 -0.00704467 -0.00194476 0.00876399 0.004654 0.00281778 0.00311526 -0.00066282 -0.00207212 0.00591174 0.00771278 0.0152541 -0.00196607
internal_weight=28007 20732.7 20560.6 12987.9 9993.35 7572.73 6168.83 3429.41 2739.43 1639 916.375 1244.03 301 2994.51 2797.02 2389.98 197.488 407.045 156.459 7274.3 1388.11 1079.4 308.706 521.953 2233.52 6328.7 3228.12 3100.58 121.817 1088.91 2978.77 1431.59 499.072 75.0877 452.505 236.85 2139.21 589.839 125.204 796.146 1374.93 618.15 89.0324 756.776 2907.45 790.265 774.668 668.276 273.932 394.345 147.943 367.494 169.049 350.341 3824.51 3787.69 1611.09 1533.86 2176.6 1830.2 554.738 110.094
internal_count=110625 81909 81231 51301 39481 29930 24378 13547 10831 6477 3619 4922 1189 11820 11042 9433 778 1609 616 28716 5476 4260 1216 2059 8817 25008 12752 12256 483 4305 11773 5655 1975 297 1790 938 8447 2330 494 3143 5432 2444 351 2988 11488 3120 3058 2639 1083 1556 585 1452 667 1383 15103 14957 6365 6061 8592 7223 2187 435
is_linear=0
shrinkage=0.05


Tree=2
num_leaves=63
num_cat=0
split_feature=5 8 3 1 8 8 9 8 6 7 3 7 1 9 11 6 2 1 11 6 9 8 1 2 0 6 5 10 6 0 3 10 3 2 2 1 10 3 11 11 8 9 2 11 3 1 2 8 2 7 7 9 5 7 0 3 11 6 1 6 3 7
split_gain=75.7732 39.8066 40.1739 31.4499 40.157 37.58 29.7135 27.1125 25.2582 20.3547 19.0794 17.1274 22.2539 28.7873 21.6311 21.43 26.5509 25.1553 17.9487 18.7088 16.5409 16.3561 17.3694 16.244 18.8631 15.2303 15.099 14.9585 14.4764 14.3681 14.1278 17.9985 18.1725 16.9388 18.0018 15.3416 14.9676 14.0272 19.0336 13.8496 13.8212 13.3689 13.2767 12.9672 12.6311 12.4295 12.4257 20.4914 12.0058 15.6701 27.466 17.6453 25.0351 14.2116 16.155 13.521 16.6966 12.6658 11.9687 11.8798 11.7678 11.7518
threshold=-0.00028541138885596057 1750.4380350000004 36.358205966176719 0.19865126198015873 1808.8027775000003 1795.6809100000003 3.5000000000000004 1891.6004450000003 -5.6341742016796641e-05 1794.8844600000002 26.126956375513252 1815.0084000000004 0.30690953657838888 15.500000000000002 1613.6500000000071 -0.00031480094686153754 0.85245813311455398 0.37786403758137038 915.09999999999548 0.00021409752103285221 8.5000000000000018 1812.1359525000003 0.2226800347080358 0.81064081587651227 0.34925472318467404 -0.00018599712520361852 0.00012711817896782221 2.5000000000000004 -0.00073887628585261867 0.21486836208695731 44.285367429996704 1.5000000000000002 71.562006048722239 0.79914017301626183 1.1941407498881305 0.24417342463116085 2.5000000000000004 56.276384684853745 706.00000000000603 352.99999999999733 1884.9802150000003 10.500000000000002 1.1748064050896783 720.00000000000466 45.889383194726825 0.54031127401197099 0.81937902198720181 1815.7696225000002 1.0722308377913889 1892.69354 1892.2114400000003 16.500000000000004 0.00052321961299806052 1900.3227300000001 0.5126402384840183 50.41905419103027 831.64999999999065 0.00071190961758349502 0.7295293313325778 -0.00032196752467561479 30.693242722740546 1789.7699900000005
decision_type=2 2 2 2 2 2 2 2 2 2 2 2 2 2 2 2 2 2 2 2 2 2 2 2 2 2 2 2 2 2 2 2 2 2 2 2 2 2 2 2 2 2 2 2 2 2 2 2 2 2 2 2 2 2 2 2 2 2 2 2 2 2
left_child=10 6 7 4 5 8 -2 23 42 37 20 21 18 15 48 16 40 -18 26 27 43 -5 -23 24 25 -3 -13 -20 -8 -21 36 33 35 -32 -35 -33 -30 38 -10 -6 -14 -28 -4 -1 -41 -25 58 -48 49 50 51 57 -53 54 -51 -55 -57 -15 -24 -7 -47 -45
right_child=1 2 3 11 39 59 28 -9 9 -11 -12 12 13 14 -16 -17 17 -19 19 29 -22 22 46 45 -26 -27 41 -29 30 -31 31 32 -34 34 -36 -37 -38 -39 -40 44 -42 -43 -44 61 -46 60 47 -49 -50 53 -52 52 -54 55 -56 56 -58 -59 -60 -61 -62 -63
leaf_value=0.04752383181436029 0.022415819133366342 -0.015527125029250542 0.013819021793724712 -0.00027340905706299697 -0.031715114908209462 -0.063619739238694559 0.020369355079280772 0.033717052536937651 -0.024549959401521718 0.036478989916308262 0.0055915562126908442 -0.0090712966108921819 -0.0086224214581641107 0.035032057207896976 -0.022059433435403994 -0.0065307222765584655 0.034006735414506287 0.0031603840238873036 0.022266485605359061 -0.06101321650101748 0.0094183660665271476 -0.024987098283486178 0.014098488452002643 0.010944613600086008 0.03217951423897935 0.027265585436847019 -0.016347689367619694 -0.011590787903008992 -0.0039587855941602655 -0.0071037258657287916 -0.025137349063700368 0.050775242811207648 -0.026761208541063786 0.0043370388218898033 -0.042508394693896279 0.01092404427740612 -0.046437465068697593 -0.027406156824967803 0.0057885587105625759 0.016959850633879042 -0.060269901994892378 -0.043211151269310549 -0.034954166883012165 -0.00015969658415210242 -0.00058839623514206384 0.026473651819473823 0.0074913288087909485 -0.024553686982734361 -0.019415399038383394 0.034549907396654728 -0.040889434113060716 0.0048779214881036819 -0.049995951390869729 0.027046563076705006 -0.0013435460683763481 0.0086645242019135794 -0.041443516454032853 0.0017888029639855565 0.04929085848216775 -0.025675474726287246 -0.016046858256288307 0.035367047179720834
leaf_weight=61.146253600716591 282.35065610706806 189.18806843459606 151.3622357994318 12971.845954447985 28.483335241675377 22.092025488615036 125.89213810861111 94.570456698536873 94.096046641469002 19.068946048617363 4821.7199318110943 600.40591032803059 32.368272289633751 81.110921427607536 63.331935703754425 2043.3442788273096 76.7888053804636 474.55440530180931 112.21131436526775 15.06670932471752 294.03528682887554 41.8802630007267 137.69015717506409 821.05601619184017 28.97671827673912 23.35992120206356 155.58425749838352 45.995021864771843 85.006954714655876 68.791556850075722 73.166534662246704 25.482931658625603 30.524527013301849 322.1729831546545 21.902030989527702 461.90212155878544 27.428306832909584 164.41895398497581 114.7345228344202 139.75217582285404 21.596181079745293 65.944045588374138 15.369832456111906 45.819857999682426 385.16700537502766 20.324929237365723 694.24608224630356 53.749774560332298 37.613659247756004 148.50149044394493 31.729733496904373 341.94005270302296 22.130673572421074 43.440976157784462 39.737023040652275 49.92563471198082 24.92410708963871 44.302731543779373 29.300933539867401 311.25968270003796 81.600786477327347 47.313297018408775
leaf_count=240 1112 749 597 51248 113 88 496 372 373 75 19032 2375 128 319 251 8080 302 1874 442 60 1160 166 543 3239 114 92 616 182 336 272 290 100 121 1272 87 1822 109 652 453 551 86 262 61 181 1522 80 2740 213 149 584 126 1350 88 171 157 197 99 175 115 1234 323 186
internal_value=0.00110705 -0.000145343 -0.000692689 -0.00123763 -0.00834067 -0.0149027 0.00785336 0.00797032 -0.00697959 -0.013908 0.00650891 -0.000684606 -0.00331513 -0.00142696 0.00614778 -0.00408287 0.00418038 0.00745654 -0.00966348 0.00230306 0.0163752 0.00019194 0.00650048 0.00587941 -0.00566471 -0.010824 -0.0131877 0.0124232 0.00434949 -0.0167896 0.00242432 0.00443769 0.0106638 -0.00329055 0.0013551 0.0130077 -0.0143214 -0.0164823 -0.00788154 0.00224103 -0.0292914 -0.0243443 0.00932297 0.029634 0.00408357 0.00890026 0.00794171 0.00518863 0.00821215 0.00946758 0.00419181 0.00711411 0.00154232 0.0184383 0.0269728 0.00485726 -0.00802088 0.0232888 0.0202735 -0.0281901 -0.00756788 0.0178885
internal_weight=28000.8 22730.8 21274.9 20015.9 1445.8 892.402 1455.83 1259.08 559.051 392.318 5270.03 18570.1 4641.34 3577.34 928.689 2648.65 605.308 551.343 1064 242.065 448.315 13928.7 956.867 1164.51 241.525 212.548 821.934 158.206 1173.48 83.8583 1047.59 935.151 517.91 417.242 344.075 487.385 112.435 373.25 208.831 553.403 53.9645 221.528 166.732 154.279 524.919 922.982 914.987 747.996 865.357 827.743 521.214 489.484 364.071 306.529 188.239 118.291 74.8497 125.414 166.991 333.352 101.926 93.1332
internal_count=110602 89803 84058 79089 5719 3533 5745 4969 2211 1553 20799 73370 18345 14136 3666 10470 2390 2176 4209 956 1767 55025 3777 4597 955 841 3253 624 4633 332 4137 3692 2043 1649 1359 1922 445 1478 826 2186 214 878 658 607 2073 3642 3611 2953 3415 3266 2058 1932 1438 1208 741 467 296 494 658 1322 403 367
is_linear=0
shrinkage=0.05


Tree=3
num_leaves=63
num_cat=0
split_feature=5 8 3 4 8 5 4 4 6 2 3 4 4 1 7 2 7 4 11 3 3 10 4 2 6 11 11 8 7 0 11 3 11 2 1 6 4 7 11 1 2 1 1 0 4 11 3 8 2 11 2 1 3 11 8 0 2 5 6 2 8 8
split_gain=68.3842 35.9285 36.2563 32.3441 24.4625 23.0744 20.1724 28.2701 18.331 18.294 17.2279 17.7963 16.3952 20.0726 19.2386 18.8342 17.3908 15.757 15.4917 14.5325 14.1839 14.08 15.1714 14.0403 24.7604 15.5576 14.7004 16.6448 21.2263 18.4852 13.3234 13.2326 12.8464 14.5228 12.7921 12.7033 17.5051 13.1514 12.2226 11.974 11.9581 17.023 19.8314 17.7487 16.949 18.184 17.1014 15.3473 16.8467 16.5287 15.11 16.8489 14.2106 16.4778 13.7401 13.1915 12.8886 12.8651 15.0641 12.4887 12.3543 33.2293
threshold=-0.00028541138885596057 1750.4380350000004 36.358205966176719 0.20937500000000003 1891.6004450000003 -2.2772973946205696e-05 0.33229166666666671 0.79062500000000002 -0.00018599712520361852 0.81064081587651227 26.126956375513252 0.99687500000000007 0.79062500000000002 0.40965749674883428 1741.3258800000001 1.1821769561795519 1738.9781900000003 0.014930555555555556 720.00000000000466 71.562006048722239 29.125701801497261 2.5000000000000004 0.9399305555555556 0.83703965910592215 0.00075855975811167664 899.69999999999584 1300.3000000000045 1769.0684524999999 1783.0912000000001 0.28451449503999288 961.95000000000175 57.943285203671955 888.50000000001057 1.1860428878266791 0.27331644757560486 0.000162965449247543 0.024652777777777784 1895.0664400000003 941.40000000001021 0.92672292688372548 0.91640418239476118 0.31701076837582676 0.36342463357979632 0.24591437499408417 0.45590277777777782 1511.5500000000113 45.276540149534881 1812.1359525000003 0.69036779549730964 504.84999999999906 0.83512103150359807 0.42041109701551721 61.161171219054793 594.49999999999375 1811.1674800000003 0.3422454179598598 0.859955212712188 0.00022251161096431551 0.00048387453713805156 0.8426721596607053 1802.0400625000004 1806.6444600000002
decision_type=2 2 2 2 2 2 2 2 2 2 2 2 2 2 2 2 2 2 2 2 2 2 2 2 2 2 2 2 2 2 2 2 2 2 2 2 2 2 2 2 2 2 2 2 2 2 2 2 2 2 2 2 2 2 2 2 2 2 2 2 2 2
left_child=10 12 4 5 6 -4 8 -8 9 -3 11 18 13 14 16 19 17 34 -1 -14 -9 22 -17 24 25 35 27 -27 -29 30 -30 -32 33 -20 -2 -7 -37 -38 -34 -15 41 -5 43 -43 45 50 -47 54 -49 59 51 57 53 -51 -46 -53 -54 -44 -59 -50 -42 -62
right_child=1 2 3 40 -6 23 7 20 -10 -11 -12 -13 15 39 -16 21 -18 -19 32 -21 -22 -23 -24 -25 -26 26 -28 28 29 -31 31 -33 38 -35 -36 36 37 -39 -40 -41 60 42 44 -45 47 46 -48 48 49 52 -52 55 56 -55 -56 -57 -58 58 -60 -61 61 -63
leaf_value=0.029247101490191135 -0.049180971622639784 -0.015992375130067224 -0.00019996464061830356 -0.0066808779549057777 0.032025320354745763 -0.019213937361192 0.020426750900541656 0.032735913227678312 0.030225918607177271 0.003036292438029658 0.0053117519424262585 -0.02566489502427436 0.030358667468455326 -0.00038520397558066327 0.024928768402856329 -0.036050609300631246 -0.038737968064184496 0.01089174845593352 -0.012198045967381332 -0.020592835807260325 -0.01440216593662237 0.030433697221034364 0.020417715087072023 -0.0040803388808708296 0.031907563715051143 -0.020596972716914144 -0.023149698062999043 0.033602744756262903 0.018140574812918649 -0.051796963043567172 0.0036332498959013729 -0.035063447329792267 0.048331574229769247 0.028877806533733757 0.0071437785662912066 0.016928041627796552 -0.01582705111142808 0.020347852224895661 0.012166096408422963 -0.036170517339786289 0.00052099055201492166 0.057794288049318035 0.015853421068357514 0.0095259640978291368 0.0022794145836542139 -0.063052899278986482 -0.011830815129237136 0.037470672248153418 -0.048410497809313877 0.03289264488244148 -0.0072377214220069501 -0.013901529850334882 0.0050277626695461285 0.009649788854930251 -0.036070137979910877 0.0030901072207396088 -0.032524308400012358 -0.024450112091520024 0.023514746735381477 0.0038577613650876575 -0.013912689345392588 -0.0013059524388969624
leaf_weight=177.10403016209602 20.867024138569832 174.45548394322395 1753.7375385165215 516.06003326177597 94.587145283818245 671.51155182719231 361.72278524935246 18.815357834100723 46.765801206231117 457.66107334196568 4821.9187668114901 24.734488993883133 184.52728095650673 537.41507934033871 179.05125541985035 35.016787648200989 21.159888714551926 378.19980153441429 88.214351877570152 15.143245011568068 105.10330705344677 22.366500750184059 18.013871476054192 1548.7037165164948 33.036793276667595 70.663844347000122 78.202679201960564 57.447436854243279 86.024142280220985 16.344821155071259 70.16159687936306 32.245289251208305 30.564189732074738 28.461500972509384 19.501339241862297 60.580321863293648 274.73295339941978 27.653473034501076 99.146342158317566 24.438996598124504 5627.221012160182 19.637644484639168 293.73234449326992 631.12549751996994 1693.5110231637955 21.840447396039963 64.178189530968666 54.177869156002998 21.374938637018204 99.639912471175194 606.43027879297733 176.61471180617809 93.464114740490913 324.88659077882767 23.68329431116581 323.35888502001762 30.243386849761009 46.934458523988724 25.136676445603371 24.558818504214287 603.29903031885624 3912.6979028880596
leaf_count=697 83 691 6930 2041 372 2661 1425 74 184 1807 19032 98 726 2123 705 139 84 1492 349 60 416 88 71 6123 130 280 310 226 339 65 277 128 120 112 77 239 1088 109 391 97 22228 77 1158 2490 6688 87 254 213 85 392 2398 699 369 1282 94 1277 120 186 99 97 2388 15462
internal_value=0.00105171 -0.000138122 -0.000658124 -0.00117584 0.00757153 -0.00476369 0.0055853 0.0133659 1.94063e-05 -0.00221536 0.00618334 0.0155598 0.00746131 0.00490005 0.0111124 0.0184547 0.00548662 0.0077223 0.0179675 0.0264944 -0.00724489 -0.0028367 -0.016869 -0.00740749 -0.0108924 -0.0118705 -0.00364212 0.000940647 0.0067446 -0.000790138 0.00363428 -0.00855134 0.00985973 -0.00217815 -0.0219713 -0.0151404 -0.00760405 -0.0125188 0.0206879 -0.00194176 -4.98152e-05 0.00192762 0.00289876 0.0109825 0.00155805 -0.00249089 -0.0248363 0.00422516 0.0107795 0.0083457 -0.00118528 0.00305412 0.0107596 0.0151051 0.0017505 -0.00291216 -0.00415278 0.0112087 -0.00772112 -0.0204649 -0.00104223 -0.00299011
internal_weight=27999.8 22729.7 21274 20014.9 1259.11 4781.05 1164.52 485.641 678.882 632.117 5270.14 448.225 1455.7 1180.63 618.779 275.068 439.728 418.568 423.49 199.671 123.919 75.3972 53.0307 3027.31 1478.6 1445.57 411.09 332.887 262.223 204.776 188.431 102.407 246.386 116.676 40.3684 1034.48 362.967 302.386 129.711 561.854 15233.8 5090.59 4574.53 650.763 3923.77 1558.23 86.0186 2365.54 648.346 594.168 1472.21 865.777 548.234 424.527 1717.19 499.974 123.708 365.803 72.0711 45.9338 10143.2 4516
internal_count=110602 89803 84058 79089 4969 18905 4597 1915 2682 2498 20799 1767 5745 4661 2441 1084 1736 1652 1669 786 490 298 210 11975 5852 5722 1625 1315 1035 809 744 405 972 461 160 4097 1436 1197 511 2220 60184 20106 18065 2567 15498 6158 341 9340 2558 2345 5817 3419 2163 1674 6782 1976 489 1443 285 182 40078 17850
is_linear=0
shrinkage=0.05


Tree=4
num_leaves=63
num_cat=0
split_feature=4 3 5 9 1 7 9 10 8 7 8 8 8 11 11 7 0 5 4 0 3 4 3 4 11 4 3 2 8 5 7 2 8 11 7 8 2 7 11 0 3 1 11 2 9 0 3 2 7 8 3 2 4 2 11 0 5 1 7 8 8 1
split_gain=52.4853 54.6349 21.8752 20.6369 25.5687 18.7079 23.2291 23.1437 17.6513 17.5711 23.3744 20.1472 17.4671 15.4274 20.9199 16.2188 16.3804 15.3756 15.2095 14.881 14.0013 26.7324 13.6956 13.5997 13.2166 39.883 21.8207 21.5201 13.0118 12.8132 31.7491 18.3187 17.3163 20.3087 16.0597 12.7162 12.7073 12.6701 12.6482 13.9176 12.3885 12.3795 12.3225 12.3035 12.419 20.5817 19.0737 18.6661 16.6976 20.3342 15.4591 14.2203 13.0585 12.2447 13.8424 16.135 12.2311 12.6503 11.9804 19.248 13.0412 11.9195
threshold=0.23020833333333338 36.807258410515665 4.9734083701236116e-05 3.5000000000000004 0.51433484152873399 1794.5094600000004 10.500000000000002 3.5000000000000004 1795.2965325000002 1753.6251400000001 1757.0075375000004 1753.467695 1757.6251199999999 1217.8500000000101 716.50000000000784 1756.9546400000002 0.4547209132135101 -0.00073881139624820669 0.97812500000000002 0.24231902504430491 61.161171219054793 0.60868055555555556 50.305637358177009 0.73645833333333355 645.15000000000111 0.99687500000000007 27.049574735267846 1.0411757344708861 1728.3404900000003 3.432498206967783e-05 1750.73966 1.0038378748717089 1727.1027075000002 801.85000000000184 1752.9151200000001 1790.2407900000001 0.64579307047080059 1760.8704500000001 720.00000000000466 0.32248235141097675 56.949259845191158 0.25542287461299529 385.6500000000097 0.7770721536318399 1.0000000180025095e-35 0.31144471289071962 41.85874805056519 0.94758331441591426 1775.9638800000002 1778.3246450000004 31.99671163817704 0.88918735374671265 0.029513888888888892 1.0722308377913889 589.6000000000073 0.20128663635357233 -0.00011123297306775413 0.27668997404752066 1754.7547000000002 1754.7172300000004 1753.8432975000003 0.27668997404752066
decision_type=2 2 2 2 2 2 2 2 2 2 2 2 2 2 2 2 2 2 2 2 2 2 2 2 2 2 2 2 2 2 2 2 2 2 2 2 2 2 2 2 2 2 2 2 2 2 2 2 2 2 2 2 2 2 2 2 2 2 2 2 2 2
left_child=9 19 5 4 13 6 7 17 -7 11 22 29 -12 14 -4 -15 -17 -3 28 -2 21 -6 56 -23 25 37 27 38 -5 32 31 -31 -1 34 -34 -8 -10 -21 -26 -40 -32 -16 -19 -14 46 47 48 -46 -45 -50 -49 -48 -53 -52 -55 -56 -11 -58 60 -60 -9 -28
right_child=1 2 3 18 20 8 35 58 36 10 12 -13 43 15 41 16 -18 42 -20 24 -22 23 -24 -25 26 -27 61 -29 -30 30 40 -33 33 -35 -36 -37 -38 -39 39 -41 -42 -43 -44 44 45 -47 51 50 49 -51 53 52 -54 54 55 -57 57 -59 59 -61 -62 -63
leaf_value=0.053611332138877657 -0.011307049565527808 0.035214798011299529 -0.0022226710660553871 0.023879052357333706 0.079976602416486048 -0.017409601874281765 0.00072650964603236385 0.046921473871816402 0.033320881707691437 -0.027448652267753327 0.031950259896978778 0.039852557666130807 -0.0071343679440146529 0.013377147549828432 -0.014930612243004732 -0.057188018960668621 0.00053459005770271179 0.030903450040274106 0.0104690420914641 0.041672219259317834 0.0063336188547121301 -0.020964400673136169 -0.036758848558469927 0.031683569051936526 0.032626911168462842 -0.042723092663575372 0.027602823014237249 0.027854973766329574 -0.0018347059743598062 0.011231369648489104 -0.010474494735447093 -0.032470018681391551 0.037953638758474129 -0.0011069620604627209 -0.0075910307466598471 0.012168803428243483 0.0013370300331393831 0.015419551382996197 -0.050424881043184849 0.0014787191312349544 -0.049307219148328349 0.01250289822367872 0.0053395357032238813 0.038907992324827348 -0.001808848704194641 -0.015989227622767093 -0.0010802060733020008 0.032350899049923769 -0.053387371292372567 0.0045456008274366751 0.009105753000626297 -0.063386378271384894 -0.015880804466402016 -0.021995567807400765 0.047051244105539562 -0.0020534311695402578 0.016070163088780925 -0.028634760077692657 -0.020534614729288556 0.020175815599520038 -0.002128218001596403 0.0035507761944654961
leaf_weight=20.386651024222374 85.942415729165077 46.543564826250076 640.39741918444633 49.519350364804268 25.327572017908096 126.04842135310173 2040.2739820182323 67.495096430182457 31.259671583771706 58.760797992348671 35.565586477518082 38.676350191235542 1467.9044381827116 26.119873583316803 44.204809844493866 31.878240898251534 20.002507835626602 48.546067580580711 267.17028197646141 48.876961171627045 68.902942106127739 15.654370591044424 76.785570725798607 56.670604884624481 25.160451233386993 28.955457597970963 53.61514638364315 220.99738855659962 7580.4806313663721 177.42584446072578 38.147666290402412 27.727224558591843 71.458699867129326 258.86531837284565 26.545662373304367 275.61388616263866 4745.4569862633944 769.93546666204929 15.593738615512846 75.197116822004318 44.491988897323608 589.75431829690933 1626.6301618665457 31.29070171713829 2302.9574698656797 200.82433272898197 191.99133451282978 55.676343411207199 16.593229606747627 173.73339840769768 555.95152017474174 15.054168149828909 370.135148614645 76.439144268631935 19.092653289437294 135.11044378578663 53.761152744293213 22.42530246078968 32.572752714157104 267.28300227224827 16.955685690045357 1312.100250184536
leaf_count=80 340 183 2531 195 99 499 8058 265 123 233 140 152 5809 103 175 127 79 191 1054 192 272 62 305 223 99 115 211 870 29956 700 151 110 281 1023 105 1087 18744 3035 62 297 177 2326 6421 123 9102 795 759 219 66 686 2194 60 1466 303 75 534 212 89 129 1053 67 5180
internal_value=0.00121656 0.00241736 0.00146929 -0.000230649 0.00510671 0.0031859 0.0055441 0.00934432 0.00105899 -0.00269424 -0.00359073 0.00477095 -0.00297933 0.00283009 0.0041513 -0.0187556 -0.0349332 0.00686797 -0.00125722 0.00915675 0.0235919 0.0357692 -0.0199008 0.0202882 0.00984632 0.0149473 0.00730653 0.0187022 -0.00166782 0.00273076 -0.00521529 0.00532496 0.00879246 0.00623212 0.0256173 0.00208826 0.00154634 0.0169866 0.00125735 -0.00743596 -0.0313815 0.01059 0.00608037 -0.00320066 -0.00180754 -0.000470292 -0.00740907 0.0005206 0.00505968 -0.000505164 0.00688984 -0.0121966 -0.0177374 0.00508767 -0.00459772 0.00402646 -0.0103085 0.00291137 0.0204385 0.0157535 0.0370735 0.00449501
internal_weight=27940.9 21377.1 18740.8 9416.08 1518.91 9324.68 4421.91 2106.03 4902.77 6563.78 5860.05 703.725 5648.32 1352.36 1274.36 78.0006 51.8807 1721.72 7897.17 2636.37 166.555 97.6525 211.733 72.325 2550.43 847.768 1702.66 336.949 7630 665.049 287.793 205.153 377.256 356.87 98.0044 2315.89 4776.72 818.812 115.951 90.7909 82.6397 633.959 1675.18 5612.75 4144.85 3346.05 798.798 3145.23 221.617 190.327 842.27 577.181 385.189 786.594 230.642 154.203 134.947 76.1865 384.307 299.856 84.4508 1365.72
internal_count=110372 84423 74022 37202 5997 36820 17454 8309 19366 25949 23170 2779 22331 5341 5032 309 206 6795 31205 10401 656 384 839 285 10061 3342 6719 1328 30151 2627 1138 810 1489 1409 386 9145 18867 3227 458 359 328 2501 6612 22191 16382 13222 3160 12427 875 752 3325 2285 1526 3106 912 609 534 301 1514 1182 332 5391
is_linear=0
shrinkage=0.05


end of trees

feature_importances:
AsianRangePips=41
ATR50=37
ATR_ratio=37
SMA50=36
SMA200=33
RSI14=31
HOUR=24
VolRank=21
Mom_20=16
ATR14=13
Mom_5=12
DOW=9

parameters:
[boosting: gbdt]
[objective: binary]
[metric: binary_logloss,auc]
[tree_learner: serial]
[device_type: cpu]
[data_sample_strategy: bagging]
[data: ]
[valid: ]
[num_iterations: 2000]
[learning_rate: 0.05]
[num_leaves: 63]
[num_threads: 0]
[seed: 54]
[deterministic: 0]
[force_col_wise: 0]
[force_row_wise: 0]
[histogram_pool_size: -1]
[max_depth: -1]
[min_data_in_leaf: 60]
[min_sum_hessian_in_leaf: 0.001]
[bagging_fraction: 0.8]
[pos_bagging_fraction: 1]
[neg_bagging_fraction: 1]
[bagging_freq: 2]
[bagging_seed: 31077]
[bagging_by_query: 0]
[feature_fraction: 0.9]
[feature_fraction_bynode: 1]
[feature_fraction_seed: 23904]
[extra_trees: 0]
[extra_seed: 27232]
[early_stopping_round: 0]
[early_stopping_min_delta: 0]
[first_metric_only: 0]
[max_delta_step: 0]
[lambda_l1: 0]
[lambda_l2: 0]
[linear_lambda: 0]
[min_gain_to_split: 0]
[drop_rate: 0.1]
[max_drop: 50]
[skip_drop: 0.5]
[xgboost_dart_mode: 0]
[uniform_drop: 0]
[drop_seed: 2863]
[top_rate: 0.2]
[other_rate: 0.1]
[min_data_per_group: 100]
[max_cat_threshold: 32]
[cat_l2: 10]
[cat_smooth: 10]
[max_cat_to_onehot: 4]
[top_k: 20]
[monotone_constraints: ]
[monotone_constraints_method: basic]
[monotone_penalty: 0]
[feature_contri: ]
[forcedsplits_filename: ]
[refit_decay_rate: 0.9]
[cegb_tradeoff: 1]
[cegb_penalty_split: 0]
[cegb_penalty_feature_lazy: ]
[cegb_penalty_feature_coupled: ]
[path_smooth: 0]
[interaction_constraints: ]
[verbosity: -1]
[saved_feature_importance_type: 0]
[use_quantized_grad: 0]
[num_grad_quant_bins: 4]
[quant_train_renew_leaf: 0]
[stochastic_rounding: 1]
[linear_tree: 0]
[max_bin: 255]
[max_bin_by_feature: ]
[min_data_in_bin: 3]
[bin_construct_sample_cnt: 200000]
[data_random_seed: 214]
[is_enable_sparse: 1]
[enable_bundle: 1]
[use_missing: 1]
[zero_as_missing: 0]
[feature_pre_filter: 1]
[pre_partition: 0]
[two_round: 0]
[header: 0]
[label_column: ]
[weight_column: ]
[group_column: ]
[ignore_column: ]
[categorical_feature: ]
[forcedbins_filename: ]
[precise_float_parser: 0]
[parser_config_file: ]
[objective_seed: 8786]
[num_class: 1]
[is_unbalance: 1]
[scale_pos_weight: 1]
[sigmoid: 1]
[boost_from_average: 1]
[reg_sqrt: 0]
[alpha: 0.9]
[fair_c: 1]
[poisson_max_delta_step: 0.7]
[tweedie_variance_power: 1.5]
[lambdarank_truncation_level: 30]
[lambdarank_norm: 1]
[label_gain: ]
[lambdarank_position_bias_regularization: 0]
[eval_at: ]
[multi_error_top_k: 1]
[auc_mu_weights: ]
[num_machines: 1]
[local_listen_port: 12400]
[time_out: 120]
[machine_list_filename: ]
[machines: ]
[gpu_platform_id: -1]
[gpu_device_id: -1]
[gpu_use_dp: 0]
[num_gpu: 1]

end of parameters

pandas_categorical:[]
