tree
version=v4
num_class=1
num_tree_per_iteration=1
label_index=0
max_feature_idx=11
objective=binary sigmoid:1
feature_names=ATR14 ATR50 ATR_ratio RSI14 VolRank Mom_5 Mom_20 SMA50 SMA200 HOUR DOW AsianRangePips
feature_infos=[0.050226404069428833:2.8182559210019509] [0.11267946637212917:2.0787199748884118] [0.31907284003373532:2.2145408895833811] [5.7336818216538159:92.752945135102436] [0.00069444444444444447:1] [-0.0096190906006331511:0.009128567720134928] [-0.014164488547551812:0.011637384382366278] [1679.1228199999998:1914.99982] [1679.7300250000001:1912.9011800000001] [0:23] [0:4] [358.99999999999181:2130.9999999999945]
tree_sizes=6884 6924 6900

Tree=0
num_leaves=63
num_cat=0
split_feature=3 3 7 5 2 7 2 11 4 4 11 5 3 2 1 4 4 1 7 6 6 8 7 1 7 7 5 7 8 11 4 1 8 10 1 2 7 11 4 1 11 7 11 8 11 2 7 8 2 11 1 0 7 1 7 4 2 2 7 7 8 6
split_gain=139.145 50.8099 32.3933 26.6716 25.1352 24.8922 24.9502 24.507 21.6783 19.5726 19.3352 18.3426 32.3434 17.9621 22.81 18.9835 16.4128 16.3777 20.9903 18.9124 16.1205 15.8416 15.2416 14.809 19.4033 16.1294 14.769 14.2032 40.0983 27.6448 16.7446 15.8502 15.7271 14.4171 18.8895 14.2306 16.1014 14.0753 48.4977 15.4051 14.6165 25.3524 19.8296 19.3935 17.3185 14.775 14.4136 16.4663 13.9933 13.9081 14.1485 23.8911 13.843 13.5019 13.4487 13.2717 15.4032 24.6642 18.0566 14.9451 17.2188 14.8133
threshold=52.641905162032039 34.673909077848926 1881.5102400000003 -0.0013872714913529813 0.9797064332683102 1888.4692300000002 0.64500239582519303 617.84999999999866 0.9940972222222223 0.23020833333333338 1269.1999999999896 -0.00059157062213849299 22.41604639284084 0.9192214565035105 0.2572750087114396 0.91493055555555569 0.83576388888888908 0.29299274983938861 1889.5876000000005 0.00015324147105744149 -0.00028864979971593424 1897.2366250000002 1876.2153900000001 0.23769237987572173 1826.7542000000005 1867.9433500000002 -0.000208233502327515 1814.4267300000001 1784.8634200000004 926.49999999999875 0.26354166666666673 0.26264428540184165 1897.9752925 2.5000000000000004 1.0773805821506113 0.73014833991382722 1797.6405400000001 744.50000000000512 0.61770833333333341 0.1952546833388133 1158.1999999999996 1731.2624500000004 945.49999999999284 1724.733105 1049.3499999999929 0.98332883956588024 1725.9833700000001 1727.4844375000002 1.2207630861273631 487.14999999999696 0.64795159489868781 0.49571812672675281 1787.6449200000002 0.1952546833388133 1899.5163200000002 0.46215277777777786 1.0554490254242552 1.2575126795673435 1883.2146400000004 1727.9978900000003 1731.0117375000002 0.0003488673144351751
decision_type=2 2 2 2 2 2 2 2 2 2 2 2 2 2 2 2 2 2 2 2 2 2 2 2 2 2 2 2 2 2 2 2 2 2 2 2 2 2 2 2 2 2 2 2 2 2 2 2 2 2 2 2 2 2 2 2 2 2 2 2 2 2
left_child=1 5 8 -3 17 6 -1 16 23 -9 13 -8 -13 14 -5 37 -6 -4 -19 -20 -14 -21 -17 24 -2 53 -11 28 31 30 52 -16 49 34 -33 -31 -37 38 55 -39 41 42 45 48 -44 -41 -40 -48 -42 -29 -51 -52 -30 -26 -7 56 58 -58 59 -15 -61 -62
right_child=2 3 4 10 7 54 11 9 -10 26 -12 12 20 15 27 22 -18 18 19 21 -22 -23 -24 -25 25 -27 -28 32 29 35 -32 33 -34 -35 -36 36 -38 39 46 40 43 -43 44 -45 -46 -47 47 -49 -50 50 51 -53 -54 -55 -56 -57 57 -59 -60 60 61 -63
leaf_value=-0.053077417884666765 -0.014538532136655395 0.028671427297965613 -0.017604368668986643 -0.0020668919755724531 -0.042759554947436537 0.038197394817883777 0.016012069617283374 -0.050968165250535762 0.023576032109168095 0.025175148363238812 -0.0025070776995918661 -0.029859760491895582 0.0094317828422731675 0.030231795284610324 0.052345237578419933 0.013567787556081432 -0.010266252722628294 -0.019822798416225664 0.02244918512018754 0.0069208193372630854 -0.024288516920222308 -0.013874213183051855 -0.0046502253310598774 -0.0010395856165992723 0.058725630214700938 -0.018564424352759741 -0.010434700270618638 -0.017348103089750273 -0.058233008073492291 0.056427803559653412 -0.0032088862061064542 0.0065960378476270223 -0.0013748905376926681 0.014316666070584124 -0.039824043372822325 0.030242596555613198 -0.0072162841730819081 -0.033390895421900733 0.026107825329297625 0.0049773000339372805 -0.024107912165480354 0.0030538871164190666 -0.011455412804059517 0.003159752567037372 0.013246051733353702 0.029322218991227899 -0.054647283207356588 -0.0083610965614674959 0.018976601279722779 0.018701320815641423 -0.054487200429969691 0.0090125643579526057 -0.016418313078755204 0.0095863575620969803 0.012583933787402322 0.011318498525631056 -0.012236970851072036 0.02787530007256132 0.025788561584466296 -0.048967522786553468 0.00017575533806868425 0.048021629574839846
leaf_weight=15.523106575012205 413.71251472830772 106.82504260540009 166.94155555963516 658.65736776590347 125.42425411939621 128.32839396595955 897.23951014876366 27.540436148643494 87.065427541732788 32.023572534322739 1186.4391378462315 57.82316255569458 1176.5441569685936 44.780785799026489 21.260095328092575 615.2715710401535 56.310639917850494 109.12754520773888 112.3356346487999 245.97423547506332 36.544281125068665 145.91219219565392 141.14437401294708 9659.5452161133289 19.75816997885704 33.288503885269165 320.84603300690651 32.787540972232819 22.534660577774048 18.758170932531357 384.88836112618446 1337.7236756384373 177.17564985156059 793.41687315702438 22.280325561761856 51.785596072673798 64.317376017570496 27.786100655794144 29.771647900342941 84.828917145729065 140.41990455985069 2878.2308764755726 104.36358058452606 298.0324709713459 221.68861317634583 234.91355240345001 19.529364794492722 1192.5123497545719 21.767320275306702 821.40576747059822 16.024069488048553 195.92466858029366 162.68481588363647 47.792343616485596 85.323136329650879 542.97202536463737 295.57389912009239 44.031268209218979 98.822160065174103 17.275031685829163 466.20523923635483 16.758654534816742
leaf_count=62 1653 427 667 2632 501 513 3586 110 348 128 4741 231 4702 179 85 2459 225 436 449 983 146 583 564 38600 79 133 1282 131 90 75 1538 5346 708 3171 89 207 257 111 119 339 561 11502 417 1191 886 939 78 4765 87 3283 64 783 650 191 341 2170 1181 176 395 69 1863 67
internal_value=0.00194624 0.00496805 -0.0022228 0.0037859 -0.00952667 0.0116801 0.0100864 -0.0175873 -0.00126726 -0.0103715 0.00358905 0.0105386 0.00667451 0.0041762 0.00657324 0.00265541 -0.0326915 -0.00371957 5.96014e-05 0.0043627 0.00841596 -0.000821854 0.0101684 -0.00147986 -0.00974497 0.00992159 -0.00720304 0.00795353 0.0060252 -0.00433757 -0.00915324 0.00938452 0.0124197 0.00896038 0.00583556 0.01602 0.00949156 0.00181725 -0.000925318 0.00370957 0.00396831 0.00506272 0.0140159 -0.00441192 0.00533955 0.0228634 -0.00826265 -0.0091069 -0.0183255 0.0147122 0.0157294 0.00421176 -0.0215057 0.0239593 0.0279685 0.00504394 0.00157969 -0.00703624 0.00612431 0.00255881 8.15619e-05 0.00183599
internal_weight=27612.5 16008.9 11603.6 13611.6 1342.44 2397.33 2183.67 562.145 10261.2 380.41 13504.7 2168.15 1270.91 12318.3 4781.63 7536.68 181.735 780.291 613.35 504.222 1213.09 391.886 756.416 10174.1 514.552 100.839 352.87 4122.97 2879.65 704.969 570.108 2174.68 1243.32 2153.42 1360 134.861 116.103 6780.26 2768.23 4012.03 3984.25 3524.03 645.795 460.22 326.052 319.742 1241.81 1212.04 162.187 1066.14 1033.35 211.949 185.219 67.5505 213.652 1526.42 983.447 339.605 643.842 545.02 500.239 482.964
internal_count=110344 63976 46368 54395 5364 9581 8727 2246 41004 1520 53968 8665 5079 49227 19109 30118 726 3118 2451 2015 4848 1566 3023 40656 2056 403 1410 16477 11508 2817 2278 8691 4969 8606 5435 539 464 27095 11062 16033 15922 14083 2581 1839 1303 1278 4962 4843 648 4261 4130 847 740 270 854 6100 3930 1357 2573 2178 1999 1930
is_linear=0
shrinkage=1


Tree=1
num_leaves=63
num_cat=0
split_feature=5 5 9 3 8 3 8 9 9 6 0 2 4 2 3 11 6 0 11 11 2 3 9 11 3 11 0 9 10 11 1 2 10 8 1 8 3 1 0 8 8 3 8 8 2 1 1 6 11 1 4 6 3 5 3 9 6 1 1 8 11 8
split_gain=126.436 39.3845 33.4582 26.1567 25.8497 25.7866 30.382 24.413 24.1419 23.3788 22.4322 22.0683 20.2988 20.1247 18.6289 20.2679 17.6731 17.2915 16.6125 17.249 23.6623 26.4226 22.0036 24.621 15.7272 15.7939 21.2205 24.8882 17.8159 17.4833 15.6874 15.5454 22.1141 14.9519 22.6484 20.9318 25.4191 17.973 14.9168 14.8859 14.494 21.3331 14.1496 14.1087 13.9159 13.739 13.6972 13.4513 13.2545 14.4802 15.887 14.1655 12.2716 12.2673 12.2611 12.0904 12.3934 11.7603 14.3353 13.795 12.7276 11.6758
threshold=-5.5833073162869777e-05 -0.0010062698421181568 21.500000000000004 43.468454005358289 1777.74947 54.121053647887614 1880.3652775000003 10.500000000000002 7.5000000000000009 9.5611085651370345e-05 0.44144510711283286 1.3097912734173651 0.98298611111111123 0.87376649042768406 68.940408239073705 507.35000000000815 0.00091112703618712054 1.0406828089607556 680.60000000000412 1269.1999999999896 0.70807571301531236 42.621131830547334 10.500000000000002 691.0000000000083 30.129017360968419 648.00000000000193 0.29825380958489428 4.5000000000000009 1.5000000000000002 487.14999999999696 0.28839682701252783 0.9797064332683102 2.5000000000000004 1801.6286600000001 0.46609233899715458 1806.7233175000003 37.594605568344839 0.17194310219815023 0.14786743736125124 1871.1905850000001 1865.3249175000003 50.120823921679097 1866.3679675000003 1866.3679675000003 1.2518234775956774 0.21088791321443986 0.36613249815576759 0.00070291627616259078 1357.2499999999993 0.42474578368966576 0.58993055555555574 0.00045393228066625829 36.004406973811548 0.0015340078852827956 22.41604639284084 2.5000000000000004 0.00024849085365052931 0.23769237987572173 0.21088791321443986 1737.2125600000002 835.35000000000548 1813.1306550000002
decision_type=2 2 2 2 2 2 2 2 2 2 2 2 2 2 2 2 2 2 2 2 2 2 2 2 2 2 2 2 2 2 2 2 2 2 2 2 2 2 2 2 2 2 2 2 2 2 2 2 2 2 2 2 2 2 2 2 2 2 2 2 2 2
left_child=1 -1 5 -4 46 18 8 24 10 -9 11 57 14 42 -10 -16 -15 -14 38 20 21 -20 47 -24 25 29 54 28 -28 -3 -21 -8 55 37 35 36 -35 -26 -2 43 -6 -42 -12 -32 53 -43 -5 -22 49 52 51 -51 -37 -17 -27 -33 -57 58 60 -59 -7 -61
right_child=2 7 3 4 40 6 31 9 12 -11 13 -13 17 16 15 44 -18 -19 19 30 22 -23 23 -25 33 26 27 -29 -30 -31 39 32 -34 34 -36 48 -38 -39 -40 -41 41 45 -44 -45 -46 -47 -48 -49 -50 50 -52 -53 -54 -55 -56 56 -58 59 -60 61 -62 -63
leaf_value=0.014939861704532341 -0.034515168776482072 -0.012504929321562089 0.017972259311878097 -0.03451813610863684 -0.00078907677181782893 -0.016133063195757226 -0.0071638445638914057 0.0076872399984946951 -0.0045916860096441711 0.00055300752131779698 0.019719957832265975 -0.044318648510279668 -0.032873996803333048 -0.0016905277439645879 0.020205064018076986 -0.020267380498964701 0.01174630695254077 0.022591550143549907 -0.064857503093001992 0.030363328141406062 0.00014968215387334369 -0.0076501438458468881 0.041647154342875616 0.0061195375598948575 -0.051462235509521385 -0.040835552610900647 0.0098925447712931037 0.0010618226216770766 0.050868909839448487 0.041793234010841999 -0.0086352643420638826 0.004213715452368063 -0.037008200400952658 0.014370594298762916 -0.010543551657639885 0.013757572587899926 -0.038424611285899614 0.0024768082386667483 -0.0035484176878297601 -0.03104339167906869 0.0074592232764931965 -0.019983271218206203 0.075009860892899877 0.017582424093493258 0.013849679133748237 -0.066381406812088858 -0.0080237066079234462 -0.035345176128501757 -0.018028492564773662 0.033084890084373264 0.00017501074910176404 -0.01754598718943488 -0.0017625719641833903 0.0091670695519241504 -0.0032244206616810441 -0.043659031134139541 -0.012604651820563716 -0.0088154512216340863 -0.027786388689041649 0.0052889344931672192 0.016273073819507707 -0.0057098857466099349
leaf_weight=760.80461843311787 39.800937220454216 19.26897656917572 58.79370841383934 209.76590701937675 233.4677005559206 68.573184192180634 603.09003220498562 3832.9838191717863 3961.2270623594522 1639.520193874836 41.782260119915009 31.543446615338326 16.269735842943192 517.00557544827461 40.78129705786705 510.83966721594334 464.64414945244789 103.0682715177536 24.533447712659836 27.267536193132401 2104.2022456079721 113.85692743957043 50.025753170251846 1935.9339185506105 15.521525844931601 29.283895537257195 49.79022952914238 174.65409168601036 56.773504093289375 64.280081585049629 428.44721099734306 81.814000889658928 128.13772031664848 34.027173548936844 705.72871294617653 154.36509278416634 69.090564027428627 3082.7869819104671 1697.1043281555176 64.580936148762703 35.78062404692173 35.784952014684677 16.003848671913147 58.296087607741356 36.029846906661987 28.791888311505318 63.564933374524117 27.034552738070488 73.833158403635025 111.56637905538082 99.842657148838043 15.767057135701178 728.18110848963261 38.03322459757328 83.328383848071098 39.551473692059517 171.17434807121754 385.15305152535439 93.610805690288544 830.50647205114365 54.285175979137421 340.09574501216412
leaf_count=3041 159 77 235 838 933 274 2410 15319 15829 6552 167 126 65 2066 163 2041 1857 412 98 109 8409 455 200 7737 62 117 199 698 227 257 1712 327 512 136 2820 617 276 12320 6782 258 143 143 64 233 144 115 254 108 295 446 399 63 2910 152 333 158 684 1539 374 3319 217 1359
internal_value=2.03235e-05 0.0039365 -0.00290286 -0.0138716 -0.0169552 -0.00242053 -0.00422683 0.00317826 -0.00313073 0.00554988 0.000507013 -0.00286439 -0.00532841 0.00635752 -0.00585807 -0.0138756 0.00466953 0.0150298 -6.38778e-05 0.00144306 0.00254434 -0.0177917 0.00322789 0.00701447 0.000847354 0.00952496 0.00533606 0.0126806 0.0317233 0.0292704 -0.00665693 -0.0123097 -0.0196868 3.36158e-05 -0.0033455 0.000602574 -0.0210031 0.00220659 -0.00425802 -0.00848789 -0.00761978 -0.0235105 0.0350325 -0.00549523 -0.0162518 -0.0406701 -0.0283567 -0.000300567 0.00248497 0.0038498 0.0151072 0.0268155 0.000952038 -0.0182278 -0.0130049 -0.0120997 -0.0184333 -0.00212655 -0.0130458 -0.000607237 -0.00181436 0.00209344
internal_weight=27611.7 11801.4 15810.3 665.95 607.156 15144.3 8573.22 11040.6 7549.45 5472.5 2843.2 1803.77 4706.25 1039.44 4586.91 625.684 981.65 119.338 6571.08 4834.18 4255.59 138.39 4117.2 1985.96 5568.09 477.379 393.83 281.218 106.564 83.5491 578.592 1023.77 420.678 5090.71 1992.4 1286.67 103.118 3098.31 1736.91 551.324 333.825 100.357 57.7861 486.743 584.903 64.5768 273.331 2131.24 1183.56 1109.72 227.176 127.333 882.546 548.873 112.612 292.54 210.726 1772.22 216.469 1555.76 122.858 1170.6
internal_count=110344 47164 63180 2661 2426 60519 34259 44123 30168 21871 11362 7208 18806 4154 18329 2500 3923 477 26260 19319 17007 553 16454 7937 22252 1908 1574 1124 426 334 2312 4091 1681 20344 7962 5142 412 12382 6941 2203 1334 401 231 1945 2337 258 1092 8517 4730 4435 908 509 3527 2193 450 1169 842 7082 865 6217 491 4678
is_linear=0
shrinkage=0.05


Tree=2
num_leaves=63
num_cat=0
split_feature=3 5 1 9 3 9 7 2 7 8 9 8 8 2 0 0 7 2 10 5 8 9 7 9 2 0 3 8 1 9 7 1 7 4 10 7 4 3 1 2 7 0 2 7 1 8 2 1 8 5 6 1 1 3 7 1 9 0 1 1 1 7
split_gain=114.696 49.5231 31.7192 38.3406 26.94 21.5669 21.5613 20.2155 16.8346 19.8141 17.4697 15.6521 23.4585 15.6411 15.616 14.8285 14.7774 14.2854 14.0631 13.7866 18.1999 29.0259 31.7164 14.2509 14.363 15.868 14.8837 14.0328 13.6054 13.3432 18.9901 13.2007 16.216 15.2032 17.842 22.5388 15.0189 14.5212 13.4271 13.6404 19.1108 18.7462 17.9101 13.3184 19.0067 18.3198 16.5662 14.5918 21.5016 14.4209 13.1175 13.0808 15.1611 20.6869 13.3775 24.0227 13.0255 19.3268 15.2228 16.7668 12.6752 12.6693
threshold=52.641905162032039 -0.0010671524461695057 0.27000616650121889 3.5000000000000004 34.673909077848926 11.500000000000002 1888.4692300000002 0.64500239582519303 1694.2941700000003 1706.9706500000002 8.5000000000000018 1800.1871225000002 1808.7345500000004 0.71421796032218021 1.642088291072562 0.32582841170422022 1888.4692300000002 1.1519055657728148 2.5000000000000004 4.0512658792901675e-05 1879.1509000000003 15.500000000000002 1888.4692300000002 7.5000000000000009 1.0234610081848816 0.28762921939952957 53.550134612229563 1874.4116175000001 0.64270005976282385 21.500000000000004 1803.7586100000001 0.33767689134738804 1745.4362400000002 0.17604166666666668 2.5000000000000004 1777.3887700000002 0.25937500000000008 62.0444840967941 0.37649235900054145 0.89688817013591271 1735.8175900000003 0.58736811363144359 0.7774341906794624 1738.2263000000003 0.5287009294778765 1746.9131025000004 0.95252605864508666 0.43124994556149543 1728.3665075000001 0.00054409097768848291 0.0011170303714759246 0.4818017842608382 0.69623748966847476 42.198439451626918 1816.0594700000004 0.58134607057030607 3.5000000000000004 0.55510389444172292 0.25488354730789514 0.2258452222939725 0.37649235900054145 1893.5525400000004
decision_type=2 2 2 2 2 2 2 2 2 2 2 2 2 2 2 2 2 2 2 2 2 2 2 2 2 2 2 2 2 2 2 2 2 2 2 2 2 2 2 2 2 2 2 2 2 2 2 2 2 2 2 2 2 2 2 2 2 2 2 2 2 2
left_child=1 17 6 31 7 8 15 -3 10 28 -6 -11 18 -7 19 29 -9 -1 -13 -5 23 -22 -23 24 25 -21 -26 -25 -10 -2 -31 32 36 37 -35 -36 -4 -34 -33 40 -40 43 -42 44 46 -45 -41 48 -48 -47 -27 56 54 -54 55 -53 -14 58 59 -58 -29 -61
right_child=2 4 3 14 5 13 -8 16 9 11 -12 12 51 -15 -16 -17 -18 -19 -20 20 21 22 -24 27 26 50 -28 60 -30 30 -32 38 33 34 35 -37 -38 -39 39 41 42 -43 -44 45 -46 49 47 -49 -50 -51 -52 52 53 -55 -56 -57 57 -59 -60 61 -62 -63
leaf_value=0.024026092320921413 -0.0050153529893078022 -0.04484722663868957 -0.012381230943738011 -0.0010137185540761116 0.0058609797128869887 -0.0063954652839054334 -0.028087945390488912 0.00663652615368615 -0.033847197242138992 0.0015470520805900647 0.043909636789484306 -0.0060547316842390498 -0.004625652569127797 0.0041366258735965125 0.016866481594159152 -0.054060480030224733 0.021331571596389997 0.0090491685115395015 -0.024466302154602562 0.0047826650470431968 -0.020509768407232985 -0.048049473363442764 0.005210452815984706 -0.0063010686627367187 -0.031340690007600557 -0.016127656712302953 0.0071026674853949664 -0.013794706086337203 -0.00052933877211628602 -0.030858165525679666 0.00053540782786705551 0.018543845036563374 0.0031654972801257071 0.0042830942299962515 0.02227326148421821 -0.045538905030761002 -0.064194041621147155 0.054739159910459911 -0.0047369049737615021 0.03607238772024414 -0.014324035420876086 0.013176932682072928 0.03164282169518956 -0.058373195762451258 -0.035607334044970636 -0.011317601033807807 0.0096553448198742758 0.013157650211784605 -0.062195426983331005 0.015198884850759906 0.012695990692116077 -0.068929786463624243 -0.015581754040520797 0.050270488742178057 -0.0070828896316813125 0.00258370674777372 0.017888706114172453 -0.035180046266147451 0.0068785320591473759 -0.056998071088655226 0.024401723287547607 -0.0038368098733115095
leaf_weight=312.64377510547638 788.18991437554359 18.248513743281364 59.563495934009552 2221.3497322797775 118.09543113410473 375.08060759305954 168.88274972140789 1821.3673103302717 76.093481868505478 3896.2489343434572 40.518642872571945 233.72151720523834 671.63635818660259 5859.7349032908678 87.050797149538994 17.771631881594658 188.81410656869411 324.44163320958614 186.45333024859428 225.95468547940254 471.16839900612831 31.291818276047707 261.94494861364365 4464.6971057057381 26.282828658819199 296.57375551760197 598.52249971032143 31.531407907605171 51.295940577983856 130.62812772393227 76.312167137861252 196.39509683847427 33.029890030622482 158.3890445381403 16.762076422572136 45.554277822375298 18.278341770172119 23.259959980845451 84.082365155220032 50.780612483620644 25.024515673518181 235.93475259840488 138.32373283803463 18.027306407690048 24.03108574450016 295.29940575361252 23.770322680473328 101.08305707573891 18.528635203838348 62.047967046499252 45.532330557703972 24.538915887475014 22.023518919944763 26.011635094881058 638.13281355798244 22.520331338047981 22.516774490475655 30.288309171795845 1003.3089739382267 26.789316743612289 69.797743991017342 19.268061414361
leaf_count=1250 3150 73 238 8877 472 1499 675 7280 304 15571 162 934 2684 23419 348 71 755 1297 745 903 1883 125 1047 17841 105 1185 2392 126 205 522 305 785 132 633 67 182 73 93 336 203 100 943 553 72 96 1180 95 404 74 248 182 98 88 104 2550 90 90 121 4010 107 279 77
internal_value=-7.24999e-06 0.00273875 -0.00378359 -0.00290633 0.00217263 0.00135656 -0.0115482 0.00754123 -0.000525829 -0.000893369 0.0155807 -0.000528613 -0.00329142 0.00350303 -0.00420609 -0.00879047 0.00801682 0.016399 -0.0142249 -0.00441586 -0.00557438 -0.0128234 -0.000473009 -0.00461218 0.000254084 -0.00549993 0.00548552 -0.00588348 -0.0204311 -0.00798201 -0.0192813 0.004144 -0.00438453 0.00128174 -0.00463401 -0.0272985 -0.0245476 0.0244766 0.00652064 0.00432803 0.0146312 0.00125471 0.0246008 -0.00348419 0.00633943 -0.00919437 0.0115311 0.00283948 -0.0218182 -0.00671341 -0.0122914 -0.00145899 -0.00707645 0.0200781 -0.00898011 -0.0347068 0.00086307 0.00420776 0.00532075 -0.0174712 0.0125158 -0.0347581
internal_weight=27651.4 16009.8 11641.6 10459.9 15372.7 13344.3 1181.78 2028.43 7109.46 6950.85 158.614 6823.46 2927.21 6234.82 8831.7 1012.9 2010.18 637.085 420.175 8744.65 6523.3 764.405 293.237 5758.89 1192.87 568.061 624.805 4566.03 127.389 995.13 206.94 1628.17 354.837 276.995 220.705 62.3164 77.8418 56.2899 1273.33 1076.93 247.431 829.503 163.348 593.568 218.194 375.375 194.163 143.382 42.299 357.347 342.106 2507.04 733.227 48.0352 685.192 47.0592 1773.81 1102.17 1071.88 68.5742 101.329 46.0574
internal_count=110508 63985 46523 41800 61438 53330 4723 8108 28412 27778 634 27269 11698 24918 35293 4048 8035 2547 1679 34945 26068 3055 1172 23013 4767 2270 2497 18246 509 3977 827 6507 1418 1107 882 249 311 225 5089 4304 989 3315 653 2372 872 1500 776 573 169 1428 1367 10019 2930 192 2738 188 7089 4405 4284 274 405 184
is_linear=0
shrinkage=0.05


end of trees

feature_importances:
ATR50=28
SMA50=25
SMA200=23
ATR_ratio=20
RSI14=17
AsianRangePips=16
HOUR=13
VolRank=11
ATR14=10
Mom_5=9
Mom_20=9
DOW=5

parameters:
[boosting: gbdt]
[objective: binary]
[metric: binary_logloss,auc]
[tree_learner: serial]
[device_type: cpu]
[data_sample_strategy: bagging]
[data: ]
[valid: ]
[num_iterations: 2000]
[learning_rate: 0.05]
[num_leaves: 63]
[num_threads: 0]
[seed: 52]
[deterministic: 0]
[force_col_wise: 0]
[force_row_wise: 0]
[histogram_pool_size: -1]
[max_depth: -1]
[min_data_in_leaf: 60]
[min_sum_hessian_in_leaf: 0.001]
[bagging_fraction: 0.8]
[pos_bagging_fraction: 1]
[neg_bagging_fraction: 1]
[bagging_freq: 2]
[bagging_seed: 9580]
[bagging_by_query: 0]
[feature_fraction: 0.9]
[feature_fraction_bynode: 1]
[feature_fraction_seed: 8545]
[extra_trees: 0]
[extra_seed: 19379]
[early_stopping_round: 0]
[early_stopping_min_delta: 0]
[first_metric_only: 0]
[max_delta_step: 0]
[lambda_l1: 0]
[lambda_l2: 0]
[linear_lambda: 0]
[min_gain_to_split: 0]
[drop_rate: 0.1]
[max_drop: 50]
[skip_drop: 0.5]
[xgboost_dart_mode: 0]
[uniform_drop: 0]
[drop_seed: 32671]
[top_rate: 0.2]
[other_rate: 0.1]
[min_data_per_group: 100]
[max_cat_threshold: 32]
[cat_l2: 10]
[cat_smooth: 10]
[max_cat_to_onehot: 4]
[top_k: 20]
[monotone_constraints: ]
[monotone_constraints_method: basic]
[monotone_penalty: 0]
[feature_contri: ]
[forcedsplits_filename: ]
[refit_decay_rate: 0.9]
[cegb_tradeoff: 1]
[cegb_penalty_split: 0]
[cegb_penalty_feature_lazy: ]
[cegb_penalty_feature_coupled: ]
[path_smooth: 0]
[interaction_constraints: ]
[verbosity: -1]
[saved_feature_importance_type: 0]
[use_quantized_grad: 0]
[num_grad_quant_bins: 4]
[quant_train_renew_leaf: 0]
[stochastic_rounding: 1]
[linear_tree: 0]
[max_bin: 255]
[max_bin_by_feature: ]
[min_data_in_bin: 3]
[bin_construct_sample_cnt: 200000]
[data_random_seed: 208]
[is_enable_sparse: 1]
[enable_bundle: 1]
[use_missing: 1]
[zero_as_missing: 0]
[feature_pre_filter: 1]
[pre_partition: 0]
[two_round: 0]
[header: 0]
[label_column: ]
[weight_column: ]
[group_column: ]
[ignore_column: ]
[categorical_feature: ]
[forcedbins_filename: ]
[precise_float_parser: 0]
[parser_config_file: ]
[objective_seed: 20925]
[num_class: 1]
[is_unbalance: 1]
[scale_pos_weight: 1]
[sigmoid: 1]
[boost_from_average: 1]
[reg_sqrt: 0]
[alpha: 0.9]
[fair_c: 1]
[poisson_max_delta_step: 0.7]
[tweedie_variance_power: 1.5]
[lambdarank_truncation_level: 30]
[lambdarank_norm: 1]
[label_gain: ]
[lambdarank_position_bias_regularization: 0]
[eval_at: ]
[multi_error_top_k: 1]
[auc_mu_weights: ]
[num_machines: 1]
[local_listen_port: 12400]
[time_out: 120]
[machine_list_filename: ]
[machines: ]
[gpu_platform_id: -1]
[gpu_device_id: -1]
[gpu_use_dp: 0]
[num_gpu: 1]

end of parameters

pandas_categorical:[]
