tree
version=v4
num_class=1
num_tree_per_iteration=1
label_index=0
max_feature_idx=11
objective=binary sigmoid:1
feature_names=ATR14 ATR50 ATR_ratio RSI14 VolRank Mom_5 Mom_20 SMA50 SMA200 HOUR DOW AsianRangePips
feature_infos=[0.099710785069163865:6.1329640268971461] [0.14658985163471949:2.948705968751316] [0.34827648938480898:2.3152707645319586] [4.7540834910022287:94.825541893662518] [0.00069444444444444447:1] [-0.012823630856309109:0.015347023940259108] [-0.015120949829573793:0.020318700564832426] [1808.3116199999997:2056.6934999999999] [1808.66283:2052.1508799999997] [0:23] [0:4] [387.69999999999527:4143.2999999999765]
tree_sizes=6904

Tree=0
num_leaves=63
num_cat=0
split_feature=3 11 0 5 5 3 4 4 9 8 10 4 0 5 1 3 0 3 2 0 8 9 0 3 2 2 11 0 9 6 11 0 1 1 8 1 1 4 9 0 1 8 6 9 9 3 11 11 1 8 1 1 1 11 11 4 0 8 0 8 6 6
split_gain=101.73 28.8128 23.3646 22.532 21.7116 19.8987 20.5748 18.6713 21.7996 16.23 24.7964 15.0863 15.5045 22.1635 14.9821 14.1011 15.3397 14.0758 13.4555 13.0408 16.8119 12.3304 15.2957 19.4508 14.7078 12.3218 12.1975 11.9914 13.0274 12.4104 13.0961 11.7565 36.3487 12.8064 17.0952 16.951 11.7366 17.6291 15.2014 11.7156 11.6779 11.234 11.3522 11.2452 15.6614 17.1077 18.8818 18.4075 14.7575 14.2892 12.7394 18.5142 11.2274 12.8957 15.5065 11.4557 26.5446 19.1279 18.316 16.7161 14.0972 12.8925
threshold=44.597319318706759 530.49999999999511 0.1455462481529359 0.0015051896991505889 -7.8259100229516307e-05 27.46719212856874 0.065625000000000017 0.12118055555555557 21.500000000000004 1836.0291200000004 1.5000000000000002 0.99548611111111118 0.82530101005786694 0.00071379660470238815 0.40609348229508196 36.237261643085468 0.48723999508646049 69.232426495448621 1.1374934355037654 1.3928796851564187 1964.5612800000001 15.500000000000002 0.26923880391541394 60.766053872918953 0.84099778080052845 0.61467790455491822 1092.049999999995 0.68918497064814999 1.5000000000000002 0.00051452865181655938 969.84999999999684 0.25796865609477471 0.31141276991654171 0.27441294030815938 1982.1928925000002 0.26510572904368696 0.71087924639072353 0.82604166666666667 12.500000000000002 0.31649327967278057 0.40415542169436963 1975.4297450000004 -0.00028309628316858232 16.500000000000004 18.500000000000004 57.975360500477315 1497.1499999999994 1044.3499999999974 0.79118352228648681 1838.7233800000001 0.46454308558737761 0.42171964990636029 1.2523520674460646 969.84999999999684 828.99999999999648 0.96354166666666685 0.97988300339493151 1972.5801300000003 0.96370328275190065 1979.0851550000004 -0.0025524719893846855 -0.00029915994212970082
decision_type=2 2 2 2 2 2 2 2 2 2 2 2 2 2 2 2 2 2 2 2 2 2 2 2 2 2 2 2 2 2 2 2 2 2 2 2 2 2 2 2 2 2 2 2 2 2 2 2 2 2 2 2 2 2 2 2 2 2 2 2 2 2
left_child=2 3 -1 -2 19 6 -4 8 17 10 15 12 13 27 -15 40 -17 21 -12 25 -21 22 -6 39 -23 -3 -19 31 -29 36 -31 32 -9 34 -33 -36 37 -30 -39 -24 -7 43 -43 48 49 46 -46 -47 -35 -45 51 -49 55 54 -54 56 60 61 -57 -59 -11 -58
right_child=1 4 5 -5 7 9 -8 11 -10 52 18 -13 -14 14 -16 16 -18 26 -20 20 -22 24 23 -25 -26 -27 -28 28 29 30 -32 33 -34 41 35 -37 -38 38 -40 -41 -42 42 -44 44 45 47 -48 50 -50 -51 -52 -53 53 -55 -56 58 57 59 -60 -61 -62 -63
leaf_value=0.036095083468616465 -0.025929169961904038 -0.040808362963464059 0.047545808446493365 0.024562342836510345 -0.016103924497853785 -0.026895238855061312 -0.0036995982580656749 -0.047858338529417219 -0.011282160970358003 0.019053087038826379 -0.0019960586978023803 -0.039859829491851108 -0.011781656135647333 -0.047001569173675983 -0.023902825219843882 -0.014638135341129521 -0.051863890240734817 -0.065147788179727301 0.020247136501110107 -0.0094856559243711724 -0.049558449876319216 -0.030353988370823315 -0.047081827575829766 -0.0070123451489506015 -0.069786318819024667 -0.012708056098015839 -0.012999009571627524 -0.061482578425253703 -0.049409547813357338 -0.01951336184605074 -0.042307618029572502 -0.014339635119758078 0.02807016024657431 -0.016241580861369159 0.0010443184605228896 0.063648150483726657 -0.0057708139652563571 0.0096726816836742585 -0.039215461717558422 -0.021041468123814248 0.018121075529033848 -0.0098303964627235382 -0.021204323687114824 -0.026277048301004833 -0.0053970298276464317 -0.04153770589240223 -0.060261325343666572 -0.016060100724687266 -0.058697878455542363 0.0014647811940205549 -0.038493849814709692 0.040116962220241428 -0.018806214392150931 -0.007711346215907907 -0.054479724229134427 -0.020564335020858051 -0.0448649258560255 0.029936541054822716 0.010688382791510395 -0.021035323625095401 -0.011754008461611221 0.0027974255453608772
leaf_weight=26.826179563999176 1220.9870902299881 39.48515447974205 20.265122205018997 22.502675861120224 447.05332374572754 24.674642950296402 585.23724600672722 82.695465892553329 285.3792852461338 37.403368920087814 406.69537472724915 73.94604480266571 1155.8399830758572 79.43338343501091 603.92022293806076 64.016392141580582 48.746839970350266 41.415336430072784 81.63827446103096 48.914905548095703 56.295533686876297 311.11521878838539 137.49929714202881 62.795168966054916 25.59259358048439 3251.4845274984837 15.376065015792845 22.596891224384308 50.013153910636902 129.24170997738838 122.96746319532394 84.43311795592308 19.474180221557617 3363.6984067857265 30.534939855337143 16.740758806467056 147.79793956875801 39.395038276910782 26.662213146686554 62.975466698408127 34.620757579803467 251.62735369801521 1711.9024265706539 54.135864078998566 291.82153227925301 105.8743072450161 16.572693228721619 53.172822684049606 20.592924386262894 325.54893419146538 31.694675624370575 20.252824723720551 72.560920536518097 76.409052282571793 52.504790186882019 72.298639595508575 131.74147924780846 19.224196761846542 133.34808883070946 98.493679106235504 5155.7889849245548 15.900626897811888
leaf_count=106 4849 157 80 89 1774 98 2320 329 1132 148 1612 294 4585 316 2398 254 194 165 323 194 224 1236 547 249 102 12899 61 90 199 513 489 335 77 13348 121 66 586 156 106 250 137 998 6796 215 1157 421 66 211 82 1290 126 80 288 303 209 287 524 76 528 391 20452 63
internal_value=-0.0153822 -0.0177276 -0.0104801 -0.0250155 -0.017067 -0.0106553 -0.0019845 -0.018208 -0.0236004 -0.0114598 -0.0040285 -0.0173693 -0.0171816 -0.0179919 -0.0265878 -0.0203509 -0.0307306 -0.0267852 0.0017225 -0.0135992 -0.0309276 -0.0254702 -0.0217344 -0.0312955 -0.0333512 -0.0130452 -0.0510287 -0.0171551 -0.0243232 -0.0226961 -0.030627 -0.0165593 -0.0333859 -0.0162897 -0.000860486 0.0232129 -0.0151157 -0.027015 -0.0100597 -0.0389017 -0.0006116 -0.0166151 -0.0197467 -0.0151795 -0.010209 -0.0158513 -0.00834536 -0.026822 -0.0164999 -0.00249068 -0.0120008 -0.000564913 -0.0122964 -0.0238951 -0.0337826 -0.0118838 -0.0123203 -0.0277451 -0.000299047 -0.0127112 -0.0115321 -0.0397318
internal_weight=22119.9 14961.5 7158.39 1243.49 13718 7131.57 605.502 10321.8 1389.2 6526.07 660.392 8932.59 8858.64 7702.8 683.354 172.059 112.763 1103.82 488.334 3396.18 105.21 1047.03 710.323 263.27 336.708 3290.97 56.7914 7019.45 538.674 516.078 252.209 6480.77 102.17 6378.6 131.709 47.2757 263.868 116.07 66.0573 200.475 59.2954 6246.89 1963.53 4283.36 899.074 519.389 308.394 210.995 3384.29 379.685 105.12 73.4256 5865.67 201.475 125.066 5664.2 5458.55 265.36 205.647 117.718 5193.19 147.642
internal_count=87771 59378 28393 4938 54440 28287 2400 40966 5516 25887 2618 35450 35156 30571 2714 683 448 4384 1935 13474 418 4158 2820 1046 1338 13056 226 27857 2139 2049 1002 25718 406 25312 522 187 1047 461 262 797 235 24790 7794 16996 3566 2061 1223 838 13430 1505 417 291 23269 800 497 22469 21654 1054 815 467 20600 587
is_linear=0
shrinkage=1


end of trees

feature_importances:
ATR14=10
ATR50=10
SMA200=7
AsianRangePips=7
RSI14=6
HOUR=6
VolRank=5
Mom_20=4
ATR_ratio=3
Mom_5=3
DOW=1

parameters:
[boosting: gbdt]
[objective: binary]
[metric: binary_logloss,auc]
[tree_learner: serial]
[device_type: cpu]
[data_sample_strategy: bagging]
[data: ]
[valid: ]
[num_iterations: 2000]
[learning_rate: 0.05]
[num_leaves: 63]
[num_threads: 0]
[seed: 68]
[deterministic: 0]
[force_col_wise: 0]
[force_row_wise: 0]
[histogram_pool_size: -1]
[max_depth: -1]
[min_data_in_leaf: 60]
[min_sum_hessian_in_leaf: 0.001]
[bagging_fraction: 0.8]
[pos_bagging_fraction: 1]
[neg_bagging_fraction: 1]
[bagging_freq: 2]
[bagging_seed: 17715]
[bagging_by_query: 0]
[feature_fraction: 0.9]
[feature_fraction_bynode: 1]
[feature_fraction_seed: 342]
[extra_trees: 0]
[extra_seed: 16670]
[early_stopping_round: 0]
[early_stopping_min_delta: 0]
[first_metric_only: 0]
[max_delta_step: 0]
[lambda_l1: 0]
[lambda_l2: 0]
[linear_lambda: 0]
[min_gain_to_split: 0]
[drop_rate: 0.1]
[max_drop: 50]
[skip_drop: 0.5]
[xgboost_dart_mode: 0]
[uniform_drop: 0]
[drop_seed: 23586]
[top_rate: 0.2]
[other_rate: 0.1]
[min_data_per_group: 100]
[max_cat_threshold: 32]
[cat_l2: 10]
[cat_smooth: 10]
[max_cat_to_onehot: 4]
[top_k: 20]
[monotone_constraints: ]
[monotone_constraints_method: basic]
[monotone_penalty: 0]
[feature_contri: ]
[forcedsplits_filename: ]
[refit_decay_rate: 0.9]
[cegb_tradeoff: 1]
[cegb_penalty_split: 0]
[cegb_penalty_feature_lazy: ]
[cegb_penalty_feature_coupled: ]
[path_smooth: 0]
[interaction_constraints: ]
[verbosity: -1]
[saved_feature_importance_type: 0]
[use_quantized_grad: 0]
[num_grad_quant_bins: 4]
[quant_train_renew_leaf: 0]
[stochastic_rounding: 1]
[linear_tree: 0]
[max_bin: 255]
[max_bin_by_feature: ]
[min_data_in_bin: 3]
[bin_construct_sample_cnt: 200000]
[data_random_seed: 260]
[is_enable_sparse: 1]
[enable_bundle: 1]
[use_missing: 1]
[zero_as_missing: 0]
[feature_pre_filter: 1]
[pre_partition: 0]
[two_round: 0]
[header: 0]
[label_column: ]
[weight_column: ]
[group_column: ]
[ignore_column: ]
[categorical_feature: ]
[forcedbins_filename: ]
[precise_float_parser: 0]
[parser_config_file: ]
[objective_seed: 22118]
[num_class: 1]
[is_unbalance: 1]
[scale_pos_weight: 1]
[sigmoid: 1]
[boost_from_average: 1]
[reg_sqrt: 0]
[alpha: 0.9]
[fair_c: 1]
[poisson_max_delta_step: 0.7]
[tweedie_variance_power: 1.5]
[lambdarank_truncation_level: 30]
[lambdarank_norm: 1]
[label_gain: ]
[lambdarank_position_bias_regularization: 0]
[eval_at: ]
[multi_error_top_k: 1]
[auc_mu_weights: ]
[num_machines: 1]
[local_listen_port: 12400]
[time_out: 120]
[machine_list_filename: ]
[machines: ]
[gpu_platform_id: -1]
[gpu_device_id: -1]
[gpu_use_dp: 0]
[num_gpu: 1]

end of parameters

pandas_categorical:[]
