tree
version=v4
num_class=1
num_tree_per_iteration=1
label_index=0
max_feature_idx=11
objective=binary sigmoid:1
feature_names=ATR14 ATR50 ATR_ratio RSI14 VolRank Mom_5 Mom_20 SMA50 SMA200 HOUR DOW AsianRangePips
feature_infos=[0.065181346365966536:5.0285432789635216] [0.11649808199677408:3.8007071095097453] [0.39443134908748995:2.0903417998338849] [5.0736482121482291:95.078504373118918] [0.00069444444444444447:1] [-0.013839286169690768:0.0092404080073624772] [-0.01911598706322537:0.017837580069339776] [1722.33628:2070.0548800000001] [1722.9083799999999:2068.9178999999999] [0:23] [0:4] [377.70000000000437:6711.0000000000127]
tree_sizes=6786 6892 6924 6922 6908 6879 6931 6874 6922 6896

Tree=0
num_leaves=63
num_cat=0
split_feature=3 3 4 11 7 3 7 4 9 11 4 11 3 5 5 1 9 6 7 6 7 10 7 2 1 7 11 4 4 4 9 6 7 7 2 7 9 5 1 7 11 7 7 9 7 0 9 1 7 9 11 2 2 9 0 9 0 2 6 2 11 7
split_gain=264.036 105.192 52.3019 40.0883 30.8782 29.7334 23.5745 29.8472 22.3489 21.6592 21.4879 20.0952 20.655 19.5193 19.5544 18.9626 17.6762 17.6461 17.467 17.1425 16.7972 20.035 16.6174 16.601 15.8108 22.1791 19.5017 17.7375 15.8219 14.9645 14.4008 14.362 14.706 26.4563 14.1135 13.9968 14.9883 13.7025 13.1426 16.0028 13.0515 22.0627 24.2221 19.9927 24.7573 23.5056 20.2501 21.1498 25.5196 15.8944 14.8667 14.7976 14.6807 13.2944 14.1792 13.0588 17.7319 13.0306 12.8976 12.8265 12.7654 17.3517
threshold=39.654855822871973 60.598266034062469 0.22534722222222225 1895.5000000000043 1771.3046600000005 48.989704895547682 1903.0397800000003 0.13368055555555558 21.500000000000004 1319.5000000000052 0.43298611111111118 5764.1000000000085 31.002354201895969 -0.00062270833530186909 0.0024061889210306169 1.0243246842193201 4.5000000000000009 -0.0008103762567994165 1748.0630000000003 0.00094529636180495935 1761.3934400000003 1.5000000000000002 1769.4978200000003 1.2621564446146061 0.39864429333817458 1935.3108600000003 1635.7500000000075 0.71493055555555574 0.035763888888888894 0.41215277777777781 12.500000000000002 0.00057057020215778309 1902.684 1905.14591 0.75150111296156297 1867.2537300000001 15.500000000000002 0.00028001266204669145 0.58393754218546967 1796.8193200000003 691.50000000000784 1799.8405400000004 1770.0613500000002 17.500000000000004 1909.6603000000002 0.74023790697880865 7.5000000000000009 0.43058516961601984 1905.5354900000002 13.500000000000002 696.34999999999548 0.99372905626516617 0.8420566749809596 14.500000000000002 0.96204595231633905 22.500000000000004 0.25283788508853006 0.97745235337905345 0.00054853155582734747 0.6453608597663022 435.50000000000188 1808.7288900000003
decision_type=2 2 2 2 2 2 2 2 2 2 2 2 2 2 2 2 2 2 2 2 2 2 2 2 2 2 2 2 2 2 2 2 2 2 2 2 2 2 2 2 2 2 2 2 2 2 2 2 2 2 2 2 2 2 2 2 2 2 2 2 2 2
left_child=2 5 17 8 -4 6 7 9 24 16 15 12 -6 -7 40 -8 -2 -1 -9 -10 29 22 -22 -5 25 27 -26 31 -27 -20 57 -3 -33 -34 -24 36 -28 -37 39 -36 41 42 49 44 45 46 -43 -48 -49 52 -42 -46 -15 58 -55 56 -45 -19 -47 -32 61 -23
right_child=1 3 4 23 11 13 10 18 19 -11 -12 -13 -14 14 -16 -17 -18 30 20 -21 21 60 34 -25 26 28 35 -29 -30 -31 59 32 33 -35 38 37 -38 -39 -40 -41 50 43 -44 55 51 53 47 48 -50 -51 -52 -53 -54 54 -56 -57 -58 -59 -60 -61 -62 -63
leaf_value=0.042273672851933203 0.018747383728592242 0.026989026053878821 0.064322531644813774 0.034748876693140904 0.051903331035477673 0.042015540614347174 0.028734983150113701 0.062175701995540185 0.015345544478793348 -0.00036256873640946874 0.034938492996558337 0.013264377339695592 0.042902963435975619 -0.020604209099816626 0.073444591904493678 0.0030444676579989907 0.039602811342369815 0.028490462290194491 0.05126784156998497 -0.019018773435624886 0.079841439809151371 0.061662971660675796 0.010628057530346204 0.0063611413948246806 0.025400098216052241 0.028561059048368111 0.017611807926017502 -0.023290590352631244 -0.01714696148245471 0.012099898645794169 0.0029792894388210242 0.0081481204125411662 0.077599714034785078 0.017124050627799491 0.029390261582296143 -0.016272404774525878 0.077599714034785078 0.013012810836894855 0.054674443060587122 0.046641900708003795 0.048183446645153914 0.031019834085501113 0.014358326345463836 -0.026572353777116038 -0.0088566148118175217 0.013685783909529185 0.064083416886488845 0.030960941463638619 0.072026717195971424 0.054430303233281713 0.03021921185145765 0.02653628557417664 0.030791336120453715 0.010953729277679618 0.064937054310332393 0.043004916516529469 0.017589007823615176 0.0087964320181675229 -0.040448171213416852 0.043941494005674646 0.035169952415765628 0.0084216788086662817
leaf_weight=379.84820562601089 187.24498897790909 434.25811569392681 213.86477114260197 898.36863914132118 856.49622121453285 332.92093704640865 1782.804221585393 80.418027833104134 105.27477149665356 68.241445004940033 2288.0225431323051 49.978612378239632 2492.4722410589457 15.90125899016857 25.493064761161804 74.843161374330521 222.12268032133579 417.61570531129837 31.922545373439789 55.382897347211838 33.533921584486961 91.552977219223976 30.612891912460327 54.63269992172718 2941.3853369504213 25.433051064610481 33.37936432659626 23.606276765465736 74.076526150107384 103.29261280596256 21.201540797948837 298.34662272036076 22.70069494843483 88.934083864092827 195.55262511968613 50.487514317035675 15.133796632289885 191.25288225710392 257.25893208384514 430.02412402629852 116.85695485770702 332.01700949668884 586.88438731431961 26.700369328260422 48.375868633389473 33.14670130610466 131.96444052457809 190.41594660282135 47.211312830448151 67.102786600589752 7973.8137535899878 75.816562220454216 110.08341629803181 31.121380284428596 19.968752399086952 38.817352026700974 152.88317777216434 105.13706560432911 16.470174625515938 193.80230231583118 1660.1865692436695 18.374641120433807
leaf_count=1497 735 1707 846 3536 3381 1312 7010 318 413 267 9006 196 9824 62 101 293 875 1642 126 216 133 362 120 214 11559 100 131 92 289 405 83 1169 90 349 769 197 60 750 1016 1696 461 1306 2302 104 189 130 522 749 187 265 31361 298 433 122 79 153 600 412 64 764 6535 72
internal_value=0.0322027 0.0300113 0.0429705 0.0238318 0.0458946 0.0318422 0.034228 0.0373072 0.0218011 0.0257162 0.0316949 0.0447351 0.0452048 0.0301045 0.0297096 0.0276999 0.0300635 0.0335178 0.0391949 0.00349927 0.038547 0.0394029 0.045273 0.0331215 0.0225013 0.0168935 0.02418 0.0194572 -0.00546472 0.0213469 0.0290096 0.0206525 0.0139407 0.0294216 0.0440039 0.0118153 0.0363252 0.00689659 0.0451613 0.0412491 0.0295983 0.0258978 0.0194123 0.0303161 0.033524 0.0367397 0.0399821 0.0480332 0.0391198 0.0347739 0.0304787 0.0127499 0.0243044 0.0141505 0.0320533 0.0167074 0.0110231 0.0245296 -0.00428382 0.0399022 0.0362626 0.0527636
internal_weight=27973 23242.6 4730.42 5312.65 3612.81 17930 7556.01 3410.34 4359.65 477.609 4145.67 3398.95 3348.97 10374 10041 1857.65 409.368 1117.6 2932.73 160.658 2852.31 2717.1 946.982 953.001 4198.99 967.355 3231.64 867.846 99.5096 135.215 737.757 844.24 409.981 111.635 913.449 290.254 48.5132 241.74 882.836 625.577 10015.6 1924.88 779.972 1144.91 926.508 802.316 701.609 369.592 237.627 193.087 8090.67 124.192 125.985 100.707 51.0901 218.401 179.584 522.753 49.6169 215.004 1770.11 109.928
internal_count=110055 91410 18645 20872 14247 70538 29738 13429 17122 1877 16309 13401 13205 40800 39488 7303 1610 4398 11552 629 11234 10703 3734 3750 16493 3796 12697 3407 389 531 2901 3315 1608 439 3601 1138 191 947 3481 2465 39387 7565 3062 4503 3646 3159 2764 1458 936 760 31822 487 495 395 201 857 704 2054 194 847 6969 434
is_linear=0
shrinkage=1


Tree=1
num_leaves=63
num_cat=0
split_feature=3 3 4 11 7 3 7 9 4 7 7 10 11 3 4 5 5 4 9 11 6 11 3 3 8 4 2 11 11 2 4 1 6 9 1 9 7 6 4 11 7 11 9 3 5 2 1 11 7 8 7 9 7 2 8 9 11 10 2 1 2 7
split_gain=238.317 94.9165 47.222 36.1696 27.9067 26.8325 21.7899 20.1629 18.581 19.2582 21.033 20.8724 18.1373 18.8525 18 17.6165 17.6634 16.4382 22.122 16.0387 15.9268 15.589 15.5146 15.2034 24.0983 17.3566 14.978 14.9481 18.5999 14.28 13.9107 13.858 14.3646 13.0803 16.535 12.9954 12.7888 12.5945 12.5753 12.3631 12.3471 13.4778 16.9656 12.1711 12.1485 11.9109 12.8037 11.7786 19.9042 27.1661 21.8501 15.2951 19.7058 17.5868 15.2985 14.3491 13.4193 13.3235 13.2462 12.7499 16.9459 12.5156
threshold=39.654855822871973 60.598266034062469 0.22534722222222225 1895.5000000000043 1771.3046600000005 48.989704895547682 1751.9738900000002 21.500000000000004 0.20798611111111115 1903.0397800000003 1761.3934400000003 1.5000000000000002 5764.1000000000085 32.715405629378132 0.47465277777777781 -0.00062270833530186909 0.0024061889210306169 0.3913194444444445 20.500000000000004 640.15000000000566 -0.0008103762567994165 438.85000000001361 67.606758573327127 67.939577643040039 1928.3082550000001 0.04895833333333334 1.2621564446146061 1253.149999999994 1344.849999999997 0.75150111296156297 0.85381944444444458 0.42356889982537876 0.00077870633113874554 12.500000000000002 0.27711817570026759 12.500000000000002 1768.1472700000002 0.0011427612751702123 0.73159722222222234 4648.1000000000122 1901.4494800000002 435.50000000000188 16.500000000000004 25.868875487620702 5.2129353784069472e-05 1.0119981858465563 0.23219826242506533 691.50000000000784 1799.8405400000004 1800.8759425000003 1770.0613500000002 17.500000000000004 1909.6603000000002 1.1563831292489462 1909.9094500000003 13.500000000000002 696.34999999999548 1.0000000180025095e-35 0.8420566749809596 0.23965302015897902 0.88434421718348266 1903.3352100000004
decision_type=2 2 2 2 2 2 2 2 2 2 2 2 2 2 2 2 2 2 2 2 2 2 2 2 2 2 2 2 2 2 2 2 2 2 2 2 2 2 2 2 2 2 2 2 2 2 2 2 2 2 2 2 2 2 2 2 2 2 2 2 2 2
left_child=2 5 20 7 -4 6 -2 21 -8 10 14 29 13 19 -10 -7 47 18 39 33 -1 -3 44 -23 25 -25 -5 -21 30 -12 -29 -26 -33 34 -6 45 -31 -19 -28 -11 41 42 -13 -35 -9 46 -22 48 50 -50 55 52 53 -51 -54 58 59 -55 -17 -49 -61 -53
right_child=1 3 4 26 12 15 8 22 9 17 11 40 -14 -15 -16 16 -18 37 -20 27 35 23 -24 24 31 -27 38 28 -30 36 -32 32 -34 43 -36 -37 -38 -39 -40 -41 -42 -43 -44 -45 -46 -47 -48 56 49 51 -52 61 54 57 -56 -57 -58 -59 -60 60 -62 -63
leaf_value=0.0079024093992979254 0.022165182616216104 -0.027806711648003763 0.028869571861487333 0.00075257787808647131 -0.019116649911067575 0.0076570970037125735 -0.0047625083863745065 -0.054343337518031123 0.018140978652759838 -0.0094227616515573792 -0.024603267872175538 0.03042370922058641 -0.019652767097810355 0.0079370689377809105 -0.029442950662443623 -0.051822843049918223 0.037554197719324341 0.00021338951811207985 0.017476987030578477 0.024710708217741462 0.016701743564055425 -0.0083228021317739778 -0.05490156664572704 -0.04423279185389014 -0.052542002462929754 -0.0088071573318278893 -0.060826257426524949 0.0071244580029503086 0.015829925227432543 0.054999914977979542 -0.040551762184633834 0.024215766773321112 -0.02440853473436885 0.019951440344673752 0.032842539427345073 0.0056491300486357747 0.011913900965026366 0.029641964389081139 -0.0095900912667360155 -0.047074556367439326 0.024172507926426362 3.3854649070791355e-05 -0.02357664695970171 -0.023122254583397422 -0.012241350730366878 -0.026786113732304689 -0.0089744587752809881 -0.027829362326879083 0.053035243150569046 0.0047606819568992969 -0.018613917686127544 -0.012971276161416287 -0.057618646995071514 0.02068352387733062 -0.011926641885203185 0.01945893426551288 -0.0035503962051755562 -0.021758267093251581 -0.0030069381519241063 -0.017127224545528886 0.031408477164183192 -0.058351663733274807
leaf_weight=379.78800734877586 111.82477408647537 131.77193666994572 213.70529842376709 898.35639631748199 22.167741805315018 332.86998084187508 1644.4753085821867 20.783867329359055 26.590029671788216 655.43958672881126 26.291682377457619 73.751367032527924 49.990819811820984 2177.448456376791 78.689568877220154 15.904154956340788 25.466056346893311 2415.5881651341915 77.787662968039513 464.8710914850235 55.499918207526207 2839.8864916265011 42.343366041779518 36.109293147921562 42.06605863571167 813.99078550934792 17.72474279999733 36.021897494792938 485.32212281227112 17.592837154865265 26.596039533615112 15.946274578571318 319.78393085300922 22.020120173692703 49.505792021751404 214.97222620248795 818.27412307262421 36.912047550082207 36.923152178525925 22.55211877822876 60.732458844780922 1471.1710883975029 18.118385896086693 64.256974697113037 97.565536960959435 79.42364327609539 387.89310620725155 16.077429950237274 20.89133620262146 644.00742463767529 587.02331954240799 202.0002014040947 22.335579290986061 22.024589210748672 101.87835367023945 67.072439074516296 7974.2916114032269 115.27125373482704 110.08905208110809 23.435412883758545 77.309980183839798 16.429167598485947
leaf_count=1497 442 516 846 3536 87 1312 6466 81 105 2575 103 292 196 8583 308 62 101 9507 307 1838 219 11158 165 141 164 3198 69 142 1916 70 104 63 1253 87 196 847 3228 146 145 88 240 5790 71 252 383 311 1524 63 83 2537 2302 793 87 87 400 265 31361 452 433 92 306 64
internal_value=-0.00166622 -0.003748 0.00856487 -0.00961752 0.011344 -0.00200868 0.000257787 -0.0115462 -7.13103e-05 0.0012589 0.00446493 0.00539197 0.0102418 0.0106882 -0.0174249 -0.00365938 -0.00403451 -0.00133049 -0.00777765 0.0158049 -0.000416964 -0.0108811 -0.028928 -0.0103328 -0.0149815 -0.0103119 -0.000793431 0.0181159 0.012521 0.0116795 -0.0131253 -0.0254887 -0.022099 0.000985687 0.0167722 -0.00469949 0.0128208 0.000656313 -0.0262083 -0.0106752 0.00205354 0.0011941 0.0197739 -0.0121287 -0.0196351 -0.00895464 -0.00576054 -0.00414025 -0.00765558 -0.00345861 -0.0138149 -0.00450869 -0.00164398 0.00129701 -0.0201428 0.000776568 -0.00330393 -0.0149499 -0.00916898 0.0135195 0.0201181 -0.0163846
internal_weight=27972.9 23243.4 4729.48 5313.25 3611.91 17930.2 7555.79 4360.25 7443.97 5799.49 2591.21 2485.93 3398.2 3348.21 105.28 10374.4 10041.5 3208.28 755.779 1170.76 1117.58 4199.55 160.693 4067.78 1227.9 850.1 953.004 1012.81 547.94 862.159 62.6179 377.796 335.73 157.951 71.6735 737.789 835.867 2452.5 54.6479 677.992 1623.77 1563.04 91.8698 86.2771 118.349 522.817 443.393 10016 1924.93 1144.84 780.089 1123.95 905.517 781.303 124.214 193.066 8091.11 137.296 125.993 116.823 100.745 218.429
internal_count=110055 91410 18645 20872 14247 70538 29738 17122 29296 22830 10207 9794 13401 13205 413 40800 39488 12623 2970 4622 4398 16493 629 15977 4819 3339 3750 4000 2162 3401 246 1480 1316 622 283 2901 3298 9653 214 2663 6393 6153 363 339 464 2054 1743 39387 7565 4503 3062 4420 3563 3076 487 760 31822 539 495 461 398 857
is_linear=0
shrinkage=0.05


Tree=2
num_leaves=63
num_cat=0
split_feature=3 3 3 0 11 11 9 0 4 11 2 9 11 6 6 8 8 5 8 5 4 4 3 2 6 10 2 11 3 11 6 11 6 4 8 7 2 7 0 7 2 11 9 4 11 10 5 2 9 8 8 0 7 9 11 4 2 7 8 7 0 10
split_gain=201.562 79.3239 56.5882 44.8041 32.3525 29.4237 30.0609 23.3049 19.489 23.6649 18.5956 20.981 18.4673 15.1421 14.3123 14.2374 30.3324 21.6922 18.2519 13.9567 15.2406 13.8794 13.7044 13.4478 14.2309 14.2648 13.3453 16.1521 13.7137 19.9149 12.9183 12.8302 14.9168 14.6232 12.8196 18.1225 12.6904 12.5905 22.7049 19.8263 22.7481 13.1099 12.7453 18.6149 19.2801 17.3574 16.3082 15.8411 19.0646 27.4735 21.1144 18.9606 14.1224 14.0212 34.4292 22.4894 12.5699 12.3833 19.1614 12.2785 16.5283 15.9188
threshold=48.989704895547682 33.442478637861996 63.623606724362922 0.23395927361007121 1319.5000000000052 2543.3499999999985 21.500000000000004 0.19732613971575838 0.42048611111111117 5764.1000000000085 1.256227857751903 2.5000000000000004 487.85000000001452 0.0046198248657175487 0.00013032323539807769 1942.9550200000001 1934.6141525000003 -0.00041906031843663699 1936.9137200000002 -1.69383101328302e-05 0.12118055555555557 0.87812500000000016 69.087786529997729 1.4320954899979446 -0.0032380674945844952 2.5000000000000004 0.88263252551714355 1274.1499999999976 42.091758126099322 435.50000000000188 -0.00061015023934685153 5764.1000000000085 -0.0012446973730452224 0.72326388888888904 1908.0264025000004 1952.7680100000002 0.97568861893681158 1800.9265400000002 0.74502386093359274 1729.4772700000001 0.93796241748255871 446.35000000000679 14.500000000000002 0.94618055555555569 487.85000000001452 1.5000000000000002 -0.0004573692437322418 0.88939391572072435 9.5000000000000018 1956.4556325000003 1951.8146724999999 0.26958345856357785 1915.9423700000002 19.500000000000004 1635.7500000000075 0.68715277777777783 0.76351434955806707 1905.14591 1988.4302650000002 1928.23919 1.6936899590558017 3.5000000000000004
decision_type=2 2 2 2 2 2 2 2 2 2 2 2 2 2 2 2 2 2 2 2 2 2 2 2 2 2 2 2 2 2 2 2 2 2 2 2 2 2 2 2 2 2 2 2 2 2 2 2 2 2 2 2 2 2 2 2 2 2 2 2 2 2
left_child=1 3 37 -1 10 6 7 22 9 14 11 30 -12 -7 19 16 21 -17 -18 -6 34 -10 -4 24 -23 -26 27 -13 29 -28 -3 32 33 -5 -21 -36 -16 38 39 40 -2 -40 43 44 -39 52 -47 48 -46 50 -50 -49 -45 -44 -55 -56 -29 -35 -59 -9 61 -61
right_child=2 4 5 31 8 13 -8 59 15 -11 12 26 -14 -15 36 17 18 -19 -20 20 -22 23 -24 -25 25 -27 28 56 -30 -31 -32 -33 -34 57 35 -37 -38 42 41 -41 -42 -43 53 45 47 46 -48 51 49 -51 -52 -53 -54 54 55 -57 -58 58 -60 60 -62 -63
leaf_value=-0.020118286255939033 -0.030048278501357325 0.0056772596510886141 -0.024020797461205088 0.024800410994045528 -0.010026959150121898 0.0071278781227216816 -0.038609704302912426 -0.0086579783481058742 0.0035396629735608893 -0.042592622678568337 0.048315601832258692 -0.00063423897317963006 0.010466984598184167 -0.026651056555726707 0.00070735184977713771 0.0049427169610300539 0.044591794167903591 -0.0096761679356213506 0.012467747696507929 -0.013053400401773926 -0.0054465662973224964 -0.050995702852753594 -0.074400160669995941 0.034185552969970279 -0.020026898383219992 0.010033331570218426 0.053692540593641314 -0.003780883943113298 0.0030865374946830292 0.0086072965176823175 -0.0084987082827327788 -0.015203455683465671 0.0091585840741059046 0.023031324595517755 0.044229278283753858 9.1886667684880049e-05 0.033147765724145621 0.016036649187980041 -0.031486404925137115 -0.010774882820351118 0.038846478252581716 0.0087505024471073566 0.0015250581798777157 -0.014148484559354597 -0.0055090102848259302 0.028504131293110743 -0.01467128845631851 0.017115874614531953 -0.015135792362513157 -0.04583974581620974 0.038304711468032576 -0.0033490722969476625 -0.051083482007296094 -0.0098465873733834305 0.011903486994731906 -0.040915202576400619 0.043625457447405459 0.0028770497585616749 0.035961381743805948 -0.011273329844146496 -0.05871698129950309 -0.026456611107431811
leaf_weight=99.434850782155991 16.860023662447929 220.78982993960381 35.222743779420853 507.78759188950062 1029.0910573005676 286.27279601991177 107.45876662433147 1881.7320968955755 843.41363455355167 43.784195527434349 34.998679518699646 1613.5475961863995 407.21770621836185 37.525719240307808 120.70499697327614 436.06911012530327 59.002382963895798 606.94632551074028 176.44950059056282 29.809055611491203 287.91855676472187 23.314458817243576 21.886520430445671 15.406291633844374 111.38408888876438 61.12289522588253 24.905501797795296 22.366699710488319 2078.4204013794661 1480.3328405320644 590.58745270967484 35.93741412460804 675.127965092659 201.23905856907368 52.214519545435905 41.934027224779129 40.182791277766228 118.54696244001389 21.957977026700974 1617.8716466873884 41.408009007573128 259.29448713362217 2343.7542405277491 49.420144557952881 1228.3924873322248 26.797483518719673 118.97272188961506 116.05392499268055 300.37598288059235 72.998669534921646 19.695169642567635 4570.9042176902294 54.334760174155235 953.40051762759686 322.60307408869267 21.496015310287476 37.304639130830765 309.80661921203136 50.963906675577164 814.17982199788094 21.568376392126083 219.08304746448994
leaf_count=390 66 870 138 2009 4043 1128 420 7392 3322 171 139 6350 1606 147 475 1718 234 2385 696 117 1132 91 85 61 437 241 99 88 8186 5837 2321 141 2663 796 207 165 159 468 86 6354 164 1022 9225 194 4829 106 467 458 1179 285 78 17976 212 3745 1272 84 148 1221 202 3197 84 858
internal_value=-0.00168531 0.00308812 -0.00544613 0.0125451 0.00139286 -0.011129 -0.0126265 -0.0116939 -0.00215924 -0.00632593 0.00356366 0.00284229 0.0134625 0.00321316 -0.00533464 0.0007797 0.00429168 -0.00356423 0.0205178 -0.00691388 0.000864305 0.00066916 -0.0433282 -0.0107925 -0.0143312 -0.00937592 0.00399734 0.000310474 0.00571874 0.00935327 -0.00464118 0.0143689 0.014978 0.0186505 0.0155227 0.0245704 0.00880956 -0.00386052 -0.007537 -0.00974289 0.0189116 0.00560912 -0.00316305 -0.00446084 -0.00394063 -0.0178598 -0.00673419 -0.00431604 -0.00857589 -0.0181603 -0.0118474 -0.00284234 -0.0334907 -0.000783464 -0.00495349 0.00860388 0.0258561 0.0130938 0.00755068 -0.0110786 -0.0153969 -0.0144926
internal_weight=28069.6 12369.5 15700.1 1880.3 10489.2 3424.93 3101.13 2993.67 3978.75 1645.64 6510.47 6068.25 442.216 323.799 1601.86 2333.11 1290.09 1043.02 235.452 1440.97 411.876 1054.64 57.1093 211.228 195.821 172.507 5256.88 1673.22 3583.66 1505.24 811.377 1780.86 1744.93 1069.8 123.958 94.1485 160.888 12275.1 1957.39 1676.14 58.268 281.252 10317.7 6676.49 6426.97 249.525 145.77 6308.42 1621.46 393.07 320.071 4686.96 103.755 3641.25 1297.5 344.099 59.6713 562.01 360.771 2936.56 1054.83 1033.26
internal_count=110439 48720 61719 7422 41298 13449 12174 11754 15654 6469 25644 23899 1745 1275 6298 9185 5082 4103 930 5664 1621 4152 223 830 769 678 20708 6586 14122 5936 3191 7032 6891 4228 489 372 634 48270 7692 6584 230 1108 40578 26252 25273 979 573 24805 6371 1542 1257 18434 406 14326 5101 1356 236 2219 1423 11531 4139 4055
is_linear=0
shrinkage=0.05


Tree=3
num_leaves=63
num_cat=0
split_feature=6 3 3 3 11 9 11 1 0 11 6 0 0 4 9 3 11 10 7 7 0 11 0 7 6 1 1 3 9 11 11 3 11 9 1 7 1 7 1 0 9 0 1 11 1 4 11 8 1 9 1 11 0 9 4 0 5 9 0 0 11 4
split_gain=182.567 84.1912 53.8443 35.8453 26.5546 27.2477 24.0524 21.1652 19.6175 18.2682 17.6924 16.991 16.4919 15.7785 14.9024 13.8229 17.9924 18.6872 14.5421 13.9324 17.4516 20.1562 14.5181 21.1272 13.6647 13.5184 18.4623 13.4977 12.5946 12.2939 16.4103 16.1133 12.8791 19.4392 14.1548 11.8744 21.504 14.4959 18.5867 16.1769 11.8434 15.4329 14.1254 11.8043 11.6854 11.5725 11.4536 11.2196 12.6725 11.4764 16.6145 19.0527 13.8172 12.7255 16.7411 20.4906 14.8865 12.7285 11.3069 14.8281 11.6927 11.1437
threshold=-0.00094471571274074007 63.623606724362922 34.449284063439762 48.989704895547682 2543.3499999999985 20.500000000000004 1319.5000000000052 0.26409966755275643 0.19732613971575838 5764.1000000000085 0.0013448902285244648 1.3002074601300329 0.22892089438940896 0.0031250000000000006 5.5000000000000009 42.091758126099322 438.85000000001361 1.5000000000000002 1761.3934400000003 1903.0397800000003 0.70800378533486208 653.30000000000166 0.73559811959240384 1899.5623600000004 0.0046198248657175487 0.26892883263145928 0.35434317574371782 69.087786529997729 13.500000000000002 1299.3500000000042 1319.5000000000052 25.868875487620702 640.15000000000566 16.500000000000004 0.39362102449283859 1800.9265400000002 0.25278669205271342 1729.4772700000001 0.3058553858173591 0.74502386093359274 4.5000000000000009 0.26958345856357785 0.18737957825602763 4648.1000000000122 0.35434317574371782 0.36215277777777782 1158.0000000000043 1807.2729375000004 0.18737957825602763 14.500000000000002 0.34547518510370862 1529.1500000000044 0.3345601550798824 9.5000000000000018 0.25451388888888893 0.53484527318413944 0.0020003973247378908 10.500000000000002 0.45680636808348951 0.31948796311406236 487.85000000001452 0.94618055555555569
decision_type=2 2 2 2 2 2 2 2 2 2 2 2 2 2 2 2 2 2 2 2 2 2 2 2 2 2 2 2 2 2 2 2 2 2 2 2 2 2 2 2 2 2 2 2 2 2 2 2 2 2 2 2 2 2 2 2 2 2 2 2 2 2
left_child=2 3 9 6 5 8 7 40 27 25 12 43 -8 46 -13 16 28 -18 -19 22 -21 -22 -17 -24 -6 -1 -27 -3 -15 31 -31 -28 33 -33 -34 36 -5 38 -38 -39 41 42 -2 -4 -40 -45 -9 58 -49 53 51 52 -51 -50 55 -55 61 -57 59 60 -37 -56
right_child=1 4 11 35 24 -7 10 13 -10 -11 -12 14 -14 15 -16 19 17 18 -20 20 21 -23 23 -25 -26 26 29 -29 -30 30 -32 32 34 -35 -36 47 37 39 44 -41 -42 -43 -44 45 -46 -47 -48 48 49 50 -52 -53 -54 54 56 57 -58 -59 -60 -61 -62 -63
leaf_value=-0.018209724882112734 -0.049219761267647134 -0.020491984697774818 0.0064553332759817537 -0.028537008421986327 0.0067723926034740011 -0.03053881251602655 -0.033491940927626168 -0.0044761654857246374 -0.010236589178127697 -0.018370608879400535 0.036047261962094887 0.018663515307437956 -0.003374219782662365 0.047109057373192757 -0.0055521383662939681 0.0060912909418808173 0.011223912638782424 0.033114550691572604 -2.5850171467594024e-05 -0.0060158483790108018 -0.043165511674654378 0.010289177103680151 -0.0096944405756097217 0.046829842434306629 -0.025314490373270482 0.042350153631284138 0.034879653874153524 -0.070805706469315971 0.0064412437585063612 -0.025215451907569998 0.012484011188493857 0.013744742591910839 -0.016134281886032158 -0.03738296461700958 0.021657004981870617 0.026010665230156674 -0.019572432394066294 -0.0089363522458132325 0.07004161711438904 0.0043341176078526234 0.00036407592000302054 -0.047711682686831167 -0.0062539822512350171 -0.050424511400189692 0.013887765949883319 0.0038551223881913318 -0.053117257526212484 0.035630824927092034 -0.0032039905165888918 -0.012550434635645492 -0.00013406521903848857 0.038876721312938636 -0.058119284143553031 -0.031272022065661896 -0.0055873484355470349 -0.040344468536572392 0.038709171329669764 0.0070070985624908272 -0.0067505668869937592 0.027371296526220248 -0.010150320662875224 -0.019498298847711454
leaf_weight=28.263240054249763 21.273097023367882 34.188786566257477 1995.4004268050194 113.42684473097324 286.23542158305645 186.20860892534256 46.272153466939926 28.996853947639465 2858.8268779665232 39.53004015982151 28.004176810383797 70.661885797977448 2568.7951217144728 46.052788957953453 629.797995865345 1584.2364795058966 862.56127680838108 34.302007108926773 946.10597522556782 945.54041695594788 18.682740658521652 314.49204862117767 266.33224260807037 17.62554720044136 37.531453862786293 67.00419457256794 147.42103995382786 21.848446786403656 32.454918533563614 30.109894976019859 698.72201038897038 64.810499012470245 26.203454419970512 26.069076672196388 455.34993721544743 31.564530313014984 20.642592385411263 1501.505300655961 17.06258650124073 271.11353294551373 227.35801750421524 32.268348708748817 189.80800719559193 18.199898332357407 20.271516084671021 21.325812667608261 20.772286623716354 20.706971928477287 4224.3116782456636 272.83146689832211 3161.9800585955381 17.168889448046684 17.715186014771461 155.37416423857212 1693.4938109815121 17.403054744005203 18.16981241106987 76.92277580499649 110.40222391486168 96.342728033661842 76.619138136506081 157.34057256579399
leaf_count=111 83 134 7865 444 1128 729 181 114 11226 155 111 279 10104 183 2477 6244 3403 136 3725 3717 73 1240 1047 70 147 266 585 85 128 118 2760 256 103 102 1802 125 81 5898 68 1068 895 126 746 71 80 84 81 82 16612 1071 12442 68 69 608 6657 68 72 303 434 381 301 617
internal_value=-0.00160109 -0.00332072 0.00785505 -0.00209866 -0.0105729 -0.0119955 0.000446307 0.00230493 -0.0108109 0.0151927 -0.00348381 0.00360737 -0.00390714 0.00323805 -0.00310928 0.00351315 0.00685478 0.00585618 0.00113365 0.00147278 -0.00254851 0.00729171 0.00422521 -0.00618592 0.00305284 0.016052 0.0166909 -0.0401089 0.0302971 0.0155041 0.0109266 0.0201388 0.0163425 -0.000921392 0.0196006 -0.00383116 -0.00741103 -0.00610203 0.0185004 -0.0069067 -0.00784121 -0.0155073 -0.0105841 0.00591936 0.0395514 -0.0211383 -0.0247776 -0.0031454 -0.00344292 -0.00352538 -0.00121342 -0.0123045 -0.0153289 -0.00479004 -0.00795234 -0.020112 -0.00632779 -0.00172923 0.00614442 0.0131051 0.000400297 -0.00676993
internal_weight=28068 23749.1 4318.87 20324.3 3424.84 3101.07 8231.93 5588.86 2914.86 1583.48 2643.07 2735.39 2615.07 5118.16 700.46 5068.39 1921.48 1842.97 980.408 3146.91 1278.72 333.175 1868.19 283.958 323.767 1543.95 1515.69 56.0372 78.5077 1448.69 728.832 719.854 572.433 90.8796 481.553 12092.4 1944.02 1830.6 57.9767 1772.62 470.707 243.349 211.081 2034.93 37.3341 39.5257 49.7691 10148.3 9833.42 9812.71 3469.7 307.716 290.547 6343.02 2118.7 249.7 1869 94.3258 314.929 204.526 108.184 1850.83
internal_count=110439 93405 17034 79956 13449 12174 32407 22011 11445 6258 10396 10776 10285 20161 2756 19966 7575 7264 3861 12391 5030 1313 7361 1117 1275 6103 5992 219 311 5726 2878 2848 2263 358 1905 47549 7639 7195 229 6966 1850 955 829 8020 148 155 195 39910 38669 38587 13650 1208 1140 24937 8325 979 7346 371 1241 807 426 7274
is_linear=0
shrinkage=0.05


Tree=4
num_leaves=63
num_cat=0
split_feature=3 3 1 7 1 1 6 7 9 2 7 1 1 11 7 3 11 4 1 11 4 7 10 5 7 6 7 1 4 9 11 9 1 1 9 7 1 7 7 6 7 10 1 4 9 5 2 7 11 3 9 4 1 2 1 9 11 2 1 9 7 9
split_gain=171.7 82.8735 32.2256 25.9732 25.1956 24.778 23.7102 21.8698 23.5622 17.7312 22.215 19.4767 23.6289 20.9728 19.1145 17.3649 20.2058 16.0149 19.599 17.3134 22.1398 15.7399 17.9662 15.3652 14.9661 18.8437 14.6545 14.5899 14.3001 23.7086 17.6973 16.288 14.0822 19.8134 14.0596 17.8091 16.1282 14.0898 13.7999 13.6596 13.5576 13.4048 19.5615 13.1828 17.3216 14.6322 13.1746 13.1593 12.9787 12.8987 16.6599 18.4766 30.1517 18.5299 12.8528 12.6601 12.4163 17.093 16.2056 14.7214 14.1407 13.6015
threshold=51.993878765905144 35.603806045255759 0.27711817570026759 1751.9738900000002 0.40381316555182784 2.1324019452824605 0.0002533798147640321 1934.7450800000004 9.5000000000000018 0.70202100379234367 1903.0397800000003 0.73971087956524295 0.25892632256403214 2543.3499999999985 1900.0539000000001 47.804034277940751 1478.8500000000001 0.44548611111111119 1.1396932920058587 1849.0000000000011 0.053125000000000006 1759.9590000000001 1.5000000000000002 -0.0018620739006107721 1964.9659500000002 0.00073550466117100488 1912.6250500000003 0.24668318548575843 0.57465277777777779 18.500000000000004 2381.2000000000016 11.500000000000002 0.86733261705719056 0.73971087956524295 5.5000000000000009 1900.8226000000002 0.39623502592045906 1751.9738900000002 1770.0613500000002 0.00072158219760332109 1775.5162700000001 1.0000000180025095e-35 0.34237999735156599 0.13368055555555558 17.500000000000004 -0.00017538688099699715 1.2840236527987388 1772.6602400000004 713.99999999999875 63.623606724362922 19.500000000000004 0.33715277777777786 0.57205156379762445 0.9276685759235328 0.23965302015897902 4.5000000000000009 1253.149999999994 1.1624643235890646 1.2041047244079144 16.500000000000004 1986.6426600000002 21.500000000000004
decision_type=2 2 2 2 2 2 2 2 2 2 2 2 2 2 2 2 2 2 2 2 2 2 2 2 2 2 2 2 2 2 2 2 2 2 2 2 2 2 2 2 2 2 2 2 2 2 2 2 2 2 2 2 2 2 2 2 2 2 2 2 2 2
left_child=1 2 40 -3 6 9 -2 8 27 26 11 12 55 15 21 16 41 18 19 20 48 -13 -23 -7 -9 -26 54 -8 29 31 -31 -19 33 -28 35 36 39 -36 -39 -29 47 42 -14 45 -45 -18 -44 -1 -12 -6 -51 52 53 -52 -5 -11 57 61 -59 60 -58 -4
right_child=4 3 56 5 49 23 7 24 -10 10 17 14 13 -15 -16 -17 43 28 -20 -21 -22 22 -24 -25 25 -27 32 34 -30 30 -32 -33 -34 -35 37 -37 -38 38 -40 -41 -42 -43 46 44 -46 -47 -48 -49 -50 50 51 -53 -54 -55 -56 -57 59 58 -60 -61 -62 -63
leaf_value=-0.0072963445349567254 -0.0039935880944875586 0.019659773404736874 0.011061209679798331 0.0086858004798488538 -0.0033145875450301277 -0.018943949691438908 -0.022711084241431312 -0.039198273564196626 -0.019979723777302602 -0.018458106796657752 -0.022055896326936941 -0.032691477376959516 0.036603031480690253 0.03245719400977895 0.017776728422036991 0.00028026867182825288 -0.067105900851714834 0.0077966896541801474 -0.029653630750563875 0.0038191714228840677 -0.0073053871196541165 0.009839572879274068 -0.0062649174294838184 0.03330631518888684 0.014236526372825811 -0.049634502591075019 -0.0014437702508460978 -0.011781292961189566 -0.00090182840007190326 0.019720717142079083 0.077572676547924657 -0.0091811027986651132 0.023762152714399812 -0.054813246547582399 0.047354532407111627 0.0051414626279077244 0.033390426843679898 -0.031795695385758757 0.0053177946478214291 -0.034411741030370306 -0.0021022978505369767 0.0069645095903741504 0.013769722103373223 -0.015207261435858252 0.022549000484118266 -0.0061555428521572935 -0.024632308092721617 -0.06172235880168897 0.012853086632947425 -0.0061254343013855943 -0.049258560053510314 -0.035411638283236443 0.018567861115631534 0.0025308376482212876 -0.024675854927672092 0.0017863123946417082 0.0026125455554129712 0.02268579534826819 0.073540705556853547 0.018397926806225637 0.021427211112110087 0.050488586626014645
leaf_weight=22.894101694226265 1066.1180888265371 176.49696460366249 944.35344669222832 34.511165648698807 7372.7145116776228 16.817421481013298 125.71706734597683 127.91600638628006 531.94571056962013 159.36883194744587 30.357507392764091 47.007249534130096 96.149790018796921 72.023736149072647 106.56589375436306 1197.0298811048269 18.256568297743797 501.37874229252338 73.549671486020088 628.85255153477192 2004.0538198500872 214.66151541471481 896.23490746319294 86.132383987307549 34.229851946234703 17.426866441965103 160.92689314484596 275.5797915905714 2826.6548533439636 108.87697325646877 15.046186760067938 196.68774800002575 46.067186206579208 19.497501775622368 17.8921158015728 152.88686689734459 16.428896874189377 27.862423449754715 247.84932367503643 87.963172093033791 143.593526288867 1808.0128882527351 331.52346743643284 82.523611217737198 48.073438405990601 21.376338303089142 23.947462067008018 21.569418668746948 216.58289331197739 2480.1800116747618 44.574520528316498 106.82385143637657 60.53986731171608 28.197363808751106 176.60596640408039 149.83216574788094 772.99329724907875 302.84663555026054 16.519829675555229 268.86197291314602 114.68196804821491 22.392867833375931
leaf_count=90 4192 698 3731 136 28992 66 493 500 2086 625 119 184 381 285 421 4711 71 1976 288 2476 7876 847 3524 341 135 68 633 1082 11125 430 60 773 182 76 71 602 65 109 976 344 565 7129 1309 324 190 84 94 84 854 9746 174 418 239 111 692 590 3048 1200 66 1063 454 89
internal_value=-0.00129039 0.00230029 0.0103716 0.000614004 -0.00555298 0.000343245 -0.0098147 -0.0135449 -0.0115509 0.000138991 0.000503244 0.00292322 0.00463008 0.00574004 -0.00248721 0.00520948 0.00763777 -0.00142942 -0.00416656 -0.00351564 -0.00556474 -0.00435217 -0.003153 0.0247709 -0.0300254 -0.00731095 -0.00974513 -0.006842 0.000786164 0.00659082 0.0267448 0.00301301 -0.000911324 -0.00721112 -0.00442808 -0.00926891 -0.0150671 0.0043575 0.00156724 -0.017257 -0.00957281 0.00888923 0.0165946 -0.00897408 -0.00130899 -0.0342318 0.0111826 -0.0336986 0.00856157 -0.00440033 -0.00734297 -0.019918 -0.00750285 -0.0291914 -0.0192222 -0.0086481 0.0119071 0.0152875 0.0253164 0.00814786 0.00504328 0.0119745
internal_weight=28045.2 15222.4 2630.71 12591.7 12822.8 12415.2 2729.82 1663.7 1484.13 12312.2 11874.6 5272.59 4008.12 3698.92 1264.47 3626.89 2429.86 6602.04 2953.4 2879.85 2250.99 1157.9 1110.9 102.95 179.573 51.6567 437.609 952.18 3648.64 821.99 123.923 698.066 226.492 180.424 826.463 532.859 379.972 293.604 275.712 363.543 188.057 2259.63 451.621 170.23 130.597 39.6329 355.471 44.4635 246.94 10093 2720.32 240.136 133.312 72.7719 211.117 309.201 2442.65 1286.11 319.366 1156.54 887.675 966.746
internal_count=110363 59960 10390 49570 50403 48872 10723 6531 5828 48465 46746 20769 15793 14578 4976 14293 9582 25977 11613 11325 8849 4555 4371 407 703 203 1719 3742 14364 3239 490 2749 891 709 3249 2093 1491 1156 1085 1426 739 8913 1784 669 514 155 1403 174 973 39680 10688 942 524 285 828 1215 9651 5086 1266 4565 3502 3820
is_linear=0
shrinkage=0.05


Tree=5
num_leaves=63
num_cat=0
split_feature=3 3 4 3 1 10 1 6 7 7 9 1 7 8 0 9 9 4 4 10 4 4 9 11 11 3 7 7 7 8 0 1 5 8 7 1 11 11 11 9 11 1 6 6 8 1 5 11 8 1 7 1 9 11 6 7 7 7 8 10 11 4
split_gain=156.149 52.6567 40.7378 33.6717 26.1084 21.885 21.7801 20.1266 20.0591 19.9757 23.318 19.0747 15.4542 19.1036 15.4393 16.8556 15.43 20.1368 14.3579 14.1635 14.0855 14.7074 14.0055 13.9604 14.7426 15.2701 13.9061 13.7355 13.7332 29.0226 17.1561 16.8302 12.6338 12.3772 12.5483 12.3595 12.0741 17.9057 19.1422 14.572 17.3196 16.6707 12.0684 11.5917 23.9126 22.0458 17.9775 11.8515 11.406 28.0997 18.7204 13.5302 16.739 22.8491 14.3737 12.5788 12.2204 11.2969 12.5951 14.4064 13.1856 13.1122
threshold=42.091758126099322 52.696947434576252 0.22534722222222225 33.442478637861996 0.40381316555182784 1.0000000180025095e-35 1.950550589542847 0.0003788831387133707 1798.7062500000002 1935.3108600000003 9.5000000000000018 0.97848234304711645 1937.2936500000003 1933.6356525000003 1.5027072867445002 4.5000000000000009 11.500000000000002 0.0065972222222222231 0.69826388888888891 2.5000000000000004 0.044791666666666674 0.65381944444444462 21.500000000000004 4648.1000000000122 743.00000000000648 34.133271310282545 1775.8875500000001 1954.0863300000001 1769.4978200000003 1765.9580450000001 1.0731908144306994 0.64542594544108511 -1.0000000180025095e-35 1900.5968350000001 1891.9866600000003 0.24668318548575843 640.15000000000566 1299.3500000000042 1319.5000000000052 11.500000000000002 446.35000000000679 0.27711817570026759 0.00073550466117100488 0.0026955763724416664 1934.6141525000003 1.8497059684963559 0.0024061889210306169 1849.0000000000011 1923.6864400000002 0.48192006353050537 1905.14591 1.4303716592936087 4.5000000000000009 2318.5000000000064 -0.0023328472040333721 1912.0290400000004 1901.1344100000001 1971.2077800000004 1935.1266300000002 2.5000000000000004 4648.1000000000122 0.9628472222222223
decision_type=2 2 2 2 2 2 2 2 2 2 2 2 2 2 2 2 2 2 2 2 2 2 2 2 2 2 2 2 2 2 2 2 2 2 2 2 2 2 2 2 2 2 2 2 2 2 2 2 2 2 2 2 2 2 2 2 2 2 2 2 2 2
left_child=2 6 16 22 7 12 14 18 11 10 20 -7 13 32 15 -2 -1 -18 -3 -8 35 33 36 24 -19 -26 -23 -11 29 -17 31 -31 -5 34 -22 -9 39 -38 -39 41 -41 -4 -29 46 -45 47 -6 -46 50 -50 56 52 53 54 -51 -52 -40 58 60 -60 61 -16
right_child=1 4 3 5 43 8 19 9 -10 27 -12 -13 -14 -15 57 28 17 23 -20 -21 21 26 -24 -25 25 -27 -28 42 -30 30 -32 -33 -34 -35 -36 -37 37 38 48 40 -42 -43 -44 44 45 -47 -48 -49 49 51 55 -53 -54 -55 -56 -57 -58 -59 59 -61 -62 -63
leaf_value=-0.0050064576712491472 -0.0042564346277515659 -0.0063391856934021723 -0.015683354776207595 0.012776870883820526 -0.0038946372496530979 0.018459199197563197 0.032039179811571609 -0.067754940368161293 0.0018182454961713952 -0.050007804641796209 -0.022400343855748073 -0.022479035341569722 0.0027136981816169407 0.062748253750887148 -0.036703769887168385 0.0019697862792291279 -0.029503483865893323 -0.0057784847776299261 0.034641886930991399 -0.012680111440323924 -0.0042836401881886461 0.0078835761884813657 0.058746232354406541 -0.032176030982305696 0.033487319543090109 0.0092109390691643509 -0.047880254593127662 -0.0015648389097085353 0.00026406953471730106 0.025682703911747946 -0.017034193575488184 0.071228531891383673 0.037738736340996011 0.0087434860078687646 -0.031399685465725871 -0.0164610223598586 0.021816418881789028 -0.03204755932510997 0.0082680045287290647 0.039430049379548811 -0.017318430739688754 0.034031294856882402 -0.045456734428850586 -0.002999087033397985 -0.028012227649374551 -0.060378347663004567 0.032770344900102021 -0.0047499234098016471 -0.047145438348635382 0.05853596332045552 -0.037209423668710453 0.0025866078075570146 0.032735171228325574 -0.036267409848756087 0.0008484105438870378 0.00029165172931882856 0.050196431034864236 -0.02974901630726029 -0.01349818110833419 0.018745120526731121 0.018692631952899406 -0.0052381624294760209
leaf_weight=1025.6629804670811 2079.3218027055264 1335.2646898776293 24.455024644732475 312.39722809195518 8892.6848130971193 311.25966075062752 81.308559596538544 16.145476311445236 2508.6797321289778 62.227279424667358 377.5530314296484 31.316602945327759 205.09353713691235 24.112484633922577 73.120923161506653 367.02419723570347 37.279848292469978 103.69482077658176 21.720556318759918 22.635028049349785 398.29112659394741 16.241971507668495 17.532565638422966 19.923153251409531 89.266349032521248 236.107536226511 35.872228115797043 43.209480971097946 6456.222792044282 76.578176662325859 16.565326362848282 27.590936332941055 60.507911130785942 167.75438830256462 47.783636182546616 43.077374890446663 594.86218583583832 26.32284115254879 111.06263935565948 15.611501991748808 96.897853195667267 54.314132913947105 24.564276114106178 395.43704836070538 114.66552005708218 33.630188062787056 33.558528825640678 104.79079739749432 16.346722960472107 18.553986340761185 36.759164214134216 85.389060020446777 199.53458520770073 23.199982881546021 25.831456631422043 57.088904425501823 20.602023154497147 64.869420379400253 63.156623348593712 76.733575075864792 22.788068681955338 60.505397960543633
leaf_count=4034 8177 5248 96 1234 34962 1232 322 63 9883 243 1480 123 808 96 286 1446 146 408 86 89 1566 64 70 78 354 931 140 170 25412 303 65 110 240 661 187 169 2360 103 439 62 381 216 96 1555 449 131 133 412 64 74 144 337 792 91 102 225 82 254 248 303 90 238
internal_value=-0.00122595 -0.00325276 0.00564237 0.0078651 -0.00543041 0.00519712 -0.000460929 -0.00988443 0.003368 -0.0145092 -0.0123238 0.0147168 0.0138588 0.0196162 -0.000713042 -0.000307296 -0.00152851 0.00580731 -0.00568322 0.022301 -0.00707745 -0.00499937 0.0143336 0.00873917 0.010639 0.0158712 -0.0305008 -0.0330465 0.000875243 0.00896505 0.0302301 0.0377463 0.0168272 -0.00283429 -0.00718832 -0.0304449 0.0137801 0.0156176 0.00967675 0.00210315 -0.00944416 0.0185967 -0.0174732 -0.00422572 -0.0106801 -0.0226813 -0.00375679 -0.0169044 0.0115246 0.0169404 0.00266627 0.0199123 0.0254507 0.00394446 0.0249629 -0.0143971 0.0148287 -0.0108499 -0.00671235 0.00418815 -0.0164613 -0.0224563
internal_weight=28042.6 21652.9 6389.67 4877.73 12164.5 3453.37 9488.42 2589.71 2851.26 1232.72 1102.72 342.576 602.111 397.018 9384.48 9023.3 1511.93 486.272 1356.99 103.944 725.166 665.943 1424.36 448.992 429.069 325.374 52.1142 130.001 6943.98 487.759 120.734 104.169 372.905 613.829 446.075 59.2229 1406.83 1215.55 620.691 191.279 112.509 78.7692 67.7738 9574.77 648.524 253.087 8926.24 219.456 594.369 368.856 225.513 352.509 267.12 67.5854 44.3854 93.8481 131.665 361.174 296.305 139.89 156.414 133.626
internal_count=110363 85158 25205 19254 47815 13616 37343 10173 11238 4839 4330 1355 2378 1570 36932 35513 5951 1917 5334 411 2850 2618 5638 1771 1693 1285 204 509 27336 1924 478 413 1474 2414 1753 232 5568 4813 2453 755 443 312 266 37642 2547 992 35095 861 2350 1460 890 1396 1059 267 176 369 521 1419 1165 551 614 524
is_linear=0
shrinkage=0.05


Tree=6
num_leaves=63
num_cat=0
split_feature=3 3 6 11 9 11 3 2 4 7 3 11 6 5 9 0 9 9 8 5 10 6 11 7 4 2 6 9 9 9 0 0 4 0 2 8 3 4 0 11 7 2 11 11 7 4 0 3 2 8 11 4 11 8 3 6 9 9 6 4 10 8
split_gain=146.802 55.6567 32.2888 27.7183 22.8315 19.637 18.2418 14.721 24.5739 22.401 18.0681 16.7759 20.3137 16.7326 16.0084 21.2338 22.208 19.1766 27.5725 18.0718 19.7704 17.4358 16.0041 14.4907 14.3898 13.7275 13.4656 13.4596 13.0114 14.463 12.9872 14.3251 22.2044 13.8863 13.1597 15.1223 15.3822 12.8424 19.7948 31.5846 16.2831 14.5573 13.4534 12.492 13.8559 14.4448 20.4302 12.4089 12.3989 12.1429 12.0404 12.023 12.8733 11.9459 13.9548 12.9705 11.907 17.5625 16.7617 14.8844 14.3212 13.5259
threshold=39.831010096313442 63.434180523616185 -0.00092417512356324216 2543.3499999999985 19.500000000000004 1299.3500000000042 25.868875487620702 0.88939391572072435 0.75034722222222239 1729.4772700000001 46.887412996199309 911.14999999998656 0.00015515895360651569 -8.878109778021058e-05 16.500000000000004 0.22892089438940896 22.500000000000004 9.5000000000000018 1965.1155350000004 -7.6724854926879513e-05 2.5000000000000004 0.00027894110856263593 2055.7000000000021 1759.9590000000001 0.10868055555555557 0.91433838804837786 -0.00012243670883582689 2.5000000000000004 8.5000000000000018 3.5000000000000004 0.45177983696336838 0.56301033573864101 0.81215277777777783 0.23395927361007121 0.99175264437144917 1894.6413350000005 43.821309638036318 0.31215277777777783 0.55357349264914457 487.85000000001452 1754.8556000000001 1.0414368007885526 620.75000000000966 2707.1499999999905 1956.8232 0.20381944444444447 0.24855036471531247 68.667830091544531 1.4320954899979446 1894.9843600000002 5764.1000000000085 0.52048611111111132 1895.5000000000043 1803.0354875 70.045824807086561 0.0013125593831697648 16.500000000000004 11.500000000000002 0.0025412736438263921 0.43298611111111118 1.5000000000000002 1879.7114100000006
decision_type=2 2 2 2 2 2 2 2 2 2 2 2 2 2 2 2 2 2 2 2 2 2 2 2 2 2 2 2 2 2 2 2 2 2 2 2 2 2 2 2 2 2 2 2 2 2 2 2 2 2 2 2 2 2 2 2 2 2 2 2 2 2
left_child=2 7 5 4 37 6 -1 8 14 -9 11 27 48 -10 17 16 26 19 -19 20 28 -18 -20 -17 -6 -12 -16 -11 29 -2 33 -32 -33 -29 -34 36 -36 53 39 -39 -40 51 -42 44 -21 46 -46 -26 -13 -30 -7 52 -41 54 -3 -55 57 58 61 -58 -61 -44
right_child=1 3 -4 -5 24 50 -8 9 13 10 25 12 -14 -15 15 23 21 18 22 43 -22 -23 -24 -25 47 -27 -28 30 49 -31 31 32 34 -35 35 -37 -38 38 40 41 42 -43 56 -45 45 -47 -48 -49 -50 -51 -52 -53 -54 55 -56 -57 59 -59 -60 60 -62 -63
leaf_value=0.028965550575044154 0.002651369958029256 -0.019577365998473775 0.0017563779853033718 0.004908906098595991 -0.0053557108629145164 0.0068911866541767203 0.012060581880521956 0.03002418730311775 0.016216969000999223 -0.0055893138508212419 0.0036535175706902956 -0.002647049603221568 0.013412694206088389 -0.0011733863910562798 -0.0083917079858779817 -0.030392530374592677 0.010276664563904001 -0.0099142162695688568 -0.044759212317201341 -0.0027592301206836867 -0.020710295278306992 -0.046718282646563095 0.0020516915866778747 -7.6817942003314701e-05 -0.021949611750450789 -0.002915412363873794 -0.047517484051024218 -0.019364249044673071 -0.014548759371342271 -0.015831937093317438 -0.0066608038330889553 0.022804058266632368 -0.019186601375427961 0.017870972384874919 0.029311654700664637 -0.0095038893655193211 -0.0014649032055716136 -0.032386129069060209 0.022439496241863401 5.2647345273999813e-05 0.0068539390283287472 -0.0060458832596923286 0.0078252245734860941 -0.02077479394292572 0.041343290268462139 0.024945225500980984 -0.0073422844687462858 -0.047440858546996201 0.025821454395671635 0.037458712116488518 -0.016300083083929516 0.022342693600878961 0.043604607545412365 -0.0085167684615234333 -0.059282967030143074 -0.028303023232117187 -0.063012688067724296 -0.0042602772313822881 -0.035339844131681668 0.00051889591160761493 -0.032077081648913791 -0.016210224136639924
leaf_weight=183.91940112411976 196.35752074420452 110.90766754746437 1996.6504741162062 336.6254271119833 84.611442893743515 1362.4408992528915 1205.8642732650042 57.998514488339424 235.84805247187614 201.84209249913692 877.82219681143761 2167.7038520127535 231.87074539065361 334.49411289393902 33.080581173300743 40.095904007554054 73.840953499078751 864.13508330285549 94.769836977124214 1238.6448653638363 309.89661169052124 16.398724272847176 22.616422563791275 2330.9127473831177 161.58900520205498 8462.1067517697811 65.597423553466797 26.766019687056541 17.053794667124748 229.5853129774332 209.11869463324547 183.32007257640362 64.432442337274551 388.1036335080862 89.386994123458862 97.935062617063522 74.384181797504425 65.426246911287308 37.740785256028175 214.82897195219994 99.807577833533287 215.75214521586895 68.559100747108459 80.597546860575676 25.748492330312729 99.226991817355156 132.09732885658741 67.760846674442291 38.933747708797455 32.829538196325302 58.364736318588257 132.72243519127369 18.422392278909683 573.84406390786171 27.64466156065464 96.798230305314064 22.101719319820404 577.7838861644268 98.972263112664223 56.69307316839695 83.075158938765526 400.25215780735016
leaf_count=732 773 435 7869 1326 333 5380 4771 230 931 794 3456 8529 915 1316 130 157 291 3395 370 4871 1215 64 89 9172 634 33280 256 105 67 901 823 725 253 1534 354 385 293 256 149 845 393 848 270 316 102 392 519 265 154 130 229 524 73 2255 108 379 86 2271 387 223 325 1570
internal_value=-0.00133413 -0.0029821 0.00661817 -0.00874191 -0.0101711 0.010072 0.0142977 -0.00194072 -0.00389303 -0.000981173 -0.0011183 0.00180145 -0.000665441 0.00601788 -0.00485053 -0.00187489 -0.0180074 -0.00712877 -0.0130029 -0.00468782 -0.0108824 -8.0691e-05 -0.0357403 -0.000589484 -0.0229793 -0.00229803 -0.0344011 0.00630648 -0.00448173 -0.00731122 0.00842487 0.00435813 0.0088811 0.0154687 0.00105511 0.00603865 0.0153331 -0.00878508 -0.00671625 0.000551142 -0.00997103 0.00425557 -0.0108402 -0.00160008 -0.000566842 0.00999667 0.000599517 -0.0294809 -0.00214475 0.0196787 0.00593852 0.0103286 0.00349242 -0.014134 -0.0274996 -0.0113726 -0.012191 -0.0103974 -0.0166425 -0.0248847 -0.0188554 -0.0126953
internal_weight=28004.7 23197.5 4807.24 3551.92 3215.29 2810.59 1389.78 19645.6 6473.83 13171.7 13113.7 3773.8 2438.51 570.342 5903.49 2559.93 188.918 3343.56 981.521 2362.04 785.723 90.2397 117.386 2371.01 313.961 9339.93 98.678 1335.29 475.826 425.943 1133.45 718.577 509.459 414.87 326.139 261.706 163.771 2901.33 2092.14 647.152 1444.99 581.726 1407.24 1576.32 1495.72 257.073 157.846 229.35 2206.64 49.8833 1420.81 365.974 233.251 809.195 138.552 670.642 1307.44 1145.57 567.784 161.87 139.768 468.811
internal_count=110223 91242 18981 13955 12629 11112 5503 77287 25457 51830 51600 14864 9598 2247 23210 10070 741 13140 3854 9286 3086 355 459 9329 1232 36736 386 5266 1871 1674 4472 2833 2010 1639 1285 1032 647 11397 8220 2546 5674 2290 5525 6200 5884 1013 621 899 8683 197 5609 1442 918 3177 543 2634 5132 4498 2227 634 548 1840
is_linear=0
shrinkage=0.05


Tree=7
num_leaves=63
num_cat=0
split_feature=3 3 1 3 11 9 7 11 1 3 7 1 1 4 7 7 10 8 8 8 9 0 11 7 4 0 11 7 11 4 9 9 3 5 7 1 11 1 0 10 0 9 8 3 6 9 9 6 4 8 7 10 11 1 1 9 6 6 11 5 0 1
split_gain=132.523 50.2571 30.1024 29.1154 25.0257 20.6514 19.2308 17.0939 19.6317 13.7168 19.7361 17.0628 13.4405 13.0228 12.1057 14.0603 27.3918 15.5071 20.9554 20.5593 13.7467 11.7533 11.6774 11.6762 11.6003 17.8689 28.5285 14.6973 12.145 11.4416 11.645 11.4242 11.2673 11.2484 10.9711 10.8666 14.2405 16.6772 13.7309 12.8652 15.5038 10.9474 10.8112 12.8236 11.7192 10.7583 15.8599 15.1548 13.7545 12.2103 17.1597 12.1201 11.2751 18.5224 12.0111 11.8529 13.224 11.709 10.7343 12.2556 12.2331 15.9758
threshold=39.831010096313442 63.434180523616185 0.27325226427267163 33.442478637861996 2543.3499999999985 19.500000000000004 1754.8556000000001 1208.999999999992 0.48997528413173597 51.993878765905144 1751.9738900000002 1.950550589542847 0.28088048518601128 0.10868055555555557 1761.3934400000003 1769.4978200000003 1.5000000000000002 1765.9580450000001 1768.9614625000002 1764.1280325000002 16.500000000000004 0.28880974111995467 435.50000000000188 1922.0346300000003 0.31215277777777783 0.55357349264914457 487.85000000001452 1754.8556000000001 620.75000000000966 0.95451388888888899 22.500000000000004 1.0000000180025095e-35 68.667830091544531 0.00044334321760819423 1940.8685800000001 0.49253388900753953 597.74999999999648 0.38855592233790565 0.34543123734786924 3.5000000000000004 0.454310615011639 15.500000000000002 1803.0354875 71.202251712207882 0.0013125593831697648 16.500000000000004 11.500000000000002 0.0025412736438263921 0.49548611111111118 1879.7114100000006 1867.2537300000001 1.5000000000000002 1344.849999999997 0.86733261705719056 0.57812930904735194 7.5000000000000009 0.0016652848404138389 0.001895359640890826 1095.9999999999925 6.0646648912143781e-05 1.4212153686553475 0.97048534606183112
decision_type=2 2 2 2 2 2 2 2 2 2 2 2 2 2 2 2 2 2 2 2 2 2 2 2 2 2 2 2 2 2 2 2 2 2 2 2 2 2 2 2 2 2 2 2 2 2 2 2 2 2 2 2 2 2 2 2 2 2 2 2 2 2
left_child=2 9 -1 -4 5 24 -5 12 31 10 -2 14 -8 -7 -12 16 -16 19 -19 20 -18 -14 -23 -13 42 26 -26 -27 -29 30 -10 34 33 -15 -9 36 37 38 -28 40 -37 -41 43 -3 -44 46 47 49 -47 50 -30 -50 54 -54 55 56 -51 -55 60 -60 61 -24
right_child=1 4 3 6 -6 13 7 8 29 -11 11 23 21 32 15 -17 17 18 -20 -21 -22 22 58 -25 25 27 35 28 45 -31 -32 -33 -34 -35 -36 39 -38 -39 -40 41 -42 -43 44 -45 -46 48 -48 -49 51 52 -52 -53 53 57 -56 -57 -58 -59 59 -61 -62 -63
leaf_value=-0.009770146384425471 0.016973817913190699 -0.019505570896568097 0.012432248840672103 0.036678565856091964 0.0046638203073557649 -0.0050890371768562148 0.049831856118952987 -0.014126937616965469 0.0049372235571248152 -0.0032413071959537169 -0.014307087454206044 0.04441955448056685 -0.0090807723953507859 -0.031777137927990473 0.039158597530136896 -0.0012111109026670549 -0.0061332138039020163 0.037167295661557527 -0.0095973367018978555 -0.0332642344651033 0.02994197258680989 0.04893819311134337 0.0063059773882406774 0.0085577690671819005 -0.030794997033782714 0.021317508467279773 0.024279765754332338 0.0065110211290144082 -0.016039292349250715 -0.013491005437896454 -0.025872516723939417 -0.016957570723126248 -0.045185432085310784 -0.0049008314557750041 0.045442062082186908 -0.027678436500256046 -0.005698265256978214 0.045265640694234902 -0.038287265600976964 0.0049922211251074494 0.013652596642474072 0.057750724743600518 -0.0080921752439292258 -0.060988642929147178 -0.026905035441448 -0.049883926842346195 -0.0040474282500181334 -0.033602398845018415 0.0031859890685683166 -0.0031403727960047888 0.034090041092077764 -0.028634079746774444 0.0020511334993970178 -0.053151547649867618 -0.034646009288109098 0.020357463274995789 -0.049048338355158629 -0.0046397307480721761 0.012973710370376141 0.048295204923946143 0.040929817600004886 -0.017886480479326842
leaf_weight=275.08243563771248 157.43077191710472 116.20583388209343 1701.8722085356712 44.733540549874306 336.60029648244381 84.593419641256332 18.622423529624939 15.533536255359651 1042.3351005911827 9270.9895599335432 170.14679053425789 31.193461999297142 104.02691884338856 95.932163625955582 62.081919610500336 9591.050180375576 91.295023217797279 59.268543154001236 40.205513387918472 50.836916789412498 37.153784409165382 17.528945416212082 836.96500986814499 83.335613191127777 65.367775931954384 37.740770220756531 19.238974362611771 99.81088575720787 36.457602053880692 102.02022451162338 31.599005103111267 218.5222759693861 67.590119943022728 65.519025027751923 15.384971290826796 27.077528029680252 304.54015742242336 32.797489836812019 16.113245353102684 15.747987762093542 140.01114538311958 26.176199942827225 573.75790785253048 22.186719670891762 96.737888425588608 38.181867718696594 577.76094533503056 98.887199521064758 50.822673410177231 40.44184273481369 32.103789716959 72.780791938304901 147.3904689848423 29.758814871311188 112.01845546066761 23.563373908400536 25.626339077949524 21.370838344097137 256.42753964662552 27.159131675958633 23.422028124332428 74.298193618655205
leaf_count=1081 623 456 6744 178 1326 333 74 61 4110 36454 668 124 409 376 247 37744 359 235 158 199 147 70 3304 329 256 149 76 393 143 401 124 858 265 258 61 106 1197 130 63 62 552 104 2255 87 379 149 2271 387 200 159 127 285 580 116 438 93 100 84 1013 108 93 292
internal_value=-0.00126756 -0.0028332 0.00628961 0.00726474 -0.00830738 -0.00966571 0.0041556 0.00363299 -0.000191935 -0.00184372 -0.000594724 -0.000865444 0.00764641 -0.0218539 -0.00108301 -0.000856466 0.00912301 0.00243385 0.0182659 -0.00635034 0.00430152 0.00706007 0.00841876 0.0183252 -0.00834787 -0.00638161 0.000523587 -0.00947436 -0.0103003 0.00251059 0.00403069 -0.0129326 -0.0280458 -0.0208704 0.0155144 0.00404296 -0.0010748 0.0195861 -0.00423776 0.0131684 0.0069547 0.037933 -0.0134326 -0.026156 -0.0108065 -0.011584 -0.00987919 -0.0158152 -0.0236533 -0.0120626 0.00743371 -0.0155505 -0.0154029 -0.00694421 -0.0237304 -0.0100884 -0.020947 -0.0328749 0.00783576 0.0163565 0.00525055 0.00433349
internal_weight=28001.4 23195.9 4805.53 4530.45 3550.91 3214.31 2828.58 2783.85 1425.4 19645 10374 10216.6 1358.45 313.635 10102 9931.89 340.842 278.76 99.4741 179.286 128.449 1339.83 1235.8 114.529 2900.68 2091.79 647.071 1444.72 1406.98 1175.95 1073.93 249.441 229.041 161.451 30.9185 581.703 372.69 68.1497 35.3522 209.013 167.089 41.9242 808.888 138.393 670.496 1307.17 1145.38 567.619 161.785 468.732 68.5614 123.603 400.17 198.52 201.65 89.6316 66.0682 51.1297 1218.27 283.587 934.685 911.263
internal_count=110223 91242 18981 17900 13955 12629 11156 10978 5615 77287 40833 40210 5363 1232 39757 39089 1345 1098 393 705 506 5289 4880 453 11397 8220 2546 5674 5525 4635 4234 980 899 634 122 2290 1466 269 139 824 658 166 3177 543 2634 5132 4498 2227 634 1840 270 485 1570 780 790 352 259 200 4810 1121 3689 3596
is_linear=0
shrinkage=0.05


Tree=8
num_leaves=63
num_cat=0
split_feature=6 5 4 1 11 7 1 8 6 7 9 1 4 1 1 11 6 8 11 1 10 1 8 2 4 10 5 7 5 1 8 6 9 8 10 6 5 7 7 6 2 8 8 7 2 6 9 4 11 4 1 7 11 4 6 9 9 11 2 11 8 5
split_gain=104.175 30.6898 47.6961 27.4561 21.8164 29.9428 25.1587 18.9343 18.3769 16.7274 22.1183 16.4684 19.5599 16.0138 15.1547 16.1341 17.3475 14.9088 15.1534 18.9709 16.8633 14.8914 14.7334 14.4619 13.4442 13.214 18.1724 16.4601 13.1327 16.6656 31.4344 14.3461 12.7378 18.1279 13.0721 13.3728 13.2427 12.6949 15.7999 12.6818 12.6661 12.6379 13.9807 16.5921 23.8729 13.9744 12.528 12.3787 12.3185 14.1266 12.0643 13.3721 11.9173 23.6695 21.9096 17.524 16.7826 14.8386 16.01 18.6836 12.1022 11.9265
threshold=-0.00094471571274074007 0.00019914185287295275 0.25034722222222228 1.0017483777340368 878.85000000000002 1978.5226900000002 0.44183295233944803 1771.0848200000003 0.00080842501215261386 1772.0323600000002 12.500000000000002 0.40107082477790346 0.040625000000000008 1.1198710570978652 0.46166284869392371 1150.4999999999998 0.00062827337392190607 1956.9915050000002 1118.9999999999943 0.41640325147256524 1.5000000000000002 0.406648768629982 1896.8534650000004 0.81528331616456851 0.42465277777777782 1.5000000000000002 4.4637185404483588e-05 1908.8404500000001 -0.00065561294048993568 0.52109506360029745 1965.1155350000004 0.0011683453226362108 5.5000000000000009 1900.8914650000004 1.0000000180025095e-35 0.00032417996633005158 -0.0003220113029938631 1952.3083100000001 1946.9055800000001 -0.0011298732259450437 1.1946480971553533 1805.7814100000003 1908.8467175000003 1946.5469700000001 0.98476038842110236 -0.00012243670883582689 3.5000000000000004 0.16701388888888891 1344.849999999997 0.32465277777777785 0.4846418310168899 1971.2077800000004 1249.299999999994 0.97534722222222225 -0.0026016069132550608 16.500000000000004 9.5000000000000018 1365.6999999999928 1.0650298593825844 1478.8500000000001 1768.4964625 -0.00038466829270200614
decision_type=2 2 2 2 2 2 2 2 2 2 2 2 2 2 2 2 2 2 2 2 2 2 2 2 2 2 2 2 2 2 2 2 2 2 2 2 2 2 2 2 2 2 2 2 2 2 2 2 2 2 2 2 2 2 2 2 2 2 2 2 2 2
left_child=3 2 8 39 5 7 17 13 -2 10 24 -3 -13 -4 15 22 23 18 -6 20 -20 -22 46 -17 -9 26 27 32 -8 30 31 48 33 34 35 -11 -36 38 -5 52 47 -27 -43 45 -45 -44 -14 -25 49 -30 -29 -52 54 56 55 -1 57 61 59 -59 -58 -54
right_child=1 11 4 37 6 -7 28 9 -10 25 -12 12 14 -15 -16 16 -18 -19 19 -21 21 -23 -24 40 -26 41 -28 50 29 -31 -32 -33 -34 -35 36 -37 -38 -39 -40 -41 -42 42 43 44 -46 -47 -48 -49 -50 -51 51 -53 53 -55 -56 -57 60 58 -60 -61 -62 -63
leaf_value=0.053736629958380626 -0.0046530000041086822 -0.010461295869355326 0.010258395772932631 0.0014463727622232754 -0.024499290741220335 0.047138858471753226 0.0049557786650025939 -0.042037194894355638 -0.018912094956117426 0.017739627952520445 -0.069153865396428843 0.017190141897828019 0.026628998482059581 0.056055984671972439 -0.005342391359612105 -0.017971526805216877 -0.0060995980197066976 -0.048684848834357003 0.03238347936468379 -0.019999571508629341 -0.010525946410443606 0.03606778522869724 -0.015629231396529743 0.0086528566225215747 0.010844597133161772 0.0054100745493068396 -0.0033997039112403302 0.0064951563350952729 0.00057532733627539115 -0.0026060310705625081 -0.048764221962586285 -0.021482584297447347 0.013331363245343128 0.050793132902090879 0.010923168404709733 -0.030149061825370818 -0.028245130817315035 -0.0064612680878554166 0.022430011076787871 0.0031362895974582244 -0.013402005117528105 -0.0064711247190810742 0.042152383169680264 -0.036574180513569511 0.013732391482863619 0.007415291723074033 -0.0014340385909446462 0.040424794372301599 0.0005493927735131742 0.023432804408595739 -0.034630087007626785 0.0083320315129822332 -0.00091074745668921374 -0.053370858327841414 0.012459169879236355 -0.0068015893673750247 0.058059933403958076 0.043290892833268223 0.014320017616487503 -0.010943446647717937 0.013401806373805109 -0.036754471603710794
leaf_weight=56.88812643289566 4942.8506168872118 1250.1753975600004 486.3171694278717 970.45142175257206 131.07534675300121 38.826533749699593 951.37260641157627 17.642335891723633 236.78232848644257 78.928055286407471 18.506364166736603 104.90320666134357 47.824768453836441 19.867232963442802 6326.5331815779209 21.417066961526871 90.320024609565735 27.144297257065773 45.981235399842262 111.67228117585182 105.87822358310223 20.462424904108047 161.32826189696789 44.165395736694336 37.706438586115837 545.42775121331215 441.33776672184467 90.827081069350243 94.710346981883049 4089.1202130019665 24.590731620788574 35.973375350236893 875.84478150308132 16.123286560177803 30.643965944647789 17.880419716238976 72.956804603338242 471.64925798773766 98.845477476716042 746.45513324439526 18.342703118920326 946.43721906840801 43.377880558371544 42.180244877934456 53.487315282225609 87.061169266700745 236.12528191506863 100.23129743337631 177.10158063471317 236.11011239886284 53.412212431430817 27.405265733599663 54.187591224908829 16.130740001797676 996.68193437159061 15.13420522212982 15.756909683346747 17.620417833328247 232.81269676983356 160.77733726799488 407.75239361822605 40.592182666063309
leaf_count=228 19437 4914 1921 3827 514 154 3750 69 929 312 72 414 189 79 24871 84 355 106 182 438 416 81 633 174 149 2151 1736 358 373 16085 96 141 3458 64 121 70 286 1858 391 2946 72 3722 172 165 211 343 929 397 697 933 209 108 214 63 3949 60 63 70 921 633 1613 159
internal_value=-0.00143895 -0.00273954 -0.00140436 0.00571879 0.000597251 0.00344141 -0.00130265 0.00301762 -0.00530484 0.00170941 -0.0218334 -0.0051668 -0.00424121 0.0120559 -0.00456027 0.00231443 0.0118493 -0.0127847 -0.0104369 -0.00394656 0.00645651 -0.00297952 -0.00356299 0.0206523 -0.00601139 0.00221732 0.00533523 0.00838506 -0.000397402 -0.00149085 0.00653061 0.00903061 0.0106468 -0.000212054 -0.00431551 0.00889464 -0.0166596 0.000372036 0.00338609 0.00870311 0.0257354 -0.000877688 -0.00380254 0.00736761 -0.008448 0.0189672 0.00329253 0.030707 0.0111917 0.016889 -0.00600888 -0.0200616 0.010766 0.00667754 0.0143837 0.0410156 0.00771963 0.00157302 0.00568377 -0.0055867 0.0150633 -0.0162619
internal_weight=27976.1 23674.4 15273 4301.74 10093.4 4042.2 6051.19 4003.37 5179.63 3497.19 73.8551 8401.37 7151.19 506.184 7046.29 719.755 274.476 442.214 415.07 283.994 172.322 126.341 445.278 184.156 55.3488 3423.33 1705.36 1264.02 5608.98 4657.61 568.486 543.895 1092.38 216.533 200.409 96.8085 103.601 1540.95 1069.3 2760.79 162.739 1717.97 1172.54 226.107 95.6676 130.439 283.95 144.397 507.922 330.82 171.645 80.8175 2014.33 945.63 1068.7 72.0223 929.5 505.99 411.21 178.398 423.509 94.7798
internal_count=110135 93140 60108 16995 39742 15930 23812 15776 20366 13776 290 33032 28118 2000 27704 2833 1082 1737 1631 1117 679 497 1751 727 218 13486 6722 4986 22075 18325 2240 2144 4311 853 789 382 407 6076 4218 10919 643 6764 4613 891 376 515 1118 571 2003 1306 675 317 7973 3736 4237 288 3673 1997 1624 703 1676 373
is_linear=0
shrinkage=0.05


Tree=9
num_leaves=63
num_cat=0
split_feature=3 3 6 3 7 0 10 7 1 4 8 9 8 7 9 7 1 9 4 7 1 7 6 3 2 1 10 7 2 5 4 4 8 2 0 9 1 4 6 2 1 0 1 4 0 7 1 1 4 7 4 8 0 5 4 1 7 0 8 9 2 3
split_gain=101.778 48.2495 30.5536 24.8478 24.827 23.9025 18.0708 21.5228 19.0236 17.3102 17.099 16.7484 15.962 15.888 27.0128 17.8228 15.0385 15.0354 20.7763 14.5417 14.1738 14.0904 15.1043 13.8455 13.5922 13.5642 13.9972 19.9114 23.0847 17.8559 15.5799 22.9669 35.8446 19.0665 14.2446 13.913 13.9122 18.9163 23.0407 15.1273 14.0539 22.4137 13.4906 13.4407 13.5224 13.2095 13.0936 20.3601 20.8056 28.4547 16.2212 13.0909 20.824 12.9449 12.7097 16.7199 16.5493 15.958 13.3078 12.7192 12.5829 12.419
threshold=51.88408754644103 35.603806045255759 -0.0011032547202114993 64.988955886955196 1751.9738900000002 0.37351633625139119 1.5000000000000002 1903.3352100000004 0.5665418955482574 0.0010416666666666669 1895.6838200000004 9.5000000000000018 1894.6413350000005 1761.3934400000003 7.5000000000000009 1771.3046600000005 0.9943647902967041 19.500000000000004 0.34965277777777781 1756.5890900000004 0.56917892864336905 1953.1448900000003 0.00055905932927990964 40.014553640698828 1.3231429827333756 1.3832074523891178 2.5000000000000004 1886.4113500000001 0.7885544853398454 -4.8172135794777298e-05 0.95034722222222234 0.49965277777777783 1908.8467175000003 0.84939608782180176 1.0839600643562655 12.500000000000002 0.28853386309212919 0.85729166666666667 -0.0011858211784817605 1.1056154908603355 1.2344310162421983 0.88525798459882754 1.0017483777340368 0.2461805555555556 0.5989559846963638 1949.2339800000002 0.59319925563122655 0.41172455624280768 0.69409722222222225 1864.1053300000001 0.34131944444444451 1947.6869300000001 0.4080324948715876 0.00042624072623276282 0.72326388888888904 1.0017483777340368 1905.5354900000002 1.4212153686553475 1988.4302650000002 8.5000000000000018 1.0759267495761231 42.396693917265999
decision_type=2 2 2 2 2 2 2 2 2 2 2 2 2 2 2 2 2 2 2 2 2 2 2 2 2 2 2 2 2 2 2 2 2 2 2 2 2 2 2 2 2 2 2 2 2 2 2 2 2 2 2 2 2 2 2 2 2 2 2 2 2 2
left_child=1 2 54 -2 -3 -5 7 8 10 -8 12 24 -6 14 -10 -15 61 -7 20 -16 -19 25 -23 -9 -4 26 27 36 -29 43 31 42 34 -34 -33 -32 -11 39 -39 46 41 -40 -30 44 51 -27 47 -38 49 -49 -51 -28 -53 -25 55 59 57 -56 -58 60 -1 -17
right_child=3 4 11 5 6 17 9 23 13 21 -12 -13 -14 15 19 16 -18 18 -20 -21 -22 22 -24 53 -26 45 29 28 30 -31 35 32 33 -35 -36 -37 37 38 40 -41 -42 -43 -44 -45 -46 -47 -48 48 -50 50 -52 52 -54 -55 56 -57 58 -59 -60 -61 -62 -63
leaf_value=0.0028083999692937803 -0.0034866819587588654 0.019018393525104409 -0.0065381600236891118 -0.018428884513417246 0.0014700382947153193 -0.0053609260141416456 -0.032456788651765316 0.0066748168582509079 -0.048340813049759644 -0.018777467272927298 0.014453460266640631 0.0077452259770874228 -0.030365569666192273 0.047238026570793186 0.042690677118477585 0.033937224043151082 -0.0031761824856919932 -0.02347754778408271 -0.040048102829766064 -0.011389272255244529 0.013688226946140782 -0.0078544491395855804 0.014877584561887947 -0.00098292049915380138 0.034121299411480392 0.011772840601277826 -0.0076916884760084769 0.015553778616523082 -0.016397626114540466 0.0046236747730233983 -0.077910623498737452 -0.018958266919412336 -0.026877791996442607 0.026031400696647135 0.010711800684817254 -0.013742219763227646 0.013450274075200976 0.011714007638394889 0.013146526154466466 0.027349665114444074 0.0012698943279630835 -0.055855368835034204 -0.050043011536741656 0.0001391749388463182 -0.026097454342199334 -0.031846177035319258 0.012472113092797089 -0.035106210592573579 0.030654090795374414 0.035715184869349555 -0.027283705547405723 -0.012051372342123045 0.052419040973978752 -0.013530633405542798 0.012217430041720167 -0.002544564913769714 -0.0018825310007426672 0.047535490960973155 0.022431461171092626 0.026017530822625125 0.02096768620928155 0.013225456044769109
leaf_weight=174.80597434937954 10128.604928284883 171.41883496940136 536.72459185123444 526.10801929235458 1092.1381961107254 2046.8744361251593 45.479869961738586 541.35064135491848 26.634491294622421 81.824919804930687 263.93977688252926 481.64240628480911 40.845690667629242 43.799088299274445 23.446096330881119 96.913154765963554 101.52554611861706 53.688174337148666 77.144950315356255 26.457032516598701 49.126319140195847 1147.736736446619 78.042959347367287 2137.6666997224092 21.372951477766037 310.89119108021259 529.79956524074078 81.877986133098602 391.66256637871265 1605.3850476145744 16.729943484067917 208.20045173168182 19.903092607855797 117.84871977567673 50.208693772554398 17.062624678015709 108.96573579311371 60.296977341175079 15.205446511507033 79.075432360172272 29.218861043453217 52.070491686463356 32.246453896164894 1734.874056622386 91.14154326915741 18.383357241749763 239.12493841350079 104.98265320062637 22.479536980390549 28.031156405806541 16.078816622495651 25.978434607386589 24.186305701732635 227.41398707032204 254.27649202942848 103.62919503450394 405.60953059792519 36.585275381803513 65.343592077493668 337.4325585514307 209.99058851599693 285.85235111415386
leaf_count=692 39825 680 2114 2068 4305 8048 178 2136 104 321 1042 1904 160 175 93 385 400 211 303 104 194 4511 308 8411 85 1227 2082 323 1537 6324 65 817 78 466 198 67 430 238 60 313 115 203 126 6833 357 72 944 411 89 111 63 102 96 893 1011 409 1603 146 260 1344 836 1129
internal_value=-0.00136708 0.00141928 0.00757696 -0.00463155 0.000121285 -0.00884372 -0.000142225 0.00220932 0.00619924 -0.00170504 0.00299231 0.000914181 0.000322319 0.0136085 -0.00768158 0.0166941 0.0139318 -0.00657915 -0.0204353 0.0140192 -0.00571918 -0.00151448 -0.00640715 -0.000538391 -0.00498106 -0.00053352 -0.00109542 -0.00479489 -0.00980713 0.000539807 -0.012239 -0.010868 -0.00221243 0.0183868 -0.0131934 -0.0455106 0.000806271 0.00292722 -0.0125331 0.00697583 -0.0276845 -0.0402598 -0.018957 -0.00218515 -0.00819374 0.0093376 0.0038756 -0.00345189 -0.0141865 -0.0209473 0.012751 -0.00538017 0.0190322 -0.00218944 0.0119403 0.0162369 0.00728246 0.0166598 0.00149098 0.0189318 0.0127183 0.0184695
internal_weight=27973.4 15091.8 2627.41 12881.5 12464.4 2752.94 12293 4907.98 2001.55 7384.99 1396.92 1039.74 1132.98 604.628 76.5376 528.09 484.291 2226.83 179.959 49.9031 102.814 7339.51 1225.78 2906.43 558.098 6113.73 5784.46 1773.1 935.741 4011.36 853.863 820.07 396.161 137.752 258.409 33.7926 837.355 755.53 156.792 598.738 96.4948 67.2759 423.909 2405.98 671.106 329.275 519.663 280.538 171.572 149.093 44.11 579.964 50.1647 2365.08 1587.67 825.858 761.815 290.862 470.953 722.229 384.797 382.766
internal_count=110135 59486 10404 50649 49082 10824 48402 19337 7897 29065 5507 4103 4465 2390 301 2089 1914 8756 708 197 405 28887 4819 11440 2199 24068 22769 6975 3677 15794 3354 3222 1559 544 1015 132 3298 2977 616 2361 378 263 1663 9470 2637 1299 2048 1104 674 585 174 2280 198 9304 6301 3281 3020 1157 1863 2872 1528 1514
is_linear=0
shrinkage=0.05


end of trees

feature_importances:
SMA50=89
AsianRangePips=78
HOUR=71
ATR50=69
VolRank=60
RSI14=48
Mom_20=43
SMA200=40
ATR14=38
ATR_ratio=37
Mom_5=25
DOW=22

parameters:
[boosting: gbdt]
[objective: binary]
[metric: binary_logloss,auc]
[tree_learner: serial]
[device_type: cpu]
[data_sample_strategy: bagging]
[data: ]
[valid: ]
[num_iterations: 2000]
[learning_rate: 0.05]
[num_leaves: 63]
[num_threads: 0]
[seed: 46]
[deterministic: 0]
[force_col_wise: 0]
[force_row_wise: 0]
[histogram_pool_size: -1]
[max_depth: -1]
[min_data_in_leaf: 60]
[min_sum_hessian_in_leaf: 0.001]
[bagging_fraction: 0.8]
[pos_bagging_fraction: 1]
[neg_bagging_fraction: 1]
[bagging_freq: 2]
[bagging_seed: 10626]
[bagging_by_query: 0]
[feature_fraction: 0.9]
[feature_fraction_bynode: 1]
[feature_fraction_seed: 28005]
[extra_trees: 0]
[extra_seed: 28586]
[early_stopping_round: 0]
[early_stopping_min_delta: 0]
[first_metric_only: 0]
[max_delta_step: 0]
[lambda_l1: 0]
[lambda_l2: 0]
[linear_lambda: 0]
[min_gain_to_split: 0]
[drop_rate: 0.1]
[max_drop: 50]
[skip_drop: 0.5]
[xgboost_dart_mode: 0]
[uniform_drop: 0]
[drop_seed: 23790]
[top_rate: 0.2]
[other_rate: 0.1]
[min_data_per_group: 100]
[max_cat_threshold: 32]
[cat_l2: 10]
[cat_smooth: 10]
[max_cat_to_onehot: 4]
[top_k: 20]
[monotone_constraints: ]
[monotone_constraints_method: basic]
[monotone_penalty: 0]
[feature_contri: ]
[forcedsplits_filename: ]
[refit_decay_rate: 0.9]
[cegb_tradeoff: 1]
[cegb_penalty_split: 0]
[cegb_penalty_feature_lazy: ]
[cegb_penalty_feature_coupled: ]
[path_smooth: 0]
[interaction_constraints: ]
[verbosity: -1]
[saved_feature_importance_type: 0]
[use_quantized_grad: 0]
[num_grad_quant_bins: 4]
[quant_train_renew_leaf: 0]
[stochastic_rounding: 1]
[linear_tree: 0]
[max_bin: 255]
[max_bin_by_feature: ]
[min_data_in_bin: 3]
[bin_construct_sample_cnt: 200000]
[data_random_seed: 188]
[is_enable_sparse: 1]
[enable_bundle: 1]
[use_missing: 1]
[zero_as_missing: 0]
[feature_pre_filter: 1]
[pre_partition: 0]
[two_round: 0]
[header: 0]
[label_column: ]
[weight_column: ]
[group_column: ]
[ignore_column: ]
[categorical_feature: ]
[forcedbins_filename: ]
[precise_float_parser: 0]
[parser_config_file: ]
[objective_seed: 24573]
[num_class: 1]
[is_unbalance: 1]
[scale_pos_weight: 1]
[sigmoid: 1]
[boost_from_average: 1]
[reg_sqrt: 0]
[alpha: 0.9]
[fair_c: 1]
[poisson_max_delta_step: 0.7]
[tweedie_variance_power: 1.5]
[lambdarank_truncation_level: 30]
[lambdarank_norm: 1]
[label_gain: ]
[lambdarank_position_bias_regularization: 0]
[eval_at: ]
[multi_error_top_k: 1]
[auc_mu_weights: ]
[num_machines: 1]
[local_listen_port: 12400]
[time_out: 120]
[machine_list_filename: ]
[machines: ]
[gpu_platform_id: -1]
[gpu_device_id: -1]
[gpu_use_dp: 0]
[num_gpu: 1]

end of parameters

pandas_categorical:[]
