tree
version=v4
num_class=1
num_tree_per_iteration=1
label_index=0
max_feature_idx=11
objective=binary sigmoid:1
feature_names=ATR14 ATR50 ATR_ratio RSI14 VolRank Mom_5 Mom_20 SMA50 SMA200 HOUR DOW AsianRangePips
feature_infos=[0.081702779923172014:3.476712212082993] [0.12372812216305207:2.2603910516888499] [0.31523502353194538:2.2109577187222302] [6.6672134521036028:94.752276916793306] [0.00069444444444444447:1] [-0.0099080082078584208:0.0084911115626025158] [-0.017286780749748543:0.011521442484598854] [1617.81726:1876.2443400000002] [1619.3623599999999:1874.9944250000001] [0:23] [0:4] [393.00000000000637:2104.9999999999955]
tree_sizes=6874

Tree=0
num_leaves=63
num_cat=0
split_feature=3 4 5 1 0 2 7 8 6 4 4 7 7 10 0 2 7 8 7 1 7 6 1 4 9 1 4 3 1 4 0 7 2 9 2 9 1 3 2 8 7 0 4 3 9 2 1 1 3 9 8 0 10 1 4 8 6 8 0 2 7 1
split_gain=165.304 25.0403 22.7683 22.1915 21.0879 29.458 25.1697 20.955 17.8622 23.9038 18.5869 22.642 21.2184 17.7936 23.8635 21.6803 18.1745 16.7825 25.5559 16.3379 23.2436 17.2748 15.3871 15.367 14.9547 14.6606 14.388 14.4279 13.9505 13.6423 25.2094 14.3298 19.9559 13.6268 14.6792 13.6011 19.316 13.5648 16.3037 19.3845 19.6678 13.3923 15.7477 18.974 15.1519 19.6113 15.0162 14.8485 13.3524 13.0859 13.8694 13.0275 12.9144 12.7129 17.8423 12.9259 12.5152 12.3744 12.227 13.5648 15.1802 12.1796
threshold=37.992117079120597 0.0031250000000000006 -1.5135867731386197e-05 1.2826914603089232 1.6949053984145135 1.2551090779488396 1837.7365500000003 1810.0856800000004 -0.00196088211415496 0.60868055555555556 0.066319444444444459 1700.77323 1654.1484400000002 3.5000000000000004 0.33848242803588019 1.5815889575647597 1790.9631000000002 1837.1436900000003 1830.7491000000002 0.30469193813801149 1670.3596600000003 -0.0010028821972979383 0.18459910419764439 0.3864583333333334 9.5000000000000018 0.47966512455172472 0.57673611111111123 34.752987174498394 0.19286950478751555 0.88298611111111114 1.1236257531513922 1755.7043300000003 1.0960559558210725 1.0000000180025095e-35 0.88214819158235869 10.500000000000002 0.84130908806338101 73.864407812154667 1.2875203654504819 1716.3125350000003 1666.7054200000005 0.53634616920651212 0.50034722222222239 58.088248199162514 17.500000000000004 1.0982744926306178 0.32246924270828231 0.28791699914061175 46.94365443067273 15.500000000000002 1642.2758075000004 0.45675032713592639 2.5000000000000004 0.72784460240188176 0.98993055555555565 1671.3849950000001 -0.0014825113563032286 1846.4975550000001 0.30290724416624754 0.78872265733918168 1830.7491000000002 0.40773816110005295
decision_type=2 2 2 2 2 2 2 2 2 2 2 2 2 2 2 2 2 2 2 2 2 2 2 2 2 2 2 2 2 2 2 2 2 2 2 2 2 2 2 2 2 2 2 2 2 2 2 2 2 2 2 2 2 2 2 2 2 2 2 2 2 2
left_child=4 28 13 7 5 8 53 22 9 24 52 12 49 15 16 -3 -15 18 -5 20 -14 26 -4 25 -1 -23 27 -21 -2 56 -31 32 -32 34 -24 -11 -37 -35 -39 40 -40 42 43 47 45 -45 -46 -9 -18 -12 -51 -44 61 55 -55 -7 -16 -43 59 -49 -61 -10
right_child=1 2 3 17 -6 6 -8 41 10 35 11 -13 19 14 29 -17 48 -19 -20 21 -22 23 33 -25 -26 -27 -28 -29 -30 30 31 -33 -34 37 -36 36 -38 38 39 -41 -42 57 51 44 46 -47 -48 58 -50 50 -52 -53 -54 54 -56 -57 -58 -59 -60 60 -62 -63
leaf_value=0.034890591587938183 -0.047265131344244406 -0.039811285944173984 -0.024877728403226555 -0.028907282142266868 -0.064028581323541736 -0.0349782930643429 -0.075620547551761091 -0.026324871105425446 -0.0066548165413589308 -0.041458443731540638 -0.022169645217081774 -0.030128270938177618 -0.030949901862786455 -0.017935005171126738 -0.0041660790030702624 0.019417407698424941 -0.023992515823769794 -0.073870336820000854 0.03187374692835207 -0.068754125148249787 -0.090121043425166747 -0.028821007433635849 -0.037784493715348706 -0.044477417424530603 -0.012743488323519944 0.012417250459149667 -0.03836496571275462 -0.0347862620151312 -0.016684775796576942 0.00037104027131702744 -0.071254805812500488 -0.013258328895753596 -0.024209053274490296 -0.040792060295021658 -0.057212155813465879 -0.0073462431663024394 -0.031227927479676093 -0.054238205324238647 -0.050931103328259446 -0.060796269011813564 0.018951959397310134 -0.039816086119967724 -0.084855834477342074 -0.070869544379367419 -0.072645801080469641 -0.036106309775880391 -0.029728151909093767 -0.099908262954808494 -0.0625829801856677 -0.054734885275917897 -0.018251459944612657 -0.055660378583581922 -0.034332094427798915 0.041720493673001388 -0.016317427043077155 -0.0081280371063987764 -0.039774687818745227 -0.058267407225205216 -0.042596269711159998 -0.081088560136514193 -0.026532694556749767 -0.052785874086717678
leaf_weight=26.402312994003296 47.851931095123291 7745.9100148677826 141.39821135997772 241.94253385066986 44.64570426940918 62.771244049072266 15.690685749053953 119.11778879165649 155.01430201530457 110.34215843677521 229.73909163475037 2312.3138982057571 27.069952249526978 316.99646234512329 25.164139270782471 15.481346368789671 44.498605012893677 18.481042265892029 18.625333070755005 121.39134991168976 42.897363901138306 114.71394550800323 151.22810351848602 139.30755031108856 43.831901907920837 26.538102746009827 144.83546042442322 42.104308247566223 169.03963422775269 65.538981556892395 47.113550662994385 41.520591974258423 43.21800172328949 10761.728435397148 272.30825281143188 144.72798228263855 204.0346018075943 355.8407289981842 16.023569226264954 27.414145231246948 27.089762806892395 738.49402439594269 51.278806805610657 194.29518568515778 27.601801753044128 51.276934504508972 77.90933358669281 20.147331953048706 45.166244268417358 78.785376071929932 38.917891979217529 149.91825246810913 89.830822944641113 25.402726411819458 27.663105726242065 156.76357853412628 1271.0259511470795 103.61756801605225 378.84728634357452 23.510095238685608 27.861135601997375 15.763299226760862
leaf_count=102 188 30386 553 947 176 246 62 466 604 433 898 9053 106 1238 98 60 174 73 72 479 170 449 593 547 171 103 568 165 660 255 186 162 169 42225 1072 564 799 1400 63 108 105 2897 203 767 109 201 305 80 178 310 152 590 352 98 108 611 4986 408 1487 93 109 62
internal_value=-0.0386955 -0.0403433 -0.0404983 -0.0417871 -0.0298383 -0.0294911 -0.0140411 -0.0420711 -0.0305752 -0.0220025 -0.0318431 -0.0328528 -0.0391133 -0.0386314 -0.0342949 -0.0396931 -0.0235567 -0.0278282 -0.0245627 -0.0443857 -0.0672281 -0.0416717 -0.0412722 -0.0326942 0.00516302 -0.0210733 -0.0498406 -0.0600065 -0.0234316 -0.0372186 -0.0249733 -0.0375711 -0.0487464 -0.0414719 -0.0502753 -0.0261583 -0.0213176 -0.0411386 -0.0498854 -0.0279235 -0.00702089 -0.0468519 -0.0504294 -0.0476598 -0.0568022 -0.0636108 -0.0409554 -0.0420236 -0.0434314 -0.0291152 -0.0426719 -0.0631014 -0.0189854 -0.0104966 0.0114654 -0.0158053 -0.0390834 -0.0420864 -0.0461758 -0.0651372 -0.0515002 -0.0109129
internal_weight=28316 23874.5 23657.6 13996 4441.5 4396.85 288.291 13716.9 4108.56 529.339 3579.22 3318.61 1006.3 9661.63 1900.24 7761.39 406.661 279.049 260.568 658.858 69.9673 588.891 11753 280.56 70.2342 141.252 308.331 163.496 216.892 1493.58 197.391 131.852 90.3316 11611.6 423.536 459.105 348.763 11188.1 426.368 70.5275 43.1133 1963.88 1121.76 920.567 351.083 245.572 105.511 569.484 89.6648 347.442 117.703 201.197 260.608 272.601 53.0658 219.535 1296.19 842.112 450.366 71.5186 51.3712 170.778
internal_count=111054 93666 92818 54926 17388 17212 1125 53834 16087 2069 14018 13000 3947 37892 7446 30446 1590 1092 1019 2587 276 2311 46119 1099 273 552 1212 644 848 5856 772 517 355 45566 1665 1796 1363 43901 1676 276 168 7715 4410 3617 1382 968 414 2235 352 1360 462 793 1018 1063 206 857 5084 3305 1769 282 202 666
is_linear=0
shrinkage=1


end of trees

feature_importances:
ATR50=10
SMA50=9
VolRank=8
ATR_ratio=7
ATR14=6
SMA200=6
RSI14=5
HOUR=5
Mom_20=3
DOW=2
Mom_5=1

parameters:
[boosting: gbdt]
[objective: binary]
[metric: binary_logloss,auc]
[tree_learner: serial]
[device_type: cpu]
[data_sample_strategy: bagging]
[data: ]
[valid: ]
[num_iterations: 2000]
[learning_rate: 0.05]
[num_leaves: 63]
[num_threads: 0]
[seed: 63]
[deterministic: 0]
[force_col_wise: 0]
[force_row_wise: 0]
[histogram_pool_size: -1]
[max_depth: -1]
[min_data_in_leaf: 60]
[min_sum_hessian_in_leaf: 0.001]
[bagging_fraction: 0.8]
[pos_bagging_fraction: 1]
[neg_bagging_fraction: 1]
[bagging_freq: 2]
[bagging_seed: 29509]
[bagging_by_query: 0]
[feature_fraction: 0.9]
[feature_fraction_bynode: 1]
[feature_fraction_seed: 11097]
[extra_trees: 0]
[extra_seed: 29805]
[early_stopping_round: 0]
[early_stopping_min_delta: 0]
[first_metric_only: 0]
[max_delta_step: 0]
[lambda_l1: 0]
[lambda_l2: 0]
[linear_lambda: 0]
[min_gain_to_split: 0]
[drop_rate: 0.1]
[max_drop: 50]
[skip_drop: 0.5]
[xgboost_dart_mode: 0]
[uniform_drop: 0]
[drop_seed: 32569]
[top_rate: 0.2]
[other_rate: 0.1]
[min_data_per_group: 100]
[max_cat_threshold: 32]
[cat_l2: 10]
[cat_smooth: 10]
[max_cat_to_onehot: 4]
[top_k: 20]
[monotone_constraints: ]
[monotone_constraints_method: basic]
[monotone_penalty: 0]
[feature_contri: ]
[forcedsplits_filename: ]
[refit_decay_rate: 0.9]
[cegb_tradeoff: 1]
[cegb_penalty_split: 0]
[cegb_penalty_feature_lazy: ]
[cegb_penalty_feature_coupled: ]
[path_smooth: 0]
[interaction_constraints: ]
[verbosity: -1]
[saved_feature_importance_type: 0]
[use_quantized_grad: 0]
[num_grad_quant_bins: 4]
[quant_train_renew_leaf: 0]
[stochastic_rounding: 1]
[linear_tree: 0]
[max_bin: 255]
[max_bin_by_feature: ]
[min_data_in_bin: 3]
[bin_construct_sample_cnt: 200000]
[data_random_seed: 244]
[is_enable_sparse: 1]
[enable_bundle: 1]
[use_missing: 1]
[zero_as_missing: 0]
[feature_pre_filter: 1]
[pre_partition: 0]
[two_round: 0]
[header: 0]
[label_column: ]
[weight_column: ]
[group_column: ]
[ignore_column: ]
[categorical_feature: ]
[forcedbins_filename: ]
[precise_float_parser: 0]
[parser_config_file: ]
[objective_seed: 3313]
[num_class: 1]
[is_unbalance: 1]
[scale_pos_weight: 1]
[sigmoid: 1]
[boost_from_average: 1]
[reg_sqrt: 0]
[alpha: 0.9]
[fair_c: 1]
[poisson_max_delta_step: 0.7]
[tweedie_variance_power: 1.5]
[lambdarank_truncation_level: 30]
[lambdarank_norm: 1]
[label_gain: ]
[lambdarank_position_bias_regularization: 0]
[eval_at: ]
[multi_error_top_k: 1]
[auc_mu_weights: ]
[num_machines: 1]
[local_listen_port: 12400]
[time_out: 120]
[machine_list_filename: ]
[machines: ]
[gpu_platform_id: -1]
[gpu_device_id: -1]
[gpu_use_dp: 0]
[num_gpu: 1]

end of parameters

pandas_categorical:[]
