tree
version=v4
num_class=1
num_tree_per_iteration=1
label_index=0
max_feature_idx=11
objective=binary sigmoid:1
feature_names=ATR14 ATR50 ATR_ratio RSI14 VolRank Mom_5 Mom_20 SMA50 SMA200 HOUR DOW AsianRangePips
feature_infos=[0.051388372144414912:5.239860574447758] [0.076263979352827374:4.093224013039503] [0.19619982072054068:2.3252069529729207] [5.7519967848776314:95.266985396267302] [0.00069444444444444447:1] [-0.0095488125038157845:0.0071288070009356552] [-0.014178589793267471:0.012412863965607146] [1814.9105199999999:2936.3097599999996] [1817.277605:2925.6299950000002] [0:23] [0:4] [284.00000000001455:7353.1000000000404]
tree_sizes=6859 6929 6922 6915 6960

Tree=0
num_leaves=63
num_cat=0
split_feature=6 2 4 11 7 7 7 10 1 9 5 10 6 8 9 1 11 5 11 0 5 2 1 2 11 1 7 1 8 0 4 9 5 9 0 2 9 2 10 0 6 7 4 1 11 8 6 2 8 6 9 2 4 8 4 0 11 11 7 11 5 11
split_gain=85.1417 36.0611 25.2456 27.2226 25.0877 34.1854 23.3885 34.1781 24.3129 22.9508 25.4259 29.6364 20.6326 26.7244 20.32 20.301 20.063 24.3989 21.6745 31.8022 19.641 19.3375 19.2805 19.0218 18.8036 29.2274 34.9528 27.2835 23.5021 19.267 18.7178 17.606 17.1349 16.7778 16.6317 16.6269 16.3108 18.9142 30.6633 16.3679 18.4569 20.8981 15.5428 15.5538 15.2444 15.1444 14.8239 18.2378 13.7661 13.7506 13.6389 24.6278 20.9952 13.5749 13.5675 13.4167 13.3563 13.2037 28.0295 16.0079 15.5005 13.1939
threshold=0.00020658482464031017 0.95291339772765526 0.90451388888888895 2005.8499999999869 1820.1675700000003 1848.3366200000003 1929.9296100000004 3.5000000000000004 0.51588369942684287 21.500000000000004 -0.00027304412802719996 1.5000000000000002 -0.00036427494503560304 1978.1863025000002 22.500000000000004 0.54330782099881481 363.80000000000342 2.7480152600123379e-05 793.15000000000293 0.15341791444841926 -0.0003427398290864469 1.2778708621431745 1.6273882514180755 0.73907433693734481 500.99999999999915 0.36165729588744083 1822.4773400000001 0.37380030194555341 2042.3251975000003 0.41094638894283014 0.1170138888888889 1.0000000180025095e-35 -0.00092170198695085126 5.5000000000000009 0.35716014512041944 1.2408526007016327 8.5000000000000018 1.000268595492934 1.5000000000000002 0.2798257558654999 0.00071675751483635264 1923.0367400000002 0.40659722222222228 0.63751528179765826 644.49999999999375 2755.0541050000006 -0.00034079542006115732 0.89726398990060796 2873.3130400000005 -0.0010543480593458441 1.0000000180025095e-35 0.70219518847957507 0.1697916666666667 1986.1544350000001 0.53506944444444449 0.7207347750344385 432.5000000000046 1894.349999999986 1950.4374700000003 825.20000000000675 0.00022806967249089374 407.49999999999324
decision_type=2 2 2 2 2 2 2 2 2 2 2 2 2 2 2 2 2 2 2 2 2 2 2 2 2 2 2 2 2 2 2 2 2 2 2 2 2 2 2 2 2 2 2 2 2 2 2 2 2 2 2 2 2 2 2 2 2 2 2 2 2 2
left_child=1 16 3 14 -3 34 7 55 -8 10 15 12 -12 42 20 -7 17 54 50 -20 44 45 -5 -21 36 26 -26 -27 29 31 -25 -28 -17 49 -6 -35 39 38 -38 -22 -41 -42 -14 -44 -2 -16 -32 57 -15 -13 51 -18 56 -10 -1 -4 -53 59 -59 -48 -61 -40
right_child=2 4 6 22 5 9 8 -9 53 -11 11 33 13 48 21 32 18 -19 19 23 24 -23 -24 30 25 27 28 -29 -30 -31 46 -33 -34 35 -36 -37 37 -39 61 40 41 -43 43 -45 -46 -47 47 -49 -50 -51 -52 52 -54 -55 -56 -57 -58 58 -60 60 -62 -63
leaf_value=0.03573218323603021 0.037027138022933156 0.054652101814485661 0.018629565356461437 0.01897773052876606 -0.0070434554029279017 0.027627534777549839 0.079512045532391995 0.03279909829892283 0.030056643285392537 0.033464784621356512 0.017508988616259165 0.045433268006521539 0.010038015051226002 0.011555598016071171 0.027274264628508495 0.027909003723135463 -0.028424249640502899 0.0060144158424559179 0.043762583071724336 0.0046511788657896038 -0.0020645290543330214 -0.02042144010475485 -0.032315544700358065 0.023722372468278234 0.051854489433378712 -0.012949742402857138 0.025646180587596698 0.0076170656697764749 0.029214733378003635 0.039416073351138566 0.018673623518770374 0.0073289740450081615 0.01547088513038406 0.020197535340662508 0.013472936512023295 0.033177044651689663 -0.03422347678526249 -0.018907412408115734 0.02297689941126823 0.022888758391019795 0.028004855071647038 -0.023566947501351958 -0.015683320639714914 0.0210529924659065 0.013950117849484382 -0.019777439681795961 0.030675675531882968 0.018606430580228147 0.048860539151526224 0.013472936512023295 0.010671696083803764 0.0055411401175519143 -0.0034866402087863953 0.016096402458674736 0.07892968475751852 -0.023039030560910653 0.056169505470859374 0.079999746303742472 0.013288776982490161 0.0062412312958861904 -0.013005096996385105 0.0012292648461188927
leaf_weight=54.31369149684906 88.754065006971359 47.708483338356018 24.422081589698792 896.79575863480568 184.14876878261566 1131.7177173197269 17.544264793395996 57.343686938285828 243.00595679879189 264.5726201236248 867.4342842400074 34.67527773976326 139.32060015201569 709.37113860249519 288.3465456366539 373.37344339489937 17.433785110712051 50.654392182826996 102.27970170974731 365.45456752181053 226.94802284240723 26.008717685937881 18.702567279338837 739.68204459547997 61.029379338026047 166.81678557395935 148.97202241420746 4834.5200864374638 200.00196203589439 56.309808999300003 1356.0504932105541 1098.6637291312218 1071.5517689287663 2153.6742281913757 213.08304646611214 278.66232630610466 53.335233271121979 154.01471376419067 90.105796873569489 230.04816001653671 31.198096483945847 53.04000198841095 216.83056256175041 33.228147953748703 369.48187339305878 18.179972648620605 57.101241827011108 583.86500245332718 25.62299582362175 1142.9915660321712 4190.0005325973034 15.877312541007994 26.73228257894516 614.44510638713837 27.320111602544785 92.437483608722687 72.558898538351059 17.794250786304474 136.7679540514946 679.16053786873817 123.66197317838669 308.57314816117287
leaf_count=216 353 190 97 3562 730 4498 70 228 966 1052 3445 138 553 2816 1146 1484 69 201 407 1450 900 103 74 2939 243 661 592 19186 795 224 5386 4360 4255 8555 846 1108 211 610 358 914 124 210 859 132 1467 72 227 2319 102 4538 16632 63 106 2440 109 366 289 71 543 2695 490 1224
internal_value=0.0141239 0.0162572 0.010557 0.00973759 0.0184917 0.0182965 0.0179141 0.00118324 0.021245 0.0189709 0.0185021 0.0166113 0.0117152 0.00724545 0.00885568 0.0226127 0.0139523 0.0332741 0.0136511 0.0162266 0.00836266 0.0209715 0.0179299 0.0155328 0.0077652 0.00879709 0.0147605 0.00693107 0.0132552 0.0108073 0.0166093 0.00951611 0.0186849 0.0193127 0.00396195 0.0216845 0.00185922 -0.00377485 0.00138127 0.00816778 0.0155566 -0.00446701 -0.00334524 -0.0108017 0.0184198 0.0244836 0.0148285 0.0115662 0.0128561 0.014414 0.0111713 0.026959 0.0353427 0.0200528 0.0501889 -0.0143309 0.04708 0.00751434 0.020969 0.00509601 0.00327664 0.00614447
internal_weight=27973.7 17504.7 10469 9419.85 8887.97 8840.26 1049.2 174.203 874.995 8443.03 8178.45 5601.81 1991.81 1124.37 8504.35 2576.64 8616.71 132.288 8484.42 4161.82 8171.81 332.535 915.498 4059.54 7713.58 6566.31 1564.98 5001.34 1503.95 1303.95 3694.08 1247.64 1444.93 3610 397.232 2432.34 1147.26 606.029 452.014 541.234 314.286 84.2381 389.379 250.059 458.236 306.527 2954.4 1598.35 734.994 1177.67 4322.6 132.602 115.168 857.451 81.6338 116.86 88.4362 1014.49 154.562 859.924 802.823 398.679
internal_count=111069 69513 41556 37389 35301 35111 4167 691 3476 33535 32483 22246 7907 4462 33753 10237 34212 526 33686 16527 32432 1321 3636 16120 30612 26061 6214 19847 5971 5176 14670 4952 5739 14339 1576 9663 4551 2403 1793 2148 1248 334 1544 991 1820 1218 11731 6345 2918 4676 17159 527 458 3406 325 463 352 4026 614 3412 3185 1582
is_linear=0
shrinkage=1


Tree=1
num_leaves=63
num_cat=0
split_feature=3 2 11 10 4 9 8 6 1 11 9 2 3 9 9 2 2 9 4 1 8 8 6 2 1 8 8 8 11 4 4 1 8 9 4 8 9 5 0 8 5 11 2 11 8 9 9 11 3 0 9 8 2 3 0 3 8 4 9 9 10 8
split_gain=97.2372 41.7116 32.3689 31.9232 34.4856 33.0024 24.1789 23.3241 22.9315 19.3338 19.3286 23.2249 19.3634 19.3588 18.4575 18.4565 17.7926 18.4071 17.2377 16.7492 28.912 28.2331 18.1779 20.7598 17.5168 16.5017 24.3962 23.8996 23.3922 22.7053 16.361 19.745 16.6431 15.8433 16.166 15.1863 15.0555 14.7246 14.405 14.315 14.2943 21.2195 15.1228 14.2659 20.0873 14.1893 14.2414 14.1821 13.9643 13.8374 13.4855 15.9037 16.5346 13.4872 13.1925 19.6364 13.1449 13.0871 12.9391 13.3375 12.7417 12.5788
threshold=46.636976280429096 1.1184482948961449 1616.0999999999947 1.0000000180025095e-35 0.88576388888888891 21.500000000000004 1976.4904200000003 0.00032323325617078519 0.28632209218374377 514.49999999999829 1.0000000180025095e-35 0.9031542533496465 53.202863128761898 5.5000000000000009 1.0000000180025095e-35 0.89872299917935961 0.71186457546345661 1.5000000000000002 0.087152777777777787 0.3596355947480962 1823.2051675000002 2042.3251975000003 0.001016286095254282 0.79790459159670923 0.37577287747146754 2892.7375450000004 2768.9472475000007 2757.2054949999997 1666.3500000000001 0.92881944444444453 0.8968750000000002 0.86136447154803453 1859.9512825000002 21.500000000000004 0.011458333333333336 1860.8114300000002 22.500000000000004 -0.0004569652473920271 0.62338578454484461 2696.2444475000007 0.0003597142772049367 1076.9999999999984 1.0146594675664702 1320.3499999999965 2039.9865950000001 3.5000000000000004 5.5000000000000009 5559.0500000000256 70.451224034512407 0.2235656886037041 15.500000000000002 2750.7948575000005 1.0714584993368808 53.083085373739472 0.70515823183177917 42.770234975137384 1865.2297300000002 0.1170138888888889 1.0000000180025095e-35 1.5000000000000002 1.5000000000000002 1977.2135775000004
decision_type=2 2 2 2 2 2 2 2 2 2 2 2 2 2 2 2 2 2 2 2 2 2 2 2 2 2 2 2 2 2 2 2 2 2 2 2 2 2 2 2 2 2 2 2 2 2 2 2 2 2 2 2 2 2 2 2 2 2 2 2 2 2
left_child=1 6 3 14 5 7 30 10 33 37 11 -5 -13 39 -2 43 17 -10 61 20 -11 22 23 -22 -21 26 27 -18 45 -28 31 32 -1 -8 -35 -34 -37 -9 -6 -12 48 -42 -43 44 -15 -29 -47 -3 -20 -25 -40 53 -53 -52 57 -56 -33 -27 -23 -60 -32 -16
right_child=2 47 -4 4 38 -7 8 9 16 19 13 12 -14 15 18 -17 25 -19 40 24 21 58 -24 49 -26 54 29 28 -30 -31 60 56 35 34 -36 36 -38 -39 50 -41 41 42 -44 -45 -46 46 -48 -49 -50 -51 51 52 -54 -55 55 -57 -58 -59 59 -61 -62 -63
leaf_value=-0.0095755013994715168 0.012155505071977366 0.0098967840347119976 0.0021857329797288494 0.027942500033732533 0.032297616095972384 0.0085841510063080738 0.019814194493080212 0.035221945490211772 -0.059833663963274435 0.032900758595649893 -0.0057816211959394606 0.014282581335490277 -0.013714735347495628 -0.0077575147624450299 -0.010785828470210293 0.0015771347661406453 0.0029409434541914567 -0.0077756268508490396 -0.016000435077187933 -0.024223738010691644 -0.040409446107987454 -0.016802677978401886 -0.034722879426247237 0.020863914615122853 -0.0063901100495172489 -0.01371510929936069 0.014269161385141253 0.031583817360392279 -0.035762992091545112 -0.04669615690243558 0.0030350238766026078 0.068638376489449926 0.04332991228796005 -0.049635274626369214 0.0072277986592957548 -0.0011120572425897741 0.02655334853550036 -0.014202321973449337 0.0009987581841174474 -0.019349646941655346 0.0078417619540324772 -0.025800530614836267 -0.0018836380865861774 -0.023030485952387034 0.004723830076162297 -0.039357217293136612 0.0031175896278128347 -0.020503257581660855 0.020743458630885427 -0.0041797647032620336 0.040387435512733216 -0.05446911177361137 0.010573122536749821 0.011891877193444332 0.0080972432706777949 -0.033264025458733713 0.012788412695103717 -0.074529048225815228 0.060454411006904518 0.016934015102962788 -0.029620756666377885 0.0097046908418303469
leaf_weight=581.42313706874847 93.096579030156136 2062.1213495582342 2517.1848640143871 110.54325161874294 45.203520283102989 507.32079692184925 315.834931448102 15.316392034292219 19.986547127366066 64.024832651019096 1472.6889737248421 124.27294333279133 122.76517464220524 1090.1236150413752 137.10442204773426 2410.282783254981 4050.626466229558 112.89948613941669 1251.6898757219315 144.32675983011723 36.629738107323647 22.437514841556549 51.508146360516548 61.355485200881958 2996.2890382111073 21.174579158425331 604.25448009371758 26.377208441495895 79.791821777820587 15.668236032128332 43.809107065200806 15.031266346573828 20.07998850941658 16.683970138430595 49.831650406122208 1859.6966141611338 50.512688964605331 935.60685643553734 1037.6873940527439 223.96556612849236 189.78352046012878 134.75143195688725 129.72000224888325 105.96076253056526 457.70649011433125 28.542758956551552 63.950941607356071 39.092123776674271 26.403103992342949 545.93025892972946 54.480962425470352 16.183621868491173 24.659760162234306 174.60996794700623 89.847616016864777 42.160729065537453 35.223961383104324 15.194913432002066 21.305825293064117 101.34309926629066 93.885640993714333 165.08096624910831
leaf_count=2307 370 8195 9997 440 180 2016 1256 61 79 255 5845 494 487 4326 544 9572 16088 448 4964 572 145 89 204 244 11891 84 2402 105 316 62 174 60 80 66 198 7384 201 3711 4121 888 754 534 515 420 1818 113 254 155 105 2167 217 64 98 694 357 167 140 60 85 403 372 656
internal_value=-0.000803769 0.00304182 -0.00306357 -0.0039385 -0.0030076 -0.00388708 0.00144045 -0.00445634 0.00332755 -0.00699107 -0.00238654 0.00889336 0.000369362 -0.00308671 -0.00961528 -0.00121393 0.00245378 -0.0156053 -0.0106115 -0.005483 0.000512074 -0.00195509 -0.00614078 -0.00385444 -0.00720965 0.00293016 0.00346231 0.00211051 -0.0148216 0.0127283 -0.00244104 -0.00153865 -0.00215955 0.0151434 -0.00703504 7.42148e-05 -0.000380486 -0.0134063 0.0045478 -0.00757266 -0.0125337 -0.00491523 -0.0140696 -0.00528171 -0.00406668 -0.000764677 -0.00998977 0.00933121 -0.0152414 -0.00164954 0.00358851 0.0135441 -0.015199 0.0186685 -0.0124588 -0.00511269 0.0294931 -0.0391227 0.0181076 0.0244941 -0.019231 0.000407945
internal_weight=27973 10353.7 17619.3 15102.2 12974.5 11621.7 8252.49 11114.4 5552.83 4996.07 6118.31 357.581 247.038 5760.73 2127.63 4064.07 5170.48 132.886 2034.53 4045.15 904.535 840.51 695.424 643.915 3140.62 5037.59 4869.21 4249.29 198.663 619.923 2699.66 2561.97 2511.71 382.351 66.5156 1930.29 1910.21 950.923 1352.83 1696.65 1732.35 454.255 264.471 1653.79 1547.83 118.871 92.4937 2101.21 1278.09 607.286 1307.62 269.934 40.8434 229.091 168.378 132.008 50.2552 36.3695 145.086 122.649 137.695 302.185
internal_count=111069 41123 69946 59949 51507 46133 32773 44117 22055 19827 24290 1421 981 22869 8442 16136 20535 527 8072 16055 3592 3337 2760 2556 12463 20008 19340 16876 788 2464 10718 10172 9972 1520 264 7665 7585 3772 5374 6733 6872 1803 1049 6564 6144 472 367 8350 5069 2411 5194 1073 162 911 668 524 200 144 577 488 546 1200
is_linear=0
shrinkage=0.05


Tree=2
num_leaves=63
num_cat=0
split_feature=3 5 7 11 9 4 1 9 4 2 0 7 2 7 0 11 2 7 11 11 2 9 9 7 9 1 2 11 7 10 9 2 9 7 7 10 11 1 7 4 1 11 3 11 1 9 4 5 2 2 7 4 7 6 4 7 10 0 2 9 7 11
split_gain=95.6752 30.8961 29.3509 17.7826 22.6299 21.1125 18.27 17.6924 17.1543 23.4928 19.5721 18.8562 22.6028 18.2271 22.7882 18.1285 17.717 18.0936 16.1444 30.398 15.8461 17.7188 17.505 17.4287 15.7874 15.1642 14.4885 14.3004 14.213 13.86 13.7177 13.7042 13.5703 32.1108 31.7591 13.5402 26.8138 44.5081 17.1314 16.3406 14.9485 14.4467 18.7392 14.5379 19.4439 24.6675 15.303 13.4987 13.4888 13.0797 12.9946 17.9327 16.676 15.4441 14.7427 19.3833 15.7797 17.8398 17.431 15.5354 17.9457 17.2915
threshold=52.855777620479863 -0.00026739188277646869 1979.6640000000002 583.55000000000257 20.500000000000004 0.91701388888888891 0.36365637302221215 9.5000000000000018 0.16006944444444446 0.93407504555168186 0.42829091419814497 1822.4773400000001 0.82545688541059137 1821.1079000000002 0.34819686789579368 2005.8499999999869 0.84703132106657142 1948.5220000000002 644.49999999999375 658.6500000000002 0.93872183823798172 18.500000000000004 22.500000000000004 2036.2454000000002 5.5000000000000009 1.5283538837814146 0.82970053974700309 376.94999999999942 2864.4993100000006 3.5000000000000004 21.500000000000004 1.1008312808945646 15.500000000000002 2675.1928400000002 2064.5622000000008 2.5000000000000004 524.34999999999275 0.19892174086686773 1924.8720900000003 0.98229166666666667 0.17398508607052668 1421.0000000000039 38.776520306458337 730.8499999999982 0.59737899006956496 9.5000000000000018 0.89340277777777788 -0.0004569652473920271 1.1702474757702757 0.78993739242412431 2771.7660600000004 0.019791666666666669 2898.7158700000005 -0.00087208228292434675 0.30590277777777786 1980.5997600000003 1.5000000000000002 0.45587670307844907 1.1499613853322024 1.0000000180025095e-35 2752.4734100000005 702.64999999999429
decision_type=2 2 2 2 2 2 2 2 2 2 2 2 2 2 2 2 2 2 2 2 2 2 2 2 2 2 2 2 2 2 2 2 2 2 2 2 2 2 2 2 2 2 2 2 2 2 2 2 2 2 2 2 2 2 2 2 2 2 2 2 2 2
left_child=1 7 35 6 5 50 -4 18 10 15 11 12 -2 14 -11 -10 17 -17 -1 -20 21 27 -22 -24 -8 28 -23 -13 31 -21 -28 -9 33 -15 -34 39 40 38 -38 41 -37 43 -43 46 -45 -46 -3 -33 -16 -29 51 -5 -52 -54 59 -56 57 58 -57 61 -61 -53
right_child=8 2 3 4 -6 -7 24 25 9 13 -12 20 -14 32 48 16 -18 -19 19 29 22 26 23 -25 -26 -27 30 49 -30 -31 -32 47 34 -35 -36 36 37 -39 -40 -41 -42 42 -44 44 45 -47 -48 -49 -50 -51 52 54 53 -55 55 56 -58 -59 -60 60 -62 -63
leaf_value=0.017660687290445162 0.068122579417303666 -0.001686496100164997 0.0018095717748250991 0.025152220529497338 0.01108909188585008 0.01315986392124938 -0.0035545360663655993 0.00084690580803272744 -0.009668163337062656 0.060315582889430119 0.011739955440499108 -0.040037049372203891 -0.012440898311827609 -0.0065051979301753151 -0.012086350613052851 0.027672231898943744 0.012649069093040609 -0.020980579185259276 -0.03873154188746749 0.0053396841698388885 -0.00052664882059786971 -0.0069116660704941412 0.033930962574152068 -0.022553316812351207 0.019103982266623222 0.021972762559176833 -0.03755765838824561 0.013038540068502639 -0.0131704721523252 0.017693363144277347 -0.0079854985756723177 0.013141129544358907 0.0098683818030936028 0.0023379753443786492 -0.01093489543683868 -0.052180254484657143 0.053211097588624461 0.0024028676937017093 0.0030780704941924981 0.031771192110353133 -0.0068542721646984821 -0.02911305220483152 0.015530863033960663 -0.013376624838287211 0.061830547175125462 -0.0013874346369616216 -0.023884553606637764 -0.0019048555341674061 0.033734357159092836 -0.0030357621249123001 0.0083605327514545569 0.045538246340509542 0.022690374039796766 -0.020770205299687261 0.038943108950468014 0.0027632785073379959 0.0029478985764647683 -0.0080696993297377749 0.050242012708149208 -0.0059326358524141969 -0.028481451026403988 0.00081322104498947995
leaf_weight=402.31855870783329 20.531442642211914 1258.8298328965902 535.79517839848995 62.070220097899437 531.61970503628254 301.10307377576828 93.951675027608871 2170.33802087605 2906.7610432207584 24.293606519699097 310.49745540320873 21.724990218877792 15.115825533866881 4321.1716620624065 45.369308784604073 23.616504162549973 188.68512487411499 100.13281616568565 36.368258833885193 1294.0227332860231 241.2680409103632 370.38261337578297 81.868446975946426 16.39107857644558 422.9562479108572 98.796032145619392 91.680073633790016 171.82349072396755 145.6834505200386 275.35637445747852 68.527244105935097 515.13855354487896 520.6051444709301 1346.3844021260738 283.29451103508472 18.963972225785255 64.453216448426247 792.86290074884892 23.165111899375916 29.636692360043526 445.97473020851612 28.010907873511314 146.1322458088398 960.96953785419464 17.546901062130928 127.94239361584187 82.74326428771019 209.77498395740986 24.863991275429726 480.33149613440037 691.52842037379742 28.09247162938118 25.892397090792656 97.099135130643845 31.891450464725494 269.92053452134132 1627.9714278280735 906.66541373729706 20.822777464985847 1258.2324175089598 94.892076760530472 93.66458947956562
leaf_count=1600 82 4998 2128 247 2113 1197 373 8619 11533 97 1234 86 60 17150 180 94 750 397 144 5141 958 1470 326 65 1682 393 363 683 578 1095 272 2048 2069 5347 1124 75 257 3149 92 118 1770 111 581 3812 70 508 328 833 99 1907 2748 112 103 385 127 1072 6466 3598 83 4994 376 372
internal_value=-0.000644564 0.00183746 0.000351677 0.00228238 0.00123743 0.000286885 0.0082794 0.00503873 -0.00409682 -0.00493915 0.000263918 -0.00199183 0.0339605 -0.00322371 0.0185736 -0.00843803 0.00300661 -0.0116956 0.00870404 0.00645995 -0.00282189 -0.00551124 0.00671857 0.0245086 0.0149856 0.00269453 -0.0123456 -0.000130066 0.0020682 0.00750721 -0.0249084 0.00283498 -0.0035421 -0.00440441 0.0025373 -0.00307489 0.00101061 0.00613991 0.0399566 -0.0051477 -0.00870303 -0.00556497 0.00834989 -0.00655482 -0.0107976 0.00623704 -0.00305559 0.00878713 0.0041351 0.00119934 -0.000457267 -0.00153248 0.00534337 -0.0116208 -0.00191482 0.000180793 -0.000256737 -0.00461369 0.00616366 -0.00597461 -0.00751394 0.0111324
internal_weight=27914.5 16239.2 11091.4 7094.17 6041.47 5509.85 1052.7 5147.8 11675.3 9785.18 1890.14 1579.64 35.6473 6565.98 94.5269 3219.2 312.434 123.749 2008.07 1605.75 1544 1204.47 339.528 98.2595 516.908 3139.73 530.59 673.88 3040.94 1569.38 160.207 2895.25 6471.46 5667.56 803.9 3997.23 1345.42 880.481 87.6183 2651.81 464.939 2622.18 174.143 2448.03 1106.46 145.489 1341.57 724.914 70.2333 652.155 5208.74 4394.22 814.52 122.992 4332.15 2857.27 2825.38 1197.41 290.743 1474.88 1353.12 121.757
internal_count=110842 64496 44045 28176 23993 21880 4183 20451 46346 38840 7506 6272 142 26066 376 12774 1241 491 7980 6380 6130 4781 1349 391 2055 12471 2105 2676 12078 6236 635 11500 25690 22497 3193 15869 5343 3498 349 10526 1845 10408 692 9716 4390 578 5326 2881 279 2590 20683 17447 3236 488 17200 11346 11219 4753 1155 5854 5370 484
is_linear=0
shrinkage=0.05


Tree=3
num_leaves=63
num_cat=0
split_feature=3 4 9 1 8 9 7 11 0 8 10 2 0 11 0 7 8 0 11 7 4 2 2 9 7 7 9 1 11 1 7 0 4 1 1 2 1 8 6 7 7 2 4 11 6 11 9 3 2 11 0 4 0 11 8 6 6 2 6 9 1 7
split_gain=86.4463 26.6197 23.7407 26.1084 19.9644 21.9569 21.9689 21.5076 20.2732 19.7497 19.437 18.5673 18.5573 24.5048 21.3825 19.47 16.325 31.3269 18.3924 18.8563 17.6097 16.1351 22.6834 19.2256 30.497 26.7492 24.3192 29.587 33.1042 17.8245 17.7723 15.8708 15.7156 15.7034 21.5676 16.6384 15.4809 19.9725 15.4383 14.5592 19.4733 14.5632 14.2691 14.2578 16.2334 17.121 15.3507 13.8465 13.7034 13.5071 13.4386 13.3738 19.3323 16.1147 15.8462 13.3628 13.1787 13.0855 13.0465 25.7056 12.901 12.8348
threshold=53.083085373739472 0.98229166666666667 22.500000000000004 0.52861411582887807 1977.2135775000004 1.0000000180025095e-35 1820.1675700000003 483.34999999999587 0.17831342501114081 1843.6406550000004 1.5000000000000002 0.81911620260836104 0.30297150029342829 455.30000000001115 0.27531449473893166 1921.3947300000002 1821.6373850000002 0.1662530356426197 658.6500000000002 1997.7353600000001 0.99270833333333341 1.2870553822751314 1.0185093022638168 16.500000000000004 2065.5068900000001 2675.1928400000002 1.5000000000000002 0.42871431384092162 1146.249999999998 0.42432738868751291 1972.0793000000001 0.18420633006412721 0.98576388888888899 0.32572010918788147 0.64555473468953772 1.048688356672298 0.57151638735744348 1986.9303700000003 0.00021256746855102818 1924.8720900000003 1843.8681100000001 1.1292556699187528 0.80104166666666676 3445.650000000001 -0.00034838847844415039 2468.8500000000208 1.0000000180025095e-35 65.909000380500984 0.84703132106657142 407.49999999999324 0.84082663662160251 0.16006944444444446 0.42829091419814497 1563.099999999986 1977.2135775000004 -0.00010350308742451685 -0.00014591040718814338 0.76513720318225598 0.0018970204742686516 13.500000000000002 0.40214389981635495 2029.8763900000001
decision_type=2 2 2 2 2 2 2 2 2 2 2 2 2 2 2 2 2 2 2 2 2 2 2 2 2 2 2 2 2 2 2 2 2 2 2 2 2 2 2 2 2 2 2 2 2 2 2 2 2 2 2 2 2 2 2 2 2 2 2 2 2 2
left_child=1 2 4 10 5 39 -7 33 55 31 -4 12 14 -14 -11 -16 17 -2 19 20 36 22 30 25 -25 26 27 28 -24 -26 -20 56 -28 38 60 50 -18 42 -6 40 -1 -41 -38 44 45 -10 -46 -31 -19 -42 -36 52 53 54 -32 -9 -8 -56 59 -27 -35 -45
right_child=16 -3 3 -5 7 6 9 8 43 11 -12 -13 13 -15 15 -17 18 48 21 -21 -22 -23 23 24 29 58 32 -29 -30 47 51 -33 -34 34 35 -37 37 -39 -40 41 49 -43 -44 61 46 -47 -48 -49 -50 -51 -52 -53 -54 -55 57 -57 -58 -59 -60 -61 -62 -63
leaf_value=-0.012768451919600838 0.065619052913238038 0.01676031554185764 -0.0018065772834393531 0.044863805481495177 0.0040502151866845986 0.019867072039711792 -0.05944041445674008 0.051576188724946931 0.0034420597150764832 -0.0064336591405668849 0.019763436398601824 0.00014930476889278942 -0.04451007673522106 -0.009911704424102552 0.062204185940094907 -0.00030148432358271968 -0.009187832886375662 -0.040839098379455346 0.0017778414309317023 -0.0023646652865085961 0.028702797609054576 -0.012965105489351217 0.0085118264016581999 0.023462253166107311 -0.059754569264801896 0.0059634340683942652 -0.0069260602933634624 -0.015795672533719867 0.055865038521478422 0.010125010685269917 -0.033770487439517501 -0.0086706719366469349 0.032389734382075291 0.015010406491827361 -0.0024152709999589374 -0.031029900831772639 -0.04178581312558155 -0.060823093236456044 -0.047906746637803227 -0.00804820180373742 -0.00025470883792545588 0.039677740083426935 -0.011267794343824203 0.01947718475333645 0.01242649255671485 0.018246824347396575 -0.00062927189553534687 -0.042816069609533339 0.0073010281431630285 0.050106421125543255 0.041719025661628169 -0.0076090906246918171 0.010121867399767439 -0.025966880558054219 0.011559828147445274 0.0095438635085139164 -0.002195571077838411 -0.0050326322892890202 -0.011385858083930771 0.034150096677832059 0.035228271445200299 -0.01205356956623172
leaf_weight=22.935873851180077 22.478936284780502 288.57632520794868 224.83913724124432 54.949636742472649 250.20329794287682 111.10647556185722 29.084692403674126 32.596472233533859 4151.2016292661428 421.53142710030079 195.03780929744244 3463.4657348692417 70.751569807529449 184.98601414263248 22.812465012073517 27.44949959218502 1692.2318975478411 16.167600393295288 920.56963555514812 1153.1185028105974 28.383223026990891 382.90667317807674 148.24706433713436 211.32010063529015 15.6818311214447 563.37289410829544 1440.3666100651026 79.685071930289268 49.143176347017288 58.384300947189331 38.371733441948891 590.20550987124443 25.874392315745354 199.43972370028496 60.693979442119598 34.568368300795555 47.750846803188324 29.601546049118042 15.163724377751349 82.38971820473671 16.870606422424316 19.831568732857704 193.5681240260601 36.210813865065575 236.12856993079185 204.92366576194763 4840.7588315755129 15.664469391107557 172.57266423106194 63.156710758805275 24.095565691590309 2991.9639964401722 283.3155085593462 83.26776722073555 161.53478415310383 45.032152056694031 15.365548074245451 449.42217928171158 79.899079516530037 94.447875410318375 130.5517413765192 296.90225787460804
leaf_count=91 90 1148 893 219 994 442 115 130 16491 1673 776 13754 280 734 91 109 6715 64 3656 4578 113 1519 589 841 62 2238 5716 316 196 232 152 2342 103 793 241 137 189 117 60 327 67 79 768 144 939 815 19222 62 686 252 96 11873 1126 330 642 179 61 1784 317 376 520 1178
internal_value=-0.000612339 0.00170806 0.00143952 0.0124544 0.0011064 -0.00144853 -0.00211464 0.00235065 0.00174258 -0.00262075 0.00821295 -0.001376 -0.00863732 -0.0194836 -0.00275806 0.028068 -0.00394902 0.00982266 -0.00420786 -0.00745292 -0.0103991 -0.00294701 -0.00244951 0.00116003 0.0130923 -0.000287831 -0.00366511 0.0099199 0.0203011 -0.0113296 -0.00448708 -0.0108406 -0.00623226 0.0107255 0.016421 -0.00179294 -0.0109644 -0.0220613 0.00108127 0.014578 0.0278488 0.00121093 -0.0173065 0.00154028 0.00189929 0.00413852 -2.20418e-05 -0.00107428 0.00317732 0.0394898 0.0101269 -0.00592607 -0.000969392 -0.00525869 -0.00260314 0.0271934 -0.039652 -0.000645647 0.00769306 0.0100104 0.023009 -0.00862604
internal_weight=27913.1 16463.8 16175.2 474.827 15700.4 5141.94 4936.76 10558.5 9843.75 4825.65 419.877 4191 727.531 255.738 471.793 50.262 11449.3 211.219 11238.1 3144.65 1991.54 8093.44 7710.53 2782.09 301.051 2481.04 1743.32 277.075 197.39 89.7306 4928.45 634.656 1466.24 714.716 449.349 119.358 1963.15 270.921 265.367 205.184 102.963 102.221 241.319 9766.13 9433.01 4356.13 5076.89 74.0488 188.74 80.0273 84.7895 4007.88 1015.91 732.596 649.329 77.6286 44.4502 610.957 737.72 657.821 329.991 333.113
internal_count=110842 65392 64244 1888 62356 20417 19601 41939 39098 19159 1669 16641 2887 1014 1873 200 45450 840 44610 12480 7902 32130 30611 11048 1197 9851 6920 1101 785 356 19563 2518 5819 2841 1787 474 7789 1074 1054 816 410 406 957 38789 37467 17306 20161 294 750 319 337 15907 4034 2908 2578 309 176 2426 2931 2614 1313 1322
is_linear=0
shrinkage=0.05


Tree=4
num_leaves=63
num_cat=0
split_feature=3 2 11 10 11 3 11 2 9 4 8 9 9 8 8 5 11 5 11 8 11 1 1 3 2 11 8 0 4 4 9 4 8 0 8 9 6 4 5 9 1 1 4 0 8 1 0 3 3 11 1 2 0 2 2 1 1 5 1 0 10 8
split_gain=81.544 40.176 21.8696 22.5413 20.1872 19.7358 24.9582 19.7916 24.4349 20.2922 19.4471 19.1172 18.2246 18.067 19.8043 17.9043 17.8413 18.9622 18.4161 17.6214 17.0129 17.0129 17.5421 16.236 15.7634 20.9092 15.697 15.418 15.2958 15.2543 15.1368 14.6847 17.2671 16.108 15.1789 14.4161 14.1883 13.9801 17.5891 13.8861 21.6797 18.8753 15.675 15.9714 23.9707 16.6889 19.0997 17.2689 15.893 20.63 15.5703 14.8024 13.8358 32.7052 19.2282 18.0061 15.9275 15.5043 14.364 13.7945 13.6416 18.4425
threshold=46.636976280429096 1.1184482948961449 1616.0999999999947 1.0000000180025095e-35 5559.0500000000256 60.208921840814789 500.99999999999915 0.93095424961386175 5.5000000000000009 0.47673611111111119 1852.6383150000004 1.0000000180025095e-35 16.500000000000004 1944.3210525000002 2066.3223025000002 -0.00025676657247636342 793.15000000000293 -1.0168388569042895e-05 825.20000000000675 2864.6132775000001 668.15000000000293 0.33212283475130194 0.30668577569473437 58.087825071966144 1.3080946116636401 617.50000000000693 2777.2653575000008 0.48038072827074113 0.77118055555555565 0.57256944444444458 4.5000000000000009 0.85104166666666681 1913.8548000000003 0.39932365379112417 1921.5773825000003 1.5000000000000002 -0.0006308242202355262 0.93229166666666685 -0.0010735783508565853 1.5000000000000002 0.41781163299321916 0.46490642513132324 0.087152777777777787 0.50972290131477849 2636.3062199999999 0.27034929312480055 0.30519042221055587 50.44288679836643 57.136275783243512 846.00000000001512 0.66633808216894697 0.81242514793648191 0.87164722979237308 0.78712950733036802 1.0258880691744234 0.36365637302221215 0.91537883793963426 -0.00035723517201552418 0.36978673865973249 1.3460063681578802 2.5000000000000004 1831.2300000000002
decision_type=2 2 2 2 2 2 2 2 2 2 2 2 2 2 2 2 2 2 2 2 2 2 2 2 2 2 2 2 2 2 2 2 2 2 2 2 2 2 2 2 2 2 2 2 2 2 2 2 2 2 2 2 2 2 2 2 2 2 2 2 2 2
left_child=1 15 3 31 21 7 13 11 36 10 -10 -5 16 -7 30 37 17 20 -18 -11 -13 22 28 -14 35 -26 60 -23 29 -3 -15 32 33 -2 -33 -8 -9 59 -39 40 -34 -42 -41 45 -45 47 51 -44 49 -48 -46 -47 54 -54 58 -56 -55 -57 -4 -1 61 -17
right_child=2 4 52 5 -6 6 24 8 9 19 -12 12 23 14 -16 26 18 -19 -20 -21 -22 27 -24 -25 25 -27 -28 -29 -30 -31 -32 34 39 -35 -36 -37 -38 38 -40 42 41 -43 43 44 50 46 48 -49 -50 -51 -52 -53 53 56 55 57 -58 -59 -60 -61 -62 -63
leaf_value=0.0043925502697899823 -0.0079481874983116721 0.0098332460658240202 -0.016767959366815879 0.016860697339037379 -0.025587437457660425 -0.0054307313928201812 0.0069248999545234507 -0.045668816970410003 -0.026087466840227905 0.0010492240091430002 0.010349319655095557 -0.012405912096351229 0.00085490763098184242 -0.0080331082885846915 0.0096764143932405733 -0.022417698525116873 0.02096275422300245 -0.0070661391909450063 -0.0046571648683408386 -0.036823442861014667 -0.032933394097138156 0.024356942430124543 -0.017857893252631093 -0.013858726271704326 0.016739568810508487 -0.027655268885117625 0.0094114770178255168 0.010223871642346571 0.055216779568818521 -0.015453632342562459 -0.032189138861583817 -0.05552255050495232 0.035882482343661648 0.014354809414888073 -0.015527824625352177 -0.0040610628818914295 -0.0042429780198200212 0.016038543203415027 -0.024058774579431539 0.00077997696820801717 -0.050989083034767325 0.0035441130464722252 -0.035364168704725585 0.00017836170964261692 0.001947361785076448 -0.016194827984237572 -0.034250114553552202 0.011654675792396919 -0.030352968851585116 -0.0045237420833558984 -0.033815770802786221 -0.059711603855341612 -0.058848257726755206 -0.016235994742481885 0.046238225497621771 -0.032539396316232629 0.0015461555492282714 0.013157198026983237 0.0029892590360163129 0.028996944356408889 0.0020676824578590375 -0.0026755278771446248
leaf_weight=3160.1361148506403 156.22824676334858 263.11138346791267 100.0766853839159 105.99745017290115 41.132465675473213 324.71370822191238 334.38009950518608 20.974646627902985 38.082412540912628 2782.4245984703302 953.37164251506329 264.15322016179562 1512.3312934935093 88.450485721230507 44.79463566839695 123.86407874524593 78.948836266994476 753.42852795124054 628.83647975325584 31.056248247623444 163.35724678635597 223.86520899832249 95.28454577922821 214.0237912684679 33.191953226923943 131.99234050512314 365.22995121777058 1398.3684989213943 15.29333074390888 77.122500061988831 243.0738290399313 28.576635554432869 42.190583273768425 168.02985195815563 139.6812951862812 2791.8160590082407 1420.2672156244516 39.228978931903839 90.316902950406075 255.04815104603767 19.465394124388695 85.84956219792366 25.757681876420975 386.59017907083035 42.807841345667839 31.265628308057785 75.495000228285789 80.744992077350616 162.30728304386139 257.23037505149841 105.29243506491184 52.113060310482979 25.800278916954994 154.04543174803257 39.369837239384651 19.689082950353622 689.87907557189465 324.25548802316189 1139.1905400454998 58.012397930026054 1764.5490335971117 2631.4461164474487
leaf_count=12555 620 1046 397 422 163 1289 1329 83 151 11051 3789 1048 6006 351 178 491 314 2990 2496 123 647 891 378 849 132 523 1452 5560 61 306 963 113 168 668 554 11083 5638 156 358 1013 77 341 102 1535 170 124 299 321 643 1021 417 206 102 611 157 78 2740 1289 4525 231 7009 10448
internal_value=-0.000571261 0.00294998 -0.00264531 -0.00336266 0.0090982 -0.00258163 -0.00550587 -0.0012797 0.000698606 0.00279875 0.00894976 -0.00406883 -0.0046825 -0.0140719 -0.0215281 0.00137112 -0.00807657 -0.0118387 -0.00179943 0.000631171 -0.0202497 0.00978642 0.00119403 -0.000969206 -0.00368139 -0.0187346 -0.000559125 0.0121742 0.00630012 0.00410134 -0.0257443 -0.00814913 -0.00692409 0.00360918 -0.0223205 -0.002886 -0.00484586 0.00418781 -0.0119165 -0.00902961 0.00559735 -0.00653527 -0.0104927 -0.0128501 -0.00637421 -0.0179056 -0.0212547 0.000283164 -0.0175258 -0.0112686 -0.0234786 -0.0433935 0.00169343 -0.00339501 0.0044209 0.0142077 -0.0016997 0.0105413 0.00139377 0.00483608 -0.00136481 -0.00356303
internal_weight=27913.6 10347 17566.6 15074.3 2114.18 12959.7 3992.41 8967.25 5246.18 3804.93 991.454 3721.08 3615.08 701.033 376.319 8232.78 1888.72 1180.94 707.785 2813.48 427.51 2073.05 450.812 1726.36 3291.38 165.184 4885.09 1622.23 355.527 340.234 331.524 2114.67 1946.42 324.258 168.258 3126.2 1441.24 3347.69 129.546 1622.16 147.506 105.315 1474.65 1219.6 534.69 684.914 578.411 106.503 495.033 332.725 148.1 83.3787 2492.31 869.725 1622.58 383.314 843.925 343.945 1239.27 3218.15 4519.86 2755.31
internal_count=110851 41105 69746 59847 8405 51455 15848 35607 20835 15114 3940 14772 14350 2781 1492 32700 7495 4685 2810 11174 1695 8242 1791 6855 13067 655 19400 6451 1413 1352 1314 8392 7725 1288 667 12412 5721 13300 514 6437 586 418 5851 4838 2122 2716 2293 423 1963 1320 587 330 9899 3453 6446 1524 3351 1367 4922 12786 17948 10939
is_linear=0
shrinkage=0.05


end of trees

feature_importances:
AsianRangePips=40
HOUR=39
ATR_ratio=36
SMA200=32
ATR50=31
VolRank=28
SMA50=28
ATR14=24
RSI14=14
Mom_20=14
Mom_5=13
DOW=11

parameters:
[boosting: gbdt]
[objective: binary]
[metric: binary_logloss,auc]
[tree_learner: serial]
[device_type: cpu]
[data_sample_strategy: bagging]
[data: ]
[valid: ]
[num_iterations: 2000]
[learning_rate: 0.05]
[num_leaves: 63]
[num_threads: 0]
[seed: 74]
[deterministic: 0]
[force_col_wise: 0]
[force_row_wise: 0]
[histogram_pool_size: -1]
[max_depth: -1]
[min_data_in_leaf: 60]
[min_sum_hessian_in_leaf: 0.001]
[bagging_fraction: 0.8]
[pos_bagging_fraction: 1]
[neg_bagging_fraction: 1]
[bagging_freq: 2]
[bagging_seed: 16669]
[bagging_by_query: 0]
[feature_fraction: 0.9]
[feature_fraction_bynode: 1]
[feature_fraction_seed: 13650]
[extra_trees: 0]
[extra_seed: 7463]
[early_stopping_round: 0]
[early_stopping_min_delta: 0]
[first_metric_only: 0]
[max_delta_step: 0]
[lambda_l1: 0]
[lambda_l2: 0]
[linear_lambda: 0]
[min_gain_to_split: 0]
[drop_rate: 0.1]
[max_drop: 50]
[skip_drop: 0.5]
[xgboost_dart_mode: 0]
[uniform_drop: 0]
[drop_seed: 32467]
[top_rate: 0.2]
[other_rate: 0.1]
[min_data_per_group: 100]
[max_cat_threshold: 32]
[cat_l2: 10]
[cat_smooth: 10]
[max_cat_to_onehot: 4]
[top_k: 20]
[monotone_constraints: ]
[monotone_constraints_method: basic]
[monotone_penalty: 0]
[feature_contri: ]
[forcedsplits_filename: ]
[refit_decay_rate: 0.9]
[cegb_tradeoff: 1]
[cegb_penalty_split: 0]
[cegb_penalty_feature_lazy: ]
[cegb_penalty_feature_coupled: ]
[path_smooth: 0]
[interaction_constraints: ]
[verbosity: -1]
[saved_feature_importance_type: 0]
[use_quantized_grad: 0]
[num_grad_quant_bins: 4]
[quant_train_renew_leaf: 0]
[stochastic_rounding: 1]
[linear_tree: 0]
[max_bin: 255]
[max_bin_by_feature: ]
[min_data_in_bin: 3]
[bin_construct_sample_cnt: 200000]
[data_random_seed: 280]
[is_enable_sparse: 1]
[enable_bundle: 1]
[use_missing: 1]
[zero_as_missing: 0]
[feature_pre_filter: 1]
[pre_partition: 0]
[two_round: 0]
[header: 0]
[label_column: ]
[weight_column: ]
[group_column: ]
[ignore_column: ]
[categorical_feature: ]
[forcedbins_filename: ]
[precise_float_parser: 0]
[parser_config_file: ]
[objective_seed: 18469]
[num_class: 1]
[is_unbalance: 1]
[scale_pos_weight: 1]
[sigmoid: 1]
[boost_from_average: 1]
[reg_sqrt: 0]
[alpha: 0.9]
[fair_c: 1]
[poisson_max_delta_step: 0.7]
[tweedie_variance_power: 1.5]
[lambdarank_truncation_level: 30]
[lambdarank_norm: 1]
[label_gain: ]
[lambdarank_position_bias_regularization: 0]
[eval_at: ]
[multi_error_top_k: 1]
[auc_mu_weights: ]
[num_machines: 1]
[local_listen_port: 12400]
[time_out: 120]
[machine_list_filename: ]
[machines: ]
[gpu_platform_id: -1]
[gpu_device_id: -1]
[gpu_use_dp: 0]
[num_gpu: 1]

end of parameters

pandas_categorical:[]
