tree
version=v4
num_class=1
num_tree_per_iteration=1
label_index=0
max_feature_idx=11
objective=binary sigmoid:1
feature_names=ATR14 ATR50 ATR_ratio RSI14 VolRank Mom_5 Mom_20 SMA50 SMA200 HOUR DOW AsianRangePips
feature_infos=[0.050226404069428833:2.7056524387181931] [0.11267946637212917:2.1298028900163666] [0.31907284003373532:2.1287085268272263] [6.9123493231886517:92.752945135102436] [0.00069444444444444447:1] [-0.0095572228962956807:0.009128567720134928] [-0.010186409056765267:0.011637384382366278] [1679.1228199999998:1914.99982] [1679.7300250000001:1912.9011800000001] [0:23] [0:4] [358.99999999999181:2130.9999999999945]
tree_sizes=6853 6895 6961 6875 6904 6918 6917

Tree=0
num_leaves=63
num_cat=0
split_feature=3 9 3 8 3 11 9 2 9 4 1 9 9 7 0 2 7 4 1 2 4 5 1 11 1 2 5 1 2 2 3 11 11 0 0 4 7 8 8 1 11 3 11 0 11 11 3 2 7 11 4 4 7 11 4 11 7 9 7 1 1 11
split_gain=164.95 73.2641 52.8186 30.24 25.414 26.9747 29.4392 26.0201 25.2878 20.6744 19.4509 19.2877 18.8997 19.8561 18.7353 25.8124 26.0868 18.292 17.7835 24.5034 18.1028 17.2695 16.6825 19.7993 16.237 16.8594 15.7803 15.3861 14.9044 16.2917 15.4305 15.1135 14.8829 14.5151 21.7435 14.2688 17.1032 14.2551 17.1407 15.1518 21.7064 20.0968 21.2979 19.3984 23.6893 18.2496 17.8579 17.5977 17.1811 14.0564 13.9372 13.8094 15.1466 13.7487 24.2832 19.5443 14.9905 24.442 18.5221 14.1764 13.7179 18.8706
threshold=52.689818864849748 21.500000000000004 35.798305862013692 1844.5827575000003 71.282676305141123 1173.0500000000009 2.5000000000000004 1.5524745974354066 11.500000000000002 0.88993055555555556 0.33314104097668401 14.500000000000002 4.5000000000000009 1877.5981700000002 0.23581026373282923 0.79253903428830019 1810.5925400000003 0.016319444444444445 0.80561031746461098 1.2524948448935613 0.070486111111111124 4.2859213411738935e-05 0.30600564767220279 1269.1999999999896 1.1804520868061223 1.0338489225851468 -0.00060752607590014429 0.34191846769482193 1.2952089104807631 1.1471407613599351 38.363398144817751 714.49999999998693 994.99999999999329 0.34747111710657524 0.72976416631313401 0.39340277777777782 1879.1376500000001 1708.2320200000001 1711.6694150000001 0.53607121885897435 592.99999999999511 61.066437264347385 680.60000000000412 0.27330254091097111 704.50000000000739 1158.2499999999984 58.684149241442746 1.1348762715763494 1898.7200500000001 1061.799999999994 0.73020833333333346 0.94131944444444449 1722.7803500000005 672.35000000000593 0.67465277777777788 1148.1499999999985 1731.9439800000002 9.5000000000000018 1727.1745200000003 0.74653496131284058 0.45322790970688781 1255.9999999999834
decision_type=2 2 2 2 2 2 2 2 2 2 2 2 2 2 2 2 2 2 2 2 2 2 2 2 2 2 2 2 2 2 2 2 2 2 2 2 2 2 2 2 2 2 2 2 2 2 2 2 2 2 2 2 2 2 2 2 2 2 2 2 2 2
left_child=2 4 3 11 5 7 -7 21 18 -6 12 26 13 -5 -13 16 -16 -8 20 -20 60 35 49 -24 25 -17 -1 -25 29 30 33 -30 -32 -10 50 36 -2 -23 -39 43 -41 45 47 44 -40 -42 -45 -43 -46 -3 -35 52 -44 54 -22 56 57 58 -55 -58 61 -4
right_child=1 22 8 10 9 6 17 -9 28 -11 -12 14 -14 -15 15 24 -18 -19 19 -21 53 37 23 27 -26 -27 -28 -29 31 -31 32 -33 -34 34 -36 -37 -38 38 39 40 41 42 51 46 48 -47 -48 -49 -50 -51 -52 -53 -54 55 -56 -57 59 -59 -60 -61 -62 -63
leaf_value=0.022190732812028047 0.019274660412001061 -0.017844595217615652 0.021658936578103707 -0.025413703817418511 -0.0023502513968419181 0.031087977044006215 0.042835030926781793 0.057776927614938092 0.040015432269355923 0.019990455324135396 0.035677996039018292 0.064406243250597822 0.029914369154995891 0.029960937447282267 0.020862352324291875 0.028431981345948609 -0.034284091098821148 0.011661782332694586 0.032706059740931062 -0.021416252962184787 0.01065245628718535 0.018257089992632966 -0.009903845616807256 0.066586054960435348 0.0040855347854956842 0.055337419309690342 0.011958546125796618 -0.0028956596056184183 0.0055966981835893735 0.0092649004927793203 0.01879555761771895 0.037425577396617213 0.013036579738748685 0.017958421101916148 0.038919304882416628 0.0088362573463162224 0.00020794356454146429 -0.031889306673936385 -0.013301229638943882 0.027329504190478901 0.0071567783697560903 0.027558033771944684 -0.047519042809577701 0.0057788725507687613 0.0088457546606088289 -0.045514326712036791 0.013389656404195529 -0.018370908427868579 -0.037393421251941006 -0.055378574259753711 -0.013114813333819145 0.011564021915655111 -0.0078147933586720994 0.020244446680544363 -0.0079162405865018728 0.0063569671027953979 0.012576069689015161 0.0029274305593480921 0.04224593646610722 0.04632216938052211 -0.0096638505985449166 0.071571611469023064
leaf_weight=659.11281540989876 860.20531833171844 159.35093283653259 433.30449983477592 41.875730454921722 737.50537633895874 257.60992780327797 48.719780743122101 26.84487983584404 134.88333597779274 120.47337755560875 553.2546392083168 31.597985923290253 103.05191904306412 26.391264349222183 58.598512560129166 345.8859920501709 33.823090493679047 1380.0377315282822 192.99842834472656 23.454315215349197 696.85964360833168 274.68043148517609 164.30766522884369 16.54896050691605 55.138403624296188 70.008600801229477 879.74429249763489 15.365247279405592 48.335709571838379 663.44881236553192 3120.4805406928062 163.29438358545303 1751.5634037554264 193.43718066811562 111.53168141841888 1397.1579097211361 136.24426081776619 28.77032071352005 202.15376406908035 91.00276380777359 1213.3031088113785 86.476465463638306 25.010548084974289 1294.4751986861229 486.77746504545212 16.671490967273712 1905.0105552375317 27.483946830034256 20.954423397779465 29.573274403810501 44.362375736236572 89.838920384645462 606.74601435661316 302.56169602274895 235.5944000184536 1031.8654088675976 3713.094773888588 135.46448856592178 139.88643124699593 31.384424716234207 32.76021271944046 19.802131503820419
leaf_count=2621 3420 632 1723 166 2928 1025 194 107 537 479 2202 126 410 105 233 1376 134 5484 768 93 2769 1092 652 66 219 279 3496 61 192 2636 12406 650 6961 769 444 5551 541 114 802 362 4820 344 99 5142 1934 66 7571 109 83 117 176 357 2408 1203 935 4099 14756 538 557 125 130 79
internal_value=0.0128426 0.0083312 0.0161309 0.0222938 0.00905995 0.00973751 0.0155299 0.00862621 0.0147983 0.000786727 0.0311193 0.0192971 0.0163976 -0.00400648 0.0269415 0.0248405 0.000680673 0.0127248 0.0127335 0.0268415 0.0122826 0.00847564 -0.0131148 -0.00290406 0.0295809 0.032961 0.0163411 0.0331338 0.0171142 0.0166557 0.0175712 0.030156 0.0167251 0.0260838 0.0207046 0.0120964 0.0166677 0.00711494 0.00661277 0.00679539 0.00343081 0.00237788 -0.00360593 0.00865139 0.00117408 0.00644286 0.0103104 0.0164813 0.00693743 -0.02372 0.0121616 -0.00677828 -0.00938664 0.0115639 0.00596088 0.0125397 0.0140157 0.0215108 0.0272005 0.0128589 0.0215812 0.0238403
internal_weight=27798.2 11719.3 16078.9 2858.48 11334.2 10476.2 1686.37 8789.81 13220.4 857.979 724.574 2133.91 171.319 68.267 595.053 563.455 92.4216 1428.76 6989.03 216.453 6772.58 8762.96 385.146 196.222 471.033 415.895 1538.86 31.9142 6231.34 6019.71 5356.26 211.63 4872.04 484.215 349.331 2393.61 996.45 6369.36 6094.67 6065.9 2156.53 2065.53 835.556 3909.37 709.886 1229.97 3199.49 113.96 507.732 188.924 237.8 721.595 631.757 6286.71 932.454 5354.26 4322.39 577.913 442.448 3744.48 485.867 453.107
internal_count=110473 46560 63913 11367 45032 41625 6703 34922 52546 3407 2883 8484 681 271 2367 2241 367 5678 27775 861 26914 34815 1528 779 1874 1655 6117 127 24771 23929 21293 842 19367 1926 1389 9512 3961 25303 24211 24097 8565 8203 3317 15532 2819 4886 12713 453 2017 749 945 2864 2507 24982 3704 21278 17179 2298 1760 14881 1932 1802
is_linear=0
shrinkage=1


Tree=1
num_leaves=63
num_cat=0
split_feature=3 9 3 7 9 5 3 11 9 9 7 6 9 6 9 4 8 1 6 2 8 4 8 2 1 1 2 4 7 2 4 7 1 11 2 11 1 5 7 4 2 2 3 11 11 11 2 8 2 8 11 4 4 7 5 9 8 7 1 11 4 8
split_gain=148.871 66.1305 47.6786 27.5054 23.7264 24.6666 23.2153 26.3545 29.6834 22.8233 20.6141 18.34 18.3199 24.625 17.6766 26.1667 19.6355 17.2327 16.7415 23.7331 16.0898 21.6465 18.8534 25.3128 16.379 16.0655 19.6906 16.3028 15.6923 15.6863 15.6575 15.1774 15.0606 17.8699 15.0381 14.0996 13.902 13.7883 13.6969 13.4654 13.456 14.7039 13.9309 13.6456 13.4328 13.6293 43.4074 17.1931 18.1249 15.1282 21.0473 23.702 17.4673 14.0338 13.6784 13.5253 13.5662 13.4785 17.7377 30.7212 17.9545 14.0723
threshold=52.689818864849748 21.500000000000004 35.798305862013692 1889.1297700000002 14.500000000000002 -0.00072119704723921918 68.82473421616838 1173.0500000000009 2.5000000000000004 11.500000000000002 1898.7200500000001 -0.0004650616842356014 14.500000000000002 0.0027683644337463957 18.500000000000004 0.15868055555555557 1836.5573625000004 0.50689772025608082 -0.00051801196556633389 0.79530590394324241 1839.2683875000002 0.20798611111111115 1854.0654825000001 1.1348762715763494 0.54335035779309793 0.81330824802804202 1.2524948448935613 0.070486111111111124 1785.3712800000001 0.84007768229616198 0.8739583333333335 1856.1840600000003 0.30600564767220279 1269.1999999999896 1.5524745974354066 879.00000000000784 0.34191846769482193 4.2859213411738935e-05 1891.6954200000002 0.90729166666666672 1.2952089104807631 1.1471407613599351 38.363398144817751 714.49999999998693 994.99999999999329 1061.799999999994 0.89427861320525504 1834.4210950000002 0.75564591145524551 1850.5983225000002 1145.0500000000036 0.71423611111111118 0.2121527777777778 1731.6963200000002 -0.00039293767432313492 22.500000000000004 1775.6902425000001 1726.8549500000004 0.67536590597461332 967.3000000000003 0.51909722222222243 1776.6043875000003
decision_type=2 2 2 2 2 2 2 2 2 2 2 2 2 2 2 2 2 2 2 2 2 2 2 2 2 2 2 2 2 2 2 2 2 2 2 2 2 2 2 2 2 2 2 2 2 2 2 2 2 2 2 2 2 2 2 2 2 2 2 2 2 2
left_child=2 6 3 4 5 39 7 34 -9 25 11 -5 13 -8 17 16 29 -10 19 35 21 -19 23 -22 -24 27 -27 -4 -15 -16 -30 -32 -3 -34 37 -6 -35 -2 -14 -1 41 42 -11 -42 57 46 47 48 -46 50 52 -52 -47 -53 -54 56 -48 58 60 -60 -44 -59
right_child=1 32 9 10 18 -7 12 8 14 40 -12 -13 38 28 15 -17 -18 20 -20 -21 22 -23 24 -25 -26 26 -28 -29 30 -31 31 -33 33 36 -36 -37 -38 -39 -40 -41 43 -43 44 -45 45 49 55 -49 -50 -51 51 53 54 -55 -56 -57 -58 61 59 -61 -62 -63
leaf_value=0.016070023462986274 -0.0010499750609075191 -0.035041256186565506 0.0080009700026117802 0.048957824460200951 -0.02805615453976959 0.00011332107706044802 -0.0096327659627214665 0.019033175489690982 -0.013953948365279896 0.012279921011011566 0.0089528907735405734 0.0044086252963631339 -0.023757242682846687 -0.010146966089061689 0.02934103747122261 -0.0038669107052701278 0.0041945865780385469 -0.048695415182636446 0.034781316219320749 0.016469531304812737 0.048478064050532038 -0.0019873512865355059 0.043718659448081447 -0.019028337565063846 -0.0020475275361863297 0.018720870886503906 -0.030636944821852103 -0.0015052639304432088 -0.0073808125750833599 0.079505024849389622 0.053479839459966129 -0.0015767009072430987 -0.021910386478104046 0.050809762276036632 0.037772014162610862 0.0079502620827336477 -0.015252400506974705 -0.0055625979172792819 0.0075845389195478259 -0.00064091064775168786 -0.0071850466344776922 -0.0037004400537243294 0.016661315254619804 0.023059354723196236 -0.046075546148871251 -0.0055045162298496568 0.029811722720280626 -0.074723947201483926 -0.011080595298376435 -0.007116126914988208 0.0080148332882297359 0.0017210314744439484 0.0032369373402515687 -0.02082873063530476 0.029887440699107915 -0.024638475741069712 0.0018082696559485812 -0.00090817080881342479 0.052320628477579484 -0.016877317230474351 -0.020432509151316371 0.0066982138896047568
leaf_weight=503.39199131727219 2365.426376581192 188.89704436063766 485.81095777451992 98.538819685578346 51.919836014509201 1239.4186671376228 926.10385563969612 240.44044703245163 260.66720670461655 484.1218253672123 108.85363529622555 30.177637130022049 297.39005483686924 47.588248819112778 48.207245945930481 124.5869582593441 48.042160660028458 26.000599294900894 92.596466183662415 517.63006213307381 56.686845272779465 539.55838656425476 21.828740984201431 18.391781508922577 187.23555466532707 184.41110104322433 22.692793816328049 6295.9961673468351 25.931819692254066 23.028280466794968 46.63341823220253 17.110411286354065 164.31075520813465 16.531346037983898 21.315001249313354 57.078885942697525 15.36588007211685 5952.4709892123938 39.487672761082649 158.50388504564762 48.33742555975914 663.46330952644348 125.4145293533802 163.24428939819336 49.468171745538712 71.990397080779076 73.581363558769226 15.424869298934935 146.80353356897831 320.71851575374603 420.99575610458851 124.5395366102457 66.414462894201279 154.70885170996189 175.0373904556036 26.967432007193565 104.91452266275883 875.64544701576233 63.939748078584671 21.410387128591537 44.090532928705215 1989.8394510746002
leaf_count=2003 9400 749 1932 393 206 4926 3678 957 1035 1926 433 120 1180 189 192 495 191 103 369 2060 226 2144 87 73 744 734 90 25019 103 92 186 68 652 66 85 227 61 23647 157 630 192 2636 499 650 196 286 293 61 583 1274 1674 495 264 614 697 107 417 3480 255 85 175 7912
internal_value=-0.000301668 -0.00458755 0.00282229 0.00867815 0.00720129 0.00427514 -0.00389522 -0.00304564 0.00284367 0.00155628 0.0249688 0.0385132 -0.00992249 -0.00670346 -3.0731e-05 0.0121587 0.0288975 -0.00270782 0.0149367 0.0120043 0.000742207 -0.00413467 0.0104492 0.0319412 0.00273099 -0.000405368 0.0133126 -0.00082429 0.0130602 0.0455575 0.0253756 0.0387013 -0.0249639 -0.015262 -0.00417182 -0.00920083 0.0189856 -0.00427931 -0.0200835 0.0120683 0.0037565 0.00332089 0.00419063 0.0161498 0.0033868 -0.000117423 -0.00800577 -0.0238953 -0.0199007 0.00234862 0.00534316 0.000522901 0.0161118 -0.010772 0.0225569 0.0083658 0.0133521 0.00535385 0.0163729 0.0349621 0.00701272 0.00437383
internal_weight=27797.3 11719.2 16078.1 2858.11 2620.54 1901.31 11334.1 9933.89 1594.67 13220 237.57 128.716 1400.25 1063.37 1354.23 243.865 119.278 1110.37 719.225 626.629 849.702 565.559 284.143 75.0786 209.064 6988.91 207.104 6781.81 137.264 71.2355 89.6756 63.7438 385.105 196.208 8339.21 108.999 31.8972 8317.9 336.878 661.896 6231.07 6019.49 5356.03 211.582 4871.9 1751.56 417.16 211.697 196.272 1334.4 1013.69 700.244 313.442 279.248 241.452 205.463 178.496 3120.34 254.855 85.3501 169.505 2865.48
internal_count=110473 46560 63913 11367 10421 7559 45032 39471 6339 52546 946 513 5561 4224 5382 970 475 4412 2862 2493 3377 2247 1130 299 831 27775 824 26951 546 284 357 254 1528 779 33132 433 127 33047 1337 2633 24771 23929 21293 842 19367 6961 1657 840 779 5304 4030 2783 1247 1109 961 817 710 12406 1014 340 674 11392
is_linear=0
shrinkage=0.05


Tree=2
num_leaves=63
num_cat=0
split_feature=3 5 9 2 3 9 1 11 10 9 9 2 3 6 2 3 1 6 11 7 7 3 4 8 2 10 10 6 4 3 7 11 4 1 1 3 2 4 8 6 7 4 6 1 8 4 1 6 9 7 11 10 10 7 10 1 9 5 9 10 9 4
split_gain=134.087 51.4771 49.5045 28.534 22.8676 21.6519 21.7245 20.3347 19.6304 20.2809 17.5648 18.3348 17.4564 33.3758 24.9734 17.2023 16.6637 29.1984 23.7085 20.7721 16.4977 16.4639 16.3974 16.3507 16.1501 19.0005 16.0337 25.7353 17.5343 16.0068 18.0947 15.718 15.687 18.2536 15.2793 15.5605 15.065 15.0836 14.3098 25.3243 22.069 20.1824 22.1924 19.9256 16.7275 15.6855 14.3028 16.2251 14.9872 15.1158 15.6548 14.1456 14.011 13.9878 13.7746 19.1567 13.2528 12.859 16.9266 12.7393 12.7102 14.5614
threshold=52.801505010272315 -0.00067769330945632855 21.500000000000004 1.4471954751155962 71.282676305141123 11.500000000000002 0.82137274891864631 1173.0500000000009 2.5000000000000004 1.0000000180025095e-35 2.5000000000000004 1.1538902056543237 38.363398144817751 -0.00068617397275644299 0.82233410309101906 25.693462658154072 0.48368599959840042 0.0011299965896451882 1158.2499999999984 1879.1376500000001 1891.1398800000004 41.413881484734667 0.33159722222222227 1733.7270575000002 0.95841818670594525 2.5000000000000004 2.5000000000000004 0.00015118924105694823 0.1836805555555556 60.71980538759523 1840.7009300000002 1148.1499999999985 0.88993055555555556 0.93669683551561578 0.31715962595160768 64.246404495061057 1.2524948448935613 0.47743055555555564 1840.2645925000004 -0.00028179226757557568 1832.5508500000001 0.84548611111111127 -0.00044432673068689471 0.2681500057335568 1894.5916375000004 0.032986111111111119 0.80561031746461098 0.0015178844260480553 12.500000000000002 1711.1440800000003 1052.099999999996 2.5000000000000004 3.5000000000000004 1785.3712800000001 3.5000000000000004 0.69714089806616897 19.500000000000004 0.00014181929081957814 10.500000000000002 1.0000000180025095e-35 1.0000000180025095e-35 0.65451388888888895
decision_type=2 2 2 2 2 2 2 2 2 2 2 2 2 2 2 2 2 2 2 2 2 2 2 2 2 2 2 2 2 2 2 2 2 2 2 2 2 2 2 2 2 2 2 2 2 2 2 2 2 2 2 2 2 2 2 2 2 2 2 2 2 2
left_child=1 21 3 4 7 6 8 16 9 -3 51 20 13 14 -7 22 17 19 46 -2 34 -1 -11 59 26 -26 27 28 -21 30 -4 38 33 -6 35 56 37 -8 39 -10 43 42 44 53 -40 -44 47 54 -48 -50 -51 -9 -45 -41 -18 57 -12 58 -56 -14 -54 -62
right_child=2 5 29 -5 32 12 36 10 31 15 11 -13 23 -15 -16 -17 18 -19 -20 24 -22 -23 -24 -25 25 -27 -28 -29 -30 -31 -32 -33 -34 -35 -36 -37 -38 -39 41 40 -42 -43 45 52 -46 -47 48 -49 49 50 -52 -53 60 -55 55 -57 -58 -59 -60 -61 61 -63
leaf_value=0.012456789542957133 -0.0022090109602047213 0.01224014348606766 -0.0081042340760932776 0.020693000883889562 -0.013850420446456072 -0.015954144295101592 -0.018983294227570759 0.023327251416332715 -0.005522825167477154 -0.047099161033983601 0.013505283203783497 -0.017606751484767574 -0.001819284197861601 0.020605895804517611 0.0071835639336673461 0.00051397912547887243 -0.0091625563408866614 0.013557427132170542 -0.049633568153446855 -0.011407533195704398 -0.048816171695307026 0.0021108297661776338 0.001588184990368227 0.00069435589427032176 -0.013956562929460795 -0.045836115050983603 0.0076429809361354562 -0.023979375797957246 0.031170693014598624 -0.037060246816186533 -0.041322755487918035 -0.011220417969929765 0.0057666484059168749 -0.06927876007955297 0.00035869562059042954 -0.01487731476928169 -0.022539053681706295 0.028519308703521064 -0.0020121603603656135 0.039831773980142052 0.035078088215313656 -0.050474791723917257 -0.052390325713964792 0.0087219069574309936 0.027424696347813107 -0.010866230819645883 -0.025900923742197518 -0.020250093606967629 0.019489185858676747 0.00021947780650361372 -0.016085117765407188 -0.00034173368135106323 -0.048898831261752429 0.00040390577950360774 -0.0026447199109795563 -0.025015695811475627 0.066953952346139836 -0.002578709190782685 0.031540514062694251 0.010796182034760633 0.00089133475997795516 -0.028150639093599602
leaf_weight=1472.232935026288 3613.7148637771606 374.59110097587109 191.00530184805393 113.75841623544693 718.33531561493874 144.78213468194008 19.133294522762299 147.8819552063942 901.14389026165009 37.353973165154457 22.8787462413311 148.13202744722366 266.95991663634777 398.98411650955677 599.57161988317966 4156.2880262583494 2108.2240661233664 259.45609921216965 32.560125634074211 53.385518178343773 16.408185973763466 520.47312209010124 32.201638609170914 4144.0696136057377 191.42107753455639 61.838216826319695 145.87800268828869 180.95981308817863 44.198490515351295 128.32122704386711 52.198021292686462 614.92103131115437 103.84807032346725 15.167005747556685 1176.7109145969152 17.372040688991547 21.160004496574402 132.01344402134418 196.0238606184721 61.482763484120369 63.012066885828972 27.010785415768623 23.983784645795822 312.84012614190578 64.022230759263039 439.39936423301697 63.267596647143364 276.15960983932018 84.187954038381577 872.91115622222424 177.08638417720795 110.13945597410202 16.407958209514618 35.473715454339981 64.932100564241409 62.508326128125191 23.521226450800896 226.51072928309441 81.862117826938629 799.18794097006321 268.46609352529049 51.429192751646042
leaf_count=5858 14359 1490 759 453 2852 575 76 589 3580 148 91 588 1061 1589 2385 16519 8373 1032 129 212 65 2069 128 16472 760 245 580 718 176 509 207 2442 413 60 4677 69 84 526 779 245 251 107 95 1244 255 1745 251 1096 335 3469 703 438 65 141 258 248 94 900 326 3179 1067 204
internal_value=-0.000709304 0.0022289 -0.00481598 -0.00422114 -0.00447644 0.00117295 -0.00058361 -0.00382828 -0.000977739 0.0010897 0.00123291 -0.000969133 0.00334279 0.00893753 0.00268311 0.000101293 -0.00480688 -0.00273066 -0.00713973 -0.00371543 0.000991709 0.00975454 -0.0245587 0.00211507 -0.0117484 -0.0217406 -0.00578589 -0.0128188 0.00787732 -0.0227725 -0.0152338 -0.00407017 -0.0124215 -0.0149965 0.00165053 0.0254873 0.0169743 0.0225061 -0.00228334 0.000242384 0.00666335 -0.00803947 -0.00645505 0.00426358 0.00523507 -0.0130154 -0.00679535 -0.00873929 -0.00221704 -0.000895899 -0.00253036 0.0132239 0.0011057 0.0254062 -0.00748978 0.000602211 0.0405997 0.00489182 0.0164192 0.00763731 -0.00597913 -0.00377771
internal_weight=27781.4 16194.6 11586.7 11215.2 11101.5 14201.9 7848.36 10264.1 7676.05 4600.43 1663.04 1405.02 6353.56 1143.34 744.354 4225.84 8601.06 4550.85 4050.21 4291.4 1256.89 1992.71 69.5556 5210.22 677.681 253.259 424.422 278.544 97.584 371.525 243.203 3075.62 837.35 733.502 1240.48 63.772 172.307 151.147 2460.7 1710.26 809.112 750.44 723.429 746.1 260.046 463.383 4017.65 2820.2 1197.45 1134.19 1050 258.021 649.143 96.9565 2544.04 435.813 46.4 373.305 146.794 1066.15 336.303 319.895
internal_count=110413 64379 46034 44559 44106 56452 31191 40781 30505 18285 6611 5584 25261 4549 2960 16795 34170 18082 16088 17050 4996 7927 276 20712 2691 1005 1686 1106 388 1475 966 12220 3325 2912 4931 254 686 602 9778 6797 3217 2981 2874 2966 1034 1840 15959 11201 4758 4507 4172 1027 2580 386 10105 1732 185 1484 584 4240 1336 1271
is_linear=0
shrinkage=0.05


Tree=3
num_leaves=63
num_cat=0
split_feature=3 5 9 9 1 3 9 11 9 10 9 0 10 0 4 11 9 3 3 6 8 7 3 5 4 7 4 3 7 11 8 7 1 7 0 3 8 1 1 8 3 1 7 10 6 1 1 11 7 9 0 1 7 8 9 4 4 6 7 1 10 7
split_gain=121.023 46.4695 44.721 19.5424 19.6203 18.6646 19.132 18.6234 17.7897 17.7171 18.5303 16.5989 19.0502 15.8388 15.7789 21.7025 17.2224 16.9979 15.7624 30.2066 16.852 18.9607 15.5097 15.4264 14.8425 14.7795 19.3358 14.4768 16.5118 13.891 13.7287 13.3537 12.9618 12.6487 12.4979 12.4686 13.3694 16.511 15.76 12.3274 13.1839 12.4371 20.7154 17.4122 12.3147 12.1202 16.8485 12.6152 12.1182 11.9443 11.794 13.3596 11.677 13.7846 14.6524 14.7021 11.6355 11.5726 11.5698 11.5258 11.4832 11.4382
threshold=52.801505010272315 -0.00067769330945632855 21.500000000000004 11.500000000000002 0.82137274891864631 66.38853196891921 15.500000000000002 1173.0500000000009 2.5000000000000004 2.5000000000000004 1.5000000000000002 0.50861365233553835 1.0000000180025095e-35 0.15553798227961374 0.64201388888888899 754.4499999999972 1.0000000180025095e-35 34.743044014066598 38.363398144817751 -0.00070122316098542015 1845.7696075000001 1712.6720800000001 34.182349668335256 0.00017481361416726851 0.016319444444444445 1733.9194500000001 0.95312500000000011 60.71980538759523 1895.4261700000002 1725.0000000000002 1898.8366400000002 1891.1398800000004 0.2588962850696423 1711.9751400000002 0.878185205154004 31.753877435325869 1868.9580475 0.44336430892574946 0.33538564056731546 1890.2319675000001 45.479970273408192 0.30600564767220279 1857.4214600000003 1.0000000180025095e-35 0.0031969803007401158 0.33538564056731546 0.32372056684801165 881.35000000000912 1684.2873300000001 2.5000000000000004 0.83674226640721405 0.70920530971175688 1719.96461 1836.8291675000003 20.500000000000004 0.087847222222222229 0.76076388888888891 -0.00068617397275644299 1711.9751400000002 0.31065363071493596 1.5000000000000002 1694.2485000000004
decision_type=2 2 2 2 2 2 2 2 2 2 2 2 2 2 2 2 2 2 2 2 2 2 2 2 2 2 2 2 2 2 2 2 2 2 2 2 2 2 2 2 2 2 2 2 2 2 2 2 2 2 2 2 2 2 2 2 2 2 2 2 2 2
left_child=1 22 5 4 9 7 30 44 -9 10 39 12 -8 -11 15 -15 35 -16 19 20 21 -5 29 50 59 26 -20 28 -4 -1 -7 -26 -12 -13 49 -17 37 38 -37 41 -41 43 60 -3 48 46 47 -18 -2 -25 51 56 -21 54 -54 -56 -19 -45 -6 -10 -43 -47
right_child=2 3 27 18 58 6 11 8 24 13 32 33 -14 14 17 16 45 23 25 52 -22 -23 -24 34 31 -27 -28 -29 -30 -31 -32 -33 -34 -35 -36 36 -38 -39 -40 40 -42 42 -44 57 -46 61 -48 -49 -50 -51 -52 -53 53 -55 55 -57 -58 -59 -60 -61 -62 -63
leaf_value=0.016329125203400525 0.019605071649599057 0.029070980769242347 -0.011033106125257507 0.031180723553289116 0.055267766359281469 -0.0049831164738555998 -0.040078748812447967 0.015432802997055141 0.05652239147613778 -0.043939176242605557 -0.014277321228459093 0.011060825901109423 -0.0058901778366460562 0.0050365258185156563 0.01236537120380922 0.021159030595852883 -0.010474819501402839 -0.0222049161563912 0.0056000463693521973 -0.017476199873390507 0.017607165300821556 -0.0038106017185031041 0.0053621180250553293 0.029557925277933318 -0.00056945533767085771 0.0006350887121247845 0.035275114825305577 -0.035244147343154342 -0.06376203580249544 -0.0048293884441126299 -0.032564464436319641 -0.047068465515091473 0.00026096223243897567 -0.03710014954566513 -0.039723278380260789 -0.017814756435620149 -0.055407761855470208 -0.058268941020093126 0.037260135916588354 0.048147262480960483 0.0077025730996535813 0.0087916097557935377 -0.029036044131779834 -0.033089040439863347 0.022383190180830979 0.029056955414281861 0.04254733054956205 0.017564613934684253 -0.0043255747156086388 -0.0028944427747172887 0.020315511331121302 -0.045967052395159823 0.019988980279152954 0.0098040463473034259 0.073022765373963183 0.029076121023076947 -0.0051747978996278636 -0.0024435578532032974 0.011844629074165121 0.0045366993134362561 0.028006220519177717 -0.0059330444331134905
leaf_weight=789.61341288685799 53.275721997022629 38.41999363899231 227.21524240076542 41.662371978163719 17.022867351770401 1635.4545053392649 47.929241493344307 215.67663040757179 19.974414125084877 24.462690860033035 159.91423161327839 15.335371509194372 271.84309829771519 818.17055840790272 76.9241803586483 16.080675944685936 90.393086373806 274.42357549071312 1037.7600280940533 20.380200356245041 146.66900855302811 547.15541134774685 1116.6998461335897 37.419688731431961 1168.7383536398411 4114.3570549488068 57.95888389647007 128.1898972094059 15.884894162416456 86.022793278098106 46.396838247776031 15.647015213966368 3713.7577908635139 122.82059463858604 17.406220644712448 78.593322739005089 29.295035064220428 20.460155308246613 15.561270222067831 38.114310130476952 42.748673692345619 228.82725165784359 28.48468753695488 36.559670776128769 43.958875000476837 23.856800600886345 30.358289614319801 72.117614597082138 7534.6747723221779 117.02709247171879 20.353029116988182 40.633395910263062 152.60376377403736 154.94091056287289 31.473486557602882 48.141364842653275 158.06919926404953 195.75339443981647 155.16010127961636 22.869802266359329 117.77923901379108 1113.88132186234
leaf_count=3144 212 153 903 166 68 6498 190 859 80 97 635 61 1080 3253 306 64 359 1089 4127 81 584 2175 4441 149 4645 16354 231 509 63 342 184 62 14760 487 69 312 116 81 62 152 170 910 113 145 175 95 121 287 29935 465 81 161 608 617 126 192 628 778 618 91 469 4425
internal_value=-0.000673876 0.00211763 -0.00457553 0.00111439 -0.000554432 -0.0040103 -0.008211 -0.0030198 0.00218949 -0.000928865 0.00103524 -0.0172717 -0.0110145 -0.0038668 -0.0035455 -0.00150671 -0.00509822 -0.0098871 0.0031759 0.00849308 0.0024426 -0.00133476 0.00926858 -0.0124599 -0.000137929 0.00200937 0.00716973 -0.021648 -0.0144786 0.0142505 -0.005744 -0.00118376 -0.000339212 -0.0317543 0.000441587 -0.0205976 -0.0252635 -0.0175588 -0.00871233 0.00836185 0.0267659 0.00605749 0.0119524 -0.00210965 -0.00400468 -0.00323459 0.00835557 0.00196828 -0.00415756 0.00496818 -0.0169528 -0.018556 0.0194124 0.0213542 0.0290607 0.0464492 -0.0159807 -0.00726631 0.0161377 0.028773 0.0153209 -0.00519935
internal_weight=27779.4 16193.5 11585.9 14201.1 7848.03 11214.6 2139.78 9074.82 1442.91 7675.85 4600.36 457.928 319.772 3075.49 3051.02 2308.77 1490.6 742.256 6353.1 1143.03 735.487 588.818 1992.34 665.332 1227.23 5210.08 1095.72 371.29 243.1 875.636 1681.85 1184.39 3873.67 138.156 171.853 159.99 143.91 114.615 94.1546 726.687 80.863 645.824 375.091 270.733 7631.91 1330.61 192.869 162.511 7587.95 154.447 493.479 473.126 407.54 387.16 232.219 79.6149 432.493 232.313 172.183 42.8442 346.606 1137.74
internal_count=110413 64379 46034 56452 31191 44559 8500 36059 5737 30505 18285 1818 1270 12220 12123 9175 5922 2948 25261 4549 2925 2341 7927 2642 4878 20712 4358 1475 966 3486 6682 4707 15395 548 683 635 571 455 374 2890 322 2568 1492 1076 30322 5287 767 646 30147 614 1959 1878 1624 1543 926 318 1717 923 686 171 1379 4520
is_linear=0
shrinkage=0.05


Tree=4
num_leaves=63
num_cat=0
split_feature=3 9 5 2 3 9 9 3 2 8 6 8 11 9 7 8 1 0 4 4 4 6 0 4 11 3 2 3 7 7 3 1 7 1 2 2 8 8 7 6 11 5 9 1 11 11 4 7 7 4 9 0 1 0 7 6 6 3 8 1 11 6
split_gain=114.029 50.5554 46.2228 20.4295 18.9061 18.6046 18.3772 25.8349 17.6345 26.4263 17.5787 17.2292 30.5636 16.3244 16.2814 25.0176 19.7204 20.7789 19.5285 15.9419 15.537 14.7803 15.2185 14.5394 18.9697 15.3025 14.2946 14.0359 13.7008 16.0801 15.5217 13.648 13.5918 15.208 12.6717 12.5044 12.7065 14.7701 12.3792 14.5978 20.7975 14.3113 15.1147 13.206 12.3118 12.1748 12.0094 11.9643 23.6227 11.8503 11.6067 13.4853 13.2227 12.6708 11.5614 16.9127 11.3323 11.3077 11.135 11.7157 14.3463 11.0994
threshold=52.579931060417728 21.500000000000004 -0.00067769330945632855 1.4868738610829206 66.38853196891921 15.500000000000002 18.500000000000004 43.411933398498498 0.9326672795072416 1868.4735000000003 -0.0010888758022589704 1873.4206425000004 684.7500000000083 21.500000000000004 1883.5078100000003 1843.8303100000003 0.53607121885897435 0.22520703052626598 0.29895833333333338 0.60868055555555556 0.0079861111111111122 0.0002154849595078501 1.4190973616975018 0.12951388888888893 1242.6499999999921 62.545362837505742 1.1289643708208128 49.941730871961077 1684.2873300000001 1692.0707000000004 57.294572996459742 0.5163033949121939 1854.74459 0.59397576845848776 0.67397425788571785 1.1711704226032216 1776.1214800000005 1746.7011450000002 1831.3234200000004 0.0015178844260480553 1046.4499999999932 0.001135900486006203 6.5000000000000009 0.5677675721568981 2060.0000000000027 1111.8499999999929 0.71076388888888908 1874.8647800000003 1869.3310900000001 0.98645833333333355 1.0000000180025095e-35 0.40843610300475081 0.31065363071493596 0.42785115844169092 1907.7452900000001 -0.00011414675667714701 0.00011033813473027011 70.721166145270644 1778.3382525000004 0.19988615200677812 705.70000000000175 -0.00051801196556633389
decision_type=2 2 2 2 2 2 2 2 2 2 2 2 2 2 2 2 2 2 2 2 2 2 2 2 2 2 2 2 2 2 2 2 2 2 2 2 2 2 2 2 2 2 2 2 2 2 2 2 2 2 2 2 2 2 2 2 2 2 2 2 2 2
left_child=2 3 10 4 8 14 34 61 44 21 31 -11 -13 20 15 38 17 -17 -19 -7 -9 22 50 56 25 26 -25 58 -23 30 -30 -1 -18 -34 -4 45 37 -37 39 40 -6 43 -43 -41 -2 -12 -22 48 57 -5 52 -52 -10 -53 -36 -56 -3 -20 -15 -60 -61 -8
right_child=1 23 6 49 5 19 7 13 9 11 35 12 -14 27 -16 16 32 18 47 -21 46 28 -24 24 -26 -27 -28 -29 29 -31 -32 -33 33 -35 54 36 -38 -39 -40 41 -42 42 -44 -45 -46 -47 -48 -49 -50 -51 51 53 -54 -55 55 -57 -58 -59 59 60 -62 -63
leaf_value=0.02647049205729329 -0.00079254440784174123 -0.012807093156848512 -0.018271017084032681 0.0055460513328796958 -0.005604372515236271 -0.01194540048208107 0.0051501762493245647 0.03522749554301377 -0.012731663494910679 -0.028635981302261609 0.012277953814311201 -0.026094082476823419 -0.0019791501826779538 -0.013332853274907575 -0.022809698386685145 0.038154706557917376 0.044387970539035745 -0.041654439387664929 0.026552691975627842 -0.03411941858191378 0.0039095186012635249 0.032402367241022474 0.032119696790638301 -0.0037548299223140354 0.023621464648502379 -0.042177056214873637 -0.041411542335154657 -0.02379957542080044 0.00092898474319809746 -0.0015427495107345924 -0.048193262498872416 0.011272015734678816 0.046552247742344718 0.00019458266000846241 0.0006265274388534025 -0.00326171852512574 -0.01405763854593256 0.040472103869073905 -0.021154371277270656 -0.0070460683079496128 0.016348740420139646 -0.040600225704731846 0.010394534343319831 -0.027553232070620045 0.025665401302111826 -0.0011213530032608084 -0.022134422150683987 0.029576451771317493 -0.057643580798961661 0.044930293384873421 -0.02207638039057078 0.022911999736180969 0.030887876446558389 -0.0092213704273806547 -0.027634719793071721 0.017623316529604176 -0.043132373385216881 -0.016311433480598821 0.044809113172067178 -0.037817169638692923 0.0083056899067660075 0.015453910773127761
leaf_weight=181.10592275857925 4179.9285536855459 43.473753958940506 90.909138023853302 46.732640504837036 491.35750941932201 346.18623194098473 463.18473081290722 38.153409421443939 33.241612538695335 151.00377322733402 511.57130351662636 193.81958103179932 407.94252426922321 126.40254747867584 127.99616980552673 25.85137003660202 46.139600589871407 37.343058004975319 31.89848330616951 105.83865083754063 979.38833577930927 29.118298143148422 22.347318634390831 122.17837512493134 28.846101745963097 55.348618760704994 31.750604763627052 104.06670098006725 28.683318451046944 3167.4044664502144 36.60296206176281 801.02515211701393 23.329113677144051 73.212934628129005 11259.99194522202 67.174255982041359 152.0371169000864 27.09204974770546 146.13757483661175 144.49331769347191 138.23636215925217 17.153722450137138 95.028247386217117 171.90347822010517 44.436580404639244 253.54725158214569 46.358821123838425 26.369378924369812 19.195824235677719 32.300866693258286 214.45474334061146 32.161593198776245 36.397228449583054 665.1870085299015 79.381016105413437 27.896861717104912 105.730901658535 29.722377821803093 17.810269355773926 19.671987071633339 117.93124255537987 599.85323360562325
leaf_count=722 16612 173 361 186 1952 1375 1843 152 132 599 2036 769 1621 502 508 103 184 148 127 420 3894 116 89 486 115 220 126 413 114 12587 145 3189 93 291 44760 267 604 108 580 574 550 68 378 682 177 1008 184 105 76 129 851 128 145 2642 315 111 420 118 71 78 469 2389
internal_value=-0.000567568 -0.0042932 0.0021877 -0.00369061 -0.00386717 -0.00815288 0.0011714 0.00504373 -0.00289464 -0.00489842 0.00930999 -0.0135355 -0.00974625 0.000702473 -0.00568463 -0.00424006 0.00835212 -0.0031317 -0.0105164 -0.0171373 0.00389779 -0.00337421 -0.00867974 -0.0220584 -0.0143902 -0.0196296 -0.0115222 -0.00810719 -0.00174148 -0.00204903 -0.0266116 0.0140746 0.0220653 0.0113968 0.000322185 0.00468333 -0.00511529 0.00930734 -0.00751342 -0.00562955 -0.000784252 -0.0127474 0.00259694 -0.0181879 -0.00051423 0.00783765 0.00273246 0.000331877 -0.00921023 0.0216423 -0.00960874 -0.0111114 0.0100664 -0.00773939 0.000470883 -0.0158657 -0.0342965 0.00587749 -0.00231244 0.0066508 0.00171189 0.0109644
internal_weight=27771 11806.5 15964.6 11419.2 11340.1 2097.39 13971 2512.82 9242.73 5018.36 1993.55 752.766 601.762 1449.78 1645.37 1517.37 313.062 170.38 144.529 452.025 1063.9 4265.6 1003.79 387.328 238.124 209.278 153.929 385.883 3261.81 3232.69 65.2863 982.131 142.682 96.542 11458.2 1011.42 246.303 94.2663 1204.31 1058.17 629.594 428.579 112.182 316.397 4224.37 765.119 1025.75 107.186 80.8167 79.0335 981.442 911.803 69.6388 697.349 11367.3 107.278 149.205 61.6209 281.816 155.413 137.603 1063.04
internal_count=110390 46914 63476 45374 45059 8332 55542 9995 36727 19938 7934 2989 2390 5763 6537 6029 1245 677 574 1795 4230 16949 3987 1540 947 832 612 1533 12962 12846 259 3911 568 384 45547 4023 979 375 4784 4204 2502 1702 446 1256 16789 3044 4078 426 321 315 3898 3621 277 2770 45186 426 593 245 1120 618 547 4232
is_linear=0
shrinkage=0.05


Tree=5
num_leaves=63
num_cat=0
split_feature=3 5 2 3 3 2 8 2 7 8 4 1 2 10 8 0 7 1 6 10 6 4 1 7 7 4 8 3 11 3 3 7 2 4 2 7 6 11 2 4 11 0 8 0 6 2 2 7 0 7 0 4 10 11 7 0 1 11 1 10 6 2
split_gain=102.924 41.7351 19.833 17.2223 16.0623 15.2276 26.0468 17.4807 16.0029 18.6006 21.9566 21.5445 17.7605 14.854 14.1977 15.6838 13.4487 15.2437 12.6367 19.4891 27.7766 23.4192 20.551 20.5419 15.9307 26.4541 14.0574 13.7009 13.1633 12.6334 12.1651 31.0396 17.1122 15.636 12.5821 12.4341 25.7931 12.4331 13.7506 22.1055 21.4569 21.0155 17.7097 15.5454 19.7221 17.3865 13.9527 13.867 23.5697 13.0027 13.606 12.6918 12.3681 12.0971 12.7987 11.9595 11.8996 11.5757 13.2333 11.0107 11.7243 11
threshold=52.579931060417728 -0.00067769330945632855 1.4471954751155962 66.38853196891921 41.413881484734667 0.9326672795072416 1868.4735000000003 1.0396594392193232 1735.6905400000003 1715.5484700000004 0.98298611111111123 0.93669683551561578 1.1441128730521515 2.5000000000000004 1903.7861925000002 0.43930156401719361 1684.2873300000001 0.56478459278671334 0.00031715980677127226 3.5000000000000004 0.00053937098844092379 0.87048611111111118 0.75346101930638165 1726.4600500000004 1701.5579800000003 0.44826388888888896 1708.2320200000001 59.584643366354193 598.64999999999793 55.640645703421477 35.798305862013692 1887.0654800000002 1.4471954751155962 0.0017361111111111112 0.67397425788571785 1909.0080800000003 -0.00011414675667714701 1242.6499999999921 1.1471407613599351 0.92118055555555556 607.15000000000157 1.0706536438780332 1716.1708775000004 0.78529171154100408 -0.0009057012829721266 1.0172424189122855 0.95515858219049177 1742.0277699999999 0.53660669737517563 1770.6326600000002 0.40843610300475081 0.74965277777777783 2.5000000000000004 752.44999999999902 1842.3318200000001 1.3293719576219043 1.3800790880201714 1305.4499999999964 0.45654124509898214 3.5000000000000004 -0.0026245454619694959 0.93910866598636533
decision_type=2 2 2 2 2 2 2 2 2 2 2 2 2 2 2 2 2 2 2 2 2 2 2 2 2 2 2 2 2 2 2 2 2 2 2 2 2 2 2 2 2 2 2 2 2 2 2 2 2 2 2 2 2 2 2 2 2 2 2 2 2 2
left_child=1 4 3 5 -1 18 7 -7 9 10 13 12 -11 16 55 -16 -9 -18 -2 24 -21 22 53 -24 25 -20 -26 -25 -28 -19 31 32 34 -32 -3 37 -37 38 39 41 52 43 -42 44 47 51 -43 -35 49 -49 -51 -45 -40 54 -22 -8 -6 -30 -59 60 -44 -46
right_child=2 30 -4 -5 56 6 14 8 -10 11 -12 -13 -14 -15 15 -17 17 29 19 20 21 -23 23 27 26 -27 28 -29 57 -31 33 -33 -34 35 -36 36 -38 -39 40 -41 42 46 59 45 61 -47 -48 48 -50 50 -52 -53 -54 -55 -56 -57 -58 58 -60 -61 -62 -63
leaf_value=0.011479145161297284 -0.0042274837641498621 -0.038777438544273436 0.016591530009324274 -0.0083483854162091694 0.0037349443859279264 -0.0071490589364357846 -0.017425125801036272 0.021787159542171808 0.0017090148678176012 -0.0013999369046320022 0.060711130104498204 -0.046982254982518484 -0.023305837043311739 0.017249221825989185 -0.02580122958130332 0.016749586897412686 -0.038865310763142868 0.029629289095241047 -0.00042360612739388145 0.02692400413347908 -0.023574137438520076 0.059460502669736549 0.019369300457616822 -0.013798900162180182 0.044416371107242746 -0.065945753096980517 0.020459155180337227 -0.054708604513515294 -0.0027205486365978935 -0.015817428766102936 0.024949210059969657 0.024554645259706659 0.042346709664871973 -0.018828318863644992 0.0025711442698544418 -0.052213587806472617 0.025139005808623952 -0.0038172578174625487 3.3632044119431415e-05 0.01741614151975859 0.019473735118964233 -0.034535710469951249 0.031260201140631251 0.028501958141856701 0.0036436003633541717 0.02495472275813335 -0.0023194119240457513 0.016926030229726219 0.0094027018194798185 0.008468785946460982 -0.028070563546497632 -0.00051319099310539421 -0.030031045720503847 0.019063704930416366 0.029762160832891089 0.024655280446052464 -0.021749173540029337 0.040875239133572869 0.0046285713733230146 -0.013240502495843191 -0.0015880261991553784 -0.00018330455665613616
leaf_weight=1483.1121852248907 1921.7547289133072 18.613025158643723 114.9142677038908 2129.7278028577566 458.93845328688622 2026.2202076911926 651.53375427424908 27.8565813601017 1727.7568963170052 239.79362790286541 15.787270978093146 43.413237899541855 150.66403757035732 79.163128644227982 31.231607288122177 70.631124809384346 47.416824549436569 21.597087219357491 40.751993328332901 164.75577223300934 42.337621405720711 16.292463943362236 26.636696219444275 48.602079421281815 17.556521400809288 24.767161920666695 71.864602863788605 35.353120416402817 1634.2278738617897 52.375911101698875 65.266026213765144 181.32703655958176 26.842320919036865 186.89800029993057 1593.0578573644161 30.80611988902092 16.575522527098656 1458.3859257698059 49.821749106049538 222.83463327586651 96.197542622685432 66.056740000844002 27.856851845979691 44.426267713308334 4263.190067127347 147.10533893108368 68.418334379792213 26.89239627122879 205.17525209486485 31.931614384055138 126.03607730567455 248.52480733394623 109.15467146039009 105.78477600216866 15.316771402955053 17.333907768130302 50.886310651898384 29.818654924631119 161.90426953136921 210.26628099381924 1093.021225258708 3355.8814480602741
leaf_count=5907 7637 74 458 8463 1825 8050 2587 111 6868 953 63 172 598 315 124 281 188 86 162 656 168 65 106 193 70 98 286 140 6494 208 260 723 107 742 6336 122 66 5796 198 887 383 262 111 177 16951 586 272 107 816 127 500 988 433 421 61 69 202 119 644 835 4344 13339
internal_value=-0.000539244 0.00207848 -0.00407906 -0.00428225 0.00884736 -0.00337646 -0.0052027 -0.00372741 -0.000845644 -0.00735507 0.00368336 -0.0135679 -0.00985266 -0.000258296 -0.0136863 0.0037033 -0.00954462 -0.0167346 -0.00119608 0.00119542 0.0105262 0.00122055 -0.0022421 -0.0188878 -0.000948175 -0.0251919 -0.00011887 -0.0310258 -0.000530862 -0.00254885 0.00111288 0.00492533 0.00275304 0.000541879 0.00209361 0.00041007 -0.0251533 0.000510687 0.00110728 0.00186434 -0.00318473 0.00146921 -0.00124402 0.00177463 0.00128308 0.0109297 -0.0181447 -0.00763013 -0.00226415 -0.0152131 -0.0206845 0.00388698 -0.0206091 0.00902132 -0.00940453 -0.0163346 0.00119134 -0.00135697 0.010266 -0.00274123 -0.000771659 0.00195801
internal_weight=27768.6 15963.5 11805.1 11690.2 1992.94 9560.5 5202.78 4432.04 2405.82 678.068 244.197 433.871 390.458 228.41 770.73 101.863 149.246 121.39 4357.73 2435.97 455.079 290.324 274.031 110.592 1980.89 65.5192 1915.37 83.9552 1897.82 73.973 13970.6 1819.84 1638.51 12150.7 1611.67 12085.5 47.3816 12038.1 10579.7 8993.37 1586.32 8770.54 1427.34 8636.06 8196 440.056 134.475 576.933 390.035 184.86 157.968 292.951 158.976 163.439 57.6544 668.868 509.825 1825.95 191.723 1331.14 1120.88 7619.07
internal_count=110390 63476 46914 46456 7934 37993 20673 17612 9562 2694 971 1723 1551 908 3061 405 593 482 17320 9683 1810 1154 1089 439 7873 260 7613 333 7543 294 55542 7240 6517 48302 6410 48042 188 47854 42058 35754 6304 34867 5673 34333 32582 1751 534 2292 1550 734 627 1165 631 650 229 2656 2027 7257 763 5290 4455 30290
is_linear=0
shrinkage=0.05


Tree=6
num_leaves=63
num_cat=0
split_feature=5 9 5 2 6 1 1 0 6 1 9 6 11 1 1 0 2 6 4 10 0 7 2 10 1 6 9 4 4 8 9 6 8 8 8 7 9 7 6 7 9 7 2 2 11 9 9 11 8 8 1 2 4 4 8 7 2 11 7 4 2 7
split_gain=73.4967 35.6156 28.9987 19.1423 20.8258 22.1174 19.1241 18.7611 16.5897 15.4415 15.4158 18.5171 21.1568 16.2064 16.914 14.9639 14.6189 19.9524 17.9963 25.5546 26.8482 15.6305 26.7033 24.1102 21.7011 19.2751 18.8473 16.9853 15.4816 14.6861 14.0729 13.6621 13.6557 19.3772 16.402 15.7145 13.1875 21.6155 14.4119 15.8869 16.458 13.9161 13.162 19.6275 13.079 13.0095 12.9961 17.4019 12.8177 12.7937 14.4461 12.7254 12.424 12.373 12.3519 12.316 12.1716 12.1119 12.9109 12.4775 15.8349 15.0378
threshold=-4.0175171269585246e-05 21.500000000000004 -0.0010330195654545402 0.86702664176701971 -0.0014411485571835245 0.41792758455474949 0.52509485291654168 0.43740315150934661 9.4203975611328889e-06 0.45815598127531071 10.500000000000002 9.4203975611328889e-06 820.19999999999993 0.37959674583234493 0.2993705435901543 0.13933599138344913 1.4471954751155962 0.0015178844260480553 0.88993055555555556 1.5000000000000002 0.72976416631313401 1868.8823300000004 0.96316640388675923 2.5000000000000004 0.33093064182245613 -8.0930599754558391e-06 18.500000000000004 0.39340277777777782 0.31145833333333339 1880.4198950000002 21.500000000000004 0.00011685110365355912 1717.6466450000003 1731.5180075000001 1732.8583300000003 1730.4132700000002 20.500000000000004 1831.3234200000004 0.00024577897518929254 1735.6905400000003 6.5000000000000009 1767.5207700000003 0.8202586636739585 0.9153196766752657 704.50000000000739 19.500000000000004 7.5000000000000009 708.49999999999238 1715.5484700000004 1897.8519025000003 0.58018848768087528 0.72926086757418385 0.69479166666666681 0.84895833333333337 1776.6043875000003 1776.3741700000003 1.1785710157486464 826.34999999999093 1867.8236100000001 0.98298611111111123 1.1572334255119407 1730.4132700000002
decision_type=2 2 2 2 2 2 2 2 2 2 2 2 2 2 2 2 2 2 2 2 2 2 2 2 2 2 2 2 2 2 2 2 2 2 2 2 2 2 2 2 2 2 2 2 2 2 2 2 2 2 2 2 2 2 2 2 2 2 2 2 2 2
left_child=2 15 6 7 5 -5 9 32 -3 -1 -6 13 -13 14 -12 -2 17 21 19 20 -19 -17 24 -24 -23 56 28 -28 51 -20 45 42 48 35 -35 -34 38 41 39 40 -36 -38 44 -44 -30 -16 -21 52 -4 -33 -51 -26 -48 -49 -18 -43 -25 -14 59 60 -59 -62
right_child=1 8 3 4 10 -7 -8 -9 -10 -11 11 12 57 -15 30 16 54 18 29 46 -22 22 23 25 26 -27 27 -29 31 -31 -32 49 33 34 36 -37 37 -39 -40 -41 -42 55 43 -45 -46 -47 47 53 -50 50 -52 -53 -54 -55 -56 -57 -58 58 -60 -61 61 -63
leaf_value=0.011916815307369183 -0.028344380861639908 -0.0053702215014550516 -0.0010049280893145538 0.03649435427832784 -0.0024665115063424886 0.0054746052265682091 0.0079389937174418855 -0.00056750518029371458 -0.022234070564655425 0.047876041626188436 0.0012592462107410439 0.0057932587903693671 -0.047916402027374599 0.0024096363575915529 0.025731231733563238 -0.0013340127722188547 -0.0093795668883530012 0.0098467443005785613 0.0031751536087243348 -0.0087954073734642126 -0.019261945927366533 -0.01169344115446775 -0.005320476479603241 -0.00089971927664917882 -0.042575368550603253 -0.030441292075732585 0.029877597320627815 -0.021507018975031426 0.027645880407240295 -0.033746258724090282 0.041395269700348965 0.0025126714930813004 0.016298873299312958 -0.026466075638271698 0.071849359003654967 0.05087624622958993 0.0041417852545827822 0.0029107843950659834 0.017803312649887281 0.0024338143171556532 0.00074255636610866152 0.074932270562296011 0.036249820811306968 0.0024308991669703336 -0.021326221337860177 0.0033019940547381202 0.034374853289352504 -0.038397595261854045 -0.044099168704542085 -0.035698153022483241 0.018296723080738892 -0.0066597222533239164 -0.015563587464627071 -0.011260160408972646 0.020827116702336057 0.031809572014960104 -0.02924850883766026 -0.0026150998413649591 -0.026149840761598309 0.031988545026335365 -0.055833168111299694 -0.012304819756640172
leaf_weight=61.18808014690876 56.166861310601234 254.06101633608341 98.100887596607208 62.175618529319763 4467.618169426918 758.36218501627445 757.6399981379509 1019.501310005784 342.35209538042545 58.299543753266335 198.9257483035326 489.84233079850674 17.918552562594414 1449.8154433071613 131.77723941206932 11049.568620637059 47.26838643848896 190.77728381752968 340.49748942255974 162.07772259414196 135.46330247819424 339.0727507174015 575.52076132595539 133.07853655517101 29.772178202867508 238.39322230219841 100.43683108687401 19.148361712694168 19.839421927928925 29.246838748455048 61.167589977383614 280.72781696915627 146.44023582339287 35.528683945536613 17.024821355938911 42.365396067500114 36.677419096231461 130.13984051346779 209.33333507180214 1064.4973466992378 15.588708460330961 20.240990832448006 92.870050206780434 79.740069523453712 43.587935641407967 126.91658997535706 15.811973258852957 194.10265032947063 20.937545448541641 48.922947987914085 16.587628766894341 143.71331682801247 58.658497199416161 53.601807117462158 119.15281547605991 90.986868932843208 52.919852122664452 636.26502697169781 75.090857550501823 22.828412890434265 27.009036853909492 74.771259441971779
leaf_count=244 223 1010 390 248 17757 3018 3017 4053 1363 233 792 1948 71 5766 525 43917 188 759 1354 644 538 1347 2287 529 118 946 400 76 79 116 244 1116 583 141 68 169 146 518 833 4233 62 81 370 317 173 505 63 770 83 194 66 571 233 213 475 363 210 2529 298 91 107 297
internal_value=-0.000748771 -0.00307302 0.00210639 0.00144067 0.000248961 0.0078251 0.010871 0.00491813 -0.0150504 0.0294618 -0.000550082 0.00203477 -0.00249018 0.0051234 0.0127074 -0.00258597 -0.00248695 -0.00265671 -0.00888649 -0.0130567 -0.00223992 -0.00210238 -0.00593656 -0.0119877 -0.000954283 -0.0210291 0.00320562 0.0216497 0.000287181 0.000254664 0.0198271 0.00419336 0.00781906 0.00889859 0.00713189 0.0240576 0.00788525 0.0177729 0.00578089 0.00348696 0.0378615 0.0308499 0.0134694 0.0206266 -0.00600825 0.0147273 -0.0203439 -0.0261536 -0.00858473 -0.00213027 -0.0220264 -0.0128233 -0.00496039 -0.0325252 0.0122476 0.0396569 -0.00896545 -0.00724209 -0.00637026 -0.0044182 -0.0055443 -0.0238558
internal_weight=27688.1 15263.1 12425 11547.8 8600.48 820.538 877.128 2947.36 596.413 119.488 7779.95 3312.33 1343.73 1968.6 518.787 14666.7 14610.6 14444.1 1180.24 810.493 326.241 13263.9 2214.33 999.912 1214.42 424.392 875.347 119.585 755.761 369.744 319.861 582.276 1927.86 1808.82 1620.02 188.806 1584.49 278.045 1306.44 1097.11 32.6135 147.905 236.037 172.61 63.4274 258.694 484.253 322.175 119.038 346.238 65.5106 173.485 74.4705 247.704 166.421 111.228 185.998 853.883 835.965 760.874 738.045 101.78
internal_count=110078 60665 49413 45919 34196 3266 3494 11723 2373 477 30930 13173 5341 7832 2066 58292 58069 57406 4690 3220 1297 52716 8799 3972 4827 1685 3480 476 3004 1470 1274 2315 7670 7197 6445 752 6304 1108 5196 4363 130 590 939 687 252 1030 1923 1279 473 1376 260 689 296 983 663 444 739 3393 3322 3024 2933 404
is_linear=0
shrinkage=0.05


end of trees

feature_importances:
SMA50=55
ATR50=48
VolRank=45
ATR_ratio=44
HOUR=43
AsianRangePips=43
RSI14=38
SMA200=36
Mom_20=30
ATR14=21
DOW=17
Mom_5=14

parameters:
[boosting: gbdt]
[objective: binary]
[metric: binary_logloss,auc]
[tree_learner: serial]
[device_type: cpu]
[data_sample_strategy: bagging]
[data: ]
[valid: ]
[num_iterations: 2000]
[learning_rate: 0.05]
[num_leaves: 63]
[num_threads: 0]
[seed: 51]
[deterministic: 0]
[force_col_wise: 0]
[force_row_wise: 0]
[histogram_pool_size: -1]
[max_depth: -1]
[min_data_in_leaf: 60]
[min_sum_hessian_in_leaf: 0.001]
[bagging_fraction: 0.8]
[pos_bagging_fraction: 1]
[neg_bagging_fraction: 1]
[bagging_freq: 2]
[bagging_seed: 31600]
[bagging_by_query: 0]
[feature_fraction: 0.9]
[feature_fraction_bynode: 1]
[feature_fraction_seed: 17250]
[extra_trees: 0]
[extra_seed: 15452]
[early_stopping_round: 0]
[early_stopping_min_delta: 0]
[first_metric_only: 0]
[max_delta_step: 0]
[lambda_l1: 0]
[lambda_l2: 0]
[linear_lambda: 0]
[min_gain_to_split: 0]
[drop_rate: 0.1]
[max_drop: 50]
[skip_drop: 0.5]
[xgboost_dart_mode: 0]
[uniform_drop: 0]
[drop_seed: 14807]
[top_rate: 0.2]
[other_rate: 0.1]
[min_data_per_group: 100]
[max_cat_threshold: 32]
[cat_l2: 10]
[cat_smooth: 10]
[max_cat_to_onehot: 4]
[top_k: 20]
[monotone_constraints: ]
[monotone_constraints_method: basic]
[monotone_penalty: 0]
[feature_contri: ]
[forcedsplits_filename: ]
[refit_decay_rate: 0.9]
[cegb_tradeoff: 1]
[cegb_penalty_split: 0]
[cegb_penalty_feature_lazy: ]
[cegb_penalty_feature_coupled: ]
[path_smooth: 0]
[interaction_constraints: ]
[verbosity: -1]
[saved_feature_importance_type: 0]
[use_quantized_grad: 0]
[num_grad_quant_bins: 4]
[quant_train_renew_leaf: 0]
[stochastic_rounding: 1]
[linear_tree: 0]
[max_bin: 255]
[max_bin_by_feature: ]
[min_data_in_bin: 3]
[bin_construct_sample_cnt: 200000]
[data_random_seed: 205]
[is_enable_sparse: 1]
[enable_bundle: 1]
[use_missing: 1]
[zero_as_missing: 0]
[feature_pre_filter: 1]
[pre_partition: 0]
[two_round: 0]
[header: 0]
[label_column: ]
[weight_column: ]
[group_column: ]
[ignore_column: ]
[categorical_feature: ]
[forcedbins_filename: ]
[precise_float_parser: 0]
[parser_config_file: ]
[objective_seed: 10610]
[num_class: 1]
[is_unbalance: 1]
[scale_pos_weight: 1]
[sigmoid: 1]
[boost_from_average: 1]
[reg_sqrt: 0]
[alpha: 0.9]
[fair_c: 1]
[poisson_max_delta_step: 0.7]
[tweedie_variance_power: 1.5]
[lambdarank_truncation_level: 30]
[lambdarank_norm: 1]
[label_gain: ]
[lambdarank_position_bias_regularization: 0]
[eval_at: ]
[multi_error_top_k: 1]
[auc_mu_weights: ]
[num_machines: 1]
[local_listen_port: 12400]
[time_out: 120]
[machine_list_filename: ]
[machines: ]
[gpu_platform_id: -1]
[gpu_device_id: -1]
[gpu_use_dp: 0]
[num_gpu: 1]

end of parameters

pandas_categorical:[]
