tree
version=v4
num_class=1
num_tree_per_iteration=1
label_index=0
max_feature_idx=11
objective=binary sigmoid:1
feature_names=ATR14 ATR50 ATR_ratio RSI14 VolRank Mom_5 Mom_20 SMA50 SMA200 HOUR DOW AsianRangePips
feature_infos=[0.050828657036620047:5.239860574447758] [0.076263979352827374:4.093224013039503] [0.45674159556544425:2.3252069529729207] [5.7519967848776314:95.266985396267302] [0.00069444444444444447:1] [-0.0095488125038157845:0.0071288070009356552] [-0.014178589793267471:0.012412863965607146] [1814.9105199999999:2121.0446399999996] [1817.277605:2099.5403349999997] [0:23] [0:4] [219.6999999999889:7353.1000000000404]
tree_sizes=6920 6923

Tree=0
num_leaves=63
num_cat=0
split_feature=3 4 11 8 9 9 11 3 8 11 7 11 4 4 2 7 7 9 6 3 11 8 10 1 0 8 6 11 6 8 1 7 0 11 7 8 0 2 6 2 3 11 2 9 7 1 6 1 1 0 9 1 4 1 8 7 6 0 11 3 2 8
split_gain=99.9733 35.2491 28.5148 28.8418 27.1207 28.9329 31.0231 34.9386 29.2679 27.2291 29.8256 26.1693 24.4285 22.7322 23.1989 21.3971 21.5061 21.4133 28.3726 21.3361 38.4979 25.6009 20.3692 29.0058 20.0976 19.7514 21.6727 19.1001 18.4333 17.9156 17.4832 29.2211 18.7092 16.8228 16.5438 21.9214 16.3551 16.0783 15.7588 15.2167 15.1732 14.7721 14.6685 14.4664 14.3728 14.2796 24.7217 19.0235 14.0184 32.3636 20.4453 33.1615 19.5811 19.0185 23.4769 18.4827 16.3773 14.4124 19.9449 13.8382 13.5483 13.4123
threshold=53.117202711708423 0.99479166666666685 692.84999999999866 1980.2943725000002 22.500000000000004 1.0000000180025095e-35 1244.5000000000052 33.327220225275831 1977.5037275000002 483.34999999999587 1978.2479500000002 610.84999999999366 0.2322916666666667 0.047569444444444449 0.95641802534105469 1821.1079000000002 2036.3627100000003 22.500000000000004 0.00078781101900771155 43.701847508232838 1421.0000000000039 1973.5237500000001 1.0000000180025095e-35 0.48255269428674413 0.39520848096972988 1926.7714600000002 -0.00065534929397564879 299.85000000001497 3.5488229468971795e-05 1939.9469875 0.16175369667241454 1921.4729700000003 0.16244029581643918 448.14999999999833 1969.8684600000001 1968.3704375000002 0.094485475443591024 1.279353661526889 0.00029240609790115451 0.67455796235153065 45.107103727682507 843.00000000000648 0.84061133373843011 11.500000000000002 1925.13318 0.32584748903077659 0.00012872117711715261 0.64710038916214441 0.29226720764795899 0.31751986179303288 1.5000000000000002 0.54093545175124913 0.75173611111111127 0.32149717725486993 2041.5621100000001 2034.1893100000002 0.00019957729133623928 0.25448813994612379 741.50000000000784 38.118069502290929 0.76692659096062432 2026.4429825000002
decision_type=2 2 2 2 2 2 2 2 2 2 2 2 2 2 2 2 2 2 2 2 2 2 2 2 2 2 2 2 2 2 2 2 2 2 2 2 2 2 2 2 2 2 2 2 2 2 2 2 2 2 2 2 2 2 2 2 2 2 2 2 2 2
left_child=1 4 15 36 5 6 7 -1 19 45 43 12 -9 -12 39 -2 30 -18 -19 27 21 34 23 24 -16 28 -27 59 -13 -28 31 32 -17 -3 35 42 -4 -29 -33 -15 -25 -42 -21 -11 -39 46 -10 -47 49 57 51 53 56 -50 -55 -53 -52 58 -5 -7 -8 -60
right_child=2 33 3 48 -6 8 60 11 9 10 13 25 -14 14 22 16 17 18 -20 20 -22 -23 -24 40 -26 26 29 37 -30 -31 -32 38 -34 -35 -36 -37 -38 44 -40 -41 41 -43 -44 -45 -46 47 -48 -49 50 -51 52 55 -54 54 -56 -57 -58 -59 61 -61 -62 -63
leaf_value=0.047631722927923975 0.017414129578122696 -0.0057722784508525641 -0.047150843924022232 -0.042359627743571354 0.011477982886358064 0.041166906515780838 -0.065088490493241766 -0.012257117043681764 0.0061644154223992036 0.0091608019801342408 0.01417538200860043 0.052906736199855878 0.02187189297952093 -0.036920851487454109 -0.0099243743756705811 -0.0136932442492789 -0.0024825585188829481 0.07379163646403003 -0.014230539013240026 -0.010948021466726285 0.021063058311725131 -0.029467638932396924 0.0041597597637754377 -0.0084306470556872841 0.020605213678339493 -0.036469876989535244 -0.032544043482479502 -0.002164483772890525 0.0058244159261133192 0.02173973200151116 -0.0097307598639326601 -0.029487476161331766 0.036614391723892623 0.038925250377995643 0.013209190379345988 -0.041966940335454575 -0.00031691553430891924 0.002232009842230008 -0.069322143021979629 -0.0046078424587094801 0.0085686577107437368 -0.039553310505507283 -0.0042960231349853358 0.043389005649737258 0.026537804223678164 0.022102461606000007 -0.045456003879423001 -0.00044565679700265095 -0.037512766199998188 -0.064948134024518919 -0.0045499893789479398 -0.0067319732579481633 -0.0024563916230834547 0.010094678019730192 0.058417069571836761 -0.078214832203443746 -0.016961203913101519 0.023972800700327177 0.014598793627822081 0.0055921988803324142 -0.011072930738355656 -0.014511942633366238
leaf_weight=63.164617598056793 74.405042707920074 28.297622621059418 18.768159449100494 25.526813298463821 434.11003363132477 44.110028237104416 15.760361820459364 191.80128329992294 213.15270537137985 71.388571113348007 244.74629032611847 63.922421932220459 72.155916810035706 37.042392164468765 95.654111981391907 165.75625616312027 434.00507864356041 21.816724717617035 15.774240165948866 1093.7428149282932 131.53238013386726 116.89884427189827 1999.4582444131374 212.09719496965408 123.5141886472702 22.525954842567444 17.020766854286194 4336.8190114498138 30.808023929595947 142.05663594603539 4888.6426415741444 124.40836328268051 20.80024716258049 82.201859027147293 111.97519007325172 42.544977962970734 2754.3951987922192 182.58253714442253 31.018122941255569 2217.7769857048988 19.28724068403244 92.101211220026016 3420.5938828587532 54.387754380702972 91.204434394836426 325.70509225130081 26.025944411754608 131.23293927311897 16.018167644739151 17.011225491762161 349.59572875499725 20.7846340239048 492.60725709795952 126.99856507778168 31.33751392364502 16.006891489028931 1108.9016928374767 80.426709741353989 118.7416504919529 71.885100036859512 44.070127993822098 59.340900063514709
leaf_count=252 297 113 75 102 1733 176 63 766 851 285 977 255 288 148 382 662 1733 87 63 4368 525 467 7983 847 493 90 68 17317 123 567 19523 497 83 328 447 170 10998 729 124 8856 77 368 13659 217 364 1300 104 524 64 68 1396 83 1967 507 125 64 4429 321 474 287 176 237
internal_value=-0.00310464 -0.000667698 -0.00680337 -0.00413118 -0.000855002 -0.00118609 0.00904027 0.0124451 -0.00162349 0.00116225 -8.83197e-05 0.00833153 -0.00292754 -0.000688302 -0.00144667 -0.0092257 -0.00957331 0.000653044 0.036855 -0.00331724 -0.005623 -0.00635644 0.0018281 -0.00676311 0.00728084 0.0190863 0.00943171 -0.000918464 0.0375947 0.0159315 -0.0104953 -0.0214247 -0.00808416 0.0274787 -0.00577779 -0.00624435 -0.000633877 -0.00142261 -0.0374372 -0.00513868 -0.0162782 -0.0312208 -0.00590768 0.0239616 0.0103288 0.0104456 0.0005474 0.0156266 -0.00806841 0.00204032 -0.00947584 0.00530378 -0.0110753 0.0144061 0.0196585 -0.037832 -0.0139863 0.00605233 -0.00102634 0.0191204 -0.0253015 0.00489848
internal_weight=27728.4 16715.4 11013.1 5236.46 16604.9 16170.7 663.286 603.456 15507.5 5863.57 5167.45 540.291 263.957 5041.68 4796.93 5776.63 5702.22 471.596 37.591 9643.89 4917.29 4785.76 2542.11 542.654 219.168 276.334 181.603 4726.6 94.7304 159.077 5230.63 341.983 186.557 110.499 4668.86 4556.88 2773.16 4610.61 155.426 2254.82 323.486 111.388 4514.34 125.776 273.787 696.117 239.179 456.938 2463.3 301.047 2162.25 211.146 1951.1 174.354 158.336 36.7915 1458.5 284.036 203.609 115.995 59.8305 178.083
internal_count=110722 66743 43979 20910 66302 64569 2648 2409 61921 23412 20633 2157 1054 20131 19154 23069 22772 1883 150 38509 19636 19111 10150 2167 875 1103 725 18873 378 635 20889 1366 745 441 18644 18197 11073 18410 621 9004 1292 445 18027 502 1093 2779 955 1824 9837 1202 8635 843 7792 696 632 147 5825 1134 813 463 239 711
is_linear=0
shrinkage=1


Tree=1
num_leaves=63
num_cat=0
split_feature=3 4 5 8 10 11 8 9 9 8 5 1 1 8 3 4 9 6 4 8 5 5 4 8 2 11 0 11 4 11 3 8 8 0 1 0 11 6 1 11 0 3 8 11 3 8 0 1 8 9 2 6 11 11 0 9 2 4 4 10 4 2
split_gain=90.2293 31.8232 26.3832 28.3482 30.1826 25.7355 26.0312 22.265 22.0763 21.6215 20.6502 19.3906 19.2654 26.0207 18.7925 18.3786 18.2627 17.1157 17.0386 16.8481 21.4821 16.381 16.3082 15.9148 24.0898 16.2146 19.9605 16.7514 21.1043 17.8174 19.1662 18.8773 17.9873 18.3953 15.907 15.699 15.1921 15.1122 14.911 14.769 14.7679 14.6624 15.1021 14.7861 14.6316 14.3293 20.8727 14.3014 14.2784 16.9901 18.366 15.9599 20.0652 23.8873 17.881 28.919 19.1338 18.7666 17.7035 14.5152 13.8705 13.8392
threshold=53.117202711708423 0.99479166666666685 -0.00026678174314936903 2005.8634500000001 2.5000000000000004 692.84999999999866 1980.2943725000002 9.5000000000000018 2.5000000000000004 1848.3440275000003 0.00098288334510998631 0.55027268007461339 0.16175369667241454 1921.9344775000002 32.995416827806366 0.61979166666666685 1.5000000000000002 -0.00026624882446280024 0.018402777777777778 1831.2300000000002 6.2944216815075129e-05 -0.00014014907710091504 0.13576388888888891 2001.5043125 0.97699225901227982 1284.9999999999911 0.89177290308162405 730.8499999999982 0.047569444444444449 881.99999999999375 43.701847508232838 1984.6812800000002 1923.3254625000002 0.17827722286087719 0.31566708175196107 0.16244029581643918 448.14999999999833 0.00029240609790115451 0.43494177779054793 646.85000000000639 0.094485475443591024 44.860359286372109 1999.2078150000004 441.9999999999846 44.860359286372109 1820.5023400000002 0.30669145539797288 0.49280221383861061 2003.0731975000001 22.500000000000004 1.1501885361491999 0.00027938899930846089 392.49999999999551 516.54999999999529 0.20313501897895905 3.5000000000000004 0.93907483385191204 0.15312500000000004 0.30729166666666674 1.5000000000000002 0.2322916666666667 0.81864459756485009
decision_type=2 2 2 2 2 2 2 2 2 2 2 2 2 2 2 2 2 2 2 2 2 2 2 2 2 2 2 2 2 2 2 2 2 2 2 2 2 2 2 2 2 2 2 2 2 2 2 2 2 2 2 2 2 2 2 2 2 2 2 2 2 2
left_child=1 2 7 4 19 12 40 9 15 39 18 -11 13 35 -13 17 -17 -6 -5 20 -4 -19 -9 25 -25 26 27 -21 -29 30 34 61 33 -31 -30 -2 -3 -15 -24 -1 -7 43 -43 -10 -16 46 -14 -27 51 -50 -51 -47 58 -54 55 -55 57 -57 -53 -56 -34 -32
right_child=5 36 3 10 8 6 -8 22 41 11 -12 14 45 37 44 16 -18 21 -20 23 -22 -23 38 24 -26 47 -28 28 29 32 31 -33 60 -35 -36 -37 -38 -39 -40 -41 -42 42 -44 -45 -46 48 -48 -49 49 50 -52 52 53 54 59 56 -58 -59 -60 -61 -62 -63
leaf_value=0.016372756933959585 -0.0096848651190631907 -0.0021932060720474471 -0.025323316426273321 0.03204034863532202 0.032463609991940916 -0.041526203090400615 -0.0043748686136979506 0.025462368044074347 -0.0077814158513171781 0.013824300076225661 -0.051144414174512778 0.02302583077641605 -0.0097450191582857393 -0.0244301555299693 -0.023432690977004983 -0.048649993341507602 0.0078112620379601379 -0.012380026521211849 0.0059885162531570372 -0.000545980341641172 0.0072409722990717258 0.017063517323873036 -0.0033600188982038839 -0.0018909326339345168 -0.053864990320655261 0.016857911805055675 0.018381994428033177 0.012665931031007044 -0.020357308695212559 0.054918060218777758 -0.059170166768628366 0.012507854191432057 -0.024493542674958877 0.0014247922518738415 0.0077128083738188568 0.035678423880810682 0.040284831454638681 -0.063729839299162178 0.0047474667373658911 -0.023158137832564346 0.0029893891523239818 -0.0013386793077610182 0.037367838518298446 0.0078184373141599716 0.011128849100061164 -0.0022315928598199953 0.057387728927849282 -0.0030248326428327196 -0.00084196393180663862 0.04625196904257764 -0.018422762436258275 -0.025990665577010699 -0.016069570522423079 0.045135045151363934 0.0038706317563823658 -0.021473097270452851 -0.049384634086986789 0.03449886161420717 0.0033874028827445934 -0.010415221320363703 -0.0058052125017374352 -0.024646689489674092
leaf_weight=34.067669436335564 166.24953529238701 28.297472715377808 162.20729956030846 64.64527602493763 132.29224023222923 18.757788598537445 2463.1121727973223 78.669098496437073 172.52290508151054 1390.9353058189154 15.511524096131323 50.601359978318214 23.78588630259037 123.88180768489838 96.622642859816551 21.517471417784691 42.828648239374161 60.58743180334568 2154.6371518671513 3757.6170013695955 73.635350525379181 214.41573758423328 802.07759636640549 57.846959576010704 36.2754917293787 224.44120618700981 118.73787686228752 128.49128910899162 90.12340359389782 16.793071568012238 33.522453144192696 30.308842584490776 131.41287203133106 373.89380712807178 114.71167720854282 21.543797791004181 82.170978277921677 30.480714321136475 1935.965609639883 77.100517690181732 2754.4033929407597 1794.2644671201706 25.559434458613396 1270.6051087528467 44.831556841731071 1692.0555666834116 22.560188725590706 151.482476785779 771.81067475676537 39.075179904699326 15.265389695763586 57.321505352854729 1027.9582667648792 43.35739928483963 218.38516321778297 28.287496313452721 19.01603065431118 31.822976142168045 486.60415260493755 956.95078921318054 406.1305278390646 216.52216538786888
leaf_count=136 664 113 648 258 528 75 9837 314 689 5553 62 202 95 495 386 86 171 242 8603 15005 294 856 3203 231 145 896 474 513 360 67 134 121 525 1493 458 86 328 122 7730 308 10998 7165 102 5073 179 6757 90 605 3082 156 61 229 4106 173 872 113 76 127 1943 3822 1622 865
internal_value=0.00034107 0.00265624 0.00247829 0.00126105 0.000108491 -0.00317286 -0.000634182 0.00574167 0.00365123 0.0102711 0.00634556 0.011768 -0.00547415 -0.0169818 -0.00312444 0.0137626 -0.0110695 0.0176857 0.00674738 -0.00205192 -0.015156 0.0105767 0.00301736 -0.00152706 -0.0219221 -0.00119576 -0.00189246 -0.00234672 -0.0067351 -0.00849881 -0.0162636 -0.024758 -0.00444014 0.00372412 -0.00463749 -0.00448075 0.0294037 -0.0321903 0.00237247 -0.0110438 0.00268828 0.00218968 -0.000795046 0.00595351 -0.012479 -0.00474959 0.0229336 0.00884595 -0.00498772 0.00106062 0.0280835 -0.0060831 -0.00835405 -0.0103759 -0.00586622 0.0123141 -0.0056702 0.00815892 0.000291401 -0.00776082 -0.0103739 -0.0292751
internal_weight=27727.6 16714.9 16604.4 12093.5 9858.75 11012.7 5236.27 4510.87 3734.59 1694.16 2234.79 1582.99 5776.41 342.156 192.056 471.642 64.3461 407.295 2219.28 6124.15 235.843 275.003 2816.71 5888.31 94.1225 5794.19 5418.26 5299.53 1541.91 1413.42 485.189 280.353 928.23 390.687 204.835 187.793 110.468 154.363 2738.04 111.168 2773.16 3262.95 1819.82 1443.13 141.454 5434.26 46.3461 375.924 5387.91 826.151 54.3406 4561.76 2869.7 2325.78 1297.82 122.484 79.1265 60.1105 543.926 1175.34 537.543 250.045
internal_count=110722 66743 66302 48291 39368 43979 20910 18011 14912 6764 8923 6320 23069 1367 767 1883 257 1626 8861 24456 942 1098 11247 23514 376 23138 21637 21163 6158 5645 1938 1120 3707 1560 818 750 441 617 10933 444 11073 13029 7267 5762 565 21702 185 1501 21517 3299 217 18218 11461 9289 5183 489 316 240 2172 4694 2147 999
is_linear=0
shrinkage=0.05


end of trees

feature_importances:
SMA200=19
AsianRangePips=18
ATR50=12
VolRank=12
ATR14=11
RSI14=10
HOUR=10
ATR_ratio=9
Mom_20=9
SMA50=7
Mom_5=4
DOW=3

parameters:
[boosting: gbdt]
[objective: binary]
[metric: binary_logloss,auc]
[tree_learner: serial]
[device_type: cpu]
[data_sample_strategy: bagging]
[data: ]
[valid: ]
[num_iterations: 2000]
[learning_rate: 0.05]
[num_leaves: 63]
[num_threads: 0]
[seed: 73]
[deterministic: 0]
[force_col_wise: 0]
[force_row_wise: 0]
[histogram_pool_size: -1]
[max_depth: -1]
[min_data_in_leaf: 60]
[min_sum_hessian_in_leaf: 0.001]
[bagging_fraction: 0.8]
[pos_bagging_fraction: 1]
[neg_bagging_fraction: 1]
[bagging_freq: 2]
[bagging_seed: 5921]
[bagging_by_query: 0]
[feature_fraction: 0.9]
[feature_fraction_bynode: 1]
[feature_fraction_seed: 22355]
[extra_trees: 0]
[extra_seed: 3536]
[early_stopping_round: 0]
[early_stopping_min_delta: 0]
[first_metric_only: 0]
[max_delta_step: 0]
[lambda_l1: 0]
[lambda_l2: 0]
[linear_lambda: 0]
[min_gain_to_split: 0]
[drop_rate: 0.1]
[max_drop: 50]
[skip_drop: 0.5]
[xgboost_dart_mode: 0]
[uniform_drop: 0]
[drop_seed: 14602]
[top_rate: 0.2]
[other_rate: 0.1]
[min_data_per_group: 100]
[max_cat_threshold: 32]
[cat_l2: 10]
[cat_smooth: 10]
[max_cat_to_onehot: 4]
[top_k: 20]
[monotone_constraints: ]
[monotone_constraints_method: basic]
[monotone_penalty: 0]
[feature_contri: ]
[forcedsplits_filename: ]
[refit_decay_rate: 0.9]
[cegb_tradeoff: 1]
[cegb_penalty_split: 0]
[cegb_penalty_feature_lazy: ]
[cegb_penalty_feature_coupled: ]
[path_smooth: 0]
[interaction_constraints: ]
[verbosity: -1]
[saved_feature_importance_type: 0]
[use_quantized_grad: 0]
[num_grad_quant_bins: 4]
[quant_train_renew_leaf: 0]
[stochastic_rounding: 1]
[linear_tree: 0]
[max_bin: 255]
[max_bin_by_feature: ]
[min_data_in_bin: 3]
[bin_construct_sample_cnt: 200000]
[data_random_seed: 277]
[is_enable_sparse: 1]
[enable_bundle: 1]
[use_missing: 1]
[zero_as_missing: 0]
[feature_pre_filter: 1]
[pre_partition: 0]
[two_round: 0]
[header: 0]
[label_column: ]
[weight_column: ]
[group_column: ]
[ignore_column: ]
[categorical_feature: ]
[forcedbins_filename: ]
[precise_float_parser: 0]
[parser_config_file: ]
[objective_seed: 8155]
[num_class: 1]
[is_unbalance: 1]
[scale_pos_weight: 1]
[sigmoid: 1]
[boost_from_average: 1]
[reg_sqrt: 0]
[alpha: 0.9]
[fair_c: 1]
[poisson_max_delta_step: 0.7]
[tweedie_variance_power: 1.5]
[lambdarank_truncation_level: 30]
[lambdarank_norm: 1]
[label_gain: ]
[lambdarank_position_bias_regularization: 0]
[eval_at: ]
[multi_error_top_k: 1]
[auc_mu_weights: ]
[num_machines: 1]
[local_listen_port: 12400]
[time_out: 120]
[machine_list_filename: ]
[machines: ]
[gpu_platform_id: -1]
[gpu_device_id: -1]
[gpu_use_dp: 0]
[num_gpu: 1]

end of parameters

pandas_categorical:[]
