tree
version=v4
num_class=1
num_tree_per_iteration=1
label_index=0
max_feature_idx=11
objective=binary sigmoid:1
feature_names=ATR14 ATR50 ATR_ratio RSI14 VolRank Mom_5 Mom_20 SMA50 SMA200 HOUR DOW AsianRangePips
feature_infos=[0.068680815516024132:5.0285432789635216] [0.17412615726535088:3.8007071095097453] [0.39443134908748995:2.4892578860193804] [4.1430375485144628:92.0335377198911] [0.00069444444444444447:1] [-0.013554383310096285:0.010011645331256425] [-0.022546496696294049:0.017837580069339776] [1770.6187199999999:2070.0548800000001] [1773.515985:2068.9178999999999] [0:23] [0:4] [587.99999999998818:6711.0000000000127]
tree_sizes=6770 6922 6879 6910 6868 6930 6909 6888 6909 6885 6874 6901 6876 6895 6901 6895 6906 6898 6892 6890 6879 6921 6812 6846 6872 6907

Tree=0
num_leaves=63
num_cat=0
split_feature=3 3 3 4 8 9 8 4 9 9 4 2 7 3 8 4 1 5 7 2 1 2 8 7 5 6 9 2 2 3 0 8 0 1 8 0 0 1 9 10 7 2 7 7 7 2 9 5 3 0 2 5 0 9 4 1 6 7 7 3 1 1
split_gain=186.78 93.7369 37.5929 28.8678 24.7189 21.9486 21.7156 20.3544 26.2546 22.7418 20.325 20.2908 24.2766 18.6952 18.4923 21.994 18.0298 15.3663 14.9697 22.4484 14.7308 14.1532 13.8464 15.8781 13.7701 13.5923 13.567 13.516 12.9272 12.7318 12.6458 14.2532 12.449 11.9203 11.77 20.1547 11.6721 13.0572 11.6337 13.5228 25.3264 25.3895 15.0941 24.8934 14.7802 11.9878 17.1823 18.8949 16.0915 15.5347 14.0812 14.956 13.132 12.4777 14.0273 11.3161 11.2571 11.255 11.2431 13.4376 13.3635 11.2407
threshold=39.396360928917446 60.679644091604729 33.430132517256297 0.26284722222222229 2013.0381400000003 21.500000000000004 1806.6759425000002 0.88993055555555556 8.5000000000000018 4.5000000000000009 0.4086805555555556 0.93319385038311087 1910.7509700000003 46.988517652427554 1816.3249275000001 0.88645833333333346 1.0670779176586833 -0.0006556481217767084 1855.1044100000001 1.1084284556688282 0.23504081558886444 0.94659779657526799 2042.1072575000001 2034.27656 0.00023810588470440933 0.00050446942640625114 13.500000000000002 0.65413161874527936 0.89830677957283755 51.512155542958084 0.97422456995712048 1826.9213975000002 0.74514355702665347 0.47132304033346861 2039.0455525 0.65677727602633584 0.24159202202800531 0.76374001805211267 1.0000000180025095e-35 3.5000000000000004 1937.4294500000003 0.83729468904455684 1867.41534 1869.7092700000003 1897.20335 0.85958380084446706 16.500000000000004 0.0002839237009627516 68.037075257890152 0.26265939034339891 0.93825065791820694 -2.1306004869769964e-05 0.8235969837057352 16.500000000000004 0.25868055555555564 0.52702378916642134 0.0012411739872851826 1916.2305800000001 2039.0511300000001 68.037075257890152 0.59451482181492221 1.1406221619074022
decision_type=2 2 2 2 2 2 2 2 2 2 2 2 2 2 2 2 2 2 2 2 2 2 2 2 2 2 2 2 2 2 2 2 2 2 2 2 2 2 2 2 2 2 2 2 2 2 2 2 2 2 2 2 2 2 2 2 2 2 2 2 2 2
left_child=2 6 3 -1 5 20 24 9 16 57 22 12 -11 21 15 -15 -9 -16 19 30 -3 33 23 61 -2 -23 -10 -4 -6 -21 31 -19 -14 -12 35 -25 -7 -38 56 45 41 44 -43 -44 -41 46 47 -40 -48 -47 51 52 -51 -53 -55 -36 -22 -5 60 -60 -30 -8
right_child=1 4 27 7 28 36 10 8 26 11 13 -13 32 14 17 -17 -18 18 -20 29 38 25 -24 34 -26 -27 -28 -29 58 -31 -32 -33 -34 -35 55 -37 37 -39 39 40 -42 42 43 -45 -46 49 48 -49 -50 50 -52 53 -54 54 -56 -57 -58 -59 59 -61 -62 -63
leaf_value=0.02540138459440313 0.041063308014943817 -0.022333662211226461 -0.0080321964974728217 0.039154124907576165 0.047875147259820686 0.03266311486749459 0.019300548558989574 0.10240406164538443 0.0094257009345699062 0.01993839617291631 0.060222123032171671 0.050516844668698484 0.076071235121064326 0.013190038630761554 0.031457627026159458 -0.032215025347481357 0.033494632758678526 0.0051258687277242337 0.020095263176626042 -0.0066276634701924637 0.0088067176595592305 0.026837001006690741 -0.0035726137232180155 0.088514872395942537 0.013992571975383467 0.046741352165590049 0.031654987028808666 0.02710516663361448 0.065812754530290757 0.022621914717920254 0.056500374094121966 0.034625953912445134 0.034625953912445134 0.019548848102776115 0.043975681036582275 0.020317167858610034 -0.016634986337492091 0.021218160377753835 -0.0097439356569424367 0.019902249530648522 -0.003730214751321459 -0.0045200719093900048 0.076223283576194178 0.012205521472866547 0.056926148112719926 0.061533663308187742 0.022930765237070216 0.012453782697199756 0.00090279013095851887 0.032834828618745017 0.014941023459489743 0.025709669562477128 0.088044078962419586 0.026988854726327439 -0.0025030795725006494 -0.010822995740900048 -0.018597449330934827 0.017941994835469405 0.020317167858610034 -0.028742988022148443 0.021917456859113622 0.0024690644586583682
leaf_weight=497.2678185403347 216.91875578463078 28.453006267547607 27.646030202507973 134.21580559015274 68.806315451860428 18.430304512381554 7236.8412988632917 18.78756183385849 109.10028648376465 133.49558378756046 18.373232915997505 674.75662377476692 37.183623388409615 180.91307383775711 365.37362569570541 31.282556220889091 19.185916140675545 46.599099665880203 5582.6965788602829 56.297640189528465 149.35886768996716 2377.0504699498415 66.671892106533051 24.838162019848824 59.961555138230324 88.980689898133278 185.08148539066315 2726.3633548915386 23.895360991358757 109.6960976421833 55.898139014840126 337.47762733697891 35.337971448898315 921.36230635643005 22.441209331154823 19.214451938867569 121.1010517179966 28.060359120368958 170.72830505669117 60.932891964912415 278.6072865575552 136.40047368407249 15.827894076704977 374.01295544207096 48.342022731900215 19.628780856728554 319.21968448162079 218.6320233643055 111.99261519312859 36.354965552687645 2130.3045108318329 421.95547699928284 15.3051291257143 68.210504293441772 98.601623922586441 16.237662702798843 50.025607645511627 117.08785316348076 52.081277623772621 19.067212656140327 63.194019690155983 100.57283337414265
leaf_count=1968 860 112 109 532 273 73 28621 75 431 528 73 2678 148 715 1447 123 76 184 22081 222 590 9409 263 99 237 353 733 10792 95 434 222 1337 140 3644 89 76 477 111 673 241 1099 538 63 1478 192 78 1263 864 442 144 8421 1670 61 270 389 64 197 463 206 75 250 397
internal_value=0.0214522 0.0195998 0.0305201 0.03581 0.0136522 0.012908 0.0213067 0.0393449 0.0284615 0.0425381 0.0210889 0.0463234 0.032589 0.0225441 0.0210234 0.00649628 0.0675879 0.0214937 0.0209054 0.0283695 0.013535 0.0255655 0.0191116 0.0193154 0.0352008 0.0275552 0.023411 0.0267524 0.0297822 0.0127018 0.0342806 0.0310468 0.055876 0.0203441 0.0410975 0.058769 -0.00487574 -0.00951402 0.0137511 0.0142719 0.0088394 0.0143499 0.00979577 0.0148047 0.0362812 0.0156471 0.0103346 0.00272044 0.0172098 0.0172094 0.0168954 0.0233964 0.0491915 0.021133 0.00955635 0.0209708 0.00193101 0.0292709 0.0219149 0.00716945 0.0339613 0.0190698
internal_weight=27798.7 23083.2 4715.51 1961.5 5147.53 4920.49 17935.7 1464.23 332.155 1132.08 17658.8 880.774 206.017 10172 6766.23 212.196 37.9735 6554.04 6188.67 605.969 4752.89 3405.77 7486.82 7420.15 276.88 2466.03 294.182 2754.01 227.044 165.994 439.975 384.077 72.5216 939.736 82.7315 44.0526 167.592 149.161 4724.44 4525.06 914.124 635.516 526.241 389.841 109.275 3610.93 820.573 389.36 431.212 2790.36 2770.73 640.428 51.6601 588.768 166.812 38.6789 199.384 251.304 158.238 71.1485 87.0894 7337.41
internal_count=109968 91295 18673 7772 20345 19446 70950 5804 1315 4489 69853 3494 816 40244 26765 838 151 25927 24480 2399 18785 13479 29609 29346 1097 9762 1164 10901 899 656 1743 1521 288 3717 328 175 661 588 18673 17886 3611 2512 2079 1541 433 14275 3242 1537 1705 11033 10955 2534 205 2329 659 153 787 995 626 281 345 29018
is_linear=0
shrinkage=1


Tree=1
num_leaves=63
num_cat=0
split_feature=3 3 4 3 11 11 8 1 4 11 3 4 11 1 2 8 2 5 2 11 1 2 7 4 5 11 7 4 6 8 3 0 4 8 11 11 1 1 10 11 1 4 7 7 2 11 7 11 8 4 1 0 11 2 5 7 11 10 5 5 7 1
split_gain=168.585 84.5927 34.5387 33.3841 29.3824 35.7448 19.6019 18.4225 18.3424 18.4344 17.051 17.0235 16.7979 19.0128 21.1105 18.9932 17.6355 26.5225 16.4889 16.1253 20.8976 16.8095 16.1117 15.8282 14.9713 16.2898 22.6506 17.0425 15.6556 14.1526 17.9409 16.2327 16.1067 16.1913 13.5728 18.5593 20.1585 19.9498 16.3988 16.7449 15.7941 19.0095 13.4647 13.4611 13.3044 16.5327 19.7025 15.015 13.2265 13.0528 12.98 12.9494 12.8056 26.6226 12.762 13.9332 15.5902 12.6563 12.8387 12.4592 12.2906 12.2274
threshold=39.396360928917446 60.679644091604729 0.23368055555555559 32.735014159050493 1812.0000000000007 1635.7500000000075 1806.6759425000002 0.23504081558886444 0.4086805555555556 932.99999999998147 48.269636282367394 0.88993055555555556 1849.0000000000011 1.1406221619074022 0.7995545269246479 2039.0455525 0.86322181213265081 -6.2423418844548259e-05 0.92646255920939768 1661.3500000000047 0.43204677115904644 1.0425944170478378 1807.9554000000001 0.17881944444444448 0.00032148584485935944 1812.0000000000007 1941.9984100000001 0.19965277777777782 0.00027935479328389251 1926.5893900000003 45.518208047602137 0.5853423305820552 0.0010416666666666669 1915.0906025000002 1282.8499999999965 1540.8500000000006 0.43803538172495898 1.1295345400305348 1.5000000000000002 1103.9999999999966 0.72270590225492326 0.75659722222222225 1949.88896 1910.7509700000003 0.94992770850625963 759.49999999999147 1835.8961400000001 1531.1499999999912 2029.4419850000002 0.94826388888888891 1.384181625218625 0.38540783293083475 971.5000000000033 0.78636864592335376 -0.0006222352031906574 2019.9502800000002 1531.1499999999912 2.5000000000000004 6.6847618064747052e-05 0.00022690101951017286 1991.1815500000005 0.72707651700566089
decision_type=2 2 2 2 2 2 2 2 2 2 2 2 2 2 2 2 2 2 2 2 2 2 2 2 2 2 2 2 2 2 2 2 2 2 2 2 2 2 2 2 2 2 2 2 2 2 2 2 2 2 2 2 2 2 2 2 2 2 2 2 2 2
left_child=2 6 -1 11 5 7 59 -3 9 29 44 18 19 15 23 16 17 48 43 52 -21 24 -12 -15 25 26 -22 -27 -28 31 -31 32 -8 51 38 37 -37 -36 39 49 -38 -42 -39 -4 45 46 -10 50 -14 -5 -47 -34 53 -11 -24 -56 -57 58 -32 -2 -13 -17
right_child=1 4 3 34 -6 -7 8 -9 10 12 22 60 13 14 -16 61 -18 -19 -20 20 21 -23 54 -25 -26 27 28 -29 -30 30 57 -33 33 -35 35 36 40 42 -40 -41 41 -43 -44 -45 -46 47 -48 -49 -50 -51 -52 -53 -54 -55 55 56 -58 -59 -60 -61 -62 -63
leaf_value=-0.00015694782658769575 0.017769937352990987 -0.049409681730524402 -0.0036152720643202532 0.0066851454094091949 -0.00057526091574810437 -0.029211965127077369 0.042211082998048884 -0.008866234959584331 0.037590293182942311 0.022382159020101485 -0.038598021725290386 0.003025722808720615 -0.021437227425731707 0.040269691632226906 -0.040281550415708654 -0.063717506536581398 0.0099085344485591864 0.0070303434313906182 0.022298247148152067 -0.054452561804986255 0.012897754431101457 -0.055979147624315564 0.0080337353803848315 -0.022618533895592079 0.015474602898257632 -0.069255311637552538 -0.010486723532093848 -0.0072189487191520732 -0.048783691657606938 0.01513642155307709 -0.053207943241395286 0.051349749451231608 0.002614907183407711 0.049720773710672662 0.00046602388609039348 -0.046952324803788671 0.024090349034992325 -0.013744112146308727 0.0049792301030455481 0.028397032447495509 -0.004685678210630294 0.016574218791306782 -0.052599936497412569 0.023677847807372903 0.0042841992517612696 0.007624280016676606 -0.02069071070812889 -0.0070121218575804681 0.017552565308885642 0.042719344004491129 -0.020718682829346548 -0.0057587815323010706 -0.0048895039259304858 -0.028087928656591744 -0.0015796249003244651 0.0036391989275741526 -0.023954183944197311 -0.0031806718585200055 -0.010705900352213887 -0.0074948346316236376 0.04256654002025128 -0.012031793277198118
leaf_weight=1111.3265124261379 213.57210192084312 28.220055371522903 125.67310605943203 301.53136776387691 957.78033776581287 235.37233532965183 23.396226555109024 3926.3067676723003 15.855919077992437 32.020996958017349 29.452660590410233 282.42748446762562 181.67605862021446 18.875544518232346 57.651758641004562 15.2795183211565 542.84529799222946 270.48008978366852 838.12870337069035 33.317686229944229 75.973673671483994 21.113338738679886 330.00673696398735 21.291062906384468 48.952118575572968 25.221406042575836 93.382881969213486 19.732185989618301 37.362972646951675 39.617323696613312 45.010665565729141 16.084120661020279 1562.4199498593807 16.58978146314621 286.58000892400742 16.514790371060371 133.8352282345295 81.000247433781624 770.64563435316086 187.93328134715557 245.53081658482552 183.89613617956638 30.763801202178001 70.531161665916443 2908.8708152472973 553.07652489840984 169.74257729947567 395.13239686191082 24.70951010286808 27.416245400905609 43.577472358942032 655.3546684384346 3345.220660418272 142.00166139006615 5501.3502729833126 78.831100881099701 145.98873084783554 46.526501148939133 29.356863290071487 63.249122306704521 21.122557520866394 45.570597901940346
leaf_count=4397 847 111 497 1194 3789 928 93 15517 63 127 116 1118 717 75 227 60 2150 1071 3326 131 301 83 1307 84 194 99 369 78 147 157 177 64 6183 66 1134 65 531 320 3051 746 971 729 121 280 11515 2190 670 1562 98 109 172 2591 13227 560 21761 312 576 184 116 250 84 180
internal_value=-0.0010665 -0.00282627 0.00754911 0.00992565 -0.00847616 -0.0102823 -0.00120471 -0.00915556 -0.00141167 -0.00328996 -2.91504e-05 0.0161884 -0.00501207 0.000215399 -0.0208934 0.00212629 0.00374562 -0.00326999 0.0192438 -0.00660202 -0.0167576 -0.0128541 -0.00170662 0.00693461 -0.00982533 -0.0147463 -0.00881433 -0.0420247 -0.0214308 0.000284409 -0.0140647 0.00129731 0.000940744 0.000508599 0.00622747 0.00178739 0.00749631 -0.00652174 0.00960054 0.0164907 0.00909274 0.00441858 -0.0244394 0.00619601 0.00246909 -0.00201535 -0.0157117 0.000547725 -0.0167692 0.00968843 0.00555421 0.000140474 -0.00557742 -0.0188012 -0.00152721 -0.00207822 -0.0142788 -0.0236339 -0.0364301 0.0119974 0.00577717 -0.0250101
internal_weight=27798.3 23083.4 4714.86 3603.53 5147.68 4189.9 17935.7 3954.53 17658.9 7487.04 10171.9 1337.88 5052.68 1178.38 97.8184 1080.56 1019.71 476.866 1034.33 3874.3 355.056 321.739 6085.63 40.1666 300.625 251.673 206.72 44.9536 130.746 2434.36 160.511 2273.84 2257.76 2234.36 2265.65 978.121 579.777 398.344 1287.53 516.881 563.262 429.427 111.764 196.204 4086.26 1177.38 185.598 991.786 206.386 328.948 596.654 2217.77 3519.24 174.023 6056.18 5726.17 224.82 120.894 74.3675 276.821 303.55 60.8501
internal_count=109968 91295 18673 14276 20345 16556 70950 15628 69853 29609 40244 5305 19978 4662 386 4276 4036 1886 4103 15316 1402 1271 24072 159 1188 994 817 177 516 9631 634 8997 8933 8840 8971 3871 2296 1575 5100 2049 2231 1700 441 777 16172 4657 733 3924 815 1303 2362 8774 13914 687 23956 22649 888 477 293 1097 1202 240
is_linear=0
shrinkage=0.05


Tree=2
num_leaves=63
num_cat=0
split_feature=3 3 3 4 11 1 8 8 2 1 0 8 0 11 4 11 5 11 11 11 2 1 8 11 6 8 7 2 8 4 4 1 2 5 10 6 1 4 1 7 0 4 2 11 6 7 7 6 10 4 3 4 0 1 7 7 8 5 11 7 3 4
split_gain=167.13 56.9845 51.583 37.9668 28.3537 23.2246 21.4102 20.5191 19.6218 18.4867 29.3988 20.6029 17.9588 23.2263 17.2003 16.5598 15.6503 15.3292 18.3143 18.2571 15.7992 15.2235 15.2161 14.9308 14.6553 13.9472 26.1643 15.3309 18.4465 14.5819 13.3734 22.4665 15.072 13.0919 13.0037 14.5218 15.4218 18.9851 14.1667 22.4434 16.6795 13.7477 13.0269 12.4286 17.5457 13.6038 12.2454 12.1569 15.8263 20.2948 11.9587 11.9161 22.0737 21.7392 15.4669 13.1516 20.3984 13.0422 11.8526 11.8122 11.7558 15.8036
threshold=45.518208047602137 63.620550909525221 33.430132517256297 0.35868055555555561 1282.8499999999965 0.33652322836274279 1808.1327000000003 1806.6759425000002 1.2884767174339882 0.80167764447183443 0.64950705261577102 1860.0964850000003 0.90124739187737013 1056.1500000000026 0.061458333333333344 2055.7000000000021 0.00020635849325412184 1282.8499999999965 640.15000000000566 1319.5000000000052 0.96006770105016037 0.35509383478766016 1868.6138725000003 644.50000000000512 5.2319734494488131e-05 1970.1659925000004 1944.1373700000001 0.98121618685695966 2026.6900475000002 0.84131944444444462 0.49201388888888892 0.51411620745880582 0.92473179269714345 0.00021640386369159439 2.5000000000000004 0.0019554237878391949 0.97590380835808732 0.45868055555555559 1.9850426245986144 1877.9305900000002 1.4362901332681808 0.25868055555555564 1.172031196762396 971.5000000000033 -0.00053509299173870584 1880.9251000000004 1928.0072900000002 0.0045990947204813679 1.5000000000000002 0.74965277777777783 58.292431908166584 0.31701388888888893 0.52276598025269927 0.51153397053498451 1859.6603400000001 1878.8396500000001 1868.1570850000003 0.00075207208441296924 1161.0000000000016 2034.27656 39.038158242020707 0.056597222222222229
decision_type=2 2 2 2 2 2 2 2 2 2 2 2 2 2 2 2 2 2 2 2 2 2 2 2 2 2 2 2 2 2 2 2 2 2 2 2 2 2 2 2 2 2 2 2 2 2 2 2 2 2 2 2 2 2 2 2 2 2 2 2 2 2
left_child=2 12 3 -1 5 -4 -5 -7 33 10 11 21 -2 23 -15 51 22 18 20 -19 -8 -6 -13 24 -14 26 29 -27 -29 -12 32 -32 -21 60 38 36 37 -36 40 -40 59 -38 -41 44 45 -10 -37 48 -17 -50 -25 -3 53 55 -55 56 57 -53 -45 -16 -9 -62
right_child=1 15 4 6 9 7 17 8 43 -11 25 16 13 14 34 47 -18 19 -20 30 -22 -23 -24 50 -26 27 -28 28 -30 -31 31 -33 -34 -35 35 46 41 -39 39 42 -42 -43 -44 58 -46 -47 -48 -49 49 -51 -52 52 -54 54 -56 -57 -58 -59 -60 -61 61 -63
leaf_value=0.002158480700767225 -0.0033485475000720093 -0.01564562587055688 -0.0047953499537806959 -0.033905895224628196 0.061804271667006187 0.04321892663716858 -0.043214661229796905 0.0085681498384786395 0.021598897283095751 -0.005121143660054242 0.024198736736817689 -0.030402058660215989 0.012424000478407114 0.050559918730857779 -0.0029924707799566207 -0.01106595136069214 0.022931138179990412 -0.01635716884297814 0.025303440288891345 -0.006276911630387543 0.013914013037201134 0.01096775478284524 -0.0035779066316108813 0.014566228782401935 -0.046904699910296464 0.067248101769282184 -0.010722448568204816 0.042760350221375296 -0.012811712271226811 -0.0082997692532275087 -0.028357910262522337 0.014197639498216112 0.044066653043253606 0.016165048646135282 0.036685589528920981 0.0067260009323745866 -0.030546014622999357 -0.013139460001984189 -0.041919375423017914 0.011410300430997123 -0.018451667117089132 0.0088369293790833553 0.058051276023933111 0.052431110255518734 0.050364498756203503 -0.015831076543313762 -0.022879325135459733 -0.030397397261627837 0.015671568507092847 -0.020176291352127645 -0.00024026931538340468 -0.00057046820493720661 -0.011683796184080719 -0.010545222974904117 0.02951844853485816 0.0019290873052044862 -0.067137409023220948 -0.040536222843141859 0.011950905364444715 -0.037851556598100036 0.024808388476452416 0.0014636611380773122
leaf_weight=686.33970238268375 11794.744315505028 932.41932572424412 515.63600519299507 20.540573164820671 17.821754813194275 37.701239690184593 18.030184641480446 1132.4752205759287 46.635749399662018 1492.7607507556677 199.59945790469646 56.050671488046646 18.929924473166466 15.830433189868925 1043.488978356123 155.14869453012943 52.435520321130753 52.647629916667938 606.80969023704529 19.205033630132675 36.810249388217926 84.795611292123795 930.98976787924767 496.07251469790936 23.123928219079971 22.574083372950554 111.33282198011875 34.956062018871307 26.069352358579636 41.733392477035522 33.435189887881279 428.36042486131191 65.817464083433151 256.80374935269356 21.394626080989838 54.806123644113541 22.825940683484077 179.72366432845592 17.777424573898315 100.97363571822643 237.57956610620022 758.52563048899174 17.5768663585186 47.978590250015259 23.369634211063385 50.62892410159111 96.299610674381256 31.959311708807945 214.46441124379635 48.390428394079208 188.07111346721649 84.44484868645668 1542.3729948848486 32.903533324599266 89.939457297325134 212.31131193041801 18.341572359204292 26.921321272850037 29.020482867956161 24.881287351250648 75.113110929727554 2081.2439077347517
leaf_count=2717 46645 3682 2039 81 71 150 71 4486 185 5903 792 221 75 63 4127 613 208 208 2410 76 146 336 3682 1966 91 90 440 139 103 165 132 1699 262 1018 85 217 90 710 70 400 938 3004 70 191 93 200 380 126 850 191 744 334 6093 130 357 840 72 106 115 98 298 8236
internal_value=-0.000996571 -0.00374852 0.00445745 0.0116487 0.0025366 0.00515897 0.0167308 0.0065165 0.00614684 -0.00113219 0.00264044 -0.00157707 -0.00243438 0.000815387 -0.00139906 -0.00960762 -0.00368709 0.0175555 0.0228027 0.0117641 -0.00486849 0.0197966 -0.00510116 0.0087184 -0.0201988 0.0136814 0.00932871 0.0320433 0.0190206 0.0185788 0.0144717 0.0111165 0.032695 0.00529218 -0.00171839 0.00228882 0.00450823 -0.00783915 -0.0048679 0.0104695 -0.00646897 0.00768642 0.0183255 0.02148 0.0114625 0.00211557 -0.0121415 -0.00067493 0.00159756 0.00907213 0.0104959 -0.0109749 -0.00880523 0.000745593 0.0187874 -0.00573448 -0.0182785 -0.0102317 0.0371744 -0.0038043 0.00444318 0.00227684
internal_weight=27838 18502.2 9335.72 1968 7367.73 4296.61 1281.66 3780.97 3743.27 3071.12 1578.36 1142.09 15112.6 3317.88 2591.68 3389.62 1039.48 1261.12 661.65 599.466 54.8404 102.617 987.04 726.197 42.0539 436.265 352.666 83.5995 61.0254 241.333 546.818 461.796 85.0225 3545.64 2575.85 1133.58 982.47 201.118 1442.28 136.328 1305.95 781.352 118.551 197.633 120.634 97.2647 151.106 449.963 418.004 262.855 684.144 2939.65 2007.24 464.862 122.843 342.019 129.708 111.366 76.9991 1068.37 3288.83 2156.36
internal_count=110130 73167 36963 7802 29161 17011 5085 14972 14822 12150 6247 4518 59773 13128 10252 13394 4111 5004 2627 2377 217 407 3903 2876 166 1729 1397 332 242 957 2169 1831 338 14038 10189 4486 3889 795 5703 540 5163 3094 470 784 478 385 597 1780 1654 1041 2710 11614 7932 1839 487 1352 512 440 306 4225 13020 8534
is_linear=0
shrinkage=0.05


Tree=3
num_leaves=63
num_cat=0
split_feature=6 3 3 9 11 11 9 11 2 2 1 5 11 11 11 2 11 8 8 1 9 2 1 11 1 3 2 8 1 9 1 11 7 1 11 0 7 9 7 0 7 1 9 1 0 11 0 2 7 7 11 11 8 8 2 6 9 6 7 1 10 1
split_gain=151.973 61.5089 35.7371 35.1519 20.3013 19.4045 19.3801 20.5944 19.8868 19.3729 18.5806 18.5749 18.4806 21.1533 18.9336 20.3119 18.017 17.7902 17.4921 17.0333 16.522 16.4899 15.8625 19.71 17.4575 15.8504 15.1595 17.3145 15.031 14.3832 14.3446 14.2319 14.1282 14.114 14.1821 20.0204 16.3967 15.5848 15.162 23.225 21.1132 14.8101 16.6415 13.8214 27.7856 16.755 22.0236 14.8458 17.1226 17.6426 20.4508 27.582 14.6738 20.562 14.3451 13.4053 13.3539 12.9264 14.2041 12.3497 12.3204 14.2511
threshold=-0.00059778386847897369 58.852824328988909 33.430132517256297 21.500000000000004 1812.0000000000007 1661.3500000000047 14.500000000000002 666.80000000000075 1.0741949892546747 1.0345756453840724 0.23504081558886444 0.00013769831550969339 1282.8499999999965 891.20000000000357 865.49999999999739 0.89512961160375148 710.90000000000384 1909.6526025000001 1838.3006925000002 0.2777253894949685 13.500000000000002 0.78636864592335376 0.44200228620573023 2250.1500000000083 0.74564655194738194 34.087999165200621 0.90478912392703681 1838.3006925000002 0.34861457200395585 1.0000000180025095e-35 0.94856695373299782 1208.999999999992 1804.6486200000002 0.79646057196768194 1568.1000000000042 1.2600025910224699 1828.8304900000001 16.500000000000004 1880.9251000000004 1.2282894721897095 1902.4947400000003 1.9850426245986144 14.500000000000002 0.73593266436510374 0.59796931509537143 1720.8500000000074 1.4939032629863154 0.84870679378727931 1951.4820800000002 1946.4704800000002 2318.5000000000064 1536.149999999998 1862.4427625000003 1875.7827850000001 0.90309816768440632 0.00069740897390724321 12.500000000000002 0.0012152006745902446 1928.0072900000002 0.77697635554849709 3.5000000000000004 0.39575475966691404
decision_type=2 2 2 2 2 2 2 2 2 2 2 2 2 2 2 2 2 2 2 2 2 2 2 2 2 2 2 2 2 2 2 2 2 2 2 2 2 2 2 2 2 2 2 2 2 2 2 2 2 2 2 2 2 2 2 2 2 2 2 2 2 2
left_child=2 6 9 4 5 10 20 17 25 22 -3 -7 13 14 15 21 -10 26 -16 -12 -2 -4 -1 30 -25 -9 -8 -28 -21 57 -24 -5 -11 -14 38 36 -36 -37 -35 56 -41 -42 -43 44 47 -45 59 52 49 50 51 -49 -27 -54 -46 -13 -40 58 -30 -47 -31 -62
right_child=1 3 12 31 -6 11 7 8 16 32 19 55 33 -15 18 -17 -18 -19 -20 28 -22 -23 23 24 -26 43 27 -29 29 60 -32 -33 -34 34 35 37 -38 -39 39 40 41 42 -44 45 54 46 -48 48 -50 -51 -52 -53 53 -55 -56 -57 -58 -59 -60 -61 61 -63
leaf_value=-0.0042019650080736088 -0.0020806657823346951 -0.040767045431241739 0.019053431454237373 -0.038178642192008519 -0.00034760111798946418 -0.053766375522891589 0.0017382035742584878 0.029243648074611953 0.065574200402754149 -0.031632073928933531 0.014117050148753255 0.0083858861173489365 0.0051653985708533089 0.010323860595957721 0.0067636490219611586 0.0059451717932444961 0.010681547807770385 -0.048805207711947463 -0.05146087364444344 -0.016348940788830625 -0.011388204672520162 -0.017935728723861587 0.019463018203559765 -0.04623152150734075 0.0030093835516195751 0.014015341255861761 0.021842839231603101 -0.029088229316958699 -0.0013969889972789218 -0.0045256315114867041 -0.0017097688761032383 -0.013805091196853348 0.01691471939336503 -0.029822591173326887 -0.046696866399016823 0.013203521771581621 -0.0035761116694317989 -0.010982073973356543 -0.0081759962095357668 0.029949051786734071 -0.027419781694137148 -0.025865461092377071 0.044017995578990388 0.0070173786814137253 -0.04721729847857177 0.025543379712649247 0.023997828086688176 -0.0046439882064082984 0.013106305868808499 -0.050127584586889276 0.025374416468298966 -0.035127817769039373 -0.020082714148572201 0.003332678122188982 -0.012640570721943216 -0.02306668338199298 0.019708921487084766 -0.054834659613061346 -0.039482198008205592 -0.01122228560115668 -0.040389617714615571 -0.0098983161459458117
leaf_weight=266.94666767120361 9052.0446130484343 40.600351825356483 36.567185550928116 119.06415748596191 1132.9127795398235 38.40194171667099 188.52934807538986 49.612214893102646 15.552693307399748 15.218255236744879 95.400155335664749 44.447983920574188 920.53001956641674 1442.0459311753511 21.717266082763672 886.33889113366604 384.71105845272541 27.95727376639843 31.769572898745537 411.82577663660049 503.30758866667747 171.18005718290806 360.90734428167343 25.142600730061531 63.360441699624062 262.68001978099346 19.915147930383682 102.95516562461853 68.522632375359535 3387.7858278304338 102.77788656949997 120.51094733178616 984.87072984874249 78.874882593750954 22.864728584885597 359.85122057795525 615.46751192212105 81.737741038203239 74.886784061789513 22.167686283588409 170.89944499731064 17.234079569578171 16.845926642417908 1310.9759497046471 42.948193863034248 24.439128011465073 59.233876138925552 808.7974411547184 122.40919199585915 22.880221083760262 50.152856841683388 81.699573159217834 106.15074260532856 803.01185896992683 99.472410902380943 142.44108755886555 100.62719866633415 25.180746361613274 38.090525761246681 349.23572537302971 40.380328387022018 751.37270139157772
leaf_count=1056 35805 160 145 469 4482 151 746 197 62 60 378 176 3645 5714 86 3510 1524 110 125 1626 1989 676 1433 99 251 1041 79 406 271 13394 407 476 3910 311 90 1426 2434 323 296 88 674 68 67 5191 169 97 235 3198 485 90 199 322 419 3178 393 562 399 99 150 1380 159 2969
internal_value=-0.00094675 -0.00306577 0.0054943 -0.00712453 -0.00640035 -0.00774902 -0.00125697 0.00128803 0.00216606 0.0115064 -0.00708391 -0.0220943 0.00333773 0.00629259 0.00122687 0.00264689 0.0128145 -0.0105981 -0.02782 -0.0068001 -0.00257092 -0.011425 0.00580517 0.010643 -0.0109793 0.00114974 -0.00716789 -0.0208332 -0.00722259 -0.00635083 0.01477 -0.0259183 0.016176 0.000254725 -0.00264028 0.000541671 -0.00512067 0.00872679 -0.0097763 -0.00584955 -0.0164051 -0.0214181 0.0086783 0.000813403 -0.00164791 0.00420104 -0.00432766 -0.000296768 -0.00450851 -0.00674634 -0.00569114 -0.00744076 0.00360623 0.000598776 -0.0230675 -0.0155863 0.00781123 -0.0226141 -0.015004 -0.00881773 -0.005838 -0.0114534
internal_weight=27836.4 20945.6 6890.83 6456.94 6217.36 5084.45 14488.7 4933.32 4593.96 1819.22 4859.16 225.291 5071.61 2589.62 1147.57 1094.09 400.264 339.357 53.4868 4818.56 9555.35 207.747 819.135 552.188 88.503 4193.7 311.4 122.87 4723.16 4311.33 463.685 239.575 1000.09 2481.99 1561.46 1079.92 638.332 441.589 481.536 402.661 227.147 204.979 34.08 4144.09 2400.2 1743.88 432.909 2257.78 1085.94 963.53 940.65 890.497 1171.84 909.163 142.421 186.889 175.514 131.794 106.613 373.675 4179.54 791.753
internal_count=110130 82837 27293 25522 24577 20095 57315 19521 18180 7216 19206 889 20077 10256 4542 4331 1586 1341 211 19046 37794 821 3246 2190 350 16594 1231 485 18668 17042 1840 945 3970 9821 6176 4273 2524 1749 1903 1592 897 809 135 16397 9494 6903 1712 8932 4294 3809 3719 3520 4638 3597 562 738 695 520 421 1477 16522 3128
is_linear=0
shrinkage=0.05


Tree=4
num_leaves=63
num_cat=0
split_feature=3 3 4 3 8 8 2 11 11 2 4 7 4 11 11 11 7 1 8 8 4 2 8 7 3 11 8 1 0 1 2 11 8 10 8 10 2 2 8 8 10 2 11 11 0 2 8 2 8 1 1 11 3 8 4 6 0 11 11 4 2 11
split_gain=151.039 58.8088 38.6613 29.2279 22.4672 19.0821 17.2777 16.7471 16.436 16.1758 15.0686 19.096 15.2924 14.8988 14.7138 34.6151 17.5911 14.6416 13.95 13.5248 12.6348 13.0486 12.5264 12.3943 15.0884 11.9723 17.1646 11.835 12.7969 18.3555 11.3629 11.0009 18.0023 14.7174 22.4529 10.7272 10.365 10.6879 21.4081 10.2543 10.1436 10.0408 12.3005 20.4173 12.2993 9.89384 13.6783 10.6084 20.0647 9.88676 9.85943 21.8137 10.3585 27.8882 17.1362 13.891 14.0157 21.3885 14.8779 13.7203 12.871 11.758
threshold=42.999345530455095 60.842803981419642 0.23368055555555559 32.735014159050493 1806.6759425000002 1808.9582325000001 0.84315583461096633 5135.1500000000115 636.50000000001239 0.65413161874527936 0.98090277777777779 1804.6486200000002 0.96840277777777783 1375.349999999992 891.20000000000357 1178.9999999999966 1937.4294500000003 0.23504081558886444 2013.0381400000003 1806.6759425000002 0.72326388888888904 0.99017736477370077 1907.8965775000001 2019.9502800000002 65.279721049168515 1178.9999999999966 1988.4606075000004 0.89969896440776742 0.62487513052808075 0.77282122283333787 0.85784017251605216 3012.5000000000005 1896.9178050000003 2.5000000000000004 1932.8275000000001 3.5000000000000004 0.77117683148769589 0.93666952100369283 1790.1276800000003 1971.7387150000002 1.5000000000000002 0.92646255920939768 1365.6999999999928 997.50000000000239 0.71318463767365825 1.0364837101482383 1952.5543775000003 0.89992280788628909 1957.3791000000003 0.99676125764414347 0.28264645750522438 997.50000000000239 68.037075257890152 1965.2698850000004 0.8690972222222223 0.002666771025389592 0.40197016386985168 644.50000000000512 776.84999999999047 0.69409722222222225 1.1684958547612923 825.20000000000675
decision_type=2 2 2 2 2 2 2 2 2 2 2 2 2 2 2 2 2 2 2 2 2 2 2 2 2 2 2 2 2 2 2 2 2 2 2 2 2 2 2 2 2 2 2 2 2 2 2 2 2 2 2 2 2 2 2 2 2 2 2 2 2 2
left_child=2 19 5 4 -4 -1 9 20 -8 35 11 -5 27 -12 22 30 -17 -3 31 36 41 -22 40 -20 -25 -23 -27 28 29 -13 -16 50 -33 -34 -35 -7 -2 38 -38 -15 -10 42 43 -6 -43 47 -47 48 -18 -46 51 -19 -52 54 55 56 -54 59 -59 -58 -56 -60
right_child=1 17 3 10 7 6 8 -9 14 -11 13 12 -14 39 15 16 45 18 23 -21 21 25 -24 24 -26 26 -28 -29 -30 -31 -32 32 33 34 -36 -37 37 -39 -40 -41 -42 44 -44 -45 49 46 -48 -49 -50 -51 52 -53 53 -55 60 -57 57 58 61 -61 -62 -63
leaf_value=0.040462427382186236 -0.014683433231541133 -0.04189464429116433 -0.043405479324603424 0.046563651383147137 0.0026468658691037646 -0.0066975259125242855 0.03057379066237452 -0.024512669582811911 -0.035956249875682952 0.0063612001749887744 0.0044900606906705404 0.004580430850177575 0.029871052168250225 -0.035466626925619825 -0.023079675500608521 -0.021444819944424303 -0.0097229375263214804 0.019729617807315896 0.040032142148357722 -0.0018345857113830255 -0.010460215133748736 0.021959893602219276 0.012762596943948086 0.014439825312268071 -0.012763915725442831 0.0022638813251719815 0.03911497815127718 0.00068074267845370611 0.010911343016457258 -0.048800235543312205 0.01670394174056989 0.033905502200053624 -0.024235053343594468 0.064685027178525825 -0.0060046834655549906 -0.049967958929914506 0.0039885180544666724 0.0057759321855693569 0.056959696033153255 0.00078487814438707936 -0.014136679320706386 0.018528230844027185 -0.0087465059312531665 0.051017062049981493 0.04145687915360257 0.053163482283771324 -0.010366291572713973 -0.016055244259989474 0.045156018253110511 0.0054080402200292641 -0.0073875733259562391 -0.025114387064309976 -0.020617584466008171 -0.03795895430303222 -0.012844296054510103 -0.027819178328947952 0.053288914755054609 -0.034804777025991662 0.025355864145996193 -0.0072955367444729876 0.015952813749350668 -0.0086251127144081619
leaf_weight=26.896212980151176 36.930058166384697 31.406272888183594 17.017268866300583 28.615454584360123 61.347525075078011 51.60117195546627 29.217981040477753 27.070242568850517 75.879271015524864 648.79482300579548 101.97911320626736 1643.2067668586969 63.695396393537521 59.364802375435829 19.76282125711441 219.14092841744423 50.351572334766388 83.978681176900864 22.126207560300827 15290.076492354274 69.987436503171921 204.48177465796471 31.546109765768051 100.4242425262928 103.50821104645729 279.73560433089733 35.622823849320412 1064.5239274352789 1154.9670843631029 16.263584658503532 195.47912803292274 39.784588813781738 53.474867671728134 15.053777083754538 44.259628176689148 19.826834991574287 40.390836328268051 140.35189042985439 36.140802308917046 29.054272592067719 178.72182789444923 414.79955895245075 62.166835010051727 33.856319829821587 117.89840975403786 18.0855353474617 15.940117701888083 107.3471816778183 24.888427883386612 22.678688332438469 3051.0386744588614 40.05149719119072 269.33827376365662 100.286446839571 64.05672961473465 134.91021794080734 23.114811420440674 53.030821114778519 26.469561457633972 15.687091425061224 98.41788449883461 665.24188280105591
leaf_count=107 146 124 67 114 243 204 116 107 299 2569 404 6507 253 234 78 865 199 333 88 60480 277 813 125 398 409 1109 142 4213 4578 64 775 158 211 60 175 78 160 556 144 115 706 1649 246 135 470 72 63 424 99 90 12059 158 1063 395 253 532 92 209 105 62 390 2629
internal_value=-0.000982718 -0.00316589 0.00523852 0.00727891 0.0136816 -0.00132075 -0.00198708 0.0144122 -0.00635599 0.00387492 0.00520708 0.00586586 0.00557048 -0.00853355 -0.00750737 -0.00335367 -0.0114569 -0.00786185 -0.00764826 -0.00164456 0.0152212 0.00980793 -0.0169572 0.00448865 0.000632261 0.0125367 0.00642657 0.00517145 0.00686999 0.00405728 0.0130511 -0.00822247 0.00498738 -0.00521311 0.0119364 -0.0187084 0.00980275 0.0139722 0.0290033 -0.0235545 -0.0206396 0.0197009 0.00855233 0.0198482 0.0228599 -0.00135236 0.0234015 -0.0059653 0.00843032 0.0356413 -0.00865818 0.00524871 -0.00904135 -0.0125199 -0.0106305 -0.0127137 -0.0107782 -0.00739593 -0.00928154 0.0287954 0.00459936 -0.00732477
internal_weight=27801.4 20579.6 7221.81 5508.33 1346.66 1713.48 1686.58 1329.65 966.361 720.223 4161.67 3971.27 3942.66 190.398 937.143 650.996 435.754 5035.66 5004.25 15543.9 1302.57 589.828 286.147 226.059 203.932 519.84 315.358 3878.96 2814.44 1659.47 215.242 4778.2 152.573 112.788 59.3134 71.428 253.814 216.884 76.5316 88.4191 254.601 712.747 157.371 95.2038 555.377 216.613 34.0257 182.587 75.24 140.577 4625.62 124.03 4501.59 1450.55 1350.27 1187.79 1052.88 783.544 744.742 38.8019 162.475 691.711
internal_count=109998 81389 28609 21830 5348 6779 6672 5281 3821 2851 16482 15729 15615 753 3705 2575 1722 19903 19779 61486 5174 2341 1130 895 807 2064 1251 15362 11149 6571 853 18884 604 446 235 282 1006 860 304 349 1005 2833 624 378 2209 857 135 722 298 560 18280 491 17789 5730 5335 4692 4160 3097 2943 154 643 2734
is_linear=0
shrinkage=0.05


Tree=5
num_leaves=63
num_cat=0
split_feature=3 3 9 4 11 8 3 7 3 9 11 1 11 2 8 11 11 1 4 11 2 3 9 4 1 11 6 7 1 7 7 2 5 4 6 3 2 9 4 1 1 5 7 7 5 7 1 8 1 2 9 5 1 11 11 8 8 8 6 7 9 7
split_gain=138.127 60.6214 34.5172 29.3671 23.873 18.0256 17.4157 15.1177 20.6429 15.0944 15.8453 13.8715 12.9933 19.7485 12.8533 12.7414 15.1332 18.7715 13.5471 13.2481 12.0408 11.9936 16.0596 22.3726 21.8866 18.3374 14.4965 13.026 16.436 14.2443 28.8962 12.9553 12.5335 11.9691 15.5075 11.8989 11.644 13.0429 13.5923 13.7193 11.5957 11.5185 11.4625 11.24 11.212 15.05 13.4244 13.6192 10.9668 10.9624 10.8835 14.4159 14.2086 13.3205 14.6513 14.9427 11.5389 14.1359 12.0926 10.8762 11.5012 12.6981
threshold=40.272519730716297 60.679644091604729 21.500000000000004 0.23368055555555559 1243.3499999999983 1806.6759425000002 34.395397373640876 1994.5677300000002 65.279721049168515 1.5000000000000002 1103.9999999999966 0.23504081558886444 640.15000000000566 0.94824927621726773 1974.8005025000004 3295.650000000001 1540.8500000000006 0.4233600509671549 0.69062500000000016 1635.7500000000075 0.84125561910043734 50.011095869433312 20.500000000000004 0.47534722222222225 1.1192456755526623 640.15000000000566 0.0004519892135094184 1973.9126100000001 1.2289576432493956 1939.4954700000003 1943.0499600000001 0.80226916096991296 -8.8778555275392787e-05 0.13298611111111114 6.0704878953488091e-05 45.013920866243531 0.76420266057946218 6.5000000000000009 0.75312500000000016 0.87283996744814218 0.59451482181492221 -0.00098832604721082996 1905.5824800000003 1806.4762900000003 -0.00095535442350253008 1824.7771200000002 0.66655734747912365 1952.1272375000003 0.55039017296371839 1.3603028356451881 14.500000000000002 -0.00086209897839895067 1.075830142764725 656.50000000000557 732.00000000000512 1862.4427625000003 1929.8655225000005 1919.3251125000004 0.0016735879662732602 1960.3382900000004 20.500000000000004 1956.7863500000001
decision_type=2 2 2 2 2 2 2 2 2 2 2 2 2 2 2 2 2 2 2 2 2 2 2 2 2 2 2 2 2 2 2 2 2 2 2 2 2 2 2 2 2 2 2 2 2 2 2 2 2 2 2 2 2 2 2 2 2 2 2 2 2 2
left_child=3 5 7 20 6 35 12 11 -9 -8 -11 -3 13 -5 -13 16 18 -18 59 -19 -1 22 23 24 25 -7 27 29 -29 -23 -31 -26 41 34 -34 -2 -37 -38 -39 -40 -24 -27 -17 -14 -21 -46 47 -47 -10 -48 52 -52 -28 -53 -55 -56 57 58 -54 60 61 -6
right_child=1 2 -4 4 15 21 9 8 48 10 -12 14 43 -15 -16 42 17 19 -20 44 -22 26 40 -25 31 32 50 28 -30 30 -32 -33 33 -35 -36 36 37 38 39 -41 -42 -43 -44 -45 45 46 49 -49 -50 -51 51 53 56 54 55 -57 -58 -59 -60 -61 -62 -63
leaf_value=0.0056354978812419619 0.035613675573383199 -0.040341592152878109 -0.028917419216694485 -0.039370760172156891 0.0093747359981488712 0.013471049752618501 0.028903599204781957 0.018853851945591537 0.024120278899095061 0.0032309739250888422 0.016428817954842211 -0.0066965541199435806 -0.023587654372372452 0.015182286335253051 -0.024874977296599265 0.0050647432666394779 -0.032109993127420224 0.0309535415879819 -0.0057816102198568666 0.016276810914121032 -0.0043561931231907635 -0.0049715617223227218 0.0036393426162972527 0.001821493499010387 0.00056132877209228566 0.030598688589791246 -0.00069963436235309228 -0.0094459537105089642 -0.041892883561967825 0.024069821794333299 -0.0015310129608550787 -0.051631249042473099 0.0098348988277196653 -0.0035513286709650594 -0.018334203291791678 -0.020404283500304533 -0.0034697382920247525 0.037688756055900531 -0.02257423326042661 0.030261669536740473 0.019076760640351711 -0.0074356451948448758 -0.028803579771972499 0.01982694429959932 -0.028969359198699602 0.033128194384359037 0.00042813172901801316 -0.0047910936585014918 -0.013550182622691989 0.043593138474909636 0.034196492772746105 -0.026127657308352089 -0.02734926571797407 0.028567979540841851 0.016959626657044469 6.4375144124416441e-05 -0.0024144904681621549 -0.066000771357805563 0.0014321991913729866 0.028251249074905505 -0.035946851643694357 -0.027699655102180937
leaf_weight=505.55115108191967 43.144920215010643 31.569169327616692 179.94906495511532 24.625386193394661 261.70333617925644 157.73587937653065 82.06305980682373 133.88958153128624 22.659675762057304 860.25580687820911 309.1528475433588 4545.2137555480003 15.183389410376547 50.838607594370842 99.365273967385292 46.704173117876053 26.346876874566078 74.201717242598534 434.11405164003372 322.56695409119129 747.11966654658318 3961.0433405339718 480.28028836846352 4051.6100577414036 17.43817426264286 20.148978784680367 2042.6843852549791 366.64075246453285 43.678635761141777 126.29983818531036 865.92333669960499 37.367405116558075 384.02428187429905 1065.5738105773926 55.980141058564186 33.173912733793259 82.874461784958839 64.596136897802353 25.571638688445091 23.647993341088295 162.90135867893696 1650.4247572273016 53.714641883969307 823.54867757856846 31.667455166578293 78.938849449157715 370.46684508025646 33.826416239142418 131.10613241791725 15.317061603069304 36.989305332303047 39.2915428429842 95.331746190786362 55.416916534304619 150.3394517749548 1010.5337045937777 166.11460597813129 15.788715377449988 59.131850853562355 53.066151797771454 17.237986654043198 25.331244200468063
leaf_count=2002 172 125 710 97 1038 625 326 531 90 3407 1227 17967 60 202 392 185 104 295 1718 1281 2955 15661 1901 16036 69 80 8080 1449 172 501 3425 147 1521 4214 221 131 328 257 101 94 646 6524 212 3276 125 314 1467 134 518 61 147 155 376 220 596 3998 657 62 234 211 68 100
internal_value=-0.000933622 -0.00263696 -0.00740545 0.0063591 0.00844628 -0.00122664 0.0120069 -0.00662559 0.00449976 0.00817469 0.00672005 -0.00730998 0.017253 -0.00261945 -0.00708546 0.00426723 0.00526399 0.00950681 0.000153374 0.0106896 -0.00032376 -0.00142992 -3.07179e-05 -0.000685972 -0.00368396 -0.00316876 -0.00268173 -0.00433877 -0.0128999 -0.00362958 0.00172771 -0.0350245 -0.00399513 -0.000686589 0.00625105 0.0115198 0.00699749 0.0116191 0.022606 0.00281123 0.00754924 -0.00697691 -0.0130516 0.019041 0.00892646 0.00445474 0.00657781 0.0217535 -0.00799888 0.00214194 -0.000261093 0.00343208 -0.00226765 0.00252577 0.0034514 0.0022524 -0.0117898 -0.0209373 -0.0163311 0.00736351 0.00372062 0.00610286
internal_weight=27799 22535.5 5143.75 5263.54 4010.87 17391.7 2165.67 4963.8 287.655 1251.47 1169.41 4676.15 914.196 75.464 4644.58 1845.2 1744.78 953.332 791.453 926.985 1252.67 17118.7 8083.49 7440.3 3388.69 3333.89 9035.21 5363.59 410.319 4953.27 992.223 54.8056 3176.15 1505.58 440.004 273.009 229.864 196.69 113.816 49.2196 643.182 1670.57 100.419 838.732 852.784 530.217 498.549 112.765 153.766 385.784 3671.62 1292.57 2379.05 1255.58 1216.29 1160.87 336.367 170.252 154.464 357.339 304.273 287.035
internal_count=109998 89133 20333 20865 15908 68800 8595 19623 1139 4960 4634 18484 3635 299 18359 7313 6916 3781 3135 3677 4957 67717 31984 29437 13401 13185 35733 21208 1621 19587 3926 216 12560 5956 1742 1083 911 780 452 195 2547 6604 397 3336 3382 2101 1976 448 608 1528 14525 5116 9409 4969 4814 4594 1329 672 610 1417 1206 1138
is_linear=0
shrinkage=0.05


Tree=6
num_leaves=63
num_cat=0
split_feature=3 3 11 8 8 11 11 4 9 9 2 9 4 11 11 11 2 5 9 11 2 7 1 8 8 6 8 1 1 7 4 7 7 3 6 4 8 4 4 6 4 3 11 10 7 7 2 2 9 11 2 2 2 1 11 1 1 8 2 1 4 9
split_gain=118.44 57.0543 28.0385 20.7082 18.3509 17.3604 23.6548 17.9902 16.8828 15.9832 13.9882 18.7955 13.0797 14.6798 13.3646 13.789 18.0109 21.68 17.4266 28.4347 16.4994 13.5666 15.2516 13.5269 13.479 15.3961 13.6268 18.2961 22.1711 20.2559 19.5952 19.3064 29.7077 18.8851 16.8058 13.8996 15.3905 25.5539 13.2528 13.2509 13.2094 12.9912 12.7838 12.5969 12.4469 12.5504 18.4204 12.419 17.7598 20.3178 18.0272 15.2644 15.0733 14.1835 15.15 13.4535 13.0174 16.6668 12.3712 13.63 13.2108 11.9506
threshold=39.396360928917446 61.52358451544584 2658.799999999997 1896.9178050000003 1806.6759425000002 1208.999999999992 971.5000000000033 0.26284722222222229 21.500000000000004 1.0000000180025095e-35 0.92646255920939768 7.5000000000000009 0.4086805555555556 932.99999999998147 1849.0000000000011 1661.3500000000047 1.0508186505722554 0.0001906890442707754 9.5000000000000018 1635.7500000000075 1.0549330610035359 1955.8890500000002 0.39575475966691404 1974.1586250000003 1877.1396050000001 -0.00034131850133384262 1880.4323050000005 0.68964595166476539 0.72707651700566089 2031.9674700000003 0.15798611111111113 2019.9502800000002 1974.7974100000004 45.645821850194757 -0.00045458481374688326 0.094791666666666677 1938.6266300000002 0.010069444444444445 0.26701388888888894 0.00028879809511461746 0.30034722222222227 34.395397373640876 2318.5000000000064 2.5000000000000004 1875.2055800000003 1913.4830200000001 0.89830677957283755 1.0701490440551218 9.5000000000000018 2168.7000000000016 0.88685014948408003 0.65413161874527936 0.80226916096991296 0.76374001805211267 5135.1500000000115 0.43606941624324308 0.36440171842797403 1909.0350600000002 1.0156410806791425 0.50654207139021645 0.35451388888888896 1.5000000000000002
decision_type=2 2 2 2 2 2 2 2 2 2 2 2 2 2 2 2 2 2 2 2 2 2 2 2 2 2 2 2 2 2 2 2 2 2 2 2 2 2 2 2 2 2 2 2 2 2 2 2 2 2 2 2 2 2 2 2 2 2 2 2 2 2
left_child=5 4 8 -4 -2 6 7 -1 9 44 11 -9 13 40 15 18 17 -17 19 20 21 -15 -23 58 25 -16 -26 29 42 34 33 32 -32 -30 -28 36 -36 -38 -22 -39 -6 -12 -29 -5 -3 -46 -47 48 49 50 52 -50 -7 -51 -55 -52 -53 -58 -20 60 -60 -43
right_child=1 2 3 43 12 47 -8 10 -10 -11 41 -13 -14 14 24 16 -18 -19 23 -21 38 22 -24 -25 26 -27 27 28 30 -31 31 -33 -34 -35 35 -37 37 39 -40 -41 -42 61 -44 -45 45 46 -48 -49 51 53 55 56 -54 54 -56 -57 57 -59 59 -61 -62 -63
leaf_value=-0.0031116711636812546 0.01124360991367352 -0.044623214613018922 0.042586935657636493 -0.019472249514935619 0.0024334203230057536 -0.0035559884035679177 0.016095138222122198 0.051309213063471616 -0.024970831461718194 -0.0070091972156837217 0.017975644695372099 -0.0055262524550200604 -0.00017628768783536951 -0.0023532453596758693 0.067991851084078681 -0.019790416073426166 -0.058274552647422734 0.0088041715196167918 -0.0087700070569863287 0.044870343475559266 -0.02518694499187208 0.032084190433750555 0.0032547032114599835 -0.031244494915326437 -0.028905606583503815 0.0072011766663291517 0.029984279088515909 -0.017732086978423257 -0.022807028476376376 -0.033988942001148735 -0.012785989992940301 0.0091158839021584503 -0.081824642263023523 0.022728891090359096 -0.030257156611024766 0.010684125727063907 0.049445139596694804 0.002305413613416967 -0.0033531390238091298 -0.039570885661661608 -0.0057857497393673067 0.035361001946711601 -0.067895286614676406 0.01018812224704229 0.0010828788074821226 -0.0024916785699718711 -0.051965671234544625 0.0077537921204481461 -0.036666172775422404 -0.041075659757801281 -0.029028288178742086 0.033633979771262056 0.026163446108437662 0.0024791741008966641 -0.045157275204779503 -0.0027164369136577294 -0.0043853987879572042 0.010855504009249936 0.005079974805187671 -0.031945546867784745 0.04820652288832742 0.0036146078805963915
leaf_weight=423.40488289296627 295.25513964891434 45.692978993058205 39.478262931108475 47.628426924347878 1841.4585407078266 82.899667844176292 839.76604832708836 15.567044630646704 146.03785482048988 4012.5019285082817 439.18704403936863 221.85457329452038 10516.304275780916 1316.4187948107719 15.046352699398993 250.52715149521828 22.644580617547035 90.137279227375984 1563.7679004222155 32.446700185537338 130.29855054616928 61.201413229107857 183.19803074002266 62.905296102166176 41.84082667529583 33.840673416852951 75.813764467835426 32.411639675498009 29.125433295965195 30.170305237174034 208.53076085448265 93.156900450587273 16.840402826666832 104.33653980493546 49.711225539445877 335.00258029997349 23.62854191660881 73.78918568789959 148.94961075484753 25.391140699386597 665.5096954703331 31.9171983897686 20.884649440646172 144.11107362806797 67.177187293767929 35.615820646286011 39.882155448198318 924.47445203363895 21.319386899471283 60.12586010992527 64.149595081806183 41.019079849123955 87.905794858932495 65.894858926534653 22.352271214127541 200.18672616779804 300.83915723860264 444.29190322756767 69.221628755331039 17.505238428711891 23.884591773152351 416.26706054806709
leaf_count=1675 1172 180 157 188 7287 328 3337 62 577 15862 1749 878 41609 5206 60 989 89 357 6180 129 514 243 725 248 165 134 301 128 115 119 824 369 66 414 196 1327 94 292 589 100 2631 127 82 571 266 141 157 3668 84 237 253 163 349 261 88 793 1191 1762 274 69 95 1649
internal_value=-0.000884635 -0.0023584 -0.00735596 0.00961019 -0.00112175 0.00634699 0.00933821 0.00567314 -0.00825842 -0.00767743 0.00898 -0.00179972 -0.00132228 -0.00288955 -0.00440896 -0.00580989 -0.0150947 -0.0122245 -0.00487541 -0.00152916 -0.00234735 -0.000344693 0.0104741 -0.00848213 0.000192879 0.0259112 -0.000890402 0.000157316 -0.00688823 0.00596006 -0.00329174 -0.0100306 -0.0179448 0.0127916 0.00802623 0.00474613 -0.00678436 0.00271708 -0.0135409 -0.00841533 0.000251527 0.0118642 -0.037389 0.00282043 -0.0219117 -0.0146382 -0.0286265 0.00326212 0.000276866 -0.00636922 -0.000921123 0.00507963 0.0117393 -0.0223471 -0.00958675 -0.00910184 0.00621172 0.00470214 -0.00762696 0.00853278 0.0161433 0.00587541
internal_weight=27782.7 23079.3 4578.13 231.218 18501.2 4703.42 2387.96 1548.2 4346.91 4200.87 1124.79 237.422 18205.9 7689.6 5182.63 3973.11 363.309 340.664 3609.8 1872.51 1840.07 1560.82 244.399 1737.28 1209.52 48.887 1160.63 1118.79 505.286 613.507 451.99 318.528 225.371 133.462 583.336 507.523 172.52 122.809 279.248 99.1803 2506.97 887.371 53.2963 191.74 188.368 142.675 75.498 2315.46 1390.98 583.515 435.142 807.47 170.805 148.373 88.2471 264.336 786.15 745.131 1674.38 110.611 93.1062 448.184
internal_count=109945 91291 18099 916 73192 18654 9477 6140 17183 16606 4465 940 72020 30411 20493 15707 1435 1346 14272 7406 7277 6174 968 6866 4786 194 4592 4427 1998 2429 1788 1259 890 529 2310 2009 682 486 1103 392 9918 3525 210 759 744 564 298 9177 5509 2309 1723 3200 677 586 349 1046 3116 2953 6618 438 369 1776
is_linear=0
shrinkage=0.05


Tree=7
num_leaves=63
num_cat=0
split_feature=3 3 11 8 8 11 11 0 9 0 1 9 0 9 9 1 0 10 7 7 8 0 1 4 4 11 9 11 7 7 3 2 9 0 3 4 9 1 4 4 5 2 2 11 0 8 2 7 9 4 4 7 8 0 9 11 7 10 7 9 11 9
split_gain=106.922 51.5061 25.3104 18.7189 16.5676 15.6849 21.3756 18.6566 15.2727 14.5583 14.4934 14.4519 18.2637 24.4325 26.2164 22.7292 15.5091 14.334 13.7671 14.8467 14.2275 13.5711 22.39 22.1206 19.8182 17.9575 20.8836 20.8703 16.2538 14.8282 14.2176 13.7947 16.5754 13.3767 14.7981 14.5782 23.3354 22.2957 21.2479 13.8038 15.2742 13.1691 12.8277 15.0989 13.9498 12.4671 14.344 12.814 24.4817 12.8382 12.2829 14.2566 15.9542 13.2348 12.2085 12.1006 12.0574 17.5348 11.8516 11.8506 11.8014 25.0469
threshold=39.396360928917446 61.52358451544584 2658.799999999997 1896.9178050000003 1806.6759425000002 1208.999999999992 971.5000000000033 0.33254475640906062 21.500000000000004 0.20073934532933671 0.31886969869729426 1.0000000180025095e-35 0.6317256797745584 11.500000000000002 13.500000000000002 0.51153397053498451 0.67988156722774395 3.5000000000000004 1986.7019800000005 1893.6472500000002 1900.2403900000002 0.64950705261577102 0.56558090303869168 0.056597222222222229 0.80937500000000007 1056.1500000000026 20.500000000000004 644.50000000000512 1908.0909000000001 1930.8565100000003 42.441388395714576 1.4350414236526958 8.5000000000000018 0.86388632759250839 43.550136253629653 0.67048611111111123 17.500000000000004 0.63802660227691899 0.43784722222222228 0.94409722222222225 -0.00018177221202375635 0.91145559322274938 1.0701490440551218 2453.8500000000004 0.64604779552870384 1828.8732025000002 1.1529831313216714 2039.0511300000001 11.500000000000002 0.37951388888888893 0.78159722222222239 1888.71784 1901.5764200000001 0.70460923213624416 14.500000000000002 1603.9999999999966 1838.4824500000002 3.5000000000000004 1915.0542300000002 22.500000000000004 776.84999999999047 20.500000000000004
decision_type=2 2 2 2 2 2 2 2 2 2 2 2 2 2 2 2 2 2 2 2 2 2 2 2 2 2 2 2 2 2 2 2 2 2 2 2 2 2 2 2 2 2 2 2 2 2 2 2 2 2 2 2 2 2 2 2 2 2 2 2 2 2
left_child=5 4 8 -4 -2 6 7 60 11 -7 -9 -3 -13 15 -15 -14 -16 18 19 42 -21 24 55 -24 -6 27 31 28 41 -28 -29 45 -33 35 -35 37 50 -32 -39 56 54 -25 43 59 -45 46 -27 49 -49 -47 -37 53 -53 -52 -41 -23 -36 -58 -30 -11 61 -1
right_child=1 2 3 -5 21 9 -8 10 -10 17 -12 12 13 14 16 -17 -18 -19 -20 20 -22 22 23 25 -26 26 29 30 58 -31 33 32 -34 34 39 36 -38 38 -40 40 -42 -43 -44 44 -46 47 -48 48 -50 -51 51 52 -54 -55 -56 -57 57 -59 -60 -61 -62 -63
leaf_value=-0.021919153721808825 0.010685924988166123 -0.0208363224752008 0.040507237401620599 0.0026797807937038601 -0.0022906195311324256 -0.037317304975707039 0.015302060514999553 0.049257743036188815 -0.023752608556566527 0.008028175420067089 0.0074077350348707638 -0.0036202130937635657 0.034130822173115742 0.0063543538296916002 -0.037055792518839843 -0.019458575830383754 -0.00882458358119095 0.011100021972675832 0.014328536919062671 -0.020525203943158526 -0.0014966597646641011 0.012161438228313625 0.041455357070528977 -0.037825588491435212 -0.034592420058532913 -0.0098250659734313364 0.036784548128719854 0.018645711317915575 -0.051438614124024111 0.002526020845226845 0.039825027013761373 0.051579390640407501 -0.00077587136837157969 -0.020082761291871407 0.034622906138059358 -0.018432365773353547 0.026581995405818265 -0.049911507087196674 0.006523226679723668 0.0024502361698632118 -0.010783908075594879 0.0073864045319868392 0.016484081616901819 -0.053100911071241444 -0.00054156526608986936 -0.0091738483003251763 -0.052405341048196309 0.00050831639431352137 -0.039399601083463742 -0.00079616664222955313 0.04895958106196286 -0.045961816063168778 -0.0045742285364243742 0.0026652653866272862 0.046536469409822881 0.047577435391739413 0.014661961248524986 -0.014703111723433339 -0.0039213775416983756 -0.032116108965168443 0.0045952921585609239 0.042112849185517942
leaf_weight=142.62828102707863 295.13402996957302 188.19469030201435 39.430962383747101 191.71261033415794 10352.93253788352 22.068055436015129 839.1410374045372 21.044786289334297 145.85602650046349 259.74933384358883 1220.5693260580301 2214.6471053957939 20.396077439188957 315.7428075671196 52.035409674048424 661.89329497516155 747.40378612279892 487.14406999945641 185.74730542302132 109.26805548369884 972.72800330817699 145.60874092578888 31.91310678422451 20.054360687732697 47.703193843364716 109.29075258970261 58.640770852565765 180.98446701467037 37.362001076340675 68.461285784840584 47.307040110230446 26.122832432389259 35.884144216775894 43.297701671719551 62.663575664162636 199.59240621328354 51.145508646965027 18.048612102866173 219.74385042488575 44.20772710442543 137.38248030841351 81.805952742695808 207.62479975819588 23.130724340677261 27.793367013335228 507.45891635119915 24.148785263299942 92.508848384022713 65.737865924835205 4625.9931907057762 17.344318673014641 30.998789712786674 93.571597412228584 140.49044242501259 24.354909181594849 28.906412094831467 456.3504516929388 57.209989011287689 20.226423621177673 19.783856794238091 146.24747121334076 17.103510677814484
leaf_count=563 1172 744 157 759 40948 87 3337 84 577 1030 4846 8759 81 1250 205 2613 2954 1933 738 432 3853 577 127 79 188 432 233 718 147 271 188 104 142 171 249 788 203 71 870 175 543 324 825 91 110 2006 95 366 259 18302 69 122 370 556 97 115 1809 226 80 78 579 68
internal_value=-0.000840479 -0.00224063 -0.00698948 0.0091328 -0.00106569 0.00603192 0.0088761 0.0053918 -0.00784691 0.00309965 0.00811707 -0.00729459 -0.00665939 -0.0104039 -0.00584425 -0.0178566 -0.0106621 0.00348863 0.00143536 -4.28804e-05 -0.0034183 -0.0012562 0.000319688 -8.53174e-05 -0.00243877 -0.000259788 -0.0017048 0.00382897 -0.0135183 0.0183318 0.00534484 -0.00216892 0.0212808 0.00388032 0.00837111 -0.000650131 -0.00553055 0.00847637 0.00223979 0.0099462 -0.00116443 -0.00151498 0.00674455 0.00062525 -0.0244151 -0.00243694 -0.0175309 -0.00205632 -0.01607 -0.00162433 -0.00893806 -0.00222788 -0.0148733 0.00775251 0.0181106 0.0180277 0.0139172 0.0113907 -0.0347494 0.00518698 -0.00566693 -0.0150628
internal_weight=27779.7 23077.9 4577.31 231.144 18500.6 4701.77 2386.73 1547.59 4346.17 2315.04 1241.61 4200.31 4012.12 1797.47 1115.18 682.289 799.439 2292.97 1805.83 1620.08 1082 18205.5 7804.82 7630.3 10400.6 7598.39 5614.25 1984.14 159.449 127.102 1824.69 5487.15 62.007 1643.71 825.467 818.243 533.143 285.1 237.792 782.169 205.945 101.86 538.082 330.457 50.9241 5425.14 133.44 5291.7 158.247 5133.45 481.998 282.405 124.57 157.835 68.5626 174.515 576.224 513.56 57.5884 279.533 305.979 159.732
internal_count=109945 91291 18099 916 73192 18654 9477 6140 17183 9177 4930 16606 15862 7103 4409 2694 3159 9090 7157 6419 4285 72020 30884 30192 41136 30065 22210 7855 630 504 7225 21706 246 6507 3270 3237 2108 1129 941 3099 815 403 2134 1309 201 21460 527 20933 625 20308 1905 1117 492 625 272 692 2284 2035 227 1108 1210 631
is_linear=0
shrinkage=0.05


Tree=8
num_leaves=63
num_cat=0
split_feature=3 3 9 11 4 4 4 11 7 2 9 4 8 3 11 11 4 0 7 2 8 6 11 5 7 8 11 0 2 11 2 0 8 5 5 7 2 6 0 2 8 0 3 4 4 6 6 11 0 5 0 2 2 9 7 0 11 11 0 2 8 8
split_gain=101.059 53.6056 29.5773 16.2851 16.8926 21.7462 15.4463 20.3698 25.0737 22.059 19.1503 17.7059 25.0171 16.5298 26.8117 26.1005 21.6042 16.2016 15.2154 13.7168 18.2389 16.5622 14.0901 13.4558 12.8394 27.9828 12.7153 16.1078 17.0499 15.4549 12.6879 12.6863 12.4435 11.7373 11.5772 11.4927 11.4524 13.1318 11.8984 15.1685 13.3139 22.9548 18.3617 14.3967 17.0699 12.9041 11.3092 16.9257 14.6172 11.2104 17.9432 13.1427 11.9068 11.1757 11.1228 11.0962 10.6999 12.6829 10.5992 11.1311 10.4365 10.3618
threshold=33.771543930685034 59.748064461665201 21.500000000000004 3295.650000000001 0.35868055555555561 0.72743055555555569 0.41284722222222225 776.84999999999047 1841.4181900000003 0.99394916146563528 22.500000000000004 0.67048611111111123 1878.3683725000003 46.873900457660454 1282.8499999999965 1299.3500000000042 0.98090277777777779 1.0490173739066326 1842.7950300000002 0.99194338048872033 1970.1659925000004 0.0010081424791861251 2190.8500000000008 -0.00056533666854730036 1826.5868500000001 1830.5543400000001 1895.5000000000043 0.46778518265572383 1.0425944170478378 1635.7500000000075 1.0384182850844068 1.2282894721897095 1948.54898 0.00048783590584200459 0.002398185672294995 1880.9251000000004 0.94311613958102047 0.00092999879081923098 0.84059651518695688 1.2411524220642336 1911.6899250000001 1.111917010763771 45.382846835181184 0.94826388888888891 0.88645833333333346 -0.0021147018590927376 -0.0017387709984460484 1568.1000000000042 1.8882709357600194 -0.00081199834165507345 1.212987896645729 0.81167442934390033 0.92309992539002106 15.500000000000002 1839.8790300000003 0.90819921114322633 1536.149999999998 997.50000000000239 0.45494818093596429 1.1157778249368333 1808.1327000000003 1958.1870975000004
decision_type=2 2 2 2 2 2 2 2 2 2 2 2 2 2 2 2 2 2 2 2 2 2 2 2 2 2 2 2 2 2 2 2 2 2 2 2 2 2 2 2 2 2 2 2 2 2 2 2 2 2 2 2 2 2 2 2 2 2 2 2 2 2
left_child=3 6 26 4 -1 30 49 8 54 11 13 12 -10 14 24 -16 33 23 -11 20 22 -22 -15 -13 53 -26 29 28 -28 -3 56 -24 55 36 -21 -32 -17 38 39 -38 41 42 45 44 -43 -40 47 48 -18 51 -51 -2 -52 -9 -8 -12 57 -6 -4 -60 -7 -42
right_child=1 2 58 -5 5 60 7 10 9 18 32 17 -14 19 15 16 46 -19 -20 34 21 -23 31 -25 25 -27 27 -29 -30 -31 35 -33 -34 -35 -36 -37 37 -39 40 -41 61 43 -44 -45 -46 -47 -48 -49 -50 50 52 -53 -54 -55 -56 -57 -58 -59 59 -61 -62 -63
leaf_value=0.0042796647431700228 -0.030551768986827155 -0.0055395876751917778 -0.034487268685742915 -0.017138453073040159 0.007466122051183903 -0.029056599951390434 0.0061642464977291981 0.016202872426634065 -0.050288692462420216 -0.044705315883986713 0.024812684455021081 0.026097127179857561 -0.01494548335045515 0.0057365532457046781 -0.028598264352080901 -0.0027603738429995417 -0.076250771675292567 -0.032444176546532165 -0.0006928637162437189 -0.0028013750483788825 -0.015503583960164114 0.013739649788333603 -0.015259567040635431 -0.0056945131868650287 -0.034877976441767773 0.0077855267415084433 0.023250998570525653 -0.0026292645104718203 -0.031166888377105986 -0.016291956680568594 0.043631991756250169 0.0084127411165439217 -0.0076195731606371227 -0.011184210540228131 0.03367877081605386 0.021991236299895797 0.015325084321780681 0.051731983737991087 0.012410116103758757 -0.013889039050565117 0.013271949015998031 0.015290851628459163 0.026187829796935583 0.042827081489918262 -0.027489580385927005 -0.035016202873539161 0.0042903229944247926 -0.0078504004762325642 -0.0172418894839057 -0.002205744703385179 -0.0029405712482827293 0.018173528202514708 -0.055186324036676865 0.053819325976461191 0.036133265226067489 0.074312206615649051 -0.0031106365594772648 0.03170074306780217 -0.00018798215557357039 -0.039801051901018444 0.0087720334402377302 -0.0010259291038002265
leaf_weight=713.23844435811043 15.720289960503576 4305.2985037863255 117.35316047072411 54.904765591025352 115.54910744726658 18.745587632060051 221.64065697789192 137.96348725259304 64.049433469772339 20.058877661824226 41.818557485938072 38.037895008921623 229.37438702583313 1785.9349589943886 77.336629092693329 517.46686568856239 24.729487925767899 49.953462153673172 933.34231857955456 3129.0237464606762 226.62470643222332 61.572995126247406 161.56040269136429 266.26779995858669 39.305589139461517 1733.6714118570089 113.67106826603413 786.57655628025532 16.480790972709656 362.31772541999817 82.608586847782135 87.114177346229553 19.964531138539314 147.97746869921684 21.900816008448601 238.40426971018314 394.49669082462788 15.569723829627035 16.650076225399971 50.071605369448662 267.15462692081928 64.57572865486145 17.638422265648842 24.131468236446381 36.495418041944504 103.49384635686874 37.133340463042259 47.278771087527275 18.231950223445892 8335.3127870708704 18.449362993240356 115.66228817403316 26.668803051114082 23.042902305722237 35.987504631280899 15.524816766381262 75.086382046341896 101.33000265061855 62.298125028610229 24.790550142526627 666.46494515240192 241.04884977638721
leaf_count=2828 62 17025 464 217 460 74 878 548 252 79 166 151 906 7071 305 2047 97 197 3694 12376 895 244 638 1053 155 6873 451 3112 65 1432 331 345 79 585 87 952 1565 62 66 198 1059 256 70 96 144 408 147 187 72 32974 73 459 105 92 143 62 298 405 247 98 2651 954
internal_value=-0.00091066 -0.00176452 -0.00600071 0.00972814 0.0104615 0.0138579 -0.000535758 0.000663834 -0.00412661 -0.00645611 0.00159265 -0.0135766 -0.0226603 0.00139115 0.00381903 -9.072e-05 0.00099847 -0.00605287 -0.00161885 -0.000398785 0.00251641 -0.00925581 0.00418392 -0.00172059 0.00806739 0.00683971 -0.00531687 6.67516e-05 0.0163602 -0.00637423 0.0206998 -0.00696683 0.0263775 0.00233707 -0.00254782 0.0275602 0.0034812 0.00610423 0.00551989 0.0120347 0.00176429 -0.00736835 -0.0214499 0.00812806 -0.000156581 -0.0284437 -0.0189352 -0.0284923 -0.0512086 -0.00214876 -0.00237596 0.0123434 -0.0338224 0.0215865 0.0103506 0.0382139 0.0131569 0.018789 -0.0246798 -0.0114642 0.00773714 0.00649024
internal_weight=27812.1 25745.8 5788.79 2066.33 2011.43 1298.19 19957 11445.2 1858.71 1601.08 9586.5 647.683 293.424 9509.2 4035.46 2101.48 2024.14 354.259 953.401 5473.73 2322.81 288.198 2034.61 304.306 1933.98 1772.98 5584.34 916.728 130.152 4667.62 612.978 248.675 77.3079 1896.77 3150.92 321.013 1748.79 1231.33 1215.76 444.568 771.188 262.985 137.782 125.203 101.071 120.144 127.374 90.2402 42.9614 8511.81 8380.43 131.383 45.1182 161.006 257.628 57.3434 291.965 216.879 204.442 87.0887 685.211 508.203
internal_count=110085 101869 22894 8216 7999 5171 78975 45302 7353 6332 37949 2559 1158 37642 15986 8318 8013 1401 3773 21656 9193 1139 8054 1204 7668 7028 22085 3628 516 18457 2446 983 307 7510 12463 1283 6925 4878 4816 1763 3053 1040 544 496 400 474 503 356 169 33673 33152 521 178 640 1021 228 1163 865 809 345 2725 2013
is_linear=0
shrinkage=0.05


Tree=9
num_leaves=63
num_cat=0
split_feature=3 3 9 1 11 11 2 7 0 4 11 3 9 11 1 1 11 2 7 4 4 8 4 0 9 7 0 9 2 3 11 8 8 10 7 4 10 1 10 7 8 4 9 11 4 9 11 7 10 2 2 5 7 8 3 1 9 11 11 5 8 10
split_gain=91.2647 48.3914 26.7664 15.192 15.144 14.8255 14.5896 14.1837 13.8511 27.4591 15.7074 21.947 20.1041 19.1752 18.7631 18.5327 22.3326 17.857 17.168 15.7077 14.4882 13.876 14.045 13.9489 13.4884 17.6622 13.4656 13.4279 19.4342 14.3026 13.266 19.4133 19.4279 14.5083 15.7177 15.4192 13.7671 15.3868 13.2651 13.1132 12.993 18.3283 19.7728 13.4762 18.7738 12.7857 13.7081 16.9065 14.5389 16.0931 12.572 12.4791 13.7939 21.7443 27.515 16.7567 16.3918 12.9576 14.5015 12.4553 17.7141 14.6907
threshold=33.771543930685034 59.748064461665201 21.500000000000004 0.23504081558886444 1178.9999999999966 1158.0000000000043 1.0211646771459 1804.6486200000002 0.64950705261577102 0.039930555555555559 1282.8499999999965 42.441388395714576 22.500000000000004 732.00000000000512 0.88553344083333141 0.93543301797245071 1299.3500000000042 1.2806917071992745 1861.2127500000004 0.98090277777777779 0.9364583333333335 1973.3828050000004 0.46701388888888895 0.67213586922669533 8.5000000000000018 1952.2338300000004 1.9936141368154994 12.500000000000002 0.92995415062544751 53.16246755176136 1365.6999999999928 1909.0350600000002 1911.0191400000001 2.5000000000000004 2039.0511300000001 0.85520833333333346 1.0000000180025095e-35 1.9850426245986144 2.5000000000000004 1933.1194000000003 1963.7562575000004 0.67048611111111123 9.5000000000000018 907.35000000000821 0.39618055555555559 13.500000000000002 790.35000000000093 1815.7774000000002 1.5000000000000002 0.96710444621144054 1.1360646799845824 -0.00039279254827179194 1888.71784 1903.9966975000004 50.704661658831363 0.80658062901106364 14.500000000000002 1079.8499999999992 1154.8499999999992 -5.3039804195353915e-06 2036.3435050000003 1.5000000000000002
decision_type=2 2 2 2 2 2 2 2 2 2 2 2 2 2 2 2 2 2 2 2 2 2 2 2 2 2 2 2 2 2 2 2 2 2 2 2 2 2 2 2 2 2 2 2 2 2 2 2 2 2 2 2 2 2 2 2 2 2 2 2 2 2
left_child=4 7 3 -3 5 -1 24 -2 -9 -10 11 13 14 -11 20 17 18 -16 -17 30 59 23 -23 -13 25 38 -21 28 29 -25 31 -18 -33 34 36 -36 -32 -38 -6 -28 41 42 43 -30 -45 -29 48 -48 -47 -50 -39 -49 55 56 -55 -53 -54 -56 -59 -12 61 -61
right_child=1 2 -4 -5 6 -7 -8 8 9 10 12 21 -14 -15 15 16 19 -19 -20 26 -22 22 -24 27 -26 -27 39 45 40 -31 33 32 -34 -35 35 -37 37 50 -40 -41 -42 -43 -44 44 -46 46 47 51 49 -51 -52 52 53 54 57 -57 -58 58 -60 60 -62 -63
leaf_value=0.012200925549325253 0.011829195873653537 -0.037003299424949378 -0.023486450057098304 -0.0048387546060791363 -0.035759606382325698 0.037729354077274638 0.010129673088446598 -0.0018035429411867772 0.054780714196946002 -0.0061543638083867858 0.0074922619358484058 0.012942226181768136 0.037941765946963274 0.013621036347878479 -0.018249991306850753 0.012296161404907385 0.034637073074986778 0.036669759613669438 -0.045160639978393285 -0.030263626125117252 -0.04446811999373574 -0.0280774340089699 0.019084151618951786 0.040578342517203721 0.0048046129462532023 0.01857242775462218 0.024873243347760254 0.011247197123946347 0.031937889537215325 -0.011350882237695058 0.0075090731048216858 -0.045736335062291876 0.0099144493235256911 0.0024171609187321344 -0.06826629023751607 -0.007384164963282449 -0.0089027362116696016 0.0037543926432854558 -0.0034502897900459853 -0.016930418355486362 -0.037523097788752929 -0.012807613356430596 -0.027864840690598719 -0.048949835013626618 0.0085694941725221688 -0.026472095600783365 -0.028073687523402974 -0.0067255359266155182 -0.015036557616298555 0.010062425448236823 0.05091221471734602 0.06253398851344065 -0.040561597984246189 0.02501446347629431 0.013243663097527992 0.013058275120251255 -0.0026407178779074519 -0.029264041329892732 0.0015109741758997379 -0.0080577855408123077 -0.04131996128865998 0.0061983164160986691
leaf_weight=909.5283554494381 230.24347074329853 36.955964237451553 204.10071612894535 5546.7437951117754 72.478416413068771 60.665686592459679 634.89302581548691 11245.549818351865 23.556609958410263 148.29659125208855 856.57736374437809 197.07889918982983 32.62519297003746 706.95197476446629 289.23406383395195 17.412629261612892 63.444750234484673 15.599240913987158 51.315351560711861 86.67749810218811 15.997723892331122 17.487479940056801 162.2965756803751 36.724152058362961 295.98400975763798 34.728125467896461 29.220210775732994 288.97617723047733 53.121547609567642 20.752538308501244 203.54933740198612 19.306719988584518 83.551395535469055 1122.368561193347 19.340642213821411 22.49639980494976 905.84982158243656 96.21340911090374 56.559310287237167 52.400515422224998 36.296502396464348 458.05993539094925 40.812803566455841 15.761939302086828 141.90036256611347 88.170236378908157 43.090525135397911 214.60525238513947 132.37826257944107 123.39953380823135 16.566629573702812 18.566337078809738 43.422957867383957 150.40142121911049 89.051103681325912 218.73295098543167 82.909809365868568 62.893167272210121 97.80744306743145 313.41456484794617 26.662924602627754 426.78833608329296
leaf_count=3624 915 147 809 21938 286 243 2526 44489 94 587 3394 781 130 2808 1142 69 252 62 202 342 63 69 644 146 1175 138 116 1145 211 82 806 76 331 4443 76 89 3581 381 224 207 143 1810 161 62 562 348 170 849 523 489 66 74 171 597 353 867 328 248 387 1239 105 1690
internal_value=-0.000865206 -0.00167643 -0.00570172 -0.00505164 0.00924884 0.0137972 0.00521758 -0.000508975 -0.00065299 0.000872768 0.000722602 0.00317178 -0.00117336 0.0101921 -0.00144293 -0.00373411 -0.00245504 -0.0154396 -0.0306036 -0.00174405 0.0028818 0.00105371 0.0144968 0.000143379 -0.00156579 -0.0130794 -0.0165393 -0.000882883 -0.00618616 0.0218288 -0.000768604 0.0128855 -0.000531339 -0.00172013 -0.00539379 -0.0355291 -0.00436222 -0.00673441 -0.0215979 -0.00196471 -0.00834475 -0.00685238 0.00398979 0.0101576 0.00281913 0.00169255 -0.00032957 0.00257749 -0.00896317 -0.0029276 0.0106816 0.00392744 0.00692067 0.00240957 0.00811902 0.0169293 -0.0156748 -0.00205549 -0.0105334 0.0033484 -0.00128024 0.000162039
internal_weight=27808.5 25743.7 5787.8 5583.7 2064.84 970.194 1094.64 19955.9 19725.7 8480.12 8456.56 3689.95 4766.61 855.249 4733.99 3094.55 2789.71 304.833 68.728 2720.99 1639.44 2834.7 179.784 2654.91 459.75 163.766 168.298 2457.83 803.43 57.4767 2552.69 166.303 102.858 2386.38 1264.02 41.837 1222.18 1018.63 129.038 81.6207 745.953 709.657 251.597 210.784 157.662 1654.41 1365.43 1021.48 343.948 255.778 112.78 978.39 763.785 526.486 400.153 237.299 126.333 249.752 160.701 1623.44 766.866 740.203
internal_count=110085 101869 22894 22085 8216 3867 4349 78975 78060 33571 33477 14615 18862 3395 18732 12241 11037 1204 271 10766 6491 11220 713 10507 1823 648 665 9726 3177 228 10101 659 407 9442 4999 165 4834 4028 510 323 2949 2806 996 835 624 6549 5404 4044 1360 1012 447 3874 3025 2084 1585 941 499 988 635 6428 3034 2929
is_linear=0
shrinkage=0.05


Tree=10
num_leaves=63
num_cat=0
split_feature=3 3 9 11 11 0 1 9 9 5 0 2 8 11 0 11 3 4 8 8 10 8 6 3 5 1 10 1 8 10 9 8 1 4 4 11 6 4 1 3 1 8 11 1 0 6 9 1 4 4 4 2 3 6 8 11 3 0 8 9 6 4
split_gain=83.635 29.4274 17.5088 16.3673 21.4933 19.3304 15.9076 11.6556 42.107 21.1757 20.6524 18.8059 33.4639 21.4809 24.0902 24.0635 19.5411 23.4392 23.1603 17.8942 18.0016 13.7275 12.8623 12.316 22.0402 13.0991 15.2447 12.3121 11.5189 15.2945 16.8491 15.5777 13.4283 19.6239 13.0896 11.446 12.1351 11.3526 11.2712 11.1954 11.1226 17.5365 13.4972 11.6346 11.0928 10.9874 10.8217 10.7863 14.6405 10.6737 10.2719 10.1143 11.2762 11.3809 10.0972 12.0039 18.3202 12.3856 10.5385 11.6063 9.93944 9.92492
threshold=39.396360928917446 63.846853037350691 21.500000000000004 1208.999999999992 971.5000000000033 0.33824927537003197 0.31886969869729426 10.500000000000002 9.5000000000000018 -0.0011124807977369586 2.1442879325572881 0.80701827150311167 1907.3637775000002 636.50000000001239 0.47537001301507315 674.65000000000839 47.108187726665861 0.59131944444444462 1973.3828050000004 1881.3743075 2.5000000000000004 1864.3486875000003 1.0000000180025095e-35 42.999345530455095 3.0518607066820642e-05 0.31026932947204638 3.5000000000000004 0.73149072030843598 1964.5307100000002 2.5000000000000004 3.5000000000000004 1891.9489975000004 0.37547951113395012 0.1496527777777778 0.014236111111111113 591.35000000000002 0.0010081424791861251 0.8968750000000002 1.0390516210389837 30.094471889796015 0.63802660227691899 1937.0382850000003 1675.8499999999915 0.67829734153865107 1.1842323073851728 -0.00026410397748360953 1.5000000000000002 1.4309278031891817 0.67881944444444453 0.52951388888888895 0.022569444444444448 1.3603028356451881 50.229608926928613 -9.2788156230982896e-05 1826.9213975000002 1540.8500000000006 34.691057840178097 0.70028097043732973 1878.9706825000001 8.5000000000000018 -0.0011312811519633701 0.9399305555555556
decision_type=2 2 2 2 2 2 2 2 2 2 2 2 2 2 2 2 2 2 2 2 2 2 2 2 2 2 2 2 2 2 2 2 2 2 2 2 2 2 2 2 2 2 2 2 2 2 2 2 2 2 2 2 2 2 2 2 2 2 2 2 2 2
left_child=3 7 35 4 5 -1 -7 8 9 38 23 12 22 -13 45 -16 19 18 40 20 21 -17 -10 24 25 26 -11 49 29 31 -31 32 -5 -34 -32 36 -3 47 -2 -30 -18 43 -43 -42 54 -15 -39 -25 -49 -21 -6 52 53 -48 60 58 57 -57 -56 -60 -35 -33
right_child=1 2 -4 28 50 6 -8 -9 11 10 -12 13 -14 14 15 16 17 -19 -20 27 -22 -23 -24 37 -26 -27 -28 -29 39 30 34 61 33 44 -36 -37 -38 46 -40 -41 41 42 -44 -45 -46 -47 51 48 -50 -51 -52 -53 -54 -55 55 56 -58 -59 59 -61 -62 -63
leaf_value=-0.0061195692610166979 0.044115860681636372 -0.0050230591907214394 -0.026182938447569467 0.039938314992028788 -0.014368241255079798 0.0538357365994592 0.0070449518660385419 9.1569984103246312e-05 0.029647742423897502 -0.0074319536465260868 0.040687322736087328 0.038714169695166278 -0.066376295204510147 -0.0095608392554993298 -0.055931039845355003 -0.012452926442074925 0.015481412340237463 -0.027180371779487223 -0.042001380333841126 0.015894611732514451 0.017721994310738939 -0.070362812855151877 -0.027437430075416564 -0.0022429984110824762 0.017909151374881232 0.0019015575637624804 -0.057642845322514992 0.0026077995687172921 0.024266284528725673 -0.0073879354895938333 -0.028951426224968393 -0.0051647295407509231 -0.044488185608466596 -0.037644175961765801 0.011157803754722265 -0.0058732140394541429 0.050978349651144318 -0.047396446536838083 0.0058085596215350314 0.0053467873882063165 -0.05609283792360549 0.035226633029000982 -0.016117367801669898 -0.0079206697918473724 0.027936099148558657 -0.039265363668972722 -0.017171530115864871 -0.010328943771620138 0.054677201075090359 0.056285454046033745 0.015883481183180764 0.022162445953300965 -0.033335217035565315 0.036109048385446735 -0.018020676220622922 0.012263473045819519 -0.001880012372066246 0.059905681979433356 0.046816009798541211 -0.0030593952458966888 0.011682067659445336 -0.023037777755521259
leaf_weight=316.05358478426933 38.188589558005333 20.464400142431259 106.1461630910635 25.866045117378235 29.063317462801933 18.442117378115654 1206.9348986893892 10207.271934136748 17.384675279259682 69.313834026455879 28.890710815787315 21.645782515406609 42.53188844025135 45.039441034197807 24.674662530422211 29.091356679797173 103.1842186152935 155.91148786246777 31.745615005493164 39.103406697511673 28.9955695271492 15.786994591355322 22.820662304759026 7318.2974540740252 209.20541052520275 779.10081060230732 19.333399847149849 67.941260293126106 103.67850260436535 182.48897179961205 21.033479109406471 618.32838861644268 20.807116463780403 28.620060101151466 618.11857628822327 3117.3907527923584 18.345424890518188 23.630036309361458 38.621778190135956 318.07918636500835 21.878894224762917 29.205916494131088 22.786081448197365 29.346943438053131 47.492295905947685 100.80905362963676 28.866613864898682 15.684393122792242 19.343269616365433 28.117575511336327 812.89604432880878 19.905448630452156 49.982682347297668 15.353239268064497 68.242144823074341 24.891631290316582 58.065028980374336 30.184382602572441 16.256095558404922 41.295164540410042 15.879174456000326 88.831772178411484
leaf_count=1250 152 81 422 103 115 74 4798 40397 69 274 115 86 167 178 97 115 409 615 125 155 115 62 90 28948 830 3085 76 269 414 723 83 2449 82 113 2455 12332 73 93 153 1262 86 116 90 116 189 397 114 62 77 112 3241 79 197 61 270 99 230 121 65 164 63 351
internal_value=-0.00056737 -0.00180955 -0.006209 0.00550209 0.00841472 0.00490553 0.00774916 -0.00108317 -0.00233853 -0.00128231 -0.00151583 -0.0127728 -0.0354597 -0.0104125 -0.0117871 -0.00753423 -0.00555416 -0.0121093 -0.00224249 0.00680308 -0.0129847 -0.0328241 -0.00275396 -0.00165814 0.00334149 -0.000170631 -0.0183826 0.0176182 0.00252035 0.00086613 0.00601197 -0.00303154 0.00516817 0.00261121 0.00983787 -0.00553725 0.0214488 -0.00237691 0.0248542 0.00999767 0.00387261 -0.00773241 0.0127245 -0.0284953 0.00557261 -0.0300923 -0.0165989 -0.00211051 0.0255693 0.0327895 0.0148392 -0.0102212 -0.017064 0.00132761 0.00182537 0.00589806 0.0177152 0.0383738 -0.00473047 0.0110286 -0.0200425 -0.0074099
internal_weight=27732.9 23021.3 3262.35 4711.55 2383.39 1541.43 1225.38 19759 9551.72 8673.72 8596.91 878.001 82.7372 795.264 773.618 627.77 603.095 394.059 238.148 209.036 73.8739 44.8784 40.2053 8568.02 1076.95 867.748 88.6472 135.162 2328.16 1906.4 821.641 1084.76 377.599 351.733 639.152 3156.2 38.8098 7491.06 76.8104 421.758 206.402 103.218 51.992 51.2258 330.926 145.848 137.738 7353.33 35.0277 67.221 841.959 114.108 94.2025 44.2199 283.434 238.934 113.141 55.076 125.793 57.5513 44.4992 707.16
internal_count=109804 91090 12908 18714 9478 6122 4872 78182 37785 34316 34011 3469 326 3143 3057 2482 2385 1557 942 828 292 177 159 33896 4265 3435 350 536 9236 7560 3261 4299 1499 1396 2538 12486 154 29631 305 1676 817 408 206 202 1314 575 544 29087 139 267 3356 451 372 175 1125 949 450 220 499 229 176 2800
is_linear=0
shrinkage=0.05


Tree=11
num_leaves=63
num_cat=0
split_feature=3 3 11 11 2 3 2 8 8 1 5 9 9 7 4 2 11 3 4 4 9 9 11 5 9 5 2 10 1 2 8 8 7 8 5 1 11 7 11 7 1 1 7 10 1 1 2 1 1 3 9 8 10 7 1 9 11 7 4 4 3 1
split_gain=75.5107 27.19 14.7862 19.4763 18.8907 13.3499 14.3011 13.544 12.8738 23.4881 12.0652 11.909 20.1732 19.4147 18.574 16.8094 23.6415 16.7859 15.232 12.385 13.3179 12.2801 12.2949 13.248 11.7038 14.6703 18.6206 15.9011 13.9524 13.4191 13.2397 21.8574 12.8101 11.3173 11.2636 12.7785 11.1722 10.9415 16.7414 10.782 14.5188 11.6187 29.3147 12.4176 10.656 16.9009 12.3594 11.8603 16.226 11.0626 10.4129 10.4037 13.8063 22.538 16.8659 15.2124 15.0572 13.0861 12.9205 11.864 10.7989 10.7833
threshold=39.396360928917446 68.037075257890152 1208.999999999992 1103.9999999999966 0.89512961160375148 51.976974656758237 0.66918632825720004 1806.6759425000002 1928.2865750000003 0.40280560378429647 0.00035533849890734276 12.500000000000002 13.500000000000002 1953.9464700000001 0.078125000000000014 1.1014055185024536 2877.1499999999951 53.046048391989579 0.89340277777777788 0.1746527777777778 20.500000000000004 22.500000000000004 710.90000000000384 0.00047826656668914508 1.0000000180025095e-35 0.00014240434041834507 0.99017736477370077 1.5000000000000002 0.40043955779838186 1.0679745853492577 1948.0598500000003 1909.6526025000001 1866.2794900000001 1918.3768600000003 0.0015861327080781697 0.94856695373299782 614.35000000001321 1863.6984800000002 732.00000000000512 1966.1386100000004 0.68561934722849704 1.3616008993029523 1960.3382900000004 3.5000000000000004 0.34568862596931821 0.35509383478766016 1.1360646799845824 0.31886969869729426 0.30661374451477286 32.357342002336438 22.500000000000004 1964.5307100000002 2.5000000000000004 1893.6472500000002 0.37547951113395012 3.5000000000000004 1221.499999999992 1965.0501600000005 0.1496527777777778 0.0065972222222222231 30.094471889796015 0.66329081080975361
decision_type=2 2 2 2 2 2 2 2 2 2 2 2 2 2 2 2 2 2 2 2 2 2 2 2 2 2 2 2 2 2 2 2 2 2 2 2 2 2 2 2 2 2 2 2 2 2 2 2 2 2 2 2 2 2 2 2 2 2 2 2 2 2
left_child=2 5 3 4 -1 7 -7 -2 33 10 -10 18 17 15 -15 37 -17 -13 -8 20 -16 22 23 -21 25 27 -27 29 -29 -9 31 32 -30 -3 35 -19 -26 38 -14 41 -41 42 -24 -43 46 -46 47 48 -6 -48 -40 52 53 54 -4 -54 -55 -53 -56 -57 -59 -58
right_child=1 8 51 -5 44 6 11 24 9 -11 -12 12 13 14 19 16 -18 34 -20 21 -22 -23 39 -25 36 26 -28 28 30 -31 -32 -33 -34 -35 -36 -37 -38 -39 50 40 -42 43 -44 -45 45 -47 49 -49 -50 -51 -52 57 55 56 58 59 61 60 -60 -61 -62 -63
leaf_value=-0.0030675112039271059 0.014704964721018851 -0.0062179578436300509 0.040593440075232357 0.016635039724660638 -0.0064889292239035112 0.011469274616044522 -0.0038091981526438821 -0.0049383366094985712 -0.085172131431712553 -0.011302918176145873 -0.02889604969059073 -0.022514914446242252 -0.018161063927635678 -0.038618372946915856 0.053251883898629976 -0.016641830019095385 0.040492550732246016 0.014554709577551546 -0.021251515769250568 0.045539057797072818 0.0010614294714566747 -0.026981269714801373 0.0066575467166405935 -0.0057154591541322755 0.012088350172390691 0.035008391521489296 -0.014099546085041759 -0.030445243314151316 -0.023174394455167807 0.040100140618373886 0.020356422985930014 -0.060923029953592882 0.030606307580674404 0.01356328833755863 0.045933568391091806 -0.0041722371117718267 -7.3500397762947062e-05 -0.0038260426476616838 0.0084200725346122371 0.032137845363585243 -0.0038737414243443791 -0.031795366069389958 0.058742910918414604 0.019316681781858441 0.049622448208055489 0.0094544103325555906 0.051368493380925209 -0.026218088095297465 0.047713639957247478 9.9335493711025347e-05 -0.021495526043780123 0.05416247148829624 -0.0070168625188495315 -0.044940868635667749 -0.033720749934760534 -0.033912409415500257 -0.00045950746328040005 0.022102437697639352 0.0052392659994750547 0.010423336765416798 0.0031243943261265745 -0.01368342854525488
leaf_weight=467.85705891251564 154.66977475583553 1005.7114156335592 32.351120427250862 512.41316939890385 90.255403518676758 180.65439753234386 5904.1049942672253 133.78521090745926 15.774141252040861 504.81886693835258 24.037968784570694 40.287189677357674 77.22786271572113 22.818940997123718 28.887255564332008 346.37295852601528 19.104539349675179 331.07541707158089 127.87725099921227 38.676625311374664 21.189688354730606 28.101849406957626 89.660288035869598 18.704423949122429 192.55706064403057 41.027915611863136 36.454796448349953 136.44518041610718 24.578229442238808 18.871327668428421 32.529081106185913 20.861122712492943 20.149607226252556 77.907429039478302 22.122060105204582 125.66997158527374 9767.3851160556078 2415.0090597122908 511.86304476857185 30.716044202446938 315.24549043178558 24.093095198273659 38.663501709699631 23.448238104581833 26.788387537002563 1166.8384190648794 18.345384657382965 58.491539344191551 16.301166877150536 24.671526029706001 30.840897724032402 15.789112925529478 182.53143060207367 27.637558788061142 22.525286257266998 15.463323950767515 301.64862024784088 99.225462019443512 385.07902155816555 623.4064102768898 306.48700092732906 315.29041209816933
leaf_count=1853 616 3980 129 2046 357 716 23352 529 62 1997 95 159 305 90 115 1369 76 1312 505 154 84 111 355 74 763 163 144 538 97 75 129 82 80 309 88 497 38654 9554 2028 122 1247 95 154 93 107 4647 74 231 65 98 122 63 723 109 89 61 1195 397 1530 2477 1216 1247
internal_value=-0.000539038 -0.00171918 0.00522961 0.00799901 0.00563202 -0.00124509 -0.00248062 1.76629e-05 -0.0079477 -0.0142189 -0.0511935 -0.00271766 -0.000801341 -0.00198241 0.00572873 -0.00352491 -0.0136553 0.00848199 -0.00417897 0.00726809 0.0311679 0.00529739 0.00686348 0.0288317 -0.000200252 -0.00795637 0.0119036 -0.0119304 -0.0201043 0.000629298 -0.005724 -0.0186587 0.00105347 -0.00479577 0.0110898 0.00940213 0.000161626 -0.00230498 0.00362047 0.00444781 -0.000676468 0.0145283 0.0223507 -0.00658599 0.00853575 0.0103559 -0.00190606 -0.00812738 0.00180305 0.021964 0.00672002 0.00239532 0.000823252 -0.00288024 0.00584424 0.00571314 -0.00883513 0.00950385 0.00308623 0.00935023 0.00776587 -0.00721767
internal_weight=27729.4 23020 4709.4 2381.96 1869.55 21391.7 10812.4 10579.3 1628.25 544.631 39.8121 10631.8 4599.78 4080.62 680.205 3400.42 365.477 519.155 6031.98 657.387 50.0769 607.31 579.208 57.381 10424.6 464.702 77.4827 387.22 234.563 152.657 98.118 65.589 44.7278 1083.62 478.867 456.745 9959.94 3034.94 619.932 521.827 345.962 175.865 128.324 47.5413 1401.69 1193.63 208.065 165.048 106.557 43.0169 542.704 2327.43 1905.93 1084.53 439.955 821.401 644.577 421.502 407.604 638.87 405.712 616.939
internal_count=109804 91090 18714 9478 7432 84647 42777 41870 6443 2154 157 42061 18204 16148 2694 13454 1445 2056 23857 2604 199 2405 2294 228 41254 1837 307 1530 926 604 388 259 177 4289 1897 1809 39417 12009 2455 2066 1369 697 509 188 5579 4754 825 653 422 172 2150 9236 7560 4299 1748 3261 2551 1676 1619 2538 1613 2442
is_linear=0
shrinkage=0.05


Tree=12
num_leaves=63
num_cat=0
split_feature=3 3 9 4 8 5 3 1 7 2 9 5 2 2 9 2 5 10 10 2 11 7 7 7 9 7 7 1 4 2 1 2 7 3 9 11 1 6 7 3 8 2 2 1 4 2 11 8 4 2 10 10 11 2 11 7 7 6 10 2 1 11
split_gain=73.3638 27.0345 22.5034 21.0865 20.2524 17.2006 16.1637 15.9751 15.7507 15.4341 15.3197 18.1172 14.2743 13.5599 13.7683 17.1957 14.9768 14.6008 12.3766 11.8057 11.7979 13.7558 11.7745 11.4285 11.3323 17.9368 24.3599 11.9008 11.2304 11.0822 11.7304 10.8593 10.8236 10.6393 10.623 18.4953 15.8712 16.4762 17.8545 13.0571 13.0566 12.9249 12.2677 10.4892 10.1559 10.3595 9.76282 11.3487 14.8858 10.0398 14.2527 11.6604 14.1747 11.5893 9.75442 11.6913 9.68339 14.6581 9.47208 9.46272 9.7065 9.4079
threshold=42.999345530455095 58.852824328988909 21.500000000000004 0.22951388888888891 1808.9582325000001 0.00024839831433431941 34.395397373640876 0.23504081558886444 1809.5829500000002 0.65413161874527936 5.5000000000000009 -6.2423418844548259e-05 1.0384182850844068 0.94659779657526799 19.500000000000004 0.65413161874527936 -0.00014256800902068265 2.5000000000000004 3.5000000000000004 1.040613695534123 1243.3499999999983 1974.7974100000004 1875.2055800000003 1824.7771200000002 9.5000000000000018 1954.8636700000002 1947.6651000000002 0.51153397053498451 0.090625000000000011 1.1037802683670581 0.50896848392909366 0.84125561910043734 1912.7388200000003 41.078023667185413 12.500000000000002 640.15000000000566 0.34861457200395585 -0.0034062316892173312 1953.3331400000004 27.363154051822146 1893.8442850000001 0.94824927621726773 1.3794370534102163 1.7880654652249748 0.15381944444444448 0.86831053491728227 1344.849999999997 1930.5245750000001 0.76354166666666667 0.92646255920939768 2.5000000000000004 1.5000000000000002 1531.1499999999912 0.85601088456219221 1178.9999999999966 1909.7463400000001 1895.2987700000003 -0.00062291418051285674 1.5000000000000002 0.7307335037159689 0.35509383478766016 1150.4999999999998
decision_type=2 2 2 2 2 2 2 2 2 2 2 2 2 2 2 2 2 2 2 2 2 2 2 2 2 2 2 2 2 2 2 2 2 2 2 2 2 2 2 2 2 2 2 2 2 2 2 2 2 2 2 2 2 2 2 2 2 2 2 2 2 2
left_child=3 -2 7 4 -1 13 20 -3 12 -9 11 32 -8 14 17 -16 22 24 -12 54 21 34 -17 -22 25 26 44 -27 -18 30 59 -19 -10 -24 42 41 -37 39 40 -38 -39 -36 -5 -20 -6 -46 47 -25 -49 50 58 52 -51 -52 55 -15 57 -33 -48 -4 -61 -34
right_child=1 2 29 6 5 -7 8 9 10 -11 18 -13 -14 19 15 16 28 31 43 -21 23 -23 33 46 -26 27 -28 -29 -30 -31 -32 56 61 -35 35 36 37 38 -40 -41 -42 -43 -44 -45 45 -47 49 48 -50 51 53 -53 -54 -55 -56 -57 -58 -59 -60 60 -62 -63
leaf_value=0.038789939927515261 -0.00083635250483638825 -0.034678749021584646 0.011777620814727108 0.014910026332588013 0.0028859108235117651 0.05093598796355852 0.0052391588741063297 0.020799681957061392 0.011198968560057754 -0.0042218302638371745 -0.00019139753370231286 0.023427483790082748 0.047160963398216287 -0.015804491976118624 -0.023226208108858781 -0.014150268049262777 0.042897077746924306 -0.0028307064411381543 0.0089874808281486807 0.00049220402988042744 -0.028242414900695453 0.056391442392643112 0.018823093584748013 0.0047578242482009718 -0.0078158411966040078 0.048312740805090938 -0.04036091613817152 0.0066002178715871204 0.009415867466419087 -0.04268358133379805 0.0019118949537041243 0.023132640078746068 -0.029839155079268678 -0.021159884290822852 -0.052783305640594018 -0.036083763393742051 0.013815754183156179 0.014660577383458851 -0.012915490323581547 -0.038437750705669009 0.040143803075358662 -0.0016838306349693363 0.044898712385151737 -0.032423983251852577 0.0077796588710404013 0.058837846754799028 -0.0023141768260793718 0.0079102662155567348 -0.052913723374809644 -0.0080864776873669723 0.049522259891003506 0.0065175040459986722 0.029337859286625925 -0.0031735372743209398 -0.028059106648121258 0.020244560054685348 -0.028533518353968376 -0.023677524259672175 -0.038533791649300764 -0.016522791662199145 -0.048075575453131646 0.00061329038549362037
leaf_weight=31.275767371058464 14129.472019433975 42.642272636294365 15.577457055449484 470.1600419729948 204.01534731686115 15.308720141649244 42.643559858202934 62.257042214274406 298.15558618307114 6121.0516735464334 2398.0572308599949 177.39197197556496 38.763812676072121 104.03172086179256 36.716811746358871 57.36212357878685 58.296795606613159 235.18790206313133 575.29434636235237 154.18935677409172 25.042968332767487 18.092997491359711 113.36915454268456 67.979310587048531 170.01548226177692 40.183619424700737 29.95122592151165 29.765897378325462 43.910927519202232 44.253468707203865 66.634036406874657 28.225870400667191 29.108427792787552 19.499815464019775 20.343059316277504 17.372137263417244 22.540527552366257 145.00893831253052 39.693546906113625 25.457277372479439 76.931016862392426 31.592337429523468 36.769581124186516 15.708796113729475 22.463207542896271 17.81201659142971 39.56771057844162 16.87187871336937 24.912002220749855 31.297071039676666 17.018337711691856 438.23172090947628 132.07421107590199 26.967305183410645 111.75774466991425 28.695238173007965 108.46384473145008 41.040678903460503 33.194013655185699 56.494991198182106 42.869554221630096 197.07168483734131
leaf_count=125 55906 170 62 1884 808 61 170 247 1183 24216 9504 705 155 411 145 227 232 931 2282 611 99 73 450 270 673 160 118 118 174 176 265 112 115 77 80 69 90 579 159 101 309 126 148 62 89 71 157 67 98 124 68 1745 529 107 441 114 428 162 131 225 170 781
internal_value=-0.000538751 -0.00206088 -0.00474262 0.00379371 -0.00107363 -0.00182008 0.00529155 -0.00418023 0.00344649 -0.0039699 0.00296666 0.00961509 0.0252011 -0.00230809 0.000241502 0.00902638 0.0130758 -0.00287738 0.00140583 -0.0103422 0.00925252 0.0132328 0.00478184 0.00503524 0.00274542 0.00796223 0.00219765 0.0305626 0.0285127 -0.0202474 -0.0147793 -0.00987945 0.00494211 0.0129552 0.0123513 0.00601846 0.0104207 0.0130299 0.01797 -0.0138987 0.0234938 -0.0216995 0.0170852 0.00788677 0.00741554 0.0303605 0.00604159 -0.00784682 -0.0283537 0.00816373 -0.00525453 0.0107677 0.0221685 0.0172148 -0.0171752 -0.00801078 -0.0192069 -0.00460255 -0.0188376 -0.0244555 -0.0301358 -0.00330581
internal_weight=27812.1 20581.3 6451.78 7230.85 1701.54 1670.26 5529.31 6225.95 3772.2 6183.31 3690.79 701.728 81.4074 1654.95 1256.28 329.156 292.439 927.125 2989.06 398.674 1757.12 903.961 190.231 853.157 514.207 344.191 274.242 69.9495 102.208 225.83 181.576 412.918 524.336 132.869 885.868 378.939 327.003 309.631 261.634 47.9978 221.94 51.9354 506.93 591.003 244.291 40.2752 828.114 109.763 41.7839 718.35 116.747 601.603 163.371 43.9856 244.485 132.727 177.73 69.2665 72.7617 114.942 99.3645 226.18
internal_count=110145 81437 25531 28708 6738 6613 21970 24633 14957 24463 14632 2784 325 6552 4975 1305 1160 3670 11848 1577 7013 3618 754 3395 2037 1364 1086 278 406 898 722 1633 2079 527 3545 1513 1307 1238 1047 191 888 206 2032 2344 968 160 3296 435 165 2861 463 2398 653 175 966 525 702 274 288 457 395 896
is_linear=0
shrinkage=0.05


Tree=13
num_leaves=63
num_cat=0
split_feature=6 5 1 1 8 6 8 8 7 2 7 9 9 2 0 0 4 8 8 11 8 5 4 11 8 6 1 9 6 9 1 1 8 9 7 4 11 2 4 7 8 7 4 2 5 11 6 0 8 8 11 5 6 2 0 11 1 7 8 5 7 11
split_gain=59.6192 16.053 15.1837 13.8557 13.4822 12.7755 21.5014 26.7077 19.8519 14.4501 13.7804 13.1063 12.1402 12.8726 17.2724 14.2716 21.423 28.6031 11.5662 17.909 11.5506 11.2974 11.0841 10.7779 21.6951 21.1561 13.2747 15.6179 12.6162 15.099 11.2938 10.7464 10.558 10.4624 10.3175 14.2252 15.7192 13.2399 11.9672 12.7512 9.98346 9.9528 9.94797 16.8574 13.6126 9.79335 17.454 12.9923 9.78038 21.4858 15.098 22.5682 14.4657 12.4483 10.2544 17.1631 11.8708 10.0387 14.7851 9.72623 12.6706 10.0966
threshold=-0.00080285632795068496 -0.00078929397803240142 0.21914928300827755 0.87910533425004944 2060.5260250000006 6.0704878953488091e-05 1882.30304 1885.8702250000001 1886.2089400000002 0.65413161874527936 1883.8126200000004 21.500000000000004 21.500000000000004 1.1157778249368333 0.53096915678212075 0.37175598508226626 0.17881944444444448 1883.4016900000004 1810.3966250000001 1758.3500000000074 1906.2408200000002 0.00064686963319682278 0.026736111111111117 1118.4999999999948 1903.2328325000003 -0.0025669963061703545 0.98980531322994547 16.500000000000004 -0.0022064033370738363 3.5000000000000004 1.2799399935371227 1.2289576432493956 1936.3294000000003 19.500000000000004 1907.7757200000003 0.99479166666666685 1410.4999999999907 1.0741949892546747 0.8968750000000002 1903.83492 1961.7853600000003 1910.7509700000003 0.76701388888888899 0.83329076718980033 -0.00092158876467579576 1603.9999999999966 -0.0031170297341554516 1.9936141368154994 1989.9831675000003 1986.5352550000005 1661.3500000000047 0.00017057270456521947 0.0014986209739064062 1.1132670531642697 0.63889076686649771 2055.7000000000021 0.78171900501587099 2005.6241800000005 2029.4419850000002 0.00010096946005444531 1979.0075400000003 865.49999999999739
decision_type=2 2 2 2 2 2 2 2 2 2 2 2 2 2 2 2 2 2 2 2 2 2 2 2 2 2 2 2 2 2 2 2 2 2 2 2 2 2 2 2 2 2 2 2 2 2 2 2 2 2 2 2 2 2 2 2 2 2 2 2 2 2
left_child=3 40 -3 18 23 6 21 -8 10 20 -9 -10 48 14 15 -14 -17 -18 19 -1 33 31 -13 24 -5 -26 27 28 29 -25 34 -4 45 -7 37 36 -36 38 39 -28 -2 -15 43 -34 -45 -32 -47 -48 49 59 52 57 53 -50 55 -53 -56 -52 -59 60 61 -11
right_child=1 2 5 4 -6 9 7 8 11 12 -12 22 13 41 -16 16 17 -19 -20 -21 -22 -23 -24 26 25 -27 30 -29 -30 -31 32 -33 42 -35 35 -37 -38 -39 -40 -41 -42 -43 -44 44 -46 46 47 -49 50 -51 51 54 -54 -55 56 -57 -58 58 -60 -61 -62 -63
leaf_value=0.038138317153340172 0.0026314060186754902 -0.020671022905309189 0.004279011746626901 -0.0019056015979200429 0.048406543386558844 0.01073194847614263 -0.019473728274249234 -0.009125019431818036 -0.0022543568582111249 0.0021167993077545839 0.041489589231940738 0.032167895227921038 -0.0048189612413378317 -0.016769787154523486 0.012661702541361085 -0.055304634887695596 -0.05822522045521758 0.012150461701860293 0.0058568481392636488 -0.011605019902458649 0.023238273449876449 -0.011572599973811 0.0045267431685416725 0.042901986333623132 0.051510244583329895 0.011674738266351709 0.00033628549499178451 0.0083953731173593629 -0.022040917069778228 -0.010974606306186296 -0.0061842756130252551 -0.023827897458512513 0.018854910514914388 -0.035948587605753736 0.037133127087519723 -0.028973694501315091 0.0090251701127143213 0.012921412402735364 -0.052721108388806448 -0.045646928142001469 0.016986605721817576 -0.055611109195019708 -0.0045155314907743905 -0.002203041213485911 -0.054343876206833563 -0.0080719483127933735 0.013934450704780152 0.053251600589648784 0.012943583234571916 -0.028242044959056318 -0.053935771828662007 -0.0045383872347978336 -0.0048914645619977243 0.046523393037677364 -0.026038382023941899 0.056407350467549924 0.0072017258374962208 0.010841303935064828 -0.023929778998508854 -0.0040752450478568833 0.024324943178108845 -0.0028910781751209395
leaf_weight=64.153016477823257 697.61632679402828 107.2488399296999 2678.5191064625978 266.10256305336952 15.026892513036726 33.306519642472267 212.47177956998348 19.223421782255173 5164.5286960601807 1435.1867834329605 44.758588507771492 45.064415782690048 197.75013008713722 47.70409868657589 84.767762526869774 42.090896338224411 20.990911588072777 46.249679192900658 3039.5440463572741 25.202687084674835 94.466925412416458 122.97027513384819 185.81163248419762 17.532258093357086 41.655338376760483 166.76546020805836 99.708816409111023 90.444925084710121 197.84966956079006 50.353650569915771 144.68229797482491 34.444926887750626 17.139487043023109 18.766600862145424 59.429382771253586 20.729172319173813 305.11015759408474 87.08287949860096 15.990851923823355 17.761818706989288 146.5614866912365 25.208236962556839 341.28981328010559 18.41743116080761 39.077385827898979 75.248903200030327 96.774255186319351 26.83901658654213 204.09245434403419 83.881016746163368 17.279186189174652 21.998607665300369 104.08447852730751 31.914905041456223 32.944826364517212 24.325500428676605 145.4092480391264 43.414865329861641 103.35010761022568 6731.8781941533089 48.366190493106842 3369.4493416398764
leaf_count=257 2766 425 10610 1056 60 132 839 76 20437 5680 178 179 785 190 337 166 83 184 12091 100 375 486 736 70 167 663 395 359 782 200 573 136 68 74 237 82 1211 346 63 70 582 100 1353 73 154 298 384 107 809 331 68 87 412 127 130 97 576 172 408 26632 192 13329
internal_value=-0.000511838 -0.0016405 -0.00190456 0.00423708 0.00120725 -0.00181102 -0.000304471 -0.00208185 -0.00140498 -0.0027963 0.0262824 -0.00173332 -0.00297417 -0.0109079 -0.00731841 -0.0128338 -0.0273303 -0.00981915 0.00637808 0.0241083 0.012816 0.00325028 0.00992199 0.000884273 0.00755608 0.0196363 -0.000954818 -0.00955109 -0.0156593 0.0029396 0.00128781 0.00392215 -0.00277375 -0.00609122 0.00637953 0.0113164 0.0136075 -0.00224473 -0.0121406 -0.00661648 0.00512368 -0.0301985 -0.00813161 -0.0246673 -0.0376415 0.00371293 0.0109136 0.022471 -0.00267676 -0.00302773 0.00294256 -0.00378875 0.0106364 0.0174845 0.0065056 0.0274652 0.00106175 -0.0178881 -0.0136441 -0.00284516 -0.00113885 -0.00139518
internal_weight=27808 22468.1 21623.9 5339.91 2211.01 21516.7 8507.79 5671.86 5459.39 13008.9 63.982 5395.4 12862.3 464.762 391.849 307.082 109.331 67.2406 3128.9 89.3557 146.54 2835.93 230.876 2195.99 474.523 208.421 1721.46 356.181 265.736 67.8859 1365.28 2712.96 759.469 52.0731 605.813 385.269 364.54 220.544 133.461 117.471 844.178 72.9123 415.924 74.6343 57.4948 343.544 198.862 123.613 12397.6 11668.8 728.814 388.722 340.092 236.007 224.678 46.3241 178.354 164.044 146.765 11584.9 4853 4804.64
internal_count=110145 88926 85578 21219 8771 85153 33677 22445 21606 51476 254 21352 50895 1845 1555 1218 433 267 12448 357 581 11232 915 8711 1886 830 6825 1411 1052 270 5414 10746 3010 206 2404 1530 1448 874 528 465 3348 290 1648 295 227 1362 789 491 49050 46164 2886 1538 1348 936 890 184 706 648 580 45833 19201 19009
is_linear=0
shrinkage=0.05


Tree=14
num_leaves=63
num_cat=0
split_feature=3 2 1 10 1 3 7 1 2 4 10 7 7 4 2 4 8 7 5 8 4 0 1 9 1 4 8 4 8 1 2 9 1 8 3 1 2 3 8 2 4 5 8 1 2 6 0 2 8 10 2 8 2 3 6 4 6 6 7 2 7 7
split_gain=69.1573 20.0906 20.4471 18.7056 22.3795 15.9155 17.0205 24.091 16.6148 15.0988 14.1343 20.1837 17.5501 15.7106 14.1047 14.0825 19.5534 18.2244 17.3318 16.9394 16.3408 15.5082 13.9437 13.9131 12.8496 15.3889 14.9576 14.2129 12.4453 20.1696 21.0459 17.7504 19.3351 14.0439 12.2927 11.9481 14.257 11.8582 13.6034 11.4494 13.031 11.3572 11.0984 11.8732 10.8125 15.6482 10.6157 12.9393 11.5836 13.4977 10.2956 10.261 10.2502 10.9562 13.7896 12.0843 15.775 12.8171 10.245 10.5142 10.2324 11.371
threshold=45.382846835181184 1.0679745853492577 1.2984563220048349 1.5000000000000002 0.27199243313922833 68.037075257890152 1928.0072900000002 0.4233600509671549 1.2806917071992745 0.38784722222222229 2.5000000000000004 1834.3526800000002 1837.6790200000003 0.086458333333333345 0.66918632825720004 0.22951388888888891 1954.0624925 1959.2076500000005 -7.5502893405521285e-05 1941.7189125000002 0.065625000000000017 0.66032856468834045 1.4309278031891817 12.500000000000002 0.97590380835808732 0.64965277777777797 1970.1659925000004 0.49618055555555562 1887.1498825000001 0.63802660227691899 0.81167442934390033 8.5000000000000018 0.38593891745374698 1884.0661625 48.97279448132965 0.46233130030854713 0.93666952100369283 37.220629036734657 1863.2158675000003 1.308327201972094 0.30034722222222227 -0.0006556481217767084 1842.0791750000001 0.68190026272079407 0.79447597790310331 0.0004833560836746687 1.4129740547706662 0.90309816768440632 1912.5579600000003 1.0000000180025095e-35 0.94824927621726773 1888.7859300000002 0.80946426418678208 39.916674349820248 -0.001033224355013129 0.21701388888888892 -0.00073713363545918609 -0.0013397064739007478 1804.6486200000002 1.3603028356451881 1966.1386100000004 1954.8636700000002
decision_type=2 2 2 2 2 2 2 2 2 2 2 2 2 2 2 2 2 2 2 2 2 2 2 2 2 2 2 2 2 2 2 2 2 2 2 2 2 2 2 2 2 2 2 2 2 2 2 2 2 2 2 2 2 2 2 2 2 2 2 2 2 2
left_child=1 3 9 46 -5 14 44 -8 22 39 13 23 35 -6 -2 18 42 -18 37 -20 -21 -19 -9 -12 25 27 34 -16 29 30 -15 -32 50 -34 -27 -13 -37 38 -14 -3 -41 -28 43 -17 -7 -46 52 -48 -49 -50 -33 -30 -1 55 -55 56 57 -54 -47 -60 61 -36
right_child=5 2 -4 4 10 6 7 8 -10 -11 11 12 15 28 24 16 17 21 19 20 -22 -23 -24 -25 -26 26 41 -29 51 -31 31 32 33 -35 60 36 -38 -39 -40 40 -42 -43 -44 -45 45 58 47 48 49 -51 -52 -53 53 54 -56 -57 -58 -59 59 -61 -62 -63
