tree
version=v4
num_class=1
num_tree_per_iteration=1
label_index=0
max_feature_idx=11
objective=binary sigmoid:1
feature_names=ATR14 ATR50 ATR_ratio RSI14 VolRank Mom_5 Mom_20 SMA50 SMA200 HOUR DOW AsianRangePips
feature_infos=[0.088269787824445362:3.1890121754311824] [0.12372812216305207:2.2437734155727989] [0.41647343886479671:2.2109577187222302] [6.4119247975262805:94.752276916793306] [0.00069444444444444447:1] [-0.0099080082078584208:0.0081199240003262396] [-0.013288591224445478:0.012538013504458378] [1655.7089200000003:1916.5207200000002] [1659.4554999999998:1915.6101699999999] [0:23] [0:4] [386.50000000000091:2196.4999999999918]
tree_sizes=6910

Tree=0
num_leaves=63
num_cat=0
split_feature=3 10 0 5 2 7 3 2 0 0 9 9 8 6 4 7 7 2 1 4 8 7 6 0 4 10 8 2 8 5 0 0 9 9 10 7 2 2 7 0 2 1 9 7 5 7 3 1 9 3 1 1 1 6 7 1 4 8 8 0 7 5
split_gain=165.344 41.081 39.5037 31.101 29.1806 37.1954 32.3557 26.2609 27.9966 25.2347 37.0241 25.0915 23.1964 22.5092 22.2335 21.4251 20.8681 19.4216 19.0154 21.0953 19.4196 24.0439 19.3347 17.9521 16.0371 15.8708 15.4671 21.0745 15.9366 24.0709 15.6987 18.309 15.3727 18.1448 22.5103 21.993 18.9595 19.4046 18.4625 15.2904 14.7677 17.9122 14.6422 16.0404 18.8407 14.9421 20.8572 14.1691 14.1404 15.5261 13.8167 13.6505 13.4809 16.6856 21.9928 13.3586 21.5199 21.4468 15.0356 13.8026 20.9876 20.3398
threshold=36.970848090517102 3.5000000000000004 0.33680654614267852 1.0000000180025095e-35 1.3871823321495638 1718.6555000000005 45.069780237625864 1.2116128329761044 1.6137291626504278 0.43997113570946256 7.5000000000000009 5.5000000000000009 1854.1827450000003 -0.00035774463007814944 0.019097222222222227 1662.7509400000001 1662.7509400000001 1.1870915922880336 0.30231593389034778 0.41215277777777781 1704.2970200000002 1716.7154100000002 0.00091522030117396913 0.3445185885624143 0.3378472222222223 2.5000000000000004 1714.9117425000002 1.1321454142434539 1663.7938950000005 3.4903446007095169e-05 0.31463847975337805 0.18133268410723527 1.0000000180025095e-35 2.5000000000000004 1.5000000000000002 1705.2881000000002 0.92114903785141256 0.79019187379093914 1901.5868300000002 0.26223937870407626 0.63856804660622435 0.23690581633425753 20.500000000000004 1736.7254 2.4525461640112493e-05 1737.6931000000002 57.78777828581196 1.3347865257423879 4.5000000000000009 55.543061402343959 0.31103249829379581 0.35966928943681103 0.5145368011381618 -0.0030527394649421109 1787.2681400000004 0.6744949905078953 0.81701388888888904 1857.95767 1860.8290350000004 0.63743750641177399 1738.9608800000003 -8.0773298672398558e-06
decision_type=2 2 2 2 2 2 2 2 2 2 2 2 2 2 2 2 2 2 2 2 2 2 2 2 2 2 2 2 2 2 2 2 2 2 2 2 2 2 2 2 2 2 2 2 2 2 2 2 2 2 2 2 2 2 2 2 2 2 2 2 2 2
left_child=7 4 14 -4 6 -6 9 32 52 12 11 17 24 -7 -3 -5 -8 -11 40 20 22 39 48 -21 -2 -12 27 28 -16 -30 31 -28 -1 34 -34 -36 37 -35 -38 -22 41 -18 43 -33 -45 -44 -47 50 51 -50 -17 -20 -9 54 -54 56 57 -25 -59 61 -61 -58
right_child=1 2 3 15 5 13 16 8 -10 10 25 -13 -14 -15 26 47 18 -19 19 23 21 -23 -24 55 -26 -27 30 -29 29 -31 -32 42 33 36 35 -37 38 -39 -40 -41 -42 -43 45 44 -46 46 -48 -49 49 -51 -52 -53 53 -55 -56 -57 59 58 -60 60 -62 -63
leaf_value=-0.00073507189210227433 -0.022442428241693461 0.012724967113508377 -0.018763456240685525 0.0063494583331142641 0.029598007326858685 -0.042019452719602196 0.024970477918795548 -0.0077616064515398757 -0.042991742008071591 -0.0087660429725767638 -0.020142226356951478 0.0073665816522260862 -0.042833467393058364 -0.0075747418381347555 -0.03799399987689682 -0.00079609241793183669 -0.031788085292364779 -0.038691187469365229 -0.038313795518370712 0.0049585266658155741 0.03624723431626295 -0.024691945545227197 0.013510991360743459 -0.028354834893995304 -0.031564528898556994 -0.029983686745918676 0.0033811699868686422 0.049779630898620655 0.019282760761948421 -0.018410979551323415 -0.0054551773126771293 -0.054471860475288209 -0.044345709968042539 -0.0088838628066229691 -0.065381002618085382 -0.0063567913835954129 -0.011470578657545407 -0.023866699471124044 -0.060528708265878736 -0.013294894330934118 -0.033216014174620626 0.015260388459310933 0.029243853541893652 -0.035640888567820758 -0.015835527282472874 0.0028850190421106751 -0.050856580813581992 0.0018943945310453889 -0.020704241546032724 -0.051916841117072676 -0.029904227149091422 -0.087311413016215755 0.029350665177886839 0.019887996847880254 -0.033529570752806666 -0.026082030305321125 -0.029046356785701589 -0.065641038269355703 -0.036823388473517717 -0.047677493143718858 -0.022131232172552626 -0.061422420012471765
leaf_weight=161.45059072971344 1450.5988274514675 75.777137994766235 1626.0322335362434 44.464109092950821 48.41770701110363 70.709939375519753 18.591677740216255 217.10548335313797 39.895731702446938 212.76682375371456 1591.8164962679148 181.94513568282127 211.09807172417641 144.06404708325863 36.383525565266609 41.631592273712158 47.28496316075325 72.760670080780983 27.539199724793434 39.375568628311157 16.322891995310783 3345.5551116764545 16.784526273608208 4430.5183431357145 721.43206749856472 551.61463031172752 66.036167144775391 17.117440208792686 76.603591457009315 94.729452565312386 189.51523523032665 50.176008775830269 126.23082995414734 284.27659304440022 18.381103098392487 111.61607563495636 1676.9631898403168 901.08289323747158 19.400087401270866 339.62409593164921 2055.6413640230894 35.357060864567757 22.424035713076591 218.87126551568508 266.03807173669338 48.508141055703163 28.757095918059349 37.074877634644508 89.384570762515068 71.88316822052002 1964.1825220137835 29.379355788230896 21.405051410198212 137.94794256985188 39.690438762307167 2788.5287060588598 75.631473198533058 53.630785465240479 290.10026861727238 143.84290903806686 182.28134766221046 135.28154808282852
leaf_count=636 5730 298 6420 175 190 280 73 856 158 839 6286 716 836 568 144 164 187 288 109 155 64 13219 66 17514 2853 2181 260 67 301 374 747 199 500 1121 73 440 6615 3560 77 1340 8131 139 88 866 1050 191 114 146 353 285 7766 117 84 542 157 11020 299 213 1148 570 720 537
internal_value=-0.0239934 -0.025497 -0.0214066 -0.0239479 -0.0265263 -0.00999034 -0.0267526 -0.0142269 -0.00298067 -0.02329 -0.0198943 -0.00714482 -0.0270102 -0.018915 -0.0134827 -0.0279866 -0.0279676 -0.0163918 -0.0280369 -0.0272673 -0.0242623 -0.0233775 -0.0382009 -0.0287207 -0.0254723 -0.0226749 -0.0152636 -0.00354568 -0.00794009 -0.00155798 -0.0182227 -0.0216753 -0.0157814 -0.0165555 -0.0293063 -0.0147026 -0.0154218 -0.0202735 -0.0120316 -0.011023 -0.0323829 -0.0116592 -0.024282 -0.0275597 -0.024775 -0.00668854 -0.0171169 -0.0287339 -0.042179 -0.0346169 -0.0293001 -0.0636046 0.000855151 0.0102538 -0.0114992 -0.0288844 -0.0303557 -0.0292883 -0.0413197 -0.0398451 -0.0333989 -0.0498127
internal_weight=28149.5 24394.1 4904.32 3713.39 19489.8 263.192 19226.6 3755.45 456.045 4994.03 2610.9 467.473 2383.13 214.774 1190.94 2087.35 14232.5 285.527 14213.9 12075.7 3936.47 3701.5 234.971 8139.19 2172.03 2143.43 1115.16 224.834 207.717 171.333 890.326 700.811 3299.4 3137.95 256.228 129.997 2881.72 1185.36 1696.36 355.947 2138.28 82.642 634.775 535.085 484.909 99.6893 77.2652 2042.89 218.186 161.268 2005.81 56.9186 416.149 199.043 61.0955 8099.82 5311.29 4774.25 343.731 537.037 326.124 210.913
internal_count=111215 96396 19370 14671 77026 1038 75988 14819 1797 19729 10310 1843 9419 848 4699 8251 56259 1127 56186 47729 15553 14623 930 32176 8583 8467 4401 886 819 675 3515 2768 13022 12386 1013 513 11373 4681 6692 1404 8457 326 2508 2115 1916 393 305 8076 864 638 7930 226 1639 783 241 32021 21001 18875 1361 2126 1290 836
is_linear=0
shrinkage=1


end of trees

feature_importances:
SMA50=10
ATR14=8
ATR50=7
ATR_ratio=7
SMA200=6
HOUR=6
RSI14=4
VolRank=4
Mom_5=4
Mom_20=3
DOW=3

parameters:
[boosting: gbdt]
[objective: binary]
[metric: binary_logloss,auc]
[tree_learner: serial]
[device_type: cpu]
[data_sample_strategy: bagging]
[data: ]
[valid: ]
[num_iterations: 2000]
[learning_rate: 0.05]
[num_leaves: 63]
[num_threads: 0]
[seed: 62]
[deterministic: 0]
[force_col_wise: 0]
[force_row_wise: 0]
[histogram_pool_size: -1]
[max_depth: -1]
[min_data_in_leaf: 60]
[min_sum_hessian_in_leaf: 0.001]
[bagging_fraction: 0.8]
[pos_bagging_fraction: 1]
[neg_bagging_fraction: 1]
[bagging_freq: 2]
[bagging_seed: 18760]
[bagging_by_query: 0]
[feature_fraction: 0.9]
[feature_fraction_bynode: 1]
[feature_fraction_seed: 19802]
[extra_trees: 0]
[extra_seed: 25878]
[early_stopping_round: 0]
[early_stopping_min_delta: 0]
[first_metric_only: 0]
[max_delta_step: 0]
[lambda_l1: 0]
[lambda_l2: 0]
[linear_lambda: 0]
[min_gain_to_split: 0]
[drop_rate: 0.1]
[max_drop: 50]
[skip_drop: 0.5]
[xgboost_dart_mode: 0]
[uniform_drop: 0]
[drop_seed: 14704]
[top_rate: 0.2]
[other_rate: 0.1]
[min_data_per_group: 100]
[max_cat_threshold: 32]
[cat_l2: 10]
[cat_smooth: 10]
[max_cat_to_onehot: 4]
[top_k: 20]
[monotone_constraints: ]
[monotone_constraints_method: basic]
[monotone_penalty: 0]
[feature_contri: ]
[forcedsplits_filename: ]
[refit_decay_rate: 0.9]
[cegb_tradeoff: 1]
[cegb_penalty_split: 0]
[cegb_penalty_feature_lazy: ]
[cegb_penalty_feature_coupled: ]
[path_smooth: 0]
[interaction_constraints: ]
[verbosity: -1]
[saved_feature_importance_type: 0]
[use_quantized_grad: 0]
[num_grad_quant_bins: 4]
[quant_train_renew_leaf: 0]
[stochastic_rounding: 1]
[linear_tree: 0]
[max_bin: 255]
[max_bin_by_feature: ]
[min_data_in_bin: 3]
[bin_construct_sample_cnt: 200000]
[data_random_seed: 241]
[is_enable_sparse: 1]
[enable_bundle: 1]
[use_missing: 1]
[zero_as_missing: 0]
[feature_pre_filter: 1]
[pre_partition: 0]
[two_round: 0]
[header: 0]
[label_column: ]
[weight_column: ]
[group_column: ]
[ignore_column: ]
[categorical_feature: ]
[forcedbins_filename: ]
[precise_float_parser: 0]
[parser_config_file: ]
[objective_seed: 25766]
[num_class: 1]
[is_unbalance: 1]
[scale_pos_weight: 1]
[sigmoid: 1]
[boost_from_average: 1]
[reg_sqrt: 0]
[alpha: 0.9]
[fair_c: 1]
[poisson_max_delta_step: 0.7]
[tweedie_variance_power: 1.5]
[lambdarank_truncation_level: 30]
[lambdarank_norm: 1]
[label_gain: ]
[lambdarank_position_bias_regularization: 0]
[eval_at: ]
[multi_error_top_k: 1]
[auc_mu_weights: ]
[num_machines: 1]
[local_listen_port: 12400]
[time_out: 120]
[machine_list_filename: ]
[machines: ]
[gpu_platform_id: -1]
[gpu_device_id: -1]
[gpu_use_dp: 0]
[num_gpu: 1]

end of parameters

pandas_categorical:[]
