tree
version=v4
num_class=1
num_tree_per_iteration=1
label_index=0
max_feature_idx=11
objective=binary sigmoid:1
feature_names=ATR14 ATR50 ATR_ratio RSI14 VolRank Mom_5 Mom_20 SMA50 SMA200 HOUR DOW AsianRangePips
feature_infos=[0.068680815516024132:4.9749476591000112] [0.17412615726535088:3.3469485237525194] [0.39443134908748995:2.4892578860193804] [4.1430375485144628:92.0335377198911] [0.00069444444444444447:1] [-0.013554383310096285:0.010011645331256425] [-0.022546496696294049:0.010097305356684849] [1770.6187199999999:1969.32106] [1773.515985:1967.9203449999998] [0:23] [0:4] [587.99999999998818:3968.0000000000064]
tree_sizes=6756 6875 6891 6906 6888 6908

Tree=0
num_leaves=63
num_cat=0
split_feature=3 3 3 11 9 4 4 11 1 2 7 11 7 1 8 8 11 1 2 8 9 6 9 7 7 9 5 1 11 7 7 8 1 7 8 2 3 8 11 7 7 2 4 10 7 1 1 11 1 5 8 1 7 6 8 2 4 11 8 10 7 1
split_gain=254.378 90.5182 45.9845 26.6065 30.9056 24.5878 33.1409 27.51 22.0888 21.3656 20.0135 19.509 17.3187 16.6278 15.9165 16.1515 15.6778 18.7052 19.7832 16.8459 15.3569 14.3662 13.6076 20.2829 13.4042 13.7644 18.1812 13.2479 27.6367 19.6211 16.7739 24.9254 14.8414 29.4886 18.4937 15.1735 14.3608 13.1501 13.7244 13.0635 17.9358 12.3895 24.1282 12.1465 15.0042 12.067 14.917 12.7563 11.9363 13.9596 11.7102 12.2355 12.431 13.872 11.9884 11.782 14.7404 13.6066 15.8725 11.6941 20.3651 11.6823
threshold=44.175931436856466 58.518769825473839 33.68063661527254 1235.6499999999985 21.500000000000004 0.33229166666666671 0.78854166666666681 1088.199999999995 0.23348312711542252 1.0788088316530791 1804.6486200000002 745.75000000000966 1875.1117200000001 0.28473143723443611 1906.7284700000002 1841.6233675000001 1418.6500000000026 0.41932688940920065 1.0068540426110728 1806.6759425000002 22.500000000000004 -0.00068789076485525891 1.0000000180025095e-35 1857.5812600000002 1827.2026400000002 20.500000000000004 0.00070418416271467177 0.80995949700034031 1319.5000000000052 1859.0812400000002 1847.1333400000005 1853.1624725000004 0.75145716334027213 1895.4624400000002 1868.8663400000003 0.91664570270056445 61.854353655208541 1947.8071925000002 656.50000000000557 1860.9569600000002 1875.7474700000002 1.3548924747400166 0.94062500000000016 1.5000000000000002 1943.0397100000002 1.1821784214615654 0.70654313551446857 1821.249999999998 0.70654313551446857 0.00033669195645125166 1895.4665025000002 0.51290635801174722 1852.5111100000001 0.00069778039558809912 1900.7974850000003 1.2684321573985879 0.45520833333333338 1540.8500000000006 1875.9827175000003 1.5000000000000002 1900.9212399999999 0.48659943944136408
decision_type=2 2 2 2 2 2 2 2 2 2 2 2 2 2 2 2 2 2 2 2 2 2 2 2 2 2 2 2 2 2 2 2 2 2 2 2 2 2 2 2 2 2 2 2 2 2 2 2 2 2 2 2 2 2 2 2 2 2 2 2 2 2
left_child=2 10 5 4 8 -1 -7 11 -3 16 -2 -8 -13 14 15 -10 19 18 43 -4 22 -22 23 -11 -5 27 39 32 29 -29 -30 -32 48 34 35 -34 -33 38 -24 -27 -41 -15 -43 44 -18 46 47 -19 50 -50 51 52 61 -54 -52 56 57 -53 -59 60 -17 -26
right_child=1 3 9 24 -6 6 7 -9 13 20 -12 12 -14 41 -16 59 17 45 -20 -21 21 -23 37 -25 25 26 -28 28 30 -31 31 36 33 -35 -36 -37 -38 -39 -40 40 -42 42 -44 -45 -46 -47 -48 -49 49 -51 54 55 53 -55 -56 -57 -58 58 -60 -61 -62 -63
leaf_value=0.028568775790910765 0.039173929531185425 -0.022987160317021194 0.072117387574990713 -0.004238856509105781 -0.009017621993367711 0.047242949989974595 0.027463223491439662 0.022795054086188322 -0.0042788846560652058 0.051000074488442126 0.02186199707874709 0.045282845277995254 0.084112716737210907 0.012717798344293105 -0.01858664221238366 -0.0066822804142702905 0.035202060744107803 0.036949744208324982 0.050357563163925603 0.027580409167703546 0.024560220766946677 0.086074122234092734 0.017060956489439734 -0.0049605961885277328 0.030237576124195364 -0.034199284751491171 0.049716030007954395 0.077790837825745709 0.031918653860690753 0.024319488569434753 -0.046521550755853472 0.021555622699000299 0.0051271622243987403 0.015089668874391489 0.097912814170940207 0.070881719882635863 0.0022159641004693524 0.017830710107813251 0.035430769486364803 0.033344781430826018 -0.0084944644681664572 0.015159631438921481 0.067377010374283189 -0.0077350144661813558 -0.021416073525866448 0.043662401899730363 0.015301379591519651 0.019134042680933383 -0.016411521543168411 0.020468068801407297 0.043278236956986668 0.062162978371181926 0.015523707537774873 -0.01428940330327684 0.025143048141273851 0.065113501188339723 0.01138851606266085 0.034035594460978758 -0.02050356102692151 0.054243996190507834 0.065202443744796876 -0.0064615125946098674
leaf_weight=623.48258250951767 169.11716736853123 41.192309126257896 21.372316479682922 58.606938987970352 158.9120828807354 786.53149980306625 93.269170105457306 354.5673223733902 21.81913685798645 22.937726274132729 12996.751962304115 93.578210741281509 41.429188400506973 3885.8895849585533 15.24845704436302 25.378303229808807 43.43545326590538 225.21194571256638 23.443622052669525 3236.0669288635254 15.170908048748968 25.353864327073097 109.3271759301424 55.059703230857849 103.85122430324554 24.188130125403404 20.4201779961586 26.383551806211472 78.062470212578773 49.053994596004486 20.908755525946617 153.28045558929443 15.712595671415327 57.713875904679298 25.0681072473526 19.866559758782387 256.81186398863792 134.11606907844543 1453.0283094495535 39.656148195266724 72.343674004077911 79.22935976088047 30.692613884806633 118.78525307774544 16.016248673200607 72.152206495404243 388.54643151164055 181.40837641060352 41.668378368020058 66.784208074212074 111.26070176064968 33.983919098973274 84.288317546248436 72.64732700586319 503.63954843580723 17.866837874054909 133.7115835249424 86.882837146520615 15.760318130254744 75.842031955718994 16.105150610208511 27.407851651310921
leaf_count=2467 670 162 85 231 626 3119 369 1402 86 91 51385 371 165 15347 60 100 172 892 93 12803 60 101 432 217 411 95 81 105 309 194 82 606 62 228 100 79 1013 530 5754 157 285 313 122 468 63 286 1535 717 164 264 441 135 333 286 1992 71 528 344 62 301 64 108
internal_value=0.0227595 0.0196926 0.0302 0.0148982 0.012626 0.0367995 0.040547 0.0315111 0.0134466 0.0280585 0.0220844 0.0450492 0.0571984 0.0138082 0.0299088 0.0352232 0.0261484 0.0208943 0.00717853 0.0278726 0.0326118 0.0630457 0.0319167 0.0114965 0.0193551 0.0199955 0.00572 0.0211119 0.0147775 0.0430206 0.0105922 0.00672953 0.0237227 0.0406731 0.065019 0.041843 0.00944456 0.0328556 0.0341453 -0.000876817 0.0063197 0.0131861 0.0297399 0.00149917 0.0199492 0.0240837 0.0223071 0.0290015 0.0221792 0.00629863 0.0236249 0.0185048 0.0112198 0.00172287 0.0284244 0.0257894 0.0231905 0.0347406 0.0256614 0.0425695 0.0212256 0.0225745
internal_weight=27868.3 19734 8134.29 6568.14 4350.31 1992.86 1369.38 582.844 4191.4 6141.43 13165.9 228.277 135.007 4150.2 154.393 139.145 4326.44 1069 201.681 3257.44 1814.99 40.5248 1774.47 77.9974 2217.83 2159.22 156.608 2002.62 584.501 75.4375 509.064 431.001 1418.11 118.361 60.6473 35.5792 410.092 1696.47 1562.36 136.188 112 3995.81 109.922 178.237 59.4517 867.319 795.167 406.62 1299.75 108.453 1191.3 576.4 288.195 156.936 614.9 288.205 270.339 136.627 102.643 117.325 41.4835 131.259
internal_count=110194 78002 32192 25947 17181 7893 5426 2307 16555 24299 52055 905 536 16393 611 551 17114 4226 796 12888 7185 161 7024 308 8766 8535 618 7917 2309 299 2010 1701 5608 469 241 141 1619 6716 6186 537 442 15782 435 703 235 3430 3144 1609 5139 428 4711 2278 1138 619 2433 1140 1069 541 406 465 164 519
is_linear=0
shrinkage=1


Tree=1
num_leaves=63
num_cat=0
split_feature=3 3 6 4 11 9 1 8 11 5 11 8 9 0 11 0 11 8 9 0 9 2 1 10 9 8 11 1 9 5 8 8 0 8 8 8 1 8 2 3 8 3 6 2 9 0 9 8 3 0 9 0 8 4 4 4 0 11 5 2 11 3
split_gain=229.592 81.6883 42.9378 27.1048 24.0043 27.8874 19.9355 19.0709 18.8193 22.831 17.5694 17.4687 16.3503 21.3476 21.4041 19.015 16.9132 16.735 16.2771 24.4211 15.6803 15.474 15.0045 14.6906 17.6165 16.9954 20.6444 20.1763 18.9051 15.1038 14.5844 18.156 14.561 14.3661 14.5998 13.8896 16.5184 18.4989 13.7671 14.4617 14.4896 13.5141 12.4706 12.4612 13.3651 12.1779 13.9927 14.3968 13.8315 13.2692 16.7947 14.1015 12.3599 11.9385 11.8121 11.7055 11.7055 14.4628 11.7602 11.638 11.635 11.6346
threshold=44.175931436856466 58.518769825473839 -0.0010154291853214368 0.80590277777777797 1235.6499999999985 21.500000000000004 0.23348312711542252 1859.1785325000003 2344.8499999999972 -0.0006031373867200206 1282.8499999999965 1806.6759425000002 8.5000000000000018 1.2001684354569322 1785.2499999999966 0.70879099044570015 3057.8000000000093 1901.1037275000003 15.500000000000002 1.1222043795451035 7.5000000000000009 0.91177612360289484 0.28473143723443611 1.5000000000000002 1.0000000180025095e-35 1880.6394550000002 711.00000000001285 0.34470675868405493 8.5000000000000018 7.0296463549834889e-05 1875.4865125000003 1886.9584050000003 0.24594487538384127 1906.7284700000002 1842.1564875000004 1863.3611925000002 0.55699688966314642 1836.8057725000001 1.0388198412702401 24.408168231788803 1859.9405100000004 33.337654225711738 -0.0015332287537850873 0.70946280811714169 6.5000000000000009 1.166484216020174 10.500000000000002 1877.3180650000004 64.334136385865705 0.40722614394542794 20.500000000000004 0.26322338549724694 1904.9036600000002 0.79548611111111123 0.78854166666666681 0.1947916666666667 1.0825692381022156 1536.149999999998 -0.00082036684409991778 0.97126050763112326 775.64999999999611 62.229888320045056
decision_type=2 2 2 2 2 2 2 2 2 2 2 2 2 2 2 2 2 2 2 2 2 2 2 2 2 2 2 2 2 2 2 2 2 2 2 2 2 2 2 2 2 2 2 2 2 2 2 2 2 2 2 2 2 2 2 2 2 2 2 2 2 2
left_child=2 11 3 7 5 6 -3 21 9 59 20 43 13 14 15 -12 -15 -16 -14 -20 -5 42 33 -11 -25 26 -26 -27 -28 -29 -22 41 -30 34 -8 36 -34 -38 56 -40 -41 -32 -1 -2 -45 49 -47 -48 52 50 -6 -52 -49 -39 55 -10 57 -9 -59 -4 -37 -7
right_child=1 4 8 10 45 61 22 38 54 23 12 -13 18 16 17 -17 -18 -19 19 -21 30 -23 -24 24 25 27 28 29 32 -31 31 -33 35 -35 -36 60 37 53 39 40 -42 -43 -44 44 -46 46 47 48 -50 -51 51 -53 -54 -55 -56 -57 -58 58 -60 -61 -62 -63
leaf_value=0.035312012361495657 -0.026260108516326538 -0.044242278856985034 0.0041937280690143549 0.043007457686187182 -0.0060447689068319878 -0.015807550565241333 -0.024551737194788533 0.010179574006881589 0.0018133236549631418 0.0060904568702172335 -0.032417007157553843 -0.0016562880424584117 -0.011385385577471758 0.066887650036845311 0.00047467308389310942 0.03238868052586133 0.010437037402953086 -0.072152518593601153 -0.012269766130985071 0.051742769851642556 0.0021621914831608277 0.02772370452033017 -0.0098773237128426412 -0.01418687190522896 0.022282683705637886 -0.019509692913829743 0.010913917131937925 -0.0030784485032971324 0.043152313764764839 0.017728148906876299 0.067844451429971697 0.009992971594285506 -0.020586986254917256 -0.040059996452276626 0.018430134328828229 -0.018606173707731322 0.03692096522535767 0.0034836866319447437 0.03758467766986559 -0.031985337983977777 0.015569054719235973 0.023165605309233943 -0.0029766960244795785 0.0010712026062318001 0.027909592503360781 -0.041031034965019725 0.0087675690432323945 -0.04500836333030496 -0.052122045548115087 -0.00084375827731562642 8.6143411221188589e-05 -0.045968848989420004 0.0091351135037961214 -0.033677646490936901 0.027686448780060054 -0.02623130826677136 0.039630743281873472 -0.027648465870798156 0.00098111657400254122 0.01594489627326522 0.0091308596260819865 -0.043039794502339031
leaf_weight=28.449056461453438 18.511979982256889 41.192596793174744 351.53334817290306 34.452936366200447 341.12118275463581 70.453151017427444 23.84444785118103 487.10851092636585 56.886694461107254 1539.7193453907967 15.229802787303923 12956.817042380571 328.39736212790012 25.839780256152153 16.181029617786411 44.080229073762894 27.273782566189766 15.558112904429434 32.669935420155525 27.392183288931847 418.31465798616409 390.57381066679955 3996.1708002686501 205.42141452431679 153.58471612632275 168.29042035341263 408.32532885670662 686.24127501249313 16.603781223297119 99.921559765934944 24.555800512433052 287.89495353400707 192.38175728917122 15.249259918928145 115.2462642788887 45.866863682866096 29.956479042768478 71.529780849814415 74.737662076950073 16.495301142334938 553.87948222458363 54.461852312088013 84.224942162632942 79.622280389070511 111.1310487985611 43.709919482469559 64.394340500235558 15.255403369665144 26.976547434926033 1614.1622731089592 24.028909385204315 53.910966008901596 34.105015829205513 30.970349818468094 16.632274657487869 107.55485220253468 26.170264780521393 47.174679115414619 149.67872433364391 525.89739587903023 215.19369894266129 88.477805316448212
leaf_count=113 73 162 1391 137 1348 278 94 1929 225 6094 60 51226 1297 103 64 175 108 61 129 109 1655 1550 15782 811 609 664 1617 2713 66 396 98 1140 759 60 457 181 119 283 297 65 2195 216 333 315 441 172 255 60 106 6383 95 212 135 122 66 424 104 186 592 2084 852 348
internal_value=-0.000783448 -0.00369698 0.00628584 0.0107841 -0.00825147 -0.0104095 -0.00963003 0.0147028 0.00335178 0.00395594 0.00539854 -0.00142483 -0.00167153 0.0127088 -0.00198662 0.0157477 0.0379003 -0.0351262 -0.00700829 0.0169241 0.00999262 0.0230146 -0.00928651 0.00230259 -0.000206678 0.00114868 0.00520291 -0.00379739 0.00260782 -0.000433923 0.00854405 0.01582 -0.00302135 0.00601073 0.0110617 -0.00432986 -0.0112313 0.00235701 0.0116164 0.0169037 0.0141938 0.0370502 0.00669082 0.012906 0.016707 -0.0040178 -0.0163197 -0.00864455 -0.0233326 -0.00290185 -0.0108293 -0.0317701 -0.00759855 -0.00774459 -0.0124682 -0.0165296 0.00681317 0.00555748 -0.00587978 0.0112369 0.00425762 -0.0309679
internal_weight=27867.7 19734.4 8133.31 3210.79 6568.3 4350.63 4191.7 1858.49 4922.51 4741.44 1352.3 13166.1 532.622 144.163 91.0492 59.31 53.1136 31.7391 388.459 60.0621 819.68 503.248 4150.51 3864.01 2324.29 2118.87 1164.41 954.453 1010.83 786.163 785.227 366.913 602.503 154.34 139.091 585.899 324.838 132.457 1355.24 645.112 570.375 79.0177 112.674 209.265 190.753 2217.66 184.441 140.731 76.337 2033.22 419.061 77.9399 49.3604 102.5 181.074 164.442 710.132 683.962 196.853 877.431 261.061 158.931
internal_count=110194 78002 32192 12716 25947 17181 16555 7364 19476 18761 5352 52055 2106 571 360 235 211 125 1535 238 3246 1996 16393 15286 9192 8381 4608 3773 3999 3109 3109 1454 2382 611 551 2316 1283 524 5368 2557 2260 314 446 829 756 8766 728 556 301 8038 1655 307 195 405 715 649 2811 2707 778 3475 1033 626
is_linear=0
shrinkage=0.05


Tree=2
num_leaves=63
num_cat=0
split_feature=3 3 3 8 11 1 9 11 4 1 11 3 1 7 2 6 0 4 4 9 7 8 0 1 9 4 4 0 3 7 5 0 5 6 2 4 1 1 7 1 4 11 4 7 8 4 1 1 7 1 5 0 9 7 7 8 2 0 6 11 3 11
split_gain=223.67 61.3126 54.5384 31.424 23.589 29.3376 17.8202 17.718 30.1493 19.5378 17.66 17.2001 19.2495 16.1902 24.7746 18.4863 15.5479 27.9605 17.0157 15.7263 15.3635 15.1346 14.8099 14.4307 19.5779 19.1048 20.4882 14.2735 13.7172 18.5515 21.9462 13.6668 13.2047 12.7408 11.5923 11.3267 11.229 11.1721 10.9208 12.2687 16.6057 10.877 36.6135 21 19.1395 19.8661 24.2259 21.6108 15.4779 15.2801 17.0597 15.8332 15.4994 19.6686 15.2496 18.1105 15.0397 14.7998 22.7883 14.6085 16.5805 14.3631
threshold=47.829259482820838 38.438890420687834 61.682458098228388 1806.6759425000002 1235.6499999999985 0.34470675868405493 21.500000000000004 1133.4999999999925 0.022569444444444448 0.27608237180487244 1208.999999999992 34.330287737804859 0.94452862352121703 1840.9516600000004 1.1753474408398212 0.0006844850636622547 0.55596237874155119 0.82326388888888891 0.010069444444444445 22.500000000000004 1844.47225 1840.1980050000004 0.30108747000612435 1.0145921269741702 13.500000000000002 0.53854166666666681 0.24479166666666669 0.35281421033107524 55.671367277546047 1830.0061800000001 0.00022811559626967351 0.83865361930990834 -0.00012897490066221537 0.00030886229487681055 0.94628216108351237 0.36145833333333338 0.23348312711542252 0.35512045976751122 1955.0661100000002 0.42538823564368194 0.84409722222222239 826.3500000000023 0.3065972222222223 1847.6374400000002 1891.5536300000003 0.79548611111111123 0.58668236737861312 1.2013539232717982 1909.6411700000003 0.75645411929599404 0.0002181887313995601 0.60614850547023658 7.5000000000000009 1905.3118700000002 1888.8087500000004 1855.4942950000002 1.0068540426110728 0.52340849673623768 0.0006844850636622547 823.1999999999972 59.390416718170208 838.64999999999566
decision_type=2 2 2 2 2 2 2 2 2 2 2 2 2 2 2 2 2 2 2 2 2 2 2 2 2 2 2 2 2 2 2 2 2 2 2 2 2 2 2 2 2 2 2 2 2 2 2 2 2 2 2 2 2 2 2 2 2 2 2 2 2 2
left_child=1 4 13 -3 5 -1 36 16 -9 -10 -8 12 35 14 15 28 18 -18 -5 -20 23 -16 -13 24 33 26 -26 -21 29 30 -2 -19 -11 -15 -14 37 -4 -7 -38 -40 -41 42 -22 -43 45 57 -47 54 49 50 52 -52 -46 -54 55 -48 -50 58 -44 60 -57 -45
right_child=2 3 6 7 -6 11 10 8 9 32 -12 22 34 20 21 -17 17 31 19 27 41 -23 -24 -25 25 -27 -28 -29 -30 -31 -32 -33 -34 -35 -36 -37 38 -39 39 40 -42 43 44 61 48 46 47 -49 56 -51 51 -53 53 -55 -56 59 -58 -59 -60 -61 -62 -63
leaf_value=-0.00033590402990542638 0.0024255332900597862 0.030791085177876994 -0.039036773634969629 0.025407417356247672 0.0039100116337000539 0.049282756861406929 -0.040258533412032102 -0.029623550605607771 -0.033671397670286235 -0.0033791219884645417 -0.0069149817606368059 -0.029598563486711239 -0.024770515473595236 -0.022379110698559045 -0.02194385728277615 0.012970888842658096 0.012064439137655668 -0.014926172311064096 -0.00095216601412588954 0.003906694137650199 0.0031624763277629747 0.018296871375674578 0.010458059442481486 0.0095633727945383298 -0.062750304369155019 -0.073946846861916923 0.0050848055271116473 0.038648351878013028 -0.0070449419818819142 0.0095354091530135843 -0.022521601497689669 0.0026384902894863154 0.0033082105890312541 0.0031863953200190719 0.0090424515007561067 0.024611560380410027 -0.0092828630723333291 0.010487639858101134 -0.023524150463521423 0.021921127549272376 -0.034660221334342788 0.016097388257194055 -0.018009224783881894 0.0063672154687520119 -0.0067224646991406707 -0.064940178074658211 -0.03024449935326752 -0.03482976496674136 -0.044851135046081098 -0.019544037686609016 -0.021212722467602304 0.026918016526546091 0.0076123919847822371 0.044774785795309843 -0.03301938905754942 0.031953944145266221 -0.0067595876720018796 -0.027930261601915637 0.019914892936321604 -0.012599233306194682 -0.018618396319882952 -0.0036232010607716233
leaf_weight=413.11252543330193 343.01936230063438 90.384063005447388 30.981663331389427 67.812208756804466 1409.6274658292532 19.855948284268379 92.480445295572281 93.891915291547775 44.68389929831028 1636.3194624483585 69.594295933842659 23.595171421766281 30.421463370323181 110.04572887718678 163.78610679507256 354.51541972160339 1037.9052677750587 140.31784243881702 2250.4043929874897 76.822566449642181 630.4706489443779 27.253643274307251 1046.7718468159437 51.53058297932148 18.344238579273224 27.808209404349327 28.307603284716606 48.059900626540184 448.00649839639664 563.06321883201599 118.65090620517731 525.4739865809679 1344.8950386047363 87.469383031129837 151.99258457124233 690.64149664342403 4055.7212978601456 283.78505839407444 28.659631624817848 87.033665806055069 15.237611085176466 144.8798504024744 298.54743778705597 378.81845808029175 59.984412595629692 15.29098132252693 23.349663317203522 37.837296664714813 38.391075700521469 69.454474985599518 77.330022469162941 21.933331862092018 83.381354540586472 62.138267710804939 22.088045030832291 109.84871983528137 79.72771055996418 318.69107124209404 45.671038269996643 33.432824015617371 19.012470349669456 7153.919065490365
leaf_count=1634 1357 359 122 269 5579 79 364 370 176 6469 275 93 120 434 646 1404 4111 554 8899 304 2494 108 4146 204 72 109 112 191 1770 2229 468 2079 5321 346 602 2742 16019 1124 113 345 60 574 1178 1499 237 60 92 149 151 274 305 87 330 247 87 436 315 1256 181 132 75 28276
internal_value=-0.00115845 0.00421497 -0.00489199 0.00149089 0.00913929 0.0119103 -0.00967118 0.00112645 -0.00172002 -0.000854191 -0.0259409 0.0141617 0.0183339 -0.00315725 0.000929295 0.00272049 0.00326795 0.00693421 0.000711282 6.23067e-06 -0.00397812 -0.0162031 0.00957505 -0.0146974 -0.0192941 -0.0411428 -0.021589 0.0172767 0.000253035 0.00344366 -0.00398597 -0.00106332 -0.000362311 -0.0110575 0.00340341 0.021073 -0.00904597 0.0130246 -0.00882403 0.00538867 0.013491 -0.0036215 -0.00686039 -0.00275813 -0.0113227 -0.0155663 -0.00387758 -7.5362e-05 -0.00336046 0.00162021 0.0064434 -0.0105777 0.014665 0.0234811 0.00625498 0.0109279 -0.0191401 -0.0201659 -0.0129774 0.0168515 0.0244924 -0.00312079
internal_weight=27872.5 11426.8 16445.7 7356.97 4069.8 2660.18 4379.71 7266.59 3119.79 3025.9 162.075 2247.06 1176.7 12066 2018.3 1827.26 4146.8 1703.7 2443.1 2375.29 10047.7 191.04 1070.37 323.506 271.975 74.4601 46.6518 124.882 1472.74 1024.73 461.67 665.792 2981.21 197.515 182.414 994.283 4217.63 303.641 4186.65 130.931 102.271 9724.2 2046.58 7677.62 1416.11 923.77 260.86 245.569 492.341 374.222 304.767 99.2634 205.504 145.52 207.732 185.644 118.119 662.91 344.218 162.294 128.861 7532.74
internal_count=110213 45221 64992 29102 16119 10540 17298 28743 12336 11966 639 8906 4667 47694 7982 7228 16407 6744 9663 9394 39712 754 4239 1277 1073 293 184 495 5824 4054 1825 2633 11790 780 722 3945 16659 1203 16537 518 405 38435 8086 30349 5592 3646 1031 971 1946 1480 1206 392 814 577 822 735 466 2615 1359 643 511 29775
is_linear=0
shrinkage=0.05


Tree=3
num_leaves=63
num_cat=0
split_feature=3 3 3 8 4 11 11 2 11 2 8 11 1 1 5 4 7 1 11 2 10 0 2 11 1 2 2 1 2 3 0 0 4 8 8 1 3 0 0 1 11 4 1 2 7 4 0 4 8 1 11 6 11 6 0 1 5 2 7 3 6 7
split_gain=202.125 62.7216 44.1636 27.1505 22.4458 25.047 17.4604 16.7633 16.3888 20.0283 15.8782 15.5125 20.7692 25.3997 25.6721 19.1343 13.7097 15.1759 14.4508 19.03 13.6485 13.6103 15.5561 13.4145 13.2844 16.2009 13.2208 15.2641 13.2027 14.9243 12.8966 17.5228 20.6703 14.897 17.5179 12.8415 12.7767 12.6161 15.9524 12.4442 19.7367 12.2673 16.8791 16.2191 15.3462 12.7945 12.2232 12.2146 16.2306 11.776 12.4058 11.6195 11.3564 18.1357 12.0835 11.7619 22.6481 22.3315 13.3933 11.3081 11.2213 11.2116
threshold=48.966904745753048 39.031022008800456 58.518769825473839 1806.6759425000002 0.3065972222222223 1235.6499999999985 1235.6499999999985 1.2933303933477613 759.49999999999147 0.92811306418737116 1954.6279400000001 1282.8499999999965 0.41932688940920065 0.64324597399681116 -0.00010778582919673817 0.052430555555555564 1956.3516100000004 0.6001070768805955 1699.299999999994 0.82218692995084652 1.5000000000000002 1.2396302731796156 1.4267822215378403 775.64999999999611 0.23348312711542252 0.92155722818531172 0.91337250287756933 0.50030815417751373 0.87771973424223193 71.217604868461521 0.55596237874155119 1.1509963932394005 0.93715277777777783 1850.9672500000004 1849.0313375000003 1.2218200519297782 32.980291901680161 1.5045563980791148 1.1826501669406526 0.28038043026179998 854.99999999999557 0.51770833333333355 0.47148404835883878 0.8511367260044097 1900.5425300000002 0.39409722222222227 0.40262960573471418 0.89201388888888899 1862.5646525000004 1.1635737768670567 2417.4999999999959 0.0032649015688103193 1248.000000000002 0.0026520832016891931 1.166484216020174 0.39951589721513714 0.00037931457074114055 0.76222776702183848 1827.2026400000002 63.251661212996972 -0.00067595377370988075 1840.9516600000004
decision_type=2 2 2 2 2 2 2 2 2 2 2 2 2 2 2 2 2 2 2 2 2 2 2 2 2 2 2 2 2 2 2 2 2 2 2 2 2 2 2 2 2 2 2 2 2 2 2 2 2 2 2 2 2 2 2 2 2 2 2 2 2 2
left_child=1 4 61 -3 23 8 24 11 9 -6 41 30 46 14 15 -14 17 18 -16 -20 36 22 -22 -1 -4 28 -17 -28 -26 -30 -5 33 -33 34 -32 -34 -10 38 -15 40 -27 43 -43 44 -7 60 -13 -11 -49 -40 -51 -41 53 -8 55 56 57 -54 59 -57 -45 -2
right_child=2 3 6 7 5 10 52 -9 20 47 -12 12 13 37 16 26 -18 -19 19 -21 21 -23 -24 -25 25 39 27 -29 29 -31 31 32 35 -35 -36 -37 -38 -39 49 51 -42 42 -44 45 -46 -47 -48 48 -50 50 -52 -53 54 -55 -56 58 -58 -59 -60 -61 -62 -63
leaf_value=-0.0089390965202422699 0.0013556543916090214 0.025972630484730502 -0.037096121841983722 -0.00031973738136079017 -0.01220655103900386 -0.036054270660178758 0.0027188620298969086 0.012261214539480014 0.032670185365626332 0.017375435987122427 -0.022084525215884679 -0.018904276260428163 -0.056205583904547232 -0.0062529375501237652 0.026432965164097124 0.013102875509605309 -0.026793963942299368 0.045658949567668236 0.048795021442530784 -0.0066493372601602032 0.014207615980263849 -0.0049577246321287436 0.065558320210382659 0.0051083175200486849 -0.0083788670170349498 0.028491175772322259 -0.024021447695991918 0.0027419824421574257 0.0049095018423686802 -0.025846188975536116 0.012154130155480067 -0.023541817828032986 -0.011804574110191928 0.0040511502478126592 0.054711453273564373 0.018008082295306291 0.017047650753335454 -0.021409708109573419 -0.0083894617330923047 -0.013264739458723191 -0.023536328502388109 -0.024634759809941467 0.0050255188450850988 -0.0024030120349234664 0.027340068589157482 0.032673367632472909 0.0087288617216980148 0.033131171054571321 -0.012206271651716298 0.011907426508377417 0.054763254130615092 0.0039214082537482632 0.018895778223904317 0.061378567756944093 -0.018014826992366985 -0.0031366414982591413 0.0090717088151021034 -0.032985502411418788 -0.00197733460075099 -0.053957696225141988 0.041250770647392403 -0.0034261326828135931
leaf_weight=199.92262309789658 1473.9440633654594 107.46609319746494 44.387085229158401 3262.9814795851707 112.35398592054844 25.896062389016151 79.381959140300751 300.3878477960825 212.41909201443195 278.51323574781418 52.449478641152382 278.80817149579525 15.78499676287174 997.05189424753189 126.27849180996418 125.47986616194248 16.740712940692902 47.282149523496628 18.354541927576065 98.688499465584755 792.75259524583817 93.807793498039246 15.028090834617613 1133.6203922778368 1206.4034511595964 46.075955837965012 84.188646644353867 145.08919893205166 389.5409631729126 43.888213708996773 370.31423835456371 113.58867950737476 64.559530392289162 1525.5316931009293 25.870236366987228 81.997367531061172 340.9188149869442 113.04648721218109 53.14509642124176 2494.3143012076616 30.160215094685555 51.183733239769936 763.11693307757378 66.987098589539528 15.120482414960859 115.54972021281719 46.725843951106071 25.424549430608749 88.301428020000458 84.571829497814178 21.099766612052917 102.38567218184471 24.479256048798561 15.798724144697188 169.26897899806499 20.749420464038849 69.728241339325905 135.83202029764652 1692.2011064887047 23.166406005620956 18.867439836263657 7281.8902742266655
leaf_count=790 5830 427 175 12904 444 102 314 1190 845 1105 207 1100 62 3940 501 497 66 188 73 390 3144 371 60 4487 4765 183 332 574 1541 173 1467 448 255 6037 103 325 1352 446 210 9846 119 202 3021 265 60 459 185 101 349 335 84 405 97 63 668 82 276 535 6690 91 75 28782
internal_value=-0.00110056 0.00361182 -0.00494797 0.00100762 0.0084183 0.0107719 -0.00804054 0.000672995 0.0141704 0.00640585 0.00476779 0.000221929 -0.00324814 -0.00129344 0.00652034 -0.00234132 0.0172042 0.0197388 0.014702 0.00204538 0.0168633 0.0130695 0.015163 0.00300235 -0.00988232 -0.00960224 5.53784e-05 -0.00708529 -0.00568972 0.00179524 0.00167012 0.00464596 -0.00753258 0.00629458 0.0149331 0.00487536 0.0230449 -0.00546777 -0.00390861 -0.0120025 0.00790829 0.00610058 0.00316119 0.0159741 -0.0126844 0.0218105 -0.0149379 0.0117372 -0.00207064 0.0108091 0.0204646 -0.0125871 -0.00444289 0.0124556 -0.00519609 -0.00409251 -0.0147165 -0.0250633 -0.00268481 -0.0299457 0.00719037 -0.00262117
internal_weight=27870.9 12527.3 15343.6 8125.03 4402.23 3068.69 6587.76 8017.57 1959.52 504.593 1109.17 7717.18 2272.34 1946.8 677.887 370.543 307.344 290.604 243.322 117.043 1454.93 901.588 807.781 1333.54 4357.16 4312.77 354.758 229.278 1639.83 433.429 5444.84 2181.86 260.146 1921.72 396.184 146.557 553.338 1268.92 1155.87 2672.94 76.2362 1056.72 814.301 242.421 41.0165 201.404 325.534 392.239 113.726 158.817 105.672 2596.7 2230.61 95.1807 2135.43 1966.16 230.04 160.311 1736.12 43.9158 85.8545 8755.83
internal_count=110213 49578 60635 32139 17439 12162 26023 31712 7771 1999 4391 30522 8983 7698 2683 1465 1218 1152 964 463 5772 3575 3204 5277 17207 17032 1403 906 6479 1714 21539 8635 1028 7607 1570 580 2197 5015 4569 10553 302 4184 3223 961 162 799 1285 1555 450 629 419 10251 8816 377 8439 7771 908 632 6863 173 340 34612
is_linear=0
shrinkage=0.05


Tree=4
num_leaves=63
num_cat=0
split_feature=6 3 3 7 2 4 4 0 1 9 8 8 9 9 7 1 7 1 8 8 9 11 8 10 10 0 2 9 2 10 2 3 9 10 0 1 0 7 8 3 0 0 11 10 0 0 4 0 3 2 2 1 8 8 3 8 8 4 11 8 7 0
split_gain=178.912 62.9802 29.6526 21.9552 17.9805 17.7819 25.4469 17.3009 17.5458 31.3508 17.231 17.1845 17.6217 26.8142 20.8685 16.9292 16.8521 21.1625 16.4131 15.6926 15.6376 15.591 20.7603 15.191 14.9855 14.6702 14.0775 13.7696 16.9211 23.2656 20.783 16.4343 13.8423 13.2659 13.7918 15.3235 13.2421 17.3864 13.1303 17.2004 13.0938 13.1656 12.9373 21.0936 22.7511 14.898 14.8689 14.7929 14.7347 12.8513 12.7442 16.3923 20.9109 14.7865 12.7395 12.6328 18.7474 13.5787 12.447 12.314 12.3063 12.2041
threshold=-0.00058478742096257353 58.518769825473839 33.337654225711738 1840.2708200000002 0.69267922780421276 0.29062500000000008 0.72881944444444458 0.28865589828721322 1.5187975116762593 12.500000000000002 1838.1811950000003 1859.9405100000004 14.500000000000002 13.500000000000002 1859.0812400000002 0.24418386739696371 1854.4581600000001 0.37704528636455786 1854.9268125000001 1931.0128775000003 21.500000000000004 666.80000000000075 1909.5595975000003 2.5000000000000004 3.5000000000000004 0.25921100653929047 0.86402983878651429 10.500000000000002 0.89219489901178395 2.5000000000000004 0.81334369040096421 42.090016229718692 9.5000000000000018 3.5000000000000004 1.4139372475378742 0.73182650754595635 0.49174332416339034 1920.3239700000004 1816.3249275000001 45.312536459693689 0.49801474166910992 0.29502973248175801 952.64999999999429 1.5000000000000002 0.41171002067866441 0.57703997950571895 0.40243055555555562 0.39790780943332377 43.086510190619983 1.0235301962330066 0.87286539336269275 0.46946120850310424 1894.3524600000003 1954.0254500000003 35.497369235215579 1806.6759425000002 1809.7269425000002 0.81979166666666681 1821.249999999998 1893.8711075000003 1880.5128100000004 1.37859914276214
decision_type=2 2 2 2 2 2 2 2 2 2 2 2 2 2 2 2 2 2 2 2 2 2 2 2 2 2 2 2 2 2 2 2 2 2 2 2 2 2 2 2 2 2 2 2 2 2 2 2 2 2 2 2 2 2 2 2 2 2 2 2 2 2
left_child=2 3 5 10 24 -1 -7 -4 38 -10 55 16 13 14 -13 -3 18 25 -6 -8 -17 22 26 -20 -5 -18 -14 32 29 31 -31 -29 -16 34 35 -15 -34 -38 39 49 41 -22 47 45 -45 46 -44 -30 -46 -9 51 -40 -53 -54 -23 -2 57 -57 60 -28 -42 -12
right_child=1 15 7 4 11 6 19 8 9 -11 61 12 21 33 27 20 17 -19 23 -21 40 54 -24 -25 -26 -27 59 28 42 30 -32 -33 36 -35 -36 -37 37 -39 50 -41 58 -43 43 44 48 -47 -48 -49 -50 -51 -52 52 53 -55 -56 56 -58 -59 -60 -61 -62 -63
leaf_value=0.0031588209252882055 0.01265290345673413 -0.030828753996190641 -0.021588177086068711 -0.0083607701541453718 -0.0041901675302086034 0.021762320087916731 0.010956232875132144 0.010664696832683201 0.03077089564917811 -0.021382318927562604 0.01115386888467553 0.034310661022039737 0.010487962503895427 -0.036172383227713462 -0.002108892506962196 -0.0062827694312408977 -0.0081901526335759495 -0.0093327685505535888 0.032002502873082171 -0.011789425026283351 -0.0049817042093695651 0.025428506174240747 -0.050978535210880097 -0.0090383667118854628 -0.035888024587969317 -0.055958734230962016 0.015864899181482307 0.021455078791467994 0.046316832127357301 0.056541790864942591 -0.0016971464034185046 -0.02636658663933111 -0.021825297571336191 -0.038826456023804176 -0.044769921934421836 -0.0032634369628700582 -0.010684386061508731 0.020635900100059664 -0.020726355155977622 -0.0080287110925454964 0.04560814662213962 -0.034043795456339884 0.0087452938425582275 -0.059888485141252279 0.02486199403419662 0.0027608937359895249 0.04802086029254185 0.010237778995003081 -0.0086691725089679175 0.040738329968474631 0.0059919928561160667 -0.0045836009979407649 0.021200622534175283 -0.025500342664124698 0.0025792364404676137 -0.0079467765209729722 0.0018807853258771289 -0.041018117488390057 -0.034411532176502252 -0.025576821231059713 -0.0096573151862926355 0.049541666178281291
leaf_weight=420.41452376544476 225.41308601200581 73.95326367020607 62.866133391857147 240.72645856440067 1332.2271537780762 671.85924918949604 546.1172241717577 65.823557555675507 36.27264067530632 140.16237388551235 324.19899135828018 40.298859387636185 83.850641265511513 41.647809416055679 4531.7631685882807 6233.2212078869343 25.313216060400009 594.42227746546268 61.971731632947922 88.056278169155121 55.132467687129974 62.235320046544075 27.983456745743752 35.442047506570816 62.219433814287186 44.030164018273354 22.717462405562401 20.67737589776516 30.936216115951538 20.348895877599716 61.969365566968918 136.9910679012537 179.49621088802814 52.590487957000732 28.471013024449348 234.77639324963093 219.77089700102806 55.499343872070312 95.031292915344238 46.79461270570755 19.358439415693283 132.93001715838909 51.53744937479496 19.608595341444016 37.801310628652573 178.99191084504128 45.259886547923088 348.01284842193127 245.81890344619751 77.170774564146996 3741.9455129802227 402.92964027822018 155.84568837285042 19.017624840140343 3079.1954958587885 150.08275389671326 1557.9362794756889 39.130365803837776 16.758361577987671 84.972819775342941 21.000578343868256 22.11671282351017
leaf_count=1664 894 292 248 951 5266 2670 2166 261 144 553 1284 160 332 164 17916 24627 100 2348 246 348 218 247 110 140 245 173 90 82 123 81 245 540 708 207 112 928 868 220 375 185 77 524 204 77 150 708 180 1378 971 307 14816 1593 618 75 12180 593 6163 154 66 335 83 88
internal_value=-0.000733196 -0.0029664 0.00647623 -0.00114482 -0.00198367 0.0121026 0.0149816 0.00447088 0.00481354 -0.0106603 0.00331898 -0.00168088 -0.000814016 -0.00231811 -0.00155334 -0.00704151 -0.00579827 -0.0123821 -0.00274149 0.00779795 -0.00676997 0.00213168 -0.0107508 0.0170706 -0.0140144 -0.0385212 -0.00487364 -0.00178703 0.00302644 -0.00884616 0.0126994 -0.020095 -0.00294341 -0.0156348 -0.0116346 -0.00822171 -0.0112594 -0.00436966 0.00540646 0.018284 -0.0191561 -0.0255239 0.00600072 0.00130004 -0.00780124 0.0113068 0.0271095 0.0131832 -0.00420009 0.0268947 0.00485286 -0.00148248 0.00168261 0.0161216 0.00303191 0.00151303 7.57895e-05 -0.0147861 0.00181052 -0.0168346 0.0168511 0.0136054
internal_weight=27781.1 21210.8 6570.31 14658.5 12339.6 1726.45 1306.03 4843.86 4780.99 176.435 2318.88 12036.6 9943.22 6582.27 6224.78 6552.35 2093.41 663.766 1429.64 634.174 6478.4 3360.96 219.524 97.4138 302.946 69.3434 191.541 6184.48 1197.95 239.987 82.3183 157.668 4986.53 357.486 304.895 276.424 454.766 275.27 4604.56 189.789 245.18 188.062 957.967 579.018 303.229 275.789 96.7973 378.949 283.62 142.994 4414.77 672.824 577.793 174.863 3141.43 1972.56 1747.15 189.213 57.1174 107.69 40.359 346.316
internal_count=109871 83848 26023 57961 48785 6848 5184 19175 18927 697 9176 47589 39316 26022 24611 25887 8273 2621 5652 2514 25595 13294 867 386 1196 273 757 24451 4739 948 326 622 19712 1411 1204 1092 1796 1088 18230 753 968 742 3791 2290 1198 1092 384 1501 1121 568 17477 2661 2286 693 12427 7804 6910 747 226 425 160 1372
is_linear=0
shrinkage=0.05


Tree=5
num_leaves=63
num_cat=0
split_feature=3 3 3 8 2 8 9 4 4 8 0 2 8 5 3 2 0 2 10 7 10 9 8 7 7 8 9 0 11 10 9 10 1 5 5 2 5 0 0 11 9 1 7 0 3 8 7 7 11 4 9 8 10 7 11 3 7 9 11 1 2 1
split_gain=155.394 55.8535 30.2092 22.0396 22.1275 15.1238 21.6531 14.4971 27.2934 14.0799 13.7489 15.2455 17.8365 13.5724 13.4261 12.895 12.5426 20.7595 18.1042 14.7435 17.4861 16.3571 15.5386 14.1028 17.3889 16.3295 13.8494 13.3302 13.2303 13.1567 12.3343 12.3145 12.038 11.9049 11.7719 18.798 11.7658 14.5738 16.0695 15.4271 12.1653 15.7736 14.0835 14.3489 12.9532 12.2967 12.8308 11.7567 11.7431 11.32 18.7124 18.0449 16.9043 23.9652 12.5661 12.1543 11.4744 11.2112 11.0786 13.8391 12.0699 11.0729
threshold=42.953680636835621 61.682458098228388 33.337654225711738 1816.3249275000001 0.65035167524406179 1828.0096800000003 9.5000000000000018 0.37395833333333339 0.72881944444444458 1931.0128775000003 0.37450918671160183 0.76551479667910438 1790.1276800000003 -0.00021408031990605145 50.190700297438433 1.0272201090322743 0.33262435958266146 0.94470135492557972 1.5000000000000002 1911.5595300000002 3.5000000000000004 3.5000000000000004 1906.7284700000002 1953.1136700000002 1931.0527000000002 1927.6691825000003 8.5000000000000018 0.3099101479573157 1375.349999999992 2.5000000000000004 1.0000000180025095e-35 1.5000000000000002 0.3254823762138957 3.9732324109031942e-05 0.00028175412528441696 0.98355573470376501 4.7509123079603206e-05 0.58239651990103258 0.28552182290384492 825.20000000000675 20.500000000000004 0.59729512274056107 1852.5111100000001 0.30108747000612435 52.127164693648382 1860.3263525000002 1864.2499500000001 1804.6486200000002 826.3500000000023 0.58854166666666685 12.500000000000002 1949.8144275000004 2.5000000000000004 1881.5306600000001 666.80000000000075 57.572042447515905 1845.7514100000001 11.500000000000002 920.54999999999166 0.52171364805069054 1.1945054541923543 0.63980316369420664
decision_type=2 2 2 2 2 2 2 2 2 2 2 2 2 2 2 2 2 2 2 2 2 2 2 2 2 2 2 2 2 2 2 2 2 2 2 2 2 2 2 2 2 2 2 2 2 2 2 2 2 2 2 2 2 2 2 2 2 2 2 2 2 2
left_child=2 14 7 15 -5 6 -6 -1 13 -10 31 48 -13 -9 30 47 17 19 27 20 21 -7 -22 24 25 26 33 -19 -25 -30 -2 34 -14 58 -3 -36 49 38 -38 -40 41 42 -41 -44 -42 -45 -47 -4 -12 -16 52 54 55 57 -52 56 -51 -54 59 -18 -61 -39
right_child=1 10 3 4 5 16 -8 8 9 -11 11 12 32 -15 36 -17 23 18 -20 -21 22 -23 -24 28 -26 -27 -28 -29 29 -31 -32 -33 -34 -35 35 -37 37 61 39 40 44 -43 43 45 -46 46 -48 -49 -50 50 51 -53 53 -55 -56 -57 -58 -59 -60 60 -62 -63
leaf_value=0.0051964687131612758 -0.01000065293784573 -0.029207130407242141 0.042510650610974893 -0.033135835901908876 0.026346358733816813 -0.015674338120580097 -0.036625120918284258 0.019926069232925767 0.01031425069980807 -0.011167117401835938 -0.029056414147627677 -0.045462913584753226 0.032027455527228424 0.046479306760781096 0.001522558341338891 0.035109980350836165 0.0077970075993414037 0.016384107502175456 -0.032903949630101612 0.024949281877432422 -0.010895329294317838 0.01039484345139462 -0.064966108878054069 -0.0017308124138704446 0.016308421489771942 -0.030186006701920922 0.0023206562740346885 -0.035314709381709511 -0.0071554159356587979 -0.064327477129203753 0.00066469477319439313 -0.0088020908438085771 -0.0069739915135820264 0.019841948400419307 -0.0016269429125455688 -0.042969923047797932 0.0029455833452145365 0.0053071832069316533 -0.013981054604366265 0.0058609349716833362 0.017597225094419282 -0.015810098875719419 -0.033524201516772691 -0.019705225579802713 -0.020984630482319726 0.016766915516012695 -0.0039425227235377544 0.0036725665801410432 0.017325852634513205 0.0057435788142393097 -0.026843061247231362 0.033994040596372725 -0.018508644309290025 0.019176513299698529 0.0010890122558243306 -0.033756693093470222 -0.017212405202698174 0.024125644105831595 0.0025045468415750508 0.038208717412228532 0.0021124742228083317 -0.0029178621180886372
leaf_weight=659.99554978311062 283.3042012155056 188.69342988729477 23.322833985090256 41.879540175199509 18.638957858085632 78.282157137989998 51.014295265078545 511.70388779044151 549.44344979524612 88.57873897254467 15.736893057823179 30.007157623767853 19.904260531067848 53.119708269834518 2410.1632576882839 80.60726135969162 372.86593492329121 44.914334714412689 91.88602177798748 62.280205801129341 83.542721822857857 260.08700312674046 15.799924746155737 140.05578610301018 328.90560868382454 33.980082213878632 2359.105016246438 17.260070085525513 21.25662924349308 19.108762666583061 6285.2039215713739 565.6545175164938 3297.0932788848877 202.60956145823002 124.43203946948051 35.292978033423424 411.27973163127899 508.5281825363636 716.90556821227074 385.11929285526276 24.479478925466537 258.44630977511406 42.659980937838554 114.3372505158186 195.4359642714262 80.267709419131279 1096.4068429619074 118.42646250128746 102.7275316119194 69.47911961376667 42.872291848063469 39.802039012312889 121.9157922565937 97.648956924676895 662.21743689477444 82.525930389761925 251.39912855625153 17.652305528521538 664.84618866443634 80.209931597113609 32.559874668717384 2094.7228209525347
leaf_count=2614 1119 744 93 165 74 309 201 2036 2180 350 62 118 79 212 9532 321 1477 178 362 247 330 1030 62 554 1304 134 9338 68 84 75 24860 2235 13026 804 492 139 1627 2012 2830 1524 97 1020 168 451 771 318 4333 469 407 275 169 158 481 387 2619 325 992 70 2632 319 129 8280
internal_value=-0.000696568 -0.00288917 0.00568174 0.00373863 0.00305647 0.00336087 -0.0197742 0.0111511 0.0144184 0.00733192 -0.007902 -0.00646321 -0.00708712 0.0224233 -0.0015417 0.0191428 0.0036891 -0.00275721 -0.0188047 0.00218744 -0.00105125 0.0043637 -0.019495 0.00467987 0.00528552 0.00431773 0.00463357 0.00203214 -0.00899966 -0.0342204 0.000204691 -0.0133568 -0.00673996 0.00866611 -0.0207514 -0.0107621 -0.00272135 -0.00411297 -0.00630639 -0.00761218 -0.00553409 -0.00429329 -0.00256156 -0.00499369 -0.01669 -0.00405094 -0.00252981 0.0100628 0.0111644 -0.000547728 -0.00414909 0.0012396 -0.0104149 0.000176816 -0.00060937 -0.0166432 -0.0122418 -0.0131163 0.00669796 0.0124388 0.0277867 -0.00131115
internal_weight=27778.6 20672.3 7106.29 5243.45 5021.09 4979.21 69.6533 1862.84 1202.85 638.022 4379.54 3465.47 3347 564.824 16292.8 222.357 4909.56 654.052 154.06 499.992 437.712 338.369 99.3426 4255.5 4075.08 3746.18 3712.2 62.1744 180.421 40.3654 6568.51 914.073 3317 1353.09 348.418 159.725 9724.27 5928.59 3325.34 2914.06 2197.15 1977.24 1718.79 1333.67 219.915 1291.01 1176.67 141.749 118.464 3795.68 1385.51 744.892 640.621 237.217 705.09 403.404 320.878 139.568 1150.48 485.636 112.77 2603.25
internal_count=109871 81720 28151 20759 19876 19711 275 7392 4778 2530 17302 13692 13223 2248 64418 883 19436 2586 608 1978 1731 1339 392 16850 16137 14833 14699 246 713 159 25979 3610 13105 5361 1375 631 38439 23431 13139 11512 8682 7814 6794 5270 868 5102 4651 562 469 15008 5476 2946 2530 938 2788 1592 1267 551 4557 1925 448 10292
is_linear=0
shrinkage=0.05


end of trees

feature_importances:
SMA200=50
ATR50=43
AsianRangePips=39
ATR14=37
SMA50=37
RSI14=34
ATR_ratio=33
VolRank=30
HOUR=30
Mom_5=14
DOW=14
Mom_20=11

parameters:
[boosting: gbdt]
[objective: binary]
[metric: binary_logloss,auc]
[tree_learner: serial]
[device_type: cpu]
[data_sample_strategy: bagging]
[data: ]
[valid: ]
[num_iterations: 2000]
[learning_rate: 0.05]
[num_leaves: 63]
[num_threads: 0]
[seed: 48]
[deterministic: 0]
[force_col_wise: 0]
[force_row_wise: 0]
[histogram_pool_size: -1]
[max_depth: -1]
[min_data_in_leaf: 60]
[min_sum_hessian_in_leaf: 0.001]
[bagging_fraction: 0.8]
[pos_bagging_fraction: 1]
[neg_bagging_fraction: 1]
[bagging_freq: 2]
[bagging_seed: 32123]
[bagging_by_query: 0]
[feature_fraction: 0.9]
[feature_fraction_bynode: 1]
[feature_fraction_seed: 10596]
[extra_trees: 0]
[extra_seed: 3672]
[early_stopping_round: 0]
[early_stopping_min_delta: 0]
[first_metric_only: 0]
[max_delta_step: 0]
[lambda_l1: 0]
[lambda_l2: 0]
[linear_lambda: 0]
[min_gain_to_split: 0]
[drop_rate: 0.1]
[max_drop: 50]
[skip_drop: 0.5]
[xgboost_dart_mode: 0]
[uniform_drop: 0]
[drop_seed: 26750]
[top_rate: 0.2]
[other_rate: 0.1]
[min_data_per_group: 100]
[max_cat_threshold: 32]
[cat_l2: 10]
[cat_smooth: 10]
[max_cat_to_onehot: 4]
[top_k: 20]
[monotone_constraints: ]
[monotone_constraints_method: basic]
[monotone_penalty: 0]
[feature_contri: ]
[forcedsplits_filename: ]
[refit_decay_rate: 0.9]
[cegb_tradeoff: 1]
[cegb_penalty_split: 0]
[cegb_penalty_feature_lazy: ]
[cegb_penalty_feature_coupled: ]
[path_smooth: 0]
[interaction_constraints: ]
[verbosity: -1]
[saved_feature_importance_type: 0]
[use_quantized_grad: 0]
[num_grad_quant_bins: 4]
[quant_train_renew_leaf: 0]
[stochastic_rounding: 1]
[linear_tree: 0]
[max_bin: 255]
[max_bin_by_feature: ]
[min_data_in_bin: 3]
[bin_construct_sample_cnt: 200000]
[data_random_seed: 195]
[is_enable_sparse: 1]
[enable_bundle: 1]
[use_missing: 1]
[zero_as_missing: 0]
[feature_pre_filter: 1]
[pre_partition: 0]
[two_round: 0]
[header: 0]
[label_column: ]
[weight_column: ]
[group_column: ]
[ignore_column: ]
[categorical_feature: ]
[forcedbins_filename: ]
[precise_float_parser: 0]
[parser_config_file: ]
[objective_seed: 12434]
[num_class: 1]
[is_unbalance: 1]
[scale_pos_weight: 1]
[sigmoid: 1]
[boost_from_average: 1]
[reg_sqrt: 0]
[alpha: 0.9]
[fair_c: 1]
[poisson_max_delta_step: 0.7]
[tweedie_variance_power: 1.5]
[lambdarank_truncation_level: 30]
[lambdarank_norm: 1]
[label_gain: ]
[lambdarank_position_bias_regularization: 0]
[eval_at: ]
[multi_error_top_k: 1]
[auc_mu_weights: ]
[num_machines: 1]
[local_listen_port: 12400]
[time_out: 120]
[machine_list_filename: ]
[machines: ]
[gpu_platform_id: -1]
[gpu_device_id: -1]
[gpu_use_dp: 0]
[num_gpu: 1]

end of parameters

pandas_categorical:[]
