tree
version=v4
num_class=1
num_tree_per_iteration=1
label_index=0
max_feature_idx=11
objective=binary sigmoid:1
feature_names=ATR14 ATR50 ATR_ratio RSI14 VolRank Mom_5 Mom_20 SMA50 SMA200 HOUR DOW AsianRangePips
feature_infos=[0.050828657036620047:2.2610890289713028] [0.076263979352827374:1.7341350353005871] [0.34983408664846977:2.3252069529729207] [5.9140043547333745:95.266985396267302] [0.00069444444444444447:1] [-0.011505956366300696:0.0063491410666043357] [-0.010801162035129153:0.011049170389699325] [1814.9105199999999:2007.1834800000004] [1817.277605:2004.5378099999998] [0:23] [0:4] [219.6999999999889:2035.6999999999971]
tree_sizes=6917 6895 6920 6901 6899 6854 6870 6911

Tree=0
num_leaves=63
num_cat=0
split_feature=5 2 6 10 9 9 3 11 7 7 7 7 1 7 11 11 6 1 9 2 3 11 9 9 3 1 11 0 7 7 9 2 7 4 7 4 0 0 7 0 7 9 9 7 3 6 2 2 6 7 2 4 11 6 10 3 4 10 0 9 7 11
split_gain=81.7803 30.6276 29.0809 31.5872 28.9207 27.8093 26.4261 25.4915 24.3708 23.977 23.7133 23.2628 21.4495 20.9483 19.8841 19.5455 18.848 17.8386 19.1344 23.9834 21.2894 18.8403 17.2442 18.5996 19.0316 18.3641 37.8194 18.7269 24.1679 17.7962 21.2699 18.4457 17.0216 17.0054 17.4307 16.6537 20.6623 20.1106 16.4313 27.3749 17.2657 26.557 24.8514 24.0512 19.6762 19.06 20.7231 16.2126 18.5138 17.3899 23.0917 19.7275 16.1655 17.9239 16.0225 16.0221 16.0053 18.3382 21.3662 15.857 15.7436 15.6371
threshold=-0.00024415711298053639 0.84228180011302445 0.00027693234034209541 1.5000000000000002 1.0000000180025095e-35 9.5000000000000018 26.973596661759462 793.15000000000293 1909.9060800000002 1914.1474599999999 1848.9316500000002 1818.6717100000003 0.14173142157682014 1821.0218100000002 905.99999999999466 281.00000000000597 -0.00062879575083119022 0.67978629643030286 1.5000000000000002 1.2448421141558381 35.879645752005587 1421.0000000000039 22.500000000000004 2.5000000000000004 33.045313316427389 0.32618944385836873 532.84999999999638 0.40216316724388929 1950.7192100000004 1857.4543900000001 5.5000000000000009 1.1659895236895685 1925.8542600000003 0.94965277777777779 1934.2659700000002 0.74756944444444462 0.47686828430024591 0.35641420847963973 1831.9286200000004 0.41637785496415414 1965.7092800000003 22.500000000000004 2.5000000000000004 1983.1294 42.15612144872015 -0.0017401333073394085 1.0006786137953161 1.5623962433480278 0.0010308137233487893 1954.1317000000004 0.93089459421299925 0.96145833333333341 615.70000000000402 -0.00038495119426090735 1.5000000000000002 54.848578264394739 0.1809027777777778 3.5000000000000004 0.27065930165474344 13.500000000000002 1825.1051600000003 578.5000000000083
decision_type=2 2 2 2 2 2 2 2 2 2 2 2 2 2 2 2 2 2 2 2 2 2 2 2 2 2 2 2 2 2 2 2 2 2 2 2 2 2 2 2 2 2 2 2 2 2 2 2 2 2 2 2 2 2 2 2 2 2 2 2 2 2
left_child=5 4 3 6 8 10 -3 11 -2 -10 13 -4 -13 -1 33 -7 -12 18 19 20 -8 38 23 32 -25 26 29 28 -27 -26 31 -31 52 34 -9 36 -14 61 39 -20 41 45 -42 44 -44 -40 -47 48 -39 51 -51 -50 53 -5 -11 -43 -28 -58 -59 -19 -16 -37
right_child=1 2 7 22 -6 15 17 14 9 54 16 12 35 -15 60 -17 -18 59 21 -21 -22 -23 -24 24 25 27 56 -29 -30 30 -32 -33 -34 -35 -36 37 -38 47 40 -41 42 55 43 -45 -46 46 -48 -49 49 50 -52 -53 -54 -55 -56 -57 57 58 -60 -61 -62 -63
leaf_value=0.02392069900616306 0.021108696358170913 0.028092987442789673 0.034289572282766981 0.016111387167740812 -0.021273813262939832 0.0248752262246036 0.029151769426795225 -0.00099377800164524369 -0.067067816496295396 -0.024361423315089982 0.0040556995918541935 -0.056654200127226439 -0.022295666075505767 -0.033889398185718685 0.012062585114446533 -0.013460820629611972 -0.0071409403400925411 0.024383656841221089 -0.059636819964018713 -0.042827080186972268 -0.0095185947573963037 0.010756417324609756 0.0043375603380322661 -0.028932451061185797 -0.036584909195848794 0.0025479770819391775 -0.035384937559459623 -0.013348085109365648 -0.015545667923414571 -0.015677263526638181 -0.0034359301602799458 -0.069635784205163725 -0.013096551964320599 0.025252988459998564 -0.025046624538813081 -0.00647526812498634 -0.046432795985154915 -0.022293702248360293 0.03145753266212338 0.0081892171018107043 -0.081113147074757724 0.013883720543641963 -0.016820479621253603 -0.015518067709773408 -0.050733142064913452 -0.016184688046259204 -0.024953303764773501 -0.04588760867680583 -0.011095032303723287 -0.050010495695418392 0.0074945040451820828 -0.040345417693331963 0.010465511060484094 -0.01297150294108777 0.0038506662895097001 -0.020787378545434915 -0.024327159667626205 -0.0016213766335749294 -0.029667165293771676 -0.01056730687539701 -0.018142516079718903 0.043119493097887866
leaf_weight=18.206637352705002 68.006199538707733 31.113744989037514 18.981529727578163 65.956448793411255 5119.6814260780811 33.634361118078232 38.95883421599865 274.80896733701229 18.82355497777462 87.396785378456116 537.47685576975346 42.200847908854485 2624.8690011203289 112.49485868215561 44.966740623116493 2897.7787401378155 1250.0113845318556 39.196345522999763 60.774419888854027 49.541813910007477 411.79745338857174 48.245620205998421 153.74872022867203 202.17059165239334 59.128469660878181 515.95392376184464 198.7919385433197 1533.4799452722073 287.33360978960991 362.94377920031548 729.14400428533554 16.561236307024956 519.32175272703171 44.004223704338074 103.76208268105984 51.203843876719475 91.763447970151901 690.22478187084198 17.9649688154459 19.698220878839493 22.060862258076668 96.516183793544769 63.761194989085197 224.32236379384995 129.93131007254124 1466.3323318958282 1246.6656763106585 49.529342219233513 322.73863804340363 19.352621585130692 178.28391990065575 70.177608326077461 209.14352466166019 269.24337488412857 118.65187619626522 50.891502425074577 725.62204484641552 226.85074520111084 96.925239905714989 188.60860213637352 1062.1507708877325 23.047773376107216
leaf_count=72 269 123 75 261 20322 133 154 1089 75 347 2129 168 10420 447 178 11495 4956 155 242 197 1633 191 609 803 235 2044 790 6083 1140 1440 2890 66 2060 174 412 203 365 2740 71 78 88 382 253 890 517 5818 4950 197 1280 77 706 279 828 1068 470 202 2881 899 385 748 4215 91
internal_value=-0.0158233 -0.0171461 -0.0160516 -0.0144747 -0.0203996 -0.00995816 -0.0178161 -0.0189169 -0.00511869 -0.0130504 -0.00527752 -0.0209369 -0.0211887 -0.0258365 -0.0133938 -0.013021 -0.00377424 -0.0181582 -0.0189433 -0.00980564 -0.00617632 -0.0202695 -0.0121976 -0.01262 -0.0139078 -0.0132687 -0.0163254 -0.0101085 -0.00392407 -0.0098578 -0.00843234 -0.018032 -0.00662085 -0.00416672 -0.00758639 -0.0208255 -0.023111 -0.0164052 -0.0207099 -0.0430343 -0.0201685 -0.0187583 -0.0293922 -0.0266626 -0.0395695 -0.0198741 -0.020214 -0.0178187 -0.0167332 -0.0102342 0.0018636 -0.0163194 -0.000442822 -0.00724893 -0.00811566 0.00191376 -0.0223763 -0.019912 -0.0100171 -0.00455361 -0.0169157 0.00891899
internal_weight=26352.9 21503.3 16090.8 10378.7 5412.56 4849.6 4206.38 5712.07 292.878 224.872 1918.19 4182.37 4163.39 130.701 1529.69 2931.41 1787.49 4175.27 3947.46 500.298 450.756 3447.16 6172.32 6018.57 4954.91 4752.73 2415.97 2336.77 803.288 1167.78 1108.65 379.505 1063.67 422.575 378.571 4121.19 2716.63 1404.56 3398.92 80.4726 3318.45 2878.37 440.076 418.015 193.693 2730.96 2713 1330.31 1280.78 590.553 197.637 392.916 544.343 335.2 206.049 147.408 1248.19 1049.4 323.776 227.805 1107.12 74.2516
internal_count=104558 85326 63843 41174 21483 19232 16692 22669 1161 892 7604 16601 16526 519 6068 11628 7085 16569 15666 1984 1787 13682 24482 23873 19656 18853 9586 9267 3184 4631 4396 1506 4217 1675 1501 16358 10785 5573 13491 320 13171 11423 1748 1660 770 10839 10768 5279 5082 2342 783 1559 2157 1329 817 584 4955 4165 1284 903 4393 294
is_linear=0
shrinkage=1


Tree=1
num_leaves=63
num_cat=0
split_feature=5 2 6 10 9 9 3 11 7 8 7 7 1 7 8 11 5 1 1 9 2 3 11 8 8 9 3 8 4 6 4 9 9 9 8 3 1 11 8 8 9 2 3 6 4 4 8 9 9 8 7 8 11 7 4 9 5 10 6 2 1 8
split_gain=73.8049 27.6425 26.2465 28.5075 26.1021 25.0961 23.8526 23.0077 21.9953 26.2099 21.3996 20.9989 19.3763 18.9086 18.6966 17.6416 17.5964 21.4877 16.0995 17.2697 21.8956 17.5237 17.0032 20.0537 26.6511 20.539 18.8197 17.3835 25.5929 21.1933 21.1843 17.9125 15.5614 16.7851 17.7233 17.1776 16.5726 34.133 17.2656 16.2469 19.1658 17.3289 15.563 15.1012 16.1637 15.031 20.4711 18.4317 22.621 30.7093 15.7719 18.622 20.5259 18.5665 15.9938 15.9777 14.6876 14.5212 14.8496 14.4939 16.7606 23.989
threshold=-0.00024415711298053639 0.84228180011302445 0.00027693234034209541 1.5000000000000002 1.0000000180025095e-35 9.5000000000000018 26.973596661759462 793.15000000000293 1909.9060800000002 1914.1613125000001 1848.9316500000002 1818.6717100000003 0.14173142157682014 1821.0218100000002 1890.3155000000002 281.00000000000597 -0.0003686169008896289 0.1856261909089727 0.67978629643030286 1.5000000000000002 1.2697431310427938 34.876039292508125 1421.0000000000039 1963.7518975 1983.4132500000003 3.5000000000000004 41.438323711871313 1831.7126925000002 0.23159722222222226 -0.0017401333073394085 0.1809027777777778 4.5000000000000009 22.500000000000004 2.5000000000000004 1925.7586550000003 33.045313316427389 0.32618944385836873 532.84999999999638 1985.0291325000005 1848.9987600000004 5.5000000000000009 1.085655650853242 58.415269298457616 0.00011909292625400526 0.02118055555555556 0.74756944444444462 1912.3193000000001 17.500000000000004 8.5000000000000018 1920.08276 1985.5843100000002 1961.748405 477.19999999999351 1960.3598000000004 0.69895833333333346 11.500000000000002 -0.00014643328790076013 1.5000000000000002 3.7965202641432334e-05 1.207005384499779 0.39764268346997239 1934.0525575000001
decision_type=2 2 2 2 2 2 2 2 2 2 2 2 2 2 2 2 2 2 2 2 2 2 2 2 2 2 2 2 2 2 2 2 2 2 2 2 2 2 2 2 2 2 2 2 2 2 2 2 2 2 2 2 2 2 2 2 2 2 2 2 2 2
left_child=5 4 3 6 8 10 -3 11 43 -10 13 -4 -13 -1 -9 -7 17 -12 19 20 21 -8 23 27 26 -26 -25 28 -21 -29 -31 -32 33 34 -5 -35 37 39 56 -37 41 -41 -36 -2 -45 50 -47 48 59 -50 51 53 -53 55 -54 -14 -39 -11 -59 60 -48 -62
right_child=1 2 7 32 -6 15 18 14 9 57 16 12 45 -15 -16 -17 -18 -19 -20 22 -22 -23 -24 24 25 -27 -28 29 -30 30 31 -33 -34 35 42 36 -38 38 -40 40 -42 -43 -44 44 -46 46 47 -49 49 -51 -52 52 54 -55 -56 -57 -58 58 -60 -61 61 -63
leaf_value=0.038396099320558742 0.060404667602188322 0.042362390199454709 0.048254618073106277 0.015803036721218008 -0.0045417222636808452 0.039303424871721448 0.045596739030591749 0.013401718725997434 -0.054524600756777501 -0.0072134007576746817 0.066893848634444156 -0.038181507390448968 -0.0042271304978509072 -0.016530022927210963 2.2457468298367659e-05 0.0028807668549610706 0.007024064460405397 0.015767092173399101 0.011342447856808584 -0.066956002386927255 -0.03003006106105735 0.0067442398168249158 0.025886126576468833 -0.0029374333057541127 -0.03768089999144672 0.004433390694496931 -0.03326883698093358 0.055252037775503277 -0.0064206555499357089 0.0097154530794252968 0.0046823500381031101 -0.0058543936221246776 0.019787987261063122 -0.011818926541066206 0.005603077872985059 -0.019469513160326898 0.0060653522618512251 0.0090782282595828767 -0.039631896417257631 0.0022796897981728569 0.012390189177251768 -0.031973115801590311 -0.024241028533394327 0.05116561514462014 -0.01670954632876176 -0.010168099981418927 0.042446388053175813 0.026532885445449468 0.017322992516518834 -0.0077669490509185979 -0.022323987141706868 0.033338454881316537 0.00330995625755864 -0.043762031978599868 -0.036724438082465928 -0.014438887053079913 -0.0067928468769897707 0.038758243044142007 0.0034105043728821526 -0.00047923195739412556 -0.042031571351914175 0.025744934833336942
leaf_weight=18.205270946025848 32.424611464142799 31.109721034765244 18.977242335677147 534.28877051174641 5119.4503484368324 33.631446242332458 31.117440491914749 334.08303812146187 18.04231034219265 87.139800891280174 21.036661207675934 42.169870689511299 1647.0372957736254 112.4702156484127 1195.601390644908 2897.8446089923382 876.39429913461208 890.1606839299202 227.80935087800026 25.289870470762253 38.194516733288765 430.97985871136189 48.247505143284798 71.303404331207275 33.645213186740875 207.49347326159477 180.85649567842484 16.203865766525269 56.393357440829277 334.46081201732159 507.49709543585777 1965.5096727758646 153.75845503807068 202.14202746748924 481.36192071437836 58.10473059117794 2336.8399032056332 169.47168166935444 36.166526332497597 338.03554862737656 730.19942101836205 41.452913135290146 48.043131142854691 15.693654701113699 19.884982526302338 361.58360934257507 71.572205290198326 81.074632674455643 154.19934238493443 583.28496117889881 145.1270480453968 53.824939772486687 310.04418660700321 34.148854434490204 27.130500316619873 499.12869344651699 1042.4455856829882 54.873422056436539 64.797416478395462 86.186841204762459 17.8313809633255 48.744902998209
leaf_count=72 128 123 75 2117 20322 133 123 1324 72 346 83 168 6538 447 4744 11495 3475 3527 903 101 152 1709 191 283 134 823 720 64 224 1326 2013 7803 609 803 1909 231 9267 672 144 1341 2894 165 191 62 79 1436 283 321 611 2316 577 213 1230 136 108 1983 4139 217 257 342 71 193
internal_value=0.000636458 -0.000620206 0.000419535 0.00191765 -0.00371124 0.00620817 -0.0012568 -0.00230258 0.0108066 0.00327087 0.0106545 -0.00422181 -0.00446102 -0.0088779 0.00294449 0.00329863 0.0120824 0.0169474 -0.00158182 -0.00232773 0.0063533 0.00936055 -0.00358772 -0.00400613 -0.0133271 -0.00144266 -0.024692 -0.00242354 -0.0251629 -0.00176573 -0.00209482 -0.0036921 0.00408086 0.00367959 0.00937852 0.00245616 0.0030633 0.000159469 -0.00558938 0.00630358 0.00765309 -0.00146187 0.00289475 0.0357234 0.01323 -0.00411595 8.36657e-05 0.00363807 0.0017082 -0.00252094 -0.00628728 -0.00538215 0.00466579 -0.00718407 8.86197e-05 -0.00660205 -0.00457347 0.00831299 0.0196187 0.0156111 0.0256495 0.00759209
internal_weight=26352.2 21502.5 16090.2 10378.4 5412.31 4849.74 4206.11 5711.75 292.856 224.853 1918.27 4182.07 4163.09 130.675 1529.68 2931.48 1787.59 911.197 4175 3947.19 500.292 462.097 3446.9 3398.65 493.299 241.139 252.16 2905.35 81.6832 2823.67 2807.47 2473.01 6172.31 6018.55 1063.69 4954.86 4752.72 2415.88 1248.08 1167.79 1109.69 379.488 529.405 68.0032 35.5786 4120.92 1404.48 1042.89 961.82 737.484 2716.44 2571.31 391 2180.31 337.175 2146.17 1211.92 206.811 119.671 224.335 138.148 66.5763
internal_count=104558 85326 63843 41174 21483 19232 16692 22669 1161 892 7604 16601 16526 519 6068 11628 7085 3610 16569 15666 1984 1832 13682 13491 1960 957 1003 11531 325 11206 11142 9816 24482 23873 4217 19656 18853 9586 4955 4631 4400 1506 2100 269 141 16358 5573 4137 3816 2927 10785 10208 1551 8657 1338 8521 4811 820 474 889 547 264
is_linear=0
shrinkage=0.05


Tree=2
num_leaves=63
num_cat=0
split_feature=3 11 1 0 6 5 10 5 11 4 2 3 7 0 11 11 11 0 11 3 11 1 0 8 7 4 7 7 0 11 8 4 2 7 7 10 1 8 0 2 7 7 1 3 2 8 11 10 8 1 11 6 8 7 4 5 4 1 4 8 3 4
split_gain=64.2843 50.2359 35.709 31.0374 29.3537 27.715 27.0395 26.0477 25.7791 24.8453 23.2559 25.4957 22.3803 21.999 39.3466 31.1142 19.522 17.8691 18.6604 17.6331 18.394 17.0139 18.8764 20.8874 22.7466 20.0864 19.7574 17.8907 17.3239 16.9497 16.9063 16.2271 14.3852 14.2962 25.3638 14.0318 18.6275 18.8196 14.0316 14.0208 13.7563 13.7444 15.1349 13.6765 13.6745 13.0086 18.2359 14.9834 21.8542 18.6926 17.3454 22.6642 19.0595 16.4722 12.9479 14.5482 12.8144 12.4387 12.3025 12.2962 12.3897 12.2926
threshold=42.699482996476554 793.15000000000293 0.22676349832370427 0.19691057820941846 -0.00062879575083119022 -0.00045459112783707839 1.5000000000000002 -0.0005119752297756407 706.4999999999942 0.029513888888888892 0.83817850424937557 59.045995495762895 1825.1051600000003 0.38644907380653165 505.85000000000952 495.49999999999278 449.49999999998914 0.61016747046053033 704.49999999999602 69.782261394822214 1110.500000000002 0.14173142157682014 0.21362927970425266 1912.6558700000003 1821.0218100000002 0.75451388888888904 1959.6516700000004 1915.9260100000004 0.35822111338110446 477.64999999999424 1987.5421925000003 0.88506944444444458 0.75249294180970538 1896.3700200000001 1875.8201700000002 2.5000000000000004 0.41601057884895687 1986.3827575000003 0.34549750441233479 0.95796269248344734 1914.4232300000001 1918.4225100000001 0.63836067949097142 70.247469069524342 0.68410598110299214 1926.1407300000003 685.99999999999011 3.5000000000000004 1917.9345925 0.80178354547970232 472.00000000000279 -0.00061519149285077502 1904.1072800000004 1821.0218100000002 0.64965277777777797 0.00015828532434869483 0.7753472222222223 0.15788135193285155 0.77881944444444462 1917.1755850000002 48.184001861996002 0.93715277777777783
decision_type=2 2 2 2 2 2 2 2 2 2 2 2 2 2 2 2 2 2 2 2 2 2 2 2 2 2 2 2 2 2 2 2 2 2 2 2 2 2 2 2 2 2 2 2 2 2 2 2 2 2 2 2 2 2 2 2 2 2 2 2 2 2
left_child=2 8 3 4 -1 -4 7 -3 10 -8 17 45 -6 14 15 58 -15 18 -2 -9 -21 27 26 24 38 54 -23 -13 -27 -18 -11 -19 -20 34 -10 56 37 -37 -24 -36 -5 42 -35 -30 -14 46 47 49 59 53 52 -52 -51 -12 55 -25 -16 -47 -7 -49 -61 -26
right_child=1 6 5 40 12 13 9 19 33 30 11 21 44 16 35 -17 29 31 32 20 -22 22 23 25 61 28 -28 -29 43 -31 -32 -33 -34 41 39 36 -38 -39 -40 -41 -42 -43 -44 -45 -46 57 -48 48 -50 50 51 -53 -54 -55 -56 -57 -58 -59 -60 60 -62 -63
leaf_value=0.053706892038146027 -0.0049564496152506247 0.033271052204618019 0.0093753619424733117 0.012101852360155693 -0.038393189510822906 0.0077653986130031194 0.032685754958306577 -0.0020929593994419146 0.026181079970224383 0.0071956846490416303 0.05377548440581148 0.0023897310733374342 0.030528371308797982 -0.0051368922919954839 -0.0075620196748562244 0.06194274772197729 0.034878620369566647 -0.036577136803086517 -0.0037517530109799791 0.023713127006936955 -0.02360883568015126 0.0094231157541724807 0.046513360568504108 0.0051138795613201934 -0.012043428195871375 0.032374338970509245 -0.047647898012736029 -0.046291331589514498 -0.0018884015849918502 0.007806585417412238 -0.025595837832050685 0.0072297253935205783 0.042657531599537821 -0.00038920880966464809 -0.067693803069158245 0.0043843586399313281 -0.026487026324503435 -0.042275618324742179 -0.0074527016838209408 -0.021753083680634448 0.033328733492025225 -0.0083410372860112901 0.036859525377752791 0.015420195765666379 0.0057403873078320095 -0.016871785265698085 0.021742836761637577 0.0072507112222709308 0.029520355777065594 0.02742061284051386 0.012031518334506035 -0.042904373508347853 -0.03837902503921703 0.0019734493343545024 -0.016433693539362117 -0.0077074774877795363 -0.048077537359922963 -8.4001616218757212e-05 -0.018125361674623655 0.0075108974333315363 -0.055542803506659993 -0.03749815046934131
leaf_weight=33.658419966697693 2766.9653028547764 57.368016183376312 1472.3117606043816 117.7889778316021 27.359777063131332 763.34284573793411 95.254373699426651 2006.759740754962 17.426895081996918 2303.6057914346457 15.43379098176956 31.468830406665802 60.123160153627396 297.00511574745178 1234.7858030498028 25.83846877515316 60.915087088942528 79.895374074578285 30.482225388288498 122.98009490966797 24.651011750102043 369.70782344043255 26.046475544571877 343.85653722286224 680.44774049520493 54.31959056854248 15.813520699739454 47.152935475111008 418.26565147936344 1137.0782154649496 39.988826677203178 28.745430707931519 36.922362551093102 173.37136949598789 29.070660755038261 654.1837535649538 58.842512995004654 22.348626643419266 22.406906634569168 38.740038082003593 216.82391054928303 1448.3920937776566 32.360928550362587 156.95489419996738 745.76325008273125 114.25810842216015 134.06852270662785 598.39334198832512 113.17407746613026 36.119483336806297 25.482436120510101 71.320794075727463 15.828053101897238 2701.7981525361538 225.94016613066196 620.49927653372288 19.829594627022743 3216.9259878546 48.816314607858658 15.132702067494394 16.05775474011898 50.98316165804863
leaf_count=133 10985 227 5837 467 109 3027 377 7965 69 9135 61 125 238 1179 4903 102 241 318 121 487 98 1466 103 1364 2703 215 63 188 1660 4509 159 114 146 688 116 2595 234 89 89 154 858 5752 128 622 2958 454 531 2373 448 143 101 284 63 10719 898 2464 79 12765 194 60 64 203
internal_value=0.000966273 -0.000510871 0.00507689 0.0129217 0.00792901 0.00345046 0.00402288 1.93911e-05 -0.00193357 0.00765358 -0.00117315 -3.72449e-05 0.00607984 0.00143257 -0.00116078 0.00792765 0.00633823 -0.00508601 -0.00432324 -0.000866048 0.0158114 -0.00384727 -0.0032426 -0.0047737 -0.0116199 -0.00183978 0.00708215 -0.0268064 0.00538327 0.00918313 0.00663616 -0.0249862 0.02167 -0.0076523 -0.0276212 -0.00498797 0.000496088 0.00284299 0.0215572 -0.041448 0.0258565 -0.0066233 0.00546988 0.00283443 0.00758969 0.00161294 0.00363575 0.00296305 0.0092917 0.00132289 -0.0159356 -0.0284431 0.00737192 0.00226768 -0.00566 -0.00313582 -0.00820238 -0.000659815 0.00620919 0.00565539 -0.024951 -0.0138177
internal_weight=26467.7 19470.8 6996.82 1201.52 866.905 5795.3 4650.61 2211.76 14820.2 2438.85 13080.9 10137.9 833.246 4322.99 2827.99 837.998 1495 2943.01 2834.37 2154.39 147.631 3063.86 2985.24 2599.72 779.884 1819.84 385.521 78.6218 629.54 1197.99 2343.59 108.641 67.4046 1739.36 85.2376 1989.99 735.375 676.532 48.4534 67.8107 334.613 1654.12 205.732 575.221 805.886 7073.99 3742.81 3608.74 742.758 2865.98 148.751 96.8032 51.9475 2717.23 1190.3 964.356 1254.62 3331.18 812.159 629.584 31.1905 731.431
internal_count=105020 77268 27752 4763 3438 22989 18448 8777 58820 9671 51913 40229 3305 17152 11223 3323 5929 11684 11252 8550 585 12163 11850 10321 3098 7223 1529 313 2497 4750 9294 432 267 6907 339 7900 2918 2684 192 270 1325 6568 816 2282 3196 28066 14847 14316 2945 11371 591 385 206 10780 4726 3828 4982 13219 3221 2497 124 2906
is_linear=0
shrinkage=0.05


Tree=3
num_leaves=63
num_cat=0
split_feature=3 11 1 0 6 5 9 10 5 11 4 0 11 11 9 7 8 11 3 8 9 1 9 9 9 11 8 6 11 3 11 7 0 8 10 8 11 11 4 1 5 7 0 4 4 3 11 4 1 3 9 7 10 1 8 11 11 7 0 7 9 3
split_gain=58.0185 45.3394 32.23 28.0153 26.6627 25.0126 26.3426 24.402 23.5117 23.2698 22.4221 22.3344 41.6044 27.9658 20.8314 20.6903 19.8435 18.3271 25.3533 20.9814 17.2854 17.0389 18.2606 18.5897 16.8103 16.7976 16.8553 17.5168 18.4587 15.9144 16.6013 15.7315 17.9007 26.2276 15.4264 15.2609 14.9461 14.9577 14.8987 14.7664 14.38 19.7272 15.3604 15.5004 14.3212 14.269 14.1165 17.1062 14.709 13.9941 17.7443 13.9344 13.5558 15.8837 16.4076 13.5295 14.5518 12.9896 27.7011 20.0175 15.2564 14.3179
threshold=42.699482996476554 793.15000000000293 0.22676349832370427 0.19691057820941846 -0.00061519149285077502 -0.00045459112783707839 21.500000000000004 1.5000000000000002 -0.0005119752297756407 706.4999999999942 0.029513888888888892 0.38644907380653165 505.85000000000952 495.49999999999278 20.500000000000004 1821.0218100000002 1859.9668300000001 693.84999999999775 58.415269298457616 1985.0291325000005 13.500000000000002 1.0838498851602341 8.5000000000000018 6.5000000000000009 6.5000000000000009 460.15000000001015 1919.2446200000002 0.00031783947583130528 432.5000000000046 69.782261394822214 1110.500000000002 1914.1474599999999 0.22344812493815913 1921.6969975000002 3.5000000000000004 1987.5421925000003 449.49999999998914 477.64999999999424 0.061458333333333344 0.21293365238576256 0.00015828532434869483 1861.0743300000001 0.23682305942690365 0.22256944444444446 0.078819444444444456 23.758351335412513 441.9999999999846 0.44131944444444449 0.31134254298047431 65.189519525148498 16.500000000000004 1915.3341000000003 2.5000000000000004 0.41601057884895687 1986.3827575000003 432.5000000000046 472.00000000000279 1900.3866800000003 0.22170202990285323 1918.4225100000001 18.500000000000004 50.732312379325528
decision_type=2 2 2 2 2 2 2 2 2 2 2 2 2 2 2 2 2 2 2 2 2 2 2 2 2 2 2 2 2 2 2 2 2 2 2 2 2 2 2 2 2 2 2 2 2 2 2 2 2 2 2 2 2 2 2 2 2 2 2 2 2 2
left_child=2 9 3 4 -1 20 11 8 -3 15 -9 12 13 24 36 -2 34 18 -17 49 45 22 23 25 51 26 27 39 -29 -10 -31 -26 33 -33 -6 -12 -13 -38 -18 44 41 -27 -42 -44 -20 -4 -34 48 -48 -19 -51 -7 -14 54 -54 -25 -57 58 -11 60 -59 -62
right_child=1 7 5 -5 16 6 -8 10 29 57 35 14 52 -15 -16 17 38 19 21 -21 -22 -23 -24 55 31 40 -28 28 -30 30 -32 32 46 -35 -36 -37 37 -39 -40 -41 42 -43 43 -45 -46 -47 47 -49 -50 50 -52 -53 53 -55 -56 56 -58 59 -60 -61 61 -63
leaf_value=0.04783425394456392 0.020863285795086811 0.031612384540276602 -0.0028009877223801761 0.024565869790635894 -0.0058164699169284935 -0.0021310092011749241 0.036796230998636763 0.03105051951191928 -0.0019883538999700729 -0.080104088593190542 0.0068356965427785786 -0.0036768774149322061 -0.0089020759170783652 0.058879278367027998 -0.047862929577978247 -0.00030916439465666191 0.017524807970724702 0.0045816957282297155 0.0041702265710142966 -0.017087588982635803 0.0030765960708293047 0.020149341696954759 -0.0089962201396297809 0.020194138684636528 0.01435136517227968 -0.047917429567563355 -0.025430933808696446 -0.006085753561107736 -0.050973582453426869 0.022527691146181295 -0.022432156227141183 -0.01528461339945042 -0.016383685858797063 0.045914772669535794 -0.066746681688702236 -0.024324467649291207 0.033138578385934377 0.0076977178028376147 0.0027533884103352353 -0.010487240675503658 0.0054616638063342817 0.0087095838614328399 -0.055846925687137006 -0.010572987547694748 0.06232611147047127 0.016637977756407501 0.0049819120448702757 0.030489935744897913 -0.045242640312201252 0.010639215151810587 0.047618806863156012 0.024724578208002862 0.0034035419521316218 -0.025173734312501212 -0.040195526301489086 -0.03065195277108065 0.0051670291452296756 0.018677467454061774 -0.013186831617963411 -0.0079248735312353949 0.018801208958356224 -0.0450886806962408
leaf_weight=39.184579730033875 106.21723195910454 57.359241336584091 109.61047016084194 334.5837958753109 31.452189758419991 67.280670329928398 51.819079667329788 95.256979614496231 2006.7202481627464 18.003296881914139 2303.67251701653 288.96244804561138 1228.2055380195379 25.823860600590706 17.82303149998188 8270.5442069917917 252.12668804824352 765.10249222815037 20.160780310630798 96.364542052149773 682.2434187233448 64.620117902755737 1972.2973591089249 137.04055730998516 164.26125665009022 16.060829564929008 167.67187549173832 128.91966895759106 27.850213557481766 122.97877511382103 24.646955981850624 31.464098826050758 216.94449637830257 39.465336099267006 15.511269912123678 39.975283652544022 60.907964810729027 1123.2594860196114 528.59394805133343 31.474675059318542 162.32913790643215 362.83922944962978 20.314181953668594 272.61794357001781 22.290063127875328 680.45023562014103 49.923544824123383 42.449668556451797 20.590073049068451 119.54096972942352 44.520983502268791 171.22660376131535 641.30375103652477 58.817232772707939 22.330290645360947 32.168541252613068 239.1924983561039 127.21114230155945 109.70766472816467 1448.2338876277208 15.141585275530813 20.836209252476692
leaf_count=155 421 227 435 1325 125 267 205 377 7965 72 9135 1147 4878 102 71 32820 999 3035 80 383 2706 256 7834 543 651 64 667 512 111 487 98 125 862 156 62 159 241 4454 2097 125 644 1439 81 1083 88 2696 198 168 82 474 176 678 2544 234 89 128 949 504 436 5752 60 83
internal_value=0.00091798 -0.000485374 0.00482317 0.0122763 0.00753285 0.003278 0.00136097 0.00382172 1.84183e-05 -0.00183703 0.00727073 0.000931042 -0.00171681 0.00766336 0.00586832 -0.00111458 0.00562489 -0.00129451 -0.00184506 0.00511998 0.00890664 -0.00529891 -0.00575403 -0.00185712 0.00601754 -0.00492054 -0.0133671 -0.00459893 -0.0140601 -0.000822768 0.0150214 0.00131942 -0.00402101 0.0187669 -0.0259407 0.0063042 0.00651841 0.00900628 0.00752369 0.0154648 -0.000886757 0.00630928 -0.0068758 -0.0137126 0.0347067 0.0139411 -0.00892036 0.00541285 -0.00968373 0.00742315 0.0206743 0.0171489 -0.00570531 -0.000270638 0.0019365 0.00738808 0.000920862 -0.0072707 -0.0226201 -0.00605421 0.0105472 -0.0182
internal_weight=26466.5 19469.9 6996.62 1201.45 866.869 5795.16 4322.86 4650.61 2211.71 14819.3 2438.9 4271.04 2780.09 829.43 1490.95 13080.1 827.684 12973.9 11948.4 1025.53 1472.3 3677.85 3613.23 1640.93 803.606 1232.53 398.367 230.695 156.77 2154.35 147.626 565.098 400.837 70.9294 46.9635 2343.65 1473.13 1184.17 780.721 73.9255 834.161 378.9 455.261 292.932 42.4508 790.061 329.908 112.963 70.5136 929.164 164.062 238.507 1950.66 722.451 663.634 408.402 271.361 1739.13 127.711 1611.42 163.189 35.9778
internal_count=105020 77268 27752 4763 3438 22989 17152 18448 8777 58820 9671 16947 11034 3289 5913 51913 3283 51492 47424 4068 5837 14604 14348 6514 3187 4894 1583 916 623 8550 585 2242 1591 281 187 9294 5842 4695 3096 293 3311 1503 1808 1164 168 3131 1310 448 280 3685 650 945 7745 2867 2633 1620 1077 6907 508 6399 647 143
is_linear=0
shrinkage=0.05


Tree=4
num_leaves=63
num_cat=0
split_feature=5 2 6 9 1 7 11 7 9 1 11 0 11 7 8 10 9 11 9 3 9 11 7 5 7 1 2 5 1 1 8 8 5 11 2 10 6 9 8 9 7 6 8 1 7 9 7 9 2 1 6 1 2 0 1 3 7 0 11 9 1 1
split_gain=77.5405 35.4465 25.6904 23.0036 19.0001 21.1269 21.3087 18.6361 18.4885 18.0201 22.7746 17.9009 16.4469 16.0276 17.5009 19.8333 18.4497 16.9905 15.312 15.887 14.5181 22.8571 16.2943 20.7364 20.46 14.7731 14.2641 13.7507 13.7224 13.673 13.4076 14.1399 13.0989 15.9759 12.9083 16.1356 13.9454 12.8631 14.1608 17.4351 12.7975 12.77 12.7258 25.8108 17.8528 17.2516 14.6926 13.8644 14.3515 17.994 15.763 12.7767 12.6511 12.8163 13.5441 12.6483 12.5596 25.2275 13.0446 24.7939 32.6808 22.2729
threshold=-0.00024415711298053639 0.83609458304919648 -4.1930699569592271e-05 1.0000000180025095e-35 0.22676349832370427 1857.4543900000001 432.5000000000046 1876.7964300000001 4.5000000000000009 0.34023324150039597 477.64999999999424 0.31377347984693799 472.00000000000279 1936.0181800000003 1917.3931900000005 3.5000000000000004 1.0000000180025095e-35 615.70000000000402 8.5000000000000018 43.759769638205519 9.5000000000000018 305.70000000001306 1848.9316500000002 -0.0003686169008896289 1821.0218100000002 0.49777408167241227 1.0331071802273195 0.00012011823826496572 0.22229521699894014 0.17659056095560641 1968.8160325000001 1972.5657250000006 -3.6441915495122317e-05 780.49999999999511 0.75249294180970538 1.0000000180025095e-35 0.00022688027024542204 5.5000000000000009 1914.7485125000001 10.500000000000002 1918.4225100000001 -0.00037690873715445766 1821.0715150000001 0.230980919266531 1908.6357700000001 19.500000000000004 1897.3935700000004 3.5000000000000004 0.64708755485577474 0.22229521699894014 0.00029685575322113694 0.16126653391754123 0.79368330322290082 0.35996964766618539 0.42752819960158789 41.438323711871313 1821.0218100000002 0.35091996353785143 610.84999999999366 5.5000000000000009 0.43530426261867999 0.41601057884895687
decision_type=2 2 2 2 2 2 2 2 2 2 2 2 2 2 2 2 2 2 2 2 2 2 2 2 2 2 2 2 2 2 2 2 2 2 2 2 2 2 2 2 2 2 2 2 2 2 2 2 2 2 2 2 2 2 2 2 2 2 2 2 2 2
left_child=20 3 4 7 5 29 18 27 13 10 11 37 -13 14 15 16 26 -18 19 -7 22 -22 24 28 -1 -25 -8 -2 -24 -3 -12 -32 -10 -34 36 -36 -9 40 39 -39 -6 -15 43 -5 46 -45 47 -44 -49 50 51 -50 53 54 -51 -42 57 -4 -58 61 -61 -60
right_child=1 2 56 42 9 6 8 34 32 -11 30 12 -14 41 -16 -17 17 -19 -20 -21 21 -23 23 25 -26 -27 -28 -29 -30 -31 31 -33 33 -35 35 -37 -38 38 -40 -41 55 -43 44 45 -46 -47 -48 48 49 52 -52 -53 -54 -55 -56 -57 58 -59 59 60 -62 -63
leaf_value=0.0389440079892013 0.058632170486072645 -0.061535576722574495 0.042833876175072561 0.05897565765243537 0.0071392318742136713 0.0057997808456022783 0.015254007276104731 0.0016364537421701679 0.017438871139112379 0.0043720076520025967 -0.0026719203978505068 -0.012279510688602058 0.027237029007141061 0.042863098213106868 0.058667778256660898 0.059907676100565736 0.014419894564902261 -0.043190030965837588 0.019813913495239165 -0.016350949242924028 0.030251057544587956 0.0034519455257773519 0.039345102671393212 0.0040582662355997589 -0.015810276275381119 0.033158172149649348 0.077231184049736432 0.0014058251078264146 0.014672007444740938 -0.0062779667277671793 -0.035165768454359515 -0.0084678454289934934 -0.0052369590460453657 0.031281944734904026 -0.020608350516253187 0.025016690859683846 -0.039154912924766958 0.057140975342022976 -0.00056443115949411768 0.0075859590330380425 0.066917837512608366 -0.0025789762763157704 -0.037398753784196589 0.023384030562289659 -0.003793673647581125 -0.047577742417940501 -0.022148425369610505 -0.032506202285737723 -0.012881367249190454 -0.013971258423607061 -0.032612064739252399 0.027531171012584482 0.00062217450748394915 -0.03390848535032405 0.027115382084695102 0.023968141812064872 -0.0031977518560871222 -0.0016528782205236744 0.0078625814630607568 -0.0061086028945377289 0.0037187000894630682 -0.0099807988177140709
leaf_weight=20.195624873042107 30.102915748953819 15.228484556078909 48.772364929318428 23.295363634824753 88.263739064335823 187.06163649260998 23.217034816741943 92.199845567345619 237.97339789569378 2908.8788601607084 1439.65281021595 180.98738676309586 30.813781946897507 20.212073087692261 52.411092579364777 29.882093355059624 38.859577760100365 19.08326356112957 86.831636473536491 142.69857133924961 81.834494799375534 2868.4518191367388 60.348462298512459 841.06588937342167 109.92908251285553 45.999733686447144 15.46935300529003 16.117503643035889 851.34602512419224 42.264810219407082 64.560334533452988 213.93587443232536 187.90594294667244 35.626184359192848 24.384031772613525 94.399350672960281 27.114043548703194 25.829791635274887 270.9029843211174 56.740380525588989 21.793715804815292 65.760255500674248 37.427274867892265 18.684383183717728 3870.2331059873104 15.813976913690565 240.43579426407814 47.736224591732025 24.918800100684166 171.10726352035999 17.082817569375038 90.915462091565132 208.60328520834446 71.609894216060638 22.721589595079422 80.303810089826584 4627.2290387302637 91.94442680478096 1397.107783600688 1977.3932304978371 1478.5593331158161 199.91410930454731
leaf_count=80 119 61 193 92 350 742 92 366 943 11539 5715 719 122 80 207 118 154 76 344 567 324 11378 239 3336 437 182 61 64 3374 168 257 850 746 141 97 374 108 102 1075 225 86 261 149 74 15365 63 956 190 99 680 68 360 828 285 90 318 18370 365 5541 7852 5866 794
internal_value=0.000708929 -0.000579798 0.000555882 -0.00420081 0.00297267 0.00866056 0.0101482 0.00962281 0.0153182 0.00170411 -0.00143301 0.00580116 -0.00653047 0.0258472 0.0343726 0.0243076 0.0132984 -0.00455372 0.00113332 -0.0037856 0.00640062 0.00419529 0.00977373 0.0110098 -0.0073123 0.00556727 0.0400365 0.0386768 0.0163052 -0.0209143 -0.00461457 -0.0146569 0.00927484 0.000583364 0.00398273 0.0156507 -0.00763337 0.0106038 0.00496067 0.0230879 0.0210823 0.00810444 -0.00500942 0.0183131 -0.00529007 -0.0091447 -0.0115003 -0.00780124 -0.00610923 -0.00403315 0.012225 0.0188374 -0.0085918 -0.0158329 -0.00915488 0.0331362 -0.00106414 0.0137662 -0.00127972 0.000476705 -0.00190419 0.00562896
internal_weight=26428.1 21549 16404.1 5144.9 6583.15 1200.49 1142.99 284.318 726.4 5382.66 2473.78 755.636 211.801 264.895 178.922 126.511 96.6292 57.9428 416.592 329.76 4879.17 2950.29 1928.88 1798.76 130.125 887.066 38.6864 46.2204 911.694 57.4933 1718.15 278.496 461.506 223.532 238.097 118.783 119.314 543.834 353.473 82.5702 190.361 85.9723 4860.59 57.7937 4802.79 34.4984 932.558 692.123 654.695 606.959 132.917 115.834 474.042 265.439 193.829 102.098 9820.92 140.717 9680.2 5052.97 3455.95 1597.02
internal_count=104877 85527 65100 20427 26119 4761 4532 1128 2879 21358 9819 2997 841 1049 708 501 383 230 1653 1309 19350 11702 7648 7131 517 3518 153 183 3613 229 6822 1107 1830 887 945 471 474 2156 1402 327 754 341 19299 229 19070 137 3705 2749 2600 2410 527 459 1883 1055 770 404 38981 558 38423 20053 13718 6335
is_linear=0
shrinkage=0.05


Tree=5
num_leaves=63
num_cat=0
split_feature=5 2 6 4 9 7 11 1 2 9 3 7 3 11 11 4 3 5 8 1 6 11 3 11 1 1 11 11 8 1 9 7 4 0 8 3 3 5 9 9 9 2 1 5 0 8 6 2 1 7 7 7 7 7 3 4 1 3 5 4 7 1
split_gain=69.9884 31.9951 23.1877 21.0227 20.7676 16.8626 14.026 16.8302 13.5977 14.4096 13.0022 12.4877 23.8867 19.581 15.5845 12.4848 18.6387 12.4705 11.934 11.9376 13.1286 11.9158 12.6527 13.6148 13.0357 12.6069 12.1576 11.9056 11.76 23.3213 15.5828 14.7545 13.7479 23.6379 18.8697 19.6082 19.4909 16.5273 14.898 13.8039 15.8261 13.3483 13.323 12.3209 14.1212 11.9142 20.5408 11.6353 11.5814 11.4791 11.2611 11.2541 11.1934 20.5907 12.3592 11.0874 10.8323 13.3558 10.743 10.7144 10.4275 10.2866
threshold=-0.00024415711298053639 0.83609458304919648 -4.1930699569592271e-05 0.07465277777777779 1.0000000180025095e-35 1876.7964300000001 550.9999999999992 0.15788135193285155 0.82127982123322718 1.0000000180025095e-35 33.367687182707236 1989.6612100000004 49.445296398932449 1025.0000000000002 930.99999999999466 0.07465277777777779 50.496421113665825 0.00012011823826496572 1938.2976025 0.18337429556893306 0.00019222310995914429 305.70000000001306 44.279505865288392 383.99999999999187 0.54595136766232932 0.43270801613532012 890.04999999999666 1730.8499999999983 1821.0715150000001 0.230980919266531 19.500000000000004 1908.6357700000001 0.82048611111111114 0.3370613463887514 1892.9602575000001 52.274273379387139 65.725408917367673 0.00021295531879461652 17.500000000000004 3.5000000000000004 19.500000000000004 0.80312980714601923 0.18994897071020225 5.2963501038116874e-05 0.21841783152163902 1988.2154875000003 0.00054783698020688398 0.87631546002833827 0.13149521387542693 1926.0821500000002 1820.07446 1946.1477600000001 1998.2337600000003 1996.2987100000003 47.739679730340519 0.32673611111111117 0.25183901441378814 43.627318633346128 1.0000000180025095e-35 0.1434027777777778 1818.6717100000003 0.42291494912388361
decision_type=2 2 2 2 2 2 2 2 2 2 2 2 2 2 2 2 2 2 2 2 2 2 2 2 2 2 2 2 2 2 2 2 2 2 2 2 2 2 2 2 2 2 2 2 2 2 2 2 2 2 2 2 2 2 2 2 2 2 2 2 2 2
left_child=8 4 3 6 5 17 -3 -8 -1 10 -10 14 13 -13 21 16 49 -2 19 20 48 25 26 24 -24 56 50 28 29 -6 -31 32 33 34 36 38 39 -37 42 -30 61 -34 -36 -42 -45 -33 -47 -9 -7 -4 -23 -29 53 -5 -54 59 -11 -58 -50 -44 -17 -41
right_child=1 2 15 52 27 18 7 47 9 11 -12 12 -14 -15 -16 60 -18 -19 -20 -21 -22 22 23 -25 -26 -27 -28 51 31 30 -32 45 41 -35 35 37 -38 -39 -40 40 43 -43 55 44 -46 46 -48 -49 58 -51 -52 -53 54 -55 -56 -57 57 -59 -60 -61 -62 -63
leaf_value=-0.0010692758138565418 0.055860338046941953 0.034876464821386441 0.031738315014718334 0.0023124392202421868 0.05608586699527366 -0.0039724076001918301 0.038943386005494525 -0.027754824347447346 0.0488105101342588 0.039192071975615181 0.010890684001336436 0.0092496286183333578 -0.053955023379832746 -0.044426742451470554 0.013309426243915715 0.021425718228504555 -0.018497743615314595 0.0013355836599471716 0.018770310289370332 -0.019959970032698723 -0.033706766412532445 0.050233599432493531 -0.037785310193441057 0.001581375276462604 0.015920218721599672 0.040195739496268618 -0.013728317970398585 0.040937817099306481 -0.032161317817794695 0.022212722042351342 -0.045247155242224814 -0.0033918208525226135 -0.0087071103765530254 -0.029344723408637464 -0.067648262838947246 -0.050268558436138457 -0.037004911348846946 0.0069563091897656363 0.0031600453406542511 0.0090562986102296263 -0.018742253888580716 0.04850580068774539 -0.029046642476849772 0.035867235660430929 -0.016490565794577836 -0.011606559141490549 -0.07383856869975064 0.010683208181625761 0.011038434053441435 -0.010348274558530128 0.0073654255925586724 -0.0056683652505950559 -0.041805437183495192 0.044659642265655927 0.013594639691754867 -0.041805248140969288 -0.022346627910246542 0.026335266310713892 0.066019273971099426 0.017709247791672367 -0.00082881536608691924 0.051640857569790401
leaf_weight=585.11758673191071 30.018796324729919 81.108480855822563 34.614453062415123 6313.5217375010252 23.271315842866898 32.72535751760006 31.335117816925049 31.915154576301575 38.393522188067436 20.70947690308094 54.97576417028904 110.21933780610561 23.335477784276009 20.087122693657875 820.16201788187027 52.929509148001671 215.29775916039944 16.116919815540314 85.26420533657074 69.095940560102463 15.323074132204054 15.431366816163061 42.464783295989037 838.60576771199703 15.395141452550886 49.780778512358665 68.473824560642242 27.564183384180069 29.119612038135529 18.686085760593414 15.797451868653296 3689.7696511894464 22.39145216345787 164.54963110387325 15.027389839291571 65.70363387465477 36.65778748691082 15.616325825452803 101.80017496645451 214.81280764937401 103.5773188918829 18.716269969940186 21.359420835971832 27.277954339981079 24.394782289862633 113.2329011708498 15.01824903488159 51.387801736593246 18.650741040706635 30.457670658826828 2116.8297135829926 24.435448214411736 29.125736057758331 28.836435452103615 15.385008975863455 27.355146288871765 35.210836127400398 23.486516878008842 16.967651590704918 28.738407000899315 9487.2973983883858 15.183430850505827
leaf_count=2322 119 321 137 25052 92 130 124 127 152 82 218 437 93 80 3251 210 856 64 338 275 61 61 169 3327 61 197 272 109 116 74 63 14649 89 655 60 262 146 62 404 852 412 74 85 108 97 450 60 204 74 121 8395 97 116 114 61 109 140 93 67 114 37657 60
internal_value=0.000673547 -0.000550843 0.000528128 0.0028243 -0.00399132 0.00914703 0.0189646 0.00770671 0.00608125 0.00705571 0.0264833 0.00662384 -0.00736767 0.000975259 0.00715508 -0.00101096 -0.0114103 0.0368128 0.0037847 -0.00457949 0.00812242 0.00559062 0.00497003 -3.71465e-05 -0.0234956 0.0204687 0.0070097 -0.00475951 -0.00501687 0.0174093 -0.00869171 -0.00528953 -0.0109287 -0.0122328 -0.00835765 -0.0186652 -0.00205914 -0.0392793 -0.0100368 0.00103242 0.00354143 0.0173418 -0.0245636 -0.00879337 0.011149 -0.00391255 -0.0188939 -0.00404323 0.0175008 0.0120393 0.00767567 0.0190368 0.00232962 0.00250498 -0.0226566 -0.0162043 0.00810166 -0.00286759 0.0372298 -0.00222532 -0.000705346 0.0118676
internal_weight=26426.1 21547.4 16403.2 6582.62 5144.22 284.163 195.747 114.638 4878.68 4293.56 93.3693 4200.19 153.642 130.306 4046.55 9820.6 280.37 46.1357 238.027 152.763 83.6668 3226.39 3097.2 896.466 57.8599 129.188 2200.73 4860.06 4808.06 57.7549 34.4835 4750.3 932.282 891.174 726.624 275.6 451.024 81.32 194.281 414.366 385.246 41.1077 92.4804 155.25 51.6727 3818.02 128.251 83.303 68.3438 65.0721 2132.26 51.9996 6386.87 6342.36 44.5107 77.453 79.4068 58.6974 35.6184 50.0978 9540.23 229.996
internal_count=104877 85527 65100 26119 20427 1128 776 455 19350 17028 370 16658 610 517 16048 38981 1114 183 945 607 332 12797 12285 3557 230 512 8728 19299 19093 229 137 18864 3705 3542 2887 1096 1791 324 772 1645 1529 163 368 617 205 15159 510 331 271 258 8456 206 25343 25166 177 308 315 233 141 199 37867 912
is_linear=0
shrinkage=0.05


Tree=6
num_leaves=63
num_cat=0
split_feature=3 2 1 7 1 2 9 4 6 1 6 7 10 8 8 7 9 2 4 7 1 8 1 6 4 2 1 1 8 9 0 1 4 1 6 2 3 4 7 8 4 0 3 7 7 3 7 2 4 2 1 5 4 0 3 9 6 4 9 1 3 9
split_gain=57.983 32.3918 29.8579 26.4986 22.9633 21.7812 20.8055 19.8889 18.2145 18.1965 18.0963 18.9588 17.5642 19.379 28.3562 29.5907 21.553 26.9729 17.0998 17.4718 15.5302 15.0182 14.5729 14.4242 21.3463 19.0992 14.3185 23.4175 21.3132 14.1876 13.859 16.7633 13.7749 19.8122 18.6435 13.8532 13.7518 15.8421 15.345 14.0428 13.5005 18.3218 13.1983 13.0526 12.8317 29.5048 25.6485 25.2859 16.7787 19.5492 17.7565 15.3813 13.3978 13.0648 12.7261 12.6481 18.5005 12.7748 18.3552 18.2916 12.7533 12.6257
threshold=43.895481082688327 0.86719852794168739 0.22368295622554954 1857.4543900000001 0.3361950956832831 0.83817850424937557 1.5000000000000002 0.55868055555555574 -0.00042560921890122389 0.38284349257319289 9.956220544837803e-05 1943.9278200000001 3.5000000000000004 1985.0291325000005 1978.0246750000003 1955.7469800000003 1.5000000000000002 1.0621162692494626 0.38854166666666673 1982.4567100000002 0.12650338000036204 1822.9109850000002 0.45145142355142343 0.00057120232144025629 0.40381944444444451 0.88003684940033333 0.16126653391754123 0.20312839052280937 1822.9109850000002 3.5000000000000004 0.10477843418079062 0.13655356247856579 0.28993055555555564 0.36476752224430636 0.00077492653787203391 1.1346236965304231 52.150830260124586 0.02118055555555556 1908.9840700000002 1925.1203000000003 0.2524305555555556 0.18302708939529813 45.026858026168391 1909.9060800000002 1957.1247700000004 73.435329373089857 1984.9274700000001 1.3803846021844282 0.53784722222222225 1.0983765493446533 0.3665938402828795 -4.6433878172658087e-05 0.75798611111111114 0.66189085232344247 57.549325048041673 15.500000000000002 0.0011540999925693243 0.46701388888888895 2.5000000000000004 0.46347476303245078 51.556590141633514 17.500000000000004
decision_type=2 2 2 2 2 2 2 2 2 2 2 2 2 2 2 2 2 2 2 2 2 2 2 2 2 2 2 2 2 2 2 2 2 2 2 2 2 2 2 2 2 2 2 2 2 2 2 2 2 2 2 2 2 2 2 2 2 2 2 2 2 2
left_child=1 30 3 -3 7 6 10 -4 -5 -6 11 43 21 14 15 20 17 -16 19 22 -14 32 -11 -23 -25 61 36 28 -28 -20 31 -1 -7 -34 35 54 37 39 -38 -8 -22 -42 -43 -2 45 48 51 53 49 50 -27 -46 -53 -47 -35 56 57 58 -18 -60 -59 -26
right_child=5 2 4 8 9 12 26 -9 -10 18 -12 -13 13 -15 16 -17 55 -19 29 -21 40 23 -24 24 25 44 27 -29 -30 -31 -32 -33 33 34 -36 -37 38 -39 -40 -41 41 42 -44 -45 46 47 -48 -49 -50 -51 -52 52 -54 -55 -56 -57 -58 60 59 -61 -62 -63
leaf_value=0.0032937350287636103 0.040729515161050424 -0.018292240244907318 0.0042320624993240031 0.030285349728265139 0.015489253513252133 -0.011608217587923549 0.031425150313958733 -0.0065080689320025841 0.01292546046938811 -0.017567250791499341 -0.0023630277891086068 0.056968221454257367 -0.036154431011428269 -0.0090284681286040246 0.034835160978625143 -0.011062730400338588 0.091398065196086495 -0.054512974537907391 0.022095875049049161 -0.052847279650809223 0.014817886429704458 8.5949068240935702e-05 0.039646050261443695 -0.014473927670875342 0.021327879624513206 -0.021080290537390564 0.059456384620297099 -0.0054198524455609087 0.0048153908073034933 0.0055394506562124815 -0.0013821244831163273 0.049505806362035151 0.03891341564015157 0.021044788549222967 -0.022013507245100719 0.060389940052089079 -0.059056932841213189 -0.022089033629658458 -0.018213901842316908 -0.014703851102558719 -0.045248196580229841 0.025285078277417966 0.0037204422815237609 0.00018903668220911945 0.022020108751931815 0.022988917477936917 -0.019695504745701319 -0.036125680761335426 -0.010887596893890562 0.030406241260154773 0.024743101640332988 -0.0076307777246531682 0.0098999455750820552 -0.01953565052961391 -0.025897367776355623 0.057576119976278463 -0.016890676708871882 0.04225216307009054 -0.0023469256576482888 0.070087723599345786 0.0033210401039550259 -0.014843099436265786
leaf_weight=58.21155047416687 28.176418229937553 54.15168160200119 1381.6395832449198 212.65248899161816 613.84104438126087 52.321438953280449 41.4068284034729 626.52098159492016 522.02206918597221 40.005335256457329 151.19992110133171 31.37368306517601 22.092837750911713 270.87502987682819 15.163772091269491 308.13361556828022 17.268670320510864 19.069432124495506 138.31829227507114 23.82822397351265 357.73230548202991 8491.2160355746746 15.419919073581694 418.71182079613209 128.71581657230854 67.389802500605583 18.709083586931229 3181.9202743917704 387.04651653766632 2005.6708661019802 2206.1294046640396 29.604094713926315 69.173059195280075 59.060490608215332 41.240454226732254 16.185956761240959 27.758583307266235 60.096358925104141 134.06657783687115 27.426740393042564 18.581372439861298 74.242644682526588 1601.5676162838936 67.224563524127007 125.47264339029789 159.03578546643257 111.15097936987877 24.364722102880478 1141.4656675904989 55.567375749349594 30.804701924324036 194.63404782116413 247.67322386801243 20.375951603055 19.109639152884483 30.621149465441704 25.166020557284355 33.892893180251122 20.410022243857384 15.211281970143316 55.456255495548248 29.690407142043114
leaf_count=231 112 216 5482 843 2433 208 164 2488 2070 159 601 124 88 1076 60 1224 68 76 548 95 1418 33699 61 1664 510 268 74 12638 1536 7955 8758 117 274 234 164 64 111 239 533 109 74 294 6354 267 497 630 442 97 4535 220 122 773 982 81 76 121 100 134 81 60 220 118
internal_value=0.00082305 0.00440196 0.00644128 0.0154623 0.00497262 -0.000706918 -0.00389514 0.000881276 0.0179503 0.00786858 0.0093186 0.0232509 0.000214042 0.00370203 0.00502091 0.00339508 0.0216975 -0.0149358 0.0057645 -0.0170428 0.00554285 -0.000660878 -0.00164988 -0.000934032 -0.00407766 -0.00221448 -0.0048422 -0.00397733 0.00733485 0.00660758 -0.000606744 0.0188726 0.011288 0.0171383 0.00603001 0.0182871 -0.0155139 -0.00333153 -0.0252199 0.013045 0.00599176 0.00412832 0.00467581 0.0121626 -0.00343367 -0.00601653 0.00226899 0.0116687 -0.00879893 0.00670649 -0.00670499 0.00656885 0.00218568 0.0181594 0.00956921 0.0280303 0.0226259 0.0296175 0.0490934 0.0285847 0.0180888 0.0145483
internal_weight=26473.3 7928.02 5634.07 788.826 4845.24 18545.3 4156.41 2008.16 734.675 2837.08 277.975 126.775 14388.8 2885.48 2614.61 2382.35 232.259 34.2332 2223.24 79.2535 2074.22 11503.4 55.4253 11246.3 2755.05 2336.34 3878.43 3587.68 405.756 2143.99 2293.95 87.8156 257.091 204.77 135.597 94.3561 290.755 128.93 161.825 68.8336 2052.12 1694.39 1675.81 95.401 2177.93 1499 678.931 203.776 1295.23 153.762 98.1945 567.78 442.307 179.412 78.1701 198.026 167.405 142.239 52.89 35.6213 89.3491 158.406
internal_count=105070 31456 22350 3129 19221 73614 16508 7970 2913 11251 1104 503 57106 11448 10372 9452 920 136 8818 315 8228 45658 220 44638 10939 9275 15404 14248 1610 8503 9106 348 1020 812 538 374 1156 512 644 273 8140 6722 6648 379 8647 5953 2694 808 5145 610 390 2252 1755 711 310 784 663 563 209 141 354 628
is_linear=0
shrinkage=0.05


Tree=7
num_leaves=63
num_cat=0
split_feature=3 11 9 11 2 11 11 3 7 10 3 2 7 1 2 5 7 7 9 7 5 8 3 3 8 11 1 7 1 1 1 9 3 3 1 0 5 0 1 6 7 7 8 11 8 0 2 6 0 7 11 7 1 1 11 8 5 1 9 9 11 1
split_gain=52.3355 36.1235 30.0956 27.7087 27.2252 26.7572 25.4465 30.6283 23.3793 20.4104 19.8076 21.4146 18.0854 21.7218 21.3624 28.6547 17.1077 18.6361 16.5295 16.5573 16.451 16.1562 15.2523 14.9871 14.9449 14.3585 13.8173 24.6549 21.5049 18.2742 16.43 14.8901 14.595 13.6716 15.8119 15.8435 12.4178 15.0855 12.348 16.3691 18.2886 17.63 14.5127 19.5139 18.3418 17.8332 15.4434 14.4121 15.4062 13.7657 13.2389 14.0649 12.4222 14.7934 15.7699 22.1501 14.9044 13.7924 12.3079 14.7526 15.8279 17.5038
threshold=43.895481082688327 793.15000000000293 1.0000000180025095e-35 706.4999999999942 0.85792276540620271 693.84999999999775 1278.0000000000089 33.990200247014002 1818.6717100000003 1.5000000000000002 59.045995495762895 0.83817850424937557 1977.3856000000003 0.62097247799900079 1.0956465717793977 0.00012988767774324564 1896.3700200000001 1875.8201700000002 1.5000000000000002 1943.9278200000001 -0.0005695438091194992 1986.3827575000003 65.189519525148498 74.395989067742292 1912.6558700000003 685.99999999999011 0.22368295622554954 1857.4543900000001 0.3361950956832831 0.15451762990078929 0.38284349257319289 21.500000000000004 43.627318633346128 70.778498324197756 0.43012661946048508 0.33864933114467005 4.179946707083549e-05 0.24394332166611934 0.69766947562879766 -0.00048952303760929617 1894.5454200000001 1906.2206900000001 1944.6295950000003 624.00000000000102 1976.8873600000004 0.8073063206281279 1.1908994556451029 0.00055898552777000632 0.52137150439023172 1959.9781400000004 437.50000000000006 1962.3296500000004 0.27924431430230018 0.42053705552503312 645.40000000000657 1970.8648800000003 0.0001235356645814534 0.21927306032867649 2.5000000000000004 1.0000000180025095e-35 1036.5000000000011 0.31134254298047431
decision_type=2 2 2 2 2 2 2 2 2 2 2 2 2 2 2 2 2 2 2 2 2 2 2 2 2 2 2 2 2 2 2 2 2 2 2 2 2 2 2 2 2 2 2 2 2 2 2 2 2 2 2 2 2 2 2 2 2 2 2 2 2 2
left_child=2 3 6 5 -4 8 7 -1 -2 12 11 18 20 14 15 -14 17 -5 19 24 -3 23 58 -7 -10 -20 27 -6 31 -29 -30 36 -31 -22 35 -35 -28 -38 42 -40 -41 -42 45 44 50 -13 47 48 52 -48 51 -44 57 54 55 -54 -55 -45 59 -11 61 -61
right_child=1 9 4 16 26 21 -8 -9 10 22 -12 38 13 -15 -16 -17 -18 -19 25 -21 33 -23 -24 -25 -26 -27 28 29 30 32 -32 -33 -34 34 -36 -37 37 -39 39 40 41 -43 43 46 -46 -47 49 -49 -50 -51 -52 -53 53 56 -56 -57 -58 -59 -60 60 -62 -63
leaf_value=0.052898135328565993 0.044159018426134324 0.036585494022300817 -0.0013113545125632946 0.018891773486699508 -0.022262958851314574 0.0072265830058887096 -0.036206609589833301 0.014041401005931403 0.034632878763525728 4.4553297652680314e-05 -0.0050463275066148653 0.0028748809861407361 -0.0011407227788312313 -0.058835014052184213 0.019533126941830313 -0.044748135860257811 -0.0068393471337348235 -0.042319171337123762 -0.0058296219307088191 0.062029086568644615 -0.00038100715791758774 -0.015334865190208767 -0.0020179861644835937 0.037832319583407194 -0.0077082293122588894 -0.043733451516000867 0.0012381413135332418 -0.0030453619270525128 0.014441900528632978 0.020008419480976265 0.0052588560893438085 0.034020501923911838 -0.029895741137424926 0.0018642550277982541 -0.015185785988550094 0.04530786526136929 -0.047912635657524204 -0.006647230076515874 0.0086819014819978276 -0.031102346721135994 0.02451629599965947 -0.00991630213918724 -0.016017177352670796 0.020480700880231049 0.0058972665659375138 0.038782554450008569 0.0099019071194433785 -0.023830338659916368 0.050853037077965214 -0.033567135070885622 -0.014646009430697611 0.014491918580736488 0.050512946054229957 -0.020994894151311925 0.0097390948934451271 -0.0088289061555061488 0.022852689140692658 -0.024748346937634072 0.0067974872605704416 0.035454816987649684 0.043668648728188389 -0.0036969564889779913
leaf_weight=69.07936218380928 27.628455132246017 32.569563701748848 2064.6240055114031 15.398073405027388 48.831288054585457 872.05859011411667 18.574670031666756 190.75903643667698 30.637220412492752 78.020116567611694 3467.3580945879221 4021.614377245307 102.00959859788418 23.576070219278336 52.235157996416092 59.729542806744576 1575.263784840703 64.613768458366394 1737.149108082056 15.183539673686026 1721.4648983925581 76.188195526599884 427.54944959282875 41.922218278050423 65.174089953303337 25.349844411015511 1786.4981902688742 119.84576304256916 621.06912651658058 512.71915182471275 2257.8032863140106 32.590600177645683 15.082084849476812 35.033613353967667 28.175250560045242 52.340678125619888 25.601747676730156 164.15729650855064 141.73694413900375 88.958781227469444 42.411854401230812 301.0742431730032 64.416502237319946 24.989308819174767 208.50289899110794 34.877453312277794 30.266539990901947 33.187786757946014 22.273109406232834 45.731982424855232 547.66949838399887 91.342357978224754 63.517508119344711 56.353022962808609 184.85662080347538 20.899080291390419 29.539243459701538 51.786493256688118 1620.7208307683468 52.563280984759331 75.374512627720833 62.482120856642723
leaf_count=274 110 129 8196 61 195 3459 74 757 122 310 13774 15955 405 94 207 238 6258 258 6901 60 6833 303 1697 166 259 101 7090 476 2462 2033 8956 129 60 139 112 207 102 652 562 354 168 1196 256 99 827 138 120 132 88 182 2176 362 251 224 733 83 117 206 6428 208 298 248
internal_value=0.00078198 -0.000671619 0.00418231 -0.00190685 0.00359454 -0.0010997 0.0203301 0.0243717 -0.00178021 0.00327098 -0.00189109 -0.000520041 -0.000290137 -0.0132853 -0.00826657 -0.0172447 -0.00798494 -0.0305393 -0.00519621 0.0135186 0.00136104 0.0067864 0.00650994 0.0086304 0.00583103 -0.00637479 0.00540837 0.0119971 0.00446951 0.0145802 0.00723995 0.000499215 0.0185824 0.000736522 0.0173856 0.0278887 -5.35868e-05 -0.0122146 0.000914737 -0.00606435 -0.0108975 -0.00566475 0.00163914 -0.00260746 -0.00712731 0.00318361 0.00470847 0.00797729 0.0103014 -0.0162555 -0.0109879 0.00187441 0.00821031 0.0121527 0.0179159 0.0358216 -0.00591525 -0.010027 0.00843996 0.0183565 0.0258593 0.0141912
internal_weight=26471 18543.8 7927.24 14119.9 7648.82 12464.7 278.413 259.838 11474.5 4423.84 11446.9 7979.5 2107.13 237.55 213.974 161.739 1655.28 80.0118 1873.49 110.995 1869.58 990.169 2316.71 913.981 95.8113 1762.5 5584.2 696.478 4887.72 647.647 2878.87 2008.85 527.801 1837.01 115.55 87.3743 1976.26 189.759 6106.01 574.182 432.445 343.486 5531.82 1475.33 911.931 4056.49 563.401 487.402 454.214 75.9985 703.428 155.759 431.941 355.165 269.273 84.4166 85.8923 76.7758 1889.16 268.44 190.42 115.045
internal_count=105070 73614 31456 56061 30351 49484 1105 1031 45556 17553 45446 31672 8364 944 850 643 6577 319 7443 441 7420 3928 9189 3625 381 7002 22155 2764 19391 2569 11418 7973 2093 7291 458 346 7844 754 24229 2280 1718 1364 21949 5856 3621 16093 2235 1933 1801 302 2794 618 1713 1408 1067 334 341 305 7492 1064 754 456
is_linear=0
shrinkage=0.05


end of trees

feature_importances:
SMA50=71
ATR50=61
AsianRangePips=58
HOUR=55
RSI14=44
SMA200=44
VolRank=35
ATR_ratio=34
ATR14=28
Mom_20=27
Mom_5=24
DOW=15

parameters:
[boosting: gbdt]
[objective: binary]
[metric: binary_logloss,auc]
[tree_learner: serial]
[device_type: cpu]
[data_sample_strategy: bagging]
[data: ]
[valid: ]
[num_iterations: 2000]
[learning_rate: 0.05]
[num_leaves: 63]
[num_threads: 0]
[seed: 72]
[deterministic: 0]
[force_col_wise: 0]
[force_row_wise: 0]
[histogram_pool_size: -1]
[max_depth: -1]
[min_data_in_leaf: 60]
[min_sum_hessian_in_leaf: 0.001]
[bagging_fraction: 0.8]
[pos_bagging_fraction: 1]
[neg_bagging_fraction: 1]
[bagging_freq: 2]
[bagging_seed: 27940]
[bagging_by_query: 0]
[feature_fraction: 0.9]
[feature_fraction_bynode: 1]
[feature_fraction_seed: 31059]
[extra_trees: 0]
[extra_seed: 32377]
[early_stopping_round: 0]
[early_stopping_min_delta: 0]
[first_metric_only: 0]
[max_delta_step: 0]
[lambda_l1: 0]
[lambda_l2: 0]
[linear_lambda: 0]
[min_gain_to_split: 0]
[drop_rate: 0.1]
[max_drop: 50]
[skip_drop: 0.5]
[xgboost_dart_mode: 0]
[uniform_drop: 0]
[drop_seed: 29506]
[top_rate: 0.2]
[other_rate: 0.1]
[min_data_per_group: 100]
[max_cat_threshold: 32]
[cat_l2: 10]
[cat_smooth: 10]
[max_cat_to_onehot: 4]
[top_k: 20]
[monotone_constraints: ]
[monotone_constraints_method: basic]
[monotone_penalty: 0]
[feature_contri: ]
[forcedsplits_filename: ]
[refit_decay_rate: 0.9]
[cegb_tradeoff: 1]
[cegb_penalty_split: 0]
[cegb_penalty_feature_lazy: ]
[cegb_penalty_feature_coupled: ]
[path_smooth: 0]
[interaction_constraints: ]
[verbosity: -1]
[saved_feature_importance_type: 0]
[use_quantized_grad: 0]
[num_grad_quant_bins: 4]
[quant_train_renew_leaf: 0]
[stochastic_rounding: 1]
[linear_tree: 0]
[max_bin: 255]
[max_bin_by_feature: ]
[min_data_in_bin: 3]
[bin_construct_sample_cnt: 200000]
[data_random_seed: 273]
[is_enable_sparse: 1]
[enable_bundle: 1]
[use_missing: 1]
[zero_as_missing: 0]
[feature_pre_filter: 1]
[pre_partition: 0]
[two_round: 0]
[header: 0]
[label_column: ]
[weight_column: ]
[group_column: ]
[ignore_column: ]
[categorical_feature: ]
[forcedbins_filename: ]
[precise_float_parser: 0]
[parser_config_file: ]
[objective_seed: 30608]
[num_class: 1]
[is_unbalance: 1]
[scale_pos_weight: 1]
[sigmoid: 1]
[boost_from_average: 1]
[reg_sqrt: 0]
[alpha: 0.9]
[fair_c: 1]
[poisson_max_delta_step: 0.7]
[tweedie_variance_power: 1.5]
[lambdarank_truncation_level: 30]
[lambdarank_norm: 1]
[label_gain: ]
[lambdarank_position_bias_regularization: 0]
[eval_at: ]
[multi_error_top_k: 1]
[auc_mu_weights: ]
[num_machines: 1]
[local_listen_port: 12400]
[time_out: 120]
[machine_list_filename: ]
[machines: ]
[gpu_platform_id: -1]
[gpu_device_id: -1]
[gpu_use_dp: 0]
[num_gpu: 1]

end of parameters

pandas_categorical:[]
