tree
version=v4
num_class=1
num_tree_per_iteration=1
label_index=0
max_feature_idx=11
objective=binary sigmoid:1
feature_names=ATR14 ATR50 ATR_ratio RSI14 VolRank Mom_5 Mom_20 SMA50 SMA200 HOUR DOW AsianRangePips
feature_infos=[0.081702779923172014:3.476712212082993] [0.13596027951002551:2.2603910516888499] [0.31523502353194538:2.4967650110605488] [5.8940993070892169:94.752276916793306] [0.00069444444444444447:1] [-0.0099080082078584208:0.012588734513812039] [-0.017286780749748543:0.016323070626872438] [1617.81726:1940.1886400000001] [1619.3623599999999:1938.5006550000001] [0:23] [0:4] [425.99999999999909:1976.8000000000029]
tree_sizes=6898 6889 6903 6885 6902 6928 6904 6889 6907

Tree=0
num_leaves=63
num_cat=0
split_feature=3 8 11 4 7 7 3 4 0 1 4 0 8 9 7 1 7 5 9 1 1 1 0 0 11 4 8 4 0 1 4 1 0 8 6 8 9 9 0 9 8 8 0 0 7 8 4 4 1 8 4 11 7 7 7 1 11 11 0 4 5 8
split_gain=61.8801 30.9883 31.3888 20.2569 19.6825 43.71 22.2382 19.8044 19.1611 18.6417 56.426 31.3435 21.7762 17.6597 31.6468 29.9906 20.8353 17.4987 17.1429 16.9406 16.7186 29.4916 16.1711 27.1226 16.1652 15.8442 15.7603 15.6501 22.8647 21.2442 28.9747 24.3435 23.7205 15.7625 24.366 24.1587 21.2542 18.0013 21.6092 19.0891 23.4404 18.2705 29.1332 18.9312 18.2008 17.7817 17.3949 27.2289 16.9919 16.7729 16.591 19.0532 25.281 16.4881 16.4912 15.5736 25.5443 26.4528 24.7379 18.2264 15.305 15.2598
threshold=37.615018800050983 1929.5442550000005 1161.5000000000011 0.24965277777777781 1694.1693600000001 1672.0602900000001 50.436586128237288 0.0031250000000000006 2.0112684369429124 0.25351649838190216 0.11979166666666669 0.2270354049077937 1716.56879 22.500000000000004 1893.9130700000003 0.29530741293173057 1768.9148900000002 0.00021695592274639799 4.5000000000000009 0.2315272257622048 0.27082561211813333 0.31081642484140976 0.21720933183450539 0.30098047121246924 1912.9999999999884 0.1322916666666667 1716.56879 0.99479166666666685 0.88564389678016719 0.80150859173018119 0.93784722222222239 0.84620317866678474 0.97316900031003961 1819.4610050000003 0.001136396343052293 1715.8588425000003 2.5000000000000004 1.5000000000000002 0.58675779649479398 12.500000000000002 1792.2956975000004 1801.5034825000002 0.35024115121749649 0.25514377217115097 1806.3604300000004 1696.9613650000001 0.22465277777777781 0.26215277777777785 0.72017643560840472 1818.2920850000003 0.67187500000000011 753.25000000000284 1785.3339200000003 1713.4852400000002 1707.78655 0.89052719649772771 648.00000000000193 768.55000000000484 0.57711521820623701 0.97534722222222225 0.00033914826886205512 1670.8717350000004
decision_type=2 2 2 2 2 2 2 2 2 2 2 2 2 2 2 2 2 2 2 2 2 2 2 2 2 2 2 2 2 2 2 2 2 2 2 2 2 2 2 2 2 2 2 2 2 2 2 2 2 2 2 2 2 2 2 2 2 2 2 2 2 2
left_child=22 4 -3 -4 5 7 24 -2 9 10 12 18 -6 27 15 -15 -17 55 -11 -14 -20 26 -1 -24 61 -25 -22 29 -29 33 -31 -32 -33 34 37 53 -35 38 -13 40 -39 45 43 -43 -44 -41 -37 -48 -46 60 -49 -52 -53 54 -36 58 -57 -58 -9 -59 -42 -7
right_child=1 2 3 -5 8 6 -8 17 -10 11 -12 13 19 14 -16 16 -18 -19 20 -21 21 -23 23 25 -26 -27 -28 28 -30 30 31 32 -34 36 35 46 -38 39 -40 41 49 42 44 -45 48 -47 47 50 -50 -51 51 52 -54 -55 -56 56 57 59 -60 -61 -62 -63
leaf_value=0.010037347108602278 0.014063743655309619 -0.013744738225622041 -0.063776738675475633 -0.029219936963015933 0.005923956187343999 -0.044561281613699294 -0.029635276200146957 -0.0094166004695469888 0.021711839291120031 -0.054674039848156067 0.019943706211603383 -0.017354867152143943 -0.021943407537675381 -0.026227762891835673 0.043977257433486946 -0.0077324451950880483 0.034185582845700418 -0.016185735112481527 -0.039006599192543429 -0.0027363564050362481 0.040928698447012732 -0.04767182828648181 -0.017712112992737568 0.020797766327241948 0.028339460813114812 -0.0050309038270897949 -0.007779048150250662 0.011162175349642044 -0.043380120883193388 -0.0013571535794004025 0.021595556766956726 -0.058834224587194547 -0.016177022065492964 0.0017565624819877897 -0.00013603247412643897 -0.071523176665288526 -0.010431608124566016 -0.0075891962277869285 -0.051725411962247225 0.02305078799190383 -0.012255451571678589 0.02047560334173518 0.025829167519004801 -0.037255226835886709 -0.00028913331968769343 -0.016870327561507168 0.040644635885322258 -0.035675476797578556 -0.049565455250612164 -0.052794730767350417 -0.033856526826301248 -0.021185632373693739 0.017144201599143944 0.025951979697514654 -0.032405398832515198 0.032085611891627813 -0.0507417254355573 -0.0062910753208472543 -0.018244087152546266 0.029737401822901351 -0.027953504568036556 -0.015010729098394876
leaf_weight=161.66614702343941 69.770040720701218 256.98892989754677 62.675952777266502 131.13865001499653 151.80776239931583 47.688575491309166 597.14330556988716 2854.2743470519781 44.854808449745178 48.161373406648636 193.00634004175663 653.14340537786484 347.84510000050068 96.235860154032707 38.102031409740448 65.402396410703659 54.21925200521946 2362.0912045240402 93.651377692818642 171.3553864210844 19.930514827370644 43.664556130766869 444.46989186108112 60.475067526102066 19.915412575006485 3264.6123703271151 99.61260187625885 25.183345958590508 81.076317191123962 1112.2666224986315 38.806697607040405 35.61047650873661 384.1700104624033 420.32416805624962 103.68494844436646 20.297596976161003 2400.3819166719913 3780.7941358238459 49.173419147729874 28.225524082779884 1060.4884789735079 16.882295802235603 64.526270940899849 89.392469599843025 248.64025893807411 2373.3075738847256 15.641402229666708 257.90663526952267 18.818794220685959 29.351640537381172 126.58142372965813 135.72608080506325 62.981018275022507 33.523661971092224 64.049746170639992 48.665082231163979 30.860647797584534 345.15329413115978 1099.3239682763815 39.077831745147705 181.89960813522339 520.72761638462543
leaf_count=642 277 1022 250 522 603 190 2377 11348 178 192 766 2598 1384 383 151 260 215 9395 373 681 79 174 1768 240 79 12976 396 100 323 4420 154 142 1528 1670 412 81 9544 15030 196 112 4217 67 256 356 988 9440 62 1027 75 117 504 540 250 133 255 193 123 1372 4373 155 724 2071
internal_value=-0.0112603 -0.0122177 -0.0252025 -0.0403949 -0.0119677 -0.0139734 -0.0228378 -0.0124392 -0.01092 -0.0110154 -0.00388099 -0.0114414 -0.0107338 -0.0110999 0.00196633 -0.00544922 0.0112672 -0.0127119 -0.0272996 -0.0156044 -0.0221668 -0.0125039 -0.00544767 -0.00611178 -0.0159386 -0.00456114 0.000341624 -0.0113385 -0.0304537 -0.0111913 -0.00571747 -0.0162931 -0.0197957 -0.0118941 -0.0128764 -0.0211093 -0.0086154 -0.0120905 -0.0197614 -0.0114079 -0.00956437 -0.0146879 -0.00529972 -0.0280844 0.00199409 -0.0164011 -0.0260012 -0.0244582 -0.00375628 -0.0154364 -0.0262043 -0.0186951 -0.00903684 -0.00606015 -0.0124581 -0.0108543 -0.00218603 -0.00620401 -0.0118711 -0.00262684 -0.0145538 -0.0174899
internal_weight=27797.4 23866.2 450.804 193.815 23415.4 8034.69 1185.47 6849.22 15380.7 15335.9 864.015 14471.8 671.008 14166.8 253.96 215.858 119.622 6779.45 305.02 519.2 256.859 163.208 3931.22 3769.56 588.332 3325.09 119.543 13912.9 106.26 13806.6 1570.85 458.587 419.78 12235.7 9415.04 820.393 2820.71 8594.64 702.317 7892.33 5052.53 2839.79 438.26 106.275 331.985 2401.53 619.134 598.837 267.459 1271.74 583.195 325.289 198.707 201.258 167.735 4417.36 463.757 415.092 3953.6 384.231 1242.39 568.416
internal_count=110529 94903 1794 772 93109 31953 4717 27236 61156 60978 3434 57544 2668 56330 1009 858 475 26959 1214 2065 1022 649 15626 14984 2340 13216 475 55321 423 54898 6244 1824 1670 48654 37440 3264 11214 34176 2794 31382 20088 11294 1742 423 1319 9552 2464 2383 1063 5058 2321 1294 790 800 667 17564 1843 1650 15721 1527 4941 2261
is_linear=0
shrinkage=1


Tree=1
num_leaves=63
num_cat=0
split_feature=3 8 11 4 7 7 3 4 0 1 4 0 8 1 11 3 5 1 11 11 0 11 7 2 1 2 2 7 8 8 8 4 1 8 11 7 0 9 2 0 0 9 7 11 11 9 7 8 3 8 7 4 0 4 1 1 9 2 1 9 3 2
split_gain=55.8457 27.9731 28.3484 18.3202 17.7639 39.4544 20.0764 17.8737 17.2944 16.9115 45.2258 35.2246 19.5024 22.1459 17.3111 17.6515 15.8202 20.4615 24.3503 24.1882 22.3546 18.8828 24.4827 20.8011 19.8817 16.742 18.909 15.5691 16.6813 14.6894 51.1421 14.6393 42.4831 16.5756 22.5744 23.2573 20.9274 16.9797 27.7693 14.5943 24.4774 14.852 18.6234 21.9659 14.5912 14.4526 14.1413 16.2806 37.948 14.1203 20.8129 16.1941 16.139 17.8852 16.3157 20.0096 13.9944 13.936 21.0786 21.1364 23.1884 17.5596
threshold=37.615018800050983 1929.5442550000005 1161.5000000000011 0.24965277777777781 1694.1693600000001 1672.0602900000001 50.436586128237288 0.0031250000000000006 2.0112684369429124 0.24906824856596252 0.11979166666666669 0.2270354049077937 1716.56879 0.2363162789587023 577.85000000000093 44.654436677825615 0.00038971874917381749 0.89052719649772771 648.00000000000193 768.55000000000484 0.57711521820623701 1143.3499999999983 1637.6236100000003 1.0828751631617084 0.64109240308070159 1.1759822666384916 0.98625812903484744 1636.7342200000001 1665.9079100000001 1666.8567450000003 1665.1020050000002 0.93784722222222239 0.8182454836876274 1819.4610050000003 1902.9999999999975 1777.74074 0.49582487248183621 2.5000000000000004 0.93509196921302262 0.21720933183450539 0.30098047121246924 19.500000000000004 1642.4321100000004 563.55000000000939 1912.9999999999884 1.5000000000000002 1882.2169600000002 1918.8776000000003 56.974106251128539 1817.6941850000001 1816.8266700000001 0.92534722222222243 0.29147083677793467 0.41076388888888893 0.61119085498474413 0.47731973356653007 4.5000000000000009 1.1558209333135485 0.3895550483431473 2.5000000000000004 56.685831136437336 0.97567376322714516
decision_type=2 2 2 2 2 2 2 2 2 2 2 2 2 2 2 2 2 2 2 2 2 2 2 2 2 2 2 2 2 2 2 2 2 2 2 2 2 2 2 2 2 2 2 2 2 2 2 2 2 2 2 2 2 2 2 2 2 2 2 2 2 2
left_child=39 4 -3 -4 5 7 44 -2 9 10 12 -11 -6 14 -14 -16 17 20 -19 -20 21 29 -23 24 -24 26 -21 -28 -29 30 -9 32 33 34 49 -36 56 38 45 -1 -41 -42 -43 -44 -7 -35 -40 -48 -49 51 -51 57 -52 -54 55 -55 -37 61 -59 -60 -61 -13
right_child=1 2 3 -5 8 6 -8 16 -10 11 -12 31 13 -15 15 -17 -18 18 19 25 -22 22 23 -25 -26 -27 27 28 -30 -31 -32 -33 -34 37 35 36 -38 -39 46 40 41 42 43 -45 -46 -47 47 48 -50 50 52 -53 53 54 -56 -57 -58 58 59 60 -62 -63
leaf_value=0.020944544712425864 0.024770180425734142 -0.0016482032980887679 -0.049227812278567602 -0.01635258852400414 0.018197595273754072 -0.0052064479681160633 -0.016747333123638571 -0.00010569457157283069 0.03203817405868694 -0.015516304874649499 0.031923451268395929 -0.0014739085316775747 0.014581815254984276 0.017347784795595907 0.0081016441470640552 -0.01987395330461637 -0.0051476037748983908 0.042336273114073453 -0.033350442293509329 0.014889688324090253 -0.0059822585794090518 0.024433402220646883 -0.0011552165397501226 0.028938857560080668 0.043346519811895259 0.032480496149942327 0.024268597619692155 -0.026935150603880766 0.015718118923572676 0.0086838534377690971 -0.032677824041958632 -0.0059119213306692252 0.011066945534330882 0.016286611772712418 0.027659768487235472 -0.041543144300362121 -0.057436603827529291 0.0022364310616289 0.015727090292032626 -0.0054174212392184944 0.0062883969674603253 -0.017903650472575389 -0.029201215162123983 0.034479028714860853 0.038338149529792406 0.063536301718717311 -0.015359353233310669 0.071996812465423193 -0.024229066148786005 0.015378034811256713 0.0093621990389010975 0.028604600922288927 -0.079859507956147185 -0.036663055028193593 -0.066557578750244192 0.030640741108133862 0.00096912988543088399 0.0031783894704622024 -0.032736726080116678 0.0025738414631896207 -0.019212120914596485 0.0031828613230397251
leaf_weight=161.66789969801903 69.769104272127151 256.98605990409851 62.614520028233528 131.11538721621037 144.77270349860191 568.38369308412075 597.03373619914055 2057.8953578919172 44.851141214370728 333.04885578155518 158.74378833174706 4618.4344947487116 67.701959446072578 107.5019171833992 73.713049724698067 239.85609993338585 1526.4693269878626 52.437290534377098 35.365771979093552 216.97935028374195 1301.3795404285192 181.33568033576012 585.1675563454628 73.309457272291183 26.22268870472908 67.780552640557289 29.718641951680183 90.390584230422974 30.710815414786339 376.16742314398289 128.00690746307373 740.25721764564514 1030.3259657621384 28.699333548545837 21.914865970611572 29.850360468029976 41.099557101726532 2464.1297032386065 213.2238092571497 444.45105001330376 3150.1676243245602 25.876110404729843 15.063336253166197 134.07300454378128 19.912132948637009 37.112436309456825 101.51321345567703 19.702361062169075 21.346640810370445 39.263873383402824 23.396009489893913 49.373605594038963 19.263623595237732 27.088830918073654 17.030448839068413 18.643849983811378 55.07417120039463 398.15231184661388 99.373489424586296 265.3540845811367 226.30580914020538 3604.0956791639328
leaf_count=642 277 1022 250 522 575 2261 2377 8183 178 1326 630 18367 269 427 293 955 6072 208 141 862 5177 720 2327 291 104 269 118 360 122 1495 510 2945 4094 114 87 119 164 9797 847 1768 12521 103 60 532 79 147 404 78 85 156 93 196 77 108 68 74 219 1583 396 1055 901 14329
internal_value=0.000712057 -0.000197547 -0.0125356 -0.026978 3.99528e-05 -0.0018655 -0.0102879 -0.000407887 0.00103534 0.000944665 0.00805843 0.000557116 0.00207871 -0.00269564 -0.00834701 -0.0132975 -0.000667006 0.000635044 0.0100158 0.00641709 -0.000403066 0.00171491 0.0080976 0.00377123 0.000753475 0.00964591 0.00543779 -0.00816031 -0.0161185 -0.000442577 -0.00201313 0.000933838 0.00131006 0.000501923 -0.000501179 -0.0198809 -0.028148 0.00382287 0.0130952 0.00623391 0.00560301 0.00707603 0.0212531 0.0280471 -0.00373259 0.0429316 0.00757621 -0.00461468 0.0219566 -0.000196365 -0.0156956 4.57812e-05 -0.0272688 -0.0377168 -0.0247821 -0.0092253 -0.0139736 -0.00010729 -0.00571431 -0.0117049 -0.007454 0.000567245
internal_weight=27796.7 23865.4 450.716 193.73 23414.7 8034.44 1185.33 6849.11 15380.2 15335.4 792.29 14543.1 633.546 488.773 381.271 313.569 6779.34 5252.87 523.383 470.946 4729.48 3428.11 866.035 684.7 611.39 435.58 367.799 150.82 121.101 2562.07 2185.9 14210 13469.8 12439.4 9553.72 147.939 126.024 2885.73 421.598 3931.3 3769.63 3325.18 175.012 149.136 588.296 65.8118 355.786 142.562 41.049 9405.78 144.687 9261.09 105.423 82.0268 62.7631 45.7327 84.9245 9211.72 989.186 591.033 491.66 8222.53
internal_count=110529 94903 1794 772 93109 31953 4717 27236 61156 60978 3149 57829 2519 1944 1517 1248 26959 20887 2080 1872 18807 13630 3442 2722 2431 1731 1462 600 482 10188 8693 56503 53558 49464 37992 589 502 11472 1675 15626 14984 13216 695 592 2340 261 1414 567 163 37403 576 36827 420 327 250 182 338 36631 3935 2352 1956 32696
is_linear=0
shrinkage=0.05


Tree=2
num_leaves=63
num_cat=0
split_feature=3 5 10 0 8 2 11 2 9 0 2 4 4 3 4 6 8 5 8 2 1 0 0 1 11 11 9 0 4 0 11 2 4 1 9 2 4 8 8 1 11 9 5 3 8 4 0 3 6 8 3 0 1 0 11 11 11 8 1 4 9 1
split_gain=57.5704 22.9988 18.5693 29.8727 23.7729 29.2607 18.9209 16.5068 20.9965 18.9006 18.1332 15.6623 17.2201 14.9603 16.8669 14.8422 17.9048 17.5 16.635 23.0332 14.727 16.9314 14.5168 21.4867 26.5792 16.0184 13.2611 21.167 31.0186 22.1043 18.2017 13.2769 13.2126 15.1018 14.7655 14.2792 13.1905 13.5023 18.5959 13.0108 12.4942 12.4437 12.0079 11.8639 12.3517 11.8294 11.423 11.2436 11.1533 11.1105 11.0001 10.9331 10.9233 10.8997 10.8557 10.7954 15.6845 12.0139 10.7933 10.6533 35.9326 19.8192
threshold=37.985755790875103 0.00042927316741803173 3.5000000000000004 0.1699560800306463 1926.6746000000003 0.91014313335596242 1161.5000000000011 0.96839303638297458 22.500000000000004 1.0335786514175873 1.0241652484590953 0.92118055555555556 0.86770833333333341 41.559953215843258 0.11562500000000002 0.00024658003753841312 1908.1255775000002 3.023736939966604e-05 1752.3914450000004 0.93509196921302262 0.35086984086537831 0.37839306479479046 0.31453205810536883 0.29530741293173057 1171.4500000000046 1359.0499999999909 20.500000000000004 0.33683441761271576 0.10312500000000001 0.29147083677793467 861.9000000000143 1.0684000391648334 0.66006944444444449 1.075285304699366 10.500000000000002 0.87937717332833654 0.80590277777777797 1696.1572900000003 1667.9923125000003 0.35439532904334875 1107.9000000000067 5.5000000000000009 -0.00019396223280621069 67.691865631062868 1848.7061075000001 0.85381944444444458 0.21720933183450539 42.538281410282558 0.00096040870036451242 1629.8165025000003 36.409612486985814 0.59346648018620674 0.21444974383677848 0.2270354049077937 1902.9999999999975 1143.3499999999983 1028.8500000000001 1650.4633175000001 0.38522372781956554 0.74131944444444453 6.5000000000000009 0.74812375794742458
decision_type=2 2 2 2 2 2 2 2 2 2 2 2 2 2 2 2 2 2 2 2 2 2 2 2 2 2 2 2 2 2 2 2 2 2 2 2 2 2 2 2 2 2 2 2 2 2 2 2 2 2 2 2 2 2 2 2 2 2 2 2 2 2
left_child=26 2 7 -4 6 -6 15 9 10 -2 53 12 -11 -10 40 16 17 -5 20 43 -17 -22 25 24 41 52 27 28 29 30 42 46 34 35 -8 -34 37 38 -3 -7 -15 -24 -1 44 -20 -38 50 54 -39 -29 -28 -41 -12 -9 -25 56 57 -54 -23 60 -49 -62
right_child=1 36 3 4 5 39 32 8 13 11 22 -13 -14 14 -16 18 -18 -19 19 -21 21 58 23 47 -26 -27 31 49 -30 -31 -32 -33 33 -35 -36 -37 45 48 -40 51 -42 -43 -44 -45 -46 -47 -48 59 -50 -51 -52 -53 55 -55 -56 -57 -58 -59 -60 -61 61 -63
leaf_value=0.035421154065912612 -0.0021475705574033749 -0.0062282515793488412 0.045306369886380572 0.0026602442415294939 -0.053858640087334042 -0.042156501122409352 0.02718027644349998 -0.025678387917464823 0.057491992713064245 -0.0011025503722514498 -0.013163062167661558 -0.0044413822451864239 0.049778439724105734 -0.028838505366471118 0.021880804554395894 0.013807990036418666 0.041754571576444161 -0.0073567195492684817 0.036000354032867193 0.0052250675909879807 -0.035639167743853582 -0.031676594030122518 -0.038401588306078427 0.0057681544230313783 0.031837925696248395 -0.038985698271509599 0.041677903671851618 0.025542910123281488 -0.009542570011857196 0.048817593424654471 -0.0096128687817928771 0.062994523788462126 0.041138656839073584 0.04426610607200996 0.0075130992782066535 -0.0071139609561628727 0.0082450900934096082 -3.1974975136708146e-05 -0.021442824068571394 0.023187493695904015 0.013298600654502843 0.0064002626087923155 0.001647142208458153 -0.0065354516604782115 0.0041549241748398786 -0.0023239004592620111 0.0060758249260109993 -0.0053454220129734581 -0.0086976173278926362 0.006657661980126843 -0.0016847039253131465 -0.020283373607416593 0.052902875245344719 0.0052594197622519399 -0.027349569205919563 0.043456677695196802 -0.032574166706155462 0.012123005502650167 0.0011507044507058611 -0.0051141967137977098 0.008451821609330409 -0.043038190594106407
leaf_weight=58.96618726849556 8163.5583004206419 780.47946211695671 42.364588722586632 1164.4613226354122 39.798132553696632 15.771660372614859 194.46270994842052 28.869101658463478 19.934301763772964 25.395957127213478 36.931622177362442 48.260973274707794 48.169890627264977 35.39111053943634 146.78692732751369 154.52946479618549 24.707754224538803 697.00727479159832 153.48017013072968 405.48004448413849 38.896025896072388 26.857365265488625 92.559343263506889 744.5833315551281 19.904683262109756 16.047781065106392 55.460917487740517 79.846987217664719 488.07522705197334 35.557825446128845 96.747568339109421 15.14422485232353 16.88826547563076 18.907533392310143 187.40402163565159 166.39308854937553 347.18599261343479 1117.2718067020178 270.41834619641304 42.793797999620438 34.980111137032509 18.616000011563301 47.530702456831932 25.638866066932678 37.984937995672226 1115.0233936756849 139.35638149082661 1251.8801845759153 556.14408312737942 3162.0955486595631 19.863463401794434 21.848590344190598 19.930550053715706 2055.9369932115078 25.594986364245415 31.260781213641167 18.070426806807518 192.49804802238941 369.90551014244556 1569.0739353746176 958.35469803214073 19.060403063893318
leaf_count=234 32469 3105 168 4630 159 63 772 115 79 101 147 192 191 141 583 614 98 2773 609 1612 155 107 369 2960 79 64 220 317 1942 141 385 60 67 75 745 662 1380 4443 1077 170 139 74 189 102 151 4435 554 4980 2213 12568 79 87 79 8173 102 124 72 765 1471 6242 3809 76
internal_value=0.000674454 -0.000283275 0.000439739 0.00355216 0.00308705 -0.0187937 0.00380123 -0.000326445 0.00140081 -0.00185584 0.000911979 0.017693 0.0322136 0.0160378 0.0122324 0.00224541 -0.000529258 -0.0010905 0.00656074 0.0122622 0.000546302 -0.00415766 -0.000717424 -0.00141363 -0.0213729 0.00967827 0.00606998 0.00539378 -0.00231776 0.0124486 0.00608587 0.0177472 0.0120563 0.00172121 0.0175285 -0.00266777 -0.00364528 -0.0057014 -0.0101433 -0.00143955 -0.007893 -0.0308996 0.0203475 0.0254054 0.0296825 0.000185593 0.0145553 -0.000840968 -0.00291192 0.00712279 0.0302429 0.0084947 0.0122928 0.00483101 0.00466757 0.0158844 0.012145 0.0159491 -0.00107142 -0.00195791 0.000263621 0.00744772
internal_weight=27852.4 23653.8 19467.2 3845.58 3803.22 120.212 3683 15621.7 7336.27 8285.39 7099.17 121.827 73.5658 237.092 217.158 3098.95 1886.18 1861.47 1212.77 622.584 590.188 435.659 5014.37 4699.63 131.08 314.739 4198.65 3968.82 726.878 238.802 203.244 229.825 584.056 202.189 381.867 183.281 4186.52 2724.31 1050.9 80.414 70.3712 111.175 106.497 217.104 191.465 1462.21 214.681 4568.55 1673.42 3241.94 75.3244 64.6424 298.691 2084.81 770.178 261.76 230.499 212.429 396.763 3798.37 2229.3 977.415
internal_count=110757 94068 77415 15290 15122 479 14643 62125 29172 32953 28230 484 292 942 863 12322 7501 7403 4821 2474 2347 1733 19942 18691 522 1251 16689 15776 2891 949 808 913 2321 804 1517 729 16653 10838 4182 320 280 443 423 862 760 5815 853 18169 6656 12885 299 257 1187 8288 3062 1040 916 844 1578 15107 8865 3885
is_linear=0
shrinkage=0.05


Tree=3
num_leaves=63
num_cat=0
split_feature=3 9 0 7 8 10 8 11 4 0 4 0 8 6 7 3 8 7 2 0 6 7 2 0 5 4 11 11 6 8 11 7 0 2 8 9 11 7 0 2 9 8 9 2 3 2 8 7 8 8 6 8 0 4 5 7 9 9 4 4 7 7
split_gain=52.4011 26.0287 23.1847 22.2965 24.6672 20.9608 19.6953 20.2107 22.4095 18.5927 17.3425 17.2429 16.9239 16.855 16.6831 19.0153 16.3658 16.0193 15.4839 19.4817 15.4258 16.2441 15.42 17.053 14.2823 15.1827 21.9449 15.633 20.9796 15.3841 15.2972 15.1276 17.0818 14.6 14.4313 20.2981 14.1665 15.6456 17.5349 13.811 13.792 24.2783 27.1195 18.9582 14.8982 14.3679 14.2387 14.6431 20.2921 13.7441 21.7804 13.7428 13.5613 13.466 13.0226 12.9697 27.3647 12.473 12.028 26.823 20.2192 23.5612
threshold=41.844534431253116 22.500000000000004 0.29147083677793467 1706.0866100000001 1672.3534350000002 3.5000000000000004 1929.5442550000005 1161.5000000000011 0.27048611111111115 1.3820358621406854 0.094791666666666677 0.20154442165594569 1709.6558775000001 -0.00040210422761827175 1689.4430200000002 48.227363807748972 1710.2297250000004 1936.8030800000001 0.72079193187849366 0.60663111009503301 0.0019015247627321987 1711.6302200000002 1.0328114537092692 0.21720933183450539 -0.0010157655568414634 0.44409722222222225 770.49999999999284 770.49999999999284 0.001558328426736644 1670.4549975000002 772.39999999999338 1669.1925300000003 0.70309384047313206 0.91457258178020628 1666.8567450000003 9.5000000000000018 648.00000000000193 1667.8475500000002 0.63985927324923086 0.92495704191583339 4.5000000000000009 1702.1658325000001 22.500000000000004 1.1409925886714831 55.143993002176195 0.92643486982957368 1705.0056300000003 1704.3053500000003 1704.0955575 1936.6897375000001 4.612437535200798e-05 1838.1405375000002 0.63985927324923086 0.80937500000000007 0.0003260403407059354 1667.0407700000003 6.5000000000000009 19.500000000000004 0.92951388888888908 0.8739583333333335 1663.0286300000005 1635.5811900000003
decision_type=2 2 2 2 2 2 2 2 2 2 2 2 2 2 2 2 2 2 2 2 2 2 2 2 2 2 2 2 2 2 2 2 2 2 2 2 2 2 2 2 2 2 2 2 2 2 2 2 2 2 2 2 2 2 2 2 2 2 2 2 2 2
left_child=1 2 11 4 24 9 12 17 -9 14 -4 13 20 57 15 -6 39 -8 19 -18 21 -5 23 -3 -2 27 34 -26 30 31 -29 55 33 -33 36 -36 37 38 -27 -14 45 42 43 -42 46 -16 47 48 -43 50 -19 -25 -41 -31 -12 58 -57 -1 59 60 61 -28
right_child=3 22 10 6 5 -7 7 8 -10 -11 54 -13 16 -15 40 -17 18 49 -20 -21 -22 -23 -24 51 25 26 29 28 -30 53 -32 32 -34 -35 35 -37 -38 -39 -40 52 41 44 -44 -45 -46 -47 -48 -49 -50 -51 -52 -53 -54 -55 -56 56 -58 -59 -60 -61 -62 -63
leaf_value=0.016833262222967108 0.018887326452053654 0.034913793659648758 0.028931950848866784 0.0097300824290297086 -0.0050141005942410215 0.0046290468634103757 0.0067184305823772264 -0.054459122679280575 -0.012249287471430519 0.035642786920100859 0.0050480536213222465 -0.0077576661343131742 -0.065539942537736692 -0.00010844794213848073 -0.034520967932597145 -0.021803556117597912 -0.012257215116832133 0.027709463713496682 0.0010986893636105986 0.039572057711706202 -0.023520982429754735 0.04503015814376337 0.055478736860774258 0.011147866418700896 0.0076929719231524588 -0.0067752716847592322 -0.012752983986198764 -0.021932778995245178 -0.042199605831041702 0.025576563627652732 0.0006265573767741694 -0.064926065025761412 -0.00310343900815452 -0.019278322052727323 0.0019900762715315038 -0.032179997317020634 -0.015372045580875597 -0.03006898348135835 0.017527070472604319 0.0033669483083807422 0.018617585184340809 0.015840695017118805 -0.039143125923632061 -0.018803117150454376 -0.027616454017153614 -0.0069304215194513326 0.0166301830852277 -0.040135890087686754 -0.041629578220589679 -0.05673391075255535 -0.044872781609797865 -0.039489223185269651 -0.049191766758348306 -0.024655603602682701 -0.011406105099719566 -0.049163169414910092 0.021771008860070541 0.070417973359062191 -0.013154553577309505 0.016830239636658795 -0.016884256170518624 0.0027489424639019436
leaf_weight=31.207200139760971 87.581816002726555 71.792922958731651 74.775178164243698 424.21306709945202 256.40252630412579 287.20422326028347 169.55794401466846 44.668768614530563 106.21291214227676 21.917085334658623 5627.3240907937288 637.03474202752113 15.026894629001616 109.10618789494038 72.771125584840775 492.72085031867027 337.62630712985992 21.914828777313232 11784.883892327547 19.159716874361038 31.886924579739571 35.302000850439072 29.747301384806633 81.021241143345833 715.49034707248211 171.93275831639767 311.81734365224838 78.355136945843697 30.346574530005455 85.353754162788391 1833.9905572682619 24.040941447019577 127.94616179168224 64.548236981034279 61.60948258638382 147.54240225255489 274.30625511705875 38.644325703382492 130.60881279408932 42.257927715778351 230.08801414072514 51.851679772138596 27.345095559954643 39.684065520763397 100.92333278059959 134.21035560965538 58.39819298684597 35.874827817082405 21.824526697397232 20.298862487077713 19.561936050653458 16.054160982370377 17.296464130282402 15.813646316528319 122.87585318088531 15.291902884840963 122.61680592596531 16.656309753656387 214.051618039608 196.57721891999245 218.28671482205391 1145.8153105080128
leaf_count=124 348 285 297 1686 1020 1142 674 179 423 87 22370 2535 60 434 290 1963 1344 87 46863 76 127 140 118 322 2844 684 1241 312 121 339 7293 96 509 257 245 588 1092 154 519 168 914 206 109 158 402 534 232 143 87 81 78 64 69 63 489 61 487 66 852 781 869 4556
internal_value=0.000640753 0.00445018 0.00391501 -0.000593989 -0.00268369 -0.00777417 0.00067418 -0.0105089 -0.0247456 -0.0100813 0.00500756 -0.00410012 0.00101054 0.0107434 -0.0107397 -0.016057 0.000644578 -0.00122343 0.00078801 -0.00947394 0.0101084 0.012442 0.022285 0.0164377 -0.00115868 -0.00145008 -0.00368031 0.00137469 -0.000952317 -0.0013812 -0.000297773 -0.00217305 -0.014789 -0.031666 -0.0107679 -0.0221146 -0.0069121 -0.000110488 0.00371618 -0.0227058 -0.00558644 -0.00154754 0.00830355 0.0131129 -0.0124335 -0.0166308 -0.00330978 -0.0139391 -0.00118327 -0.0230218 -0.00652294 0.00277359 -0.0118978 0.0177247 0.00469645 -0.000944972 0.0139055 0.0354805 -0.0019265 -0.000642986 -0.00269251 -0.000567236
internal_weight=27851.2 6817.6 6618.98 21033.7 7943.78 1831.22 13089.9 382.215 150.882 1544.01 5824.98 794.004 12707.7 156.97 1522.09 749.123 12216.3 231.334 12141.7 356.786 491.402 459.515 198.616 168.868 6112.57 6024.99 3366.8 2658.18 1942.69 2542.16 1912.35 2440.99 216.535 88.5892 824.644 209.152 615.492 341.186 302.542 74.5813 772.971 565.99 297.117 269.772 268.873 206.981 167.949 109.551 73.6762 61.7756 41.4768 97.0754 59.5544 101.167 5750.2 2224.46 137.909 47.8635 2086.55 1872.5 1675.92 1457.63
internal_count=110757 27104 26315 83653 31598 7287 52055 1522 602 6145 23156 3159 50533 624 6058 2983 48580 920 48283 1420 1953 1826 789 671 24311 23963 13393 10570 7726 10111 7605 9709 862 353 3282 833 2449 1357 1203 297 3075 2251 1181 1072 1070 824 668 436 293 246 165 386 237 402 22859 8847 548 190 8299 7447 6666 5797
is_linear=0
shrinkage=0.05


Tree=4
num_leaves=63
num_cat=0
split_feature=3 9 0 8 10 10 1 11 0 8 9 2 8 0 9 7 1 1 2 0 6 9 0 7 8 11 11 8 1 7 7 7 7 1 8 7 1 1 0 6 2 11 11 9 11 9 0 3 6 1 6 9 5 11 2 2 1 2 5 9 9 6
split_gain=42.1566 24.8683 28.3801 17.2788 17.7117 17.4799 26.8941 17.2599 15.8622 15.5928 24.588 24.8301 22.379 15.1409 17.7441 16.6016 18.5884 15.1174 26.6134 13.6654 12.9855 12.7526 27.0604 21.4597 37.1976 24.4778 30.2501 28.8864 23.9828 18.9637 24.7751 17.5633 16.5572 16.1859 17.3771 17.5138 14.8608 20.3008 16.4996 14.336 19.7109 14.9811 14.6036 20.6042 17.2438 23.1643 20.511 19.8449 16.0948 14.5475 16.1852 14.5833 14.3637 14.1733 19.6054 14.0701 13.9847 16.1555 14.3766 13.8134 16.7007 21.0345
threshold=41.559953215843258 21.500000000000004 0.28080628807257385 1929.5442550000005 1.0000000180025095e-35 3.5000000000000004 0.2363162789587023 1912.9999999999884 0.20154442165594569 1819.4610050000003 2.5000000000000004 1.0623575192141077 1871.0936300000001 0.21720933183450539 22.500000000000004 1893.9130700000003 0.30204999417138806 0.24906824856596252 0.93805760420986595 1.2030230626105427 0.00015141654284422937 4.5000000000000009 0.59690006432309073 1649.6338500000002 1645.2113700000002 1470.2999999999977 1292.7000000000137 1806.1002925000003 0.37757850297667367 1799.3535400000003 1776.3091900000002 1770.9389600000002 1818.0604500000002 0.36791934075172555 1634.5759300000002 1633.03376 0.25351649838190216 0.29755898198243552 0.32693890149137733 -6.0576261039613215e-05 0.97720466549942508 635.19999999999766 850.04999999999893 22.500000000000004 733.14999999998929 6.5000000000000009 0.8537336134486061 56.823502835545483 0.0011118638224179025 0.78583532221250618 0.001384720122179828 6.5000000000000009 0.00025693838205065328 627.49999999999784 1.11922368039668 0.87937717332833654 0.27832774581325265 0.91303509416330386 0.00017161712917812547 2.5000000000000004 3.5000000000000004 0.00022264854624021171
decision_type=2 2 2 2 2 2 2 2 2 2 2 2 2 2 2 2 2 2 2 2 2 2 2 2 2 2 2 2 2 2 2 2 2 2 2 2 2 2 2 2 2 2 2 2 2 2 2 2 2 2 2 2 2 2 2 2 2 2 2 2 2 2
left_child=1 2 8 5 -5 9 -7 -8 -1 21 11 -11 -13 20 19 16 -16 -3 -19 -15 -12 22 23 24 33 26 36 28 -27 30 31 -30 39 56 35 -35 -25 38 59 53 49 -42 43 44 46 47 -43 -46 -49 50 51 52 55 54 -23 -41 -2 58 -58 -38 -61 -62
right_child=3 17 -4 4 -6 6 7 -9 -10 10 13 12 -14 14 15 -17 -18 18 -20 -21 -22 32 -24 25 -26 27 -28 -29 29 -31 -32 -33 -34 34 -36 -37 37 -39 -40 40 41 42 -44 -45 45 -47 -48 48 -50 -51 -52 -53 -54 -55 -56 -57 57 -59 -60 60 61 -63
leaf_value=0.0081872566399924865 -0.022594667043246752 0.039432607374549941 0.0045043474972126093 -0.046024292681219013 -0.0078234008301935696 0.024778005214870419 0.00092541879307713013 0.015181597770352762 -0.010628306242574525 0.028023732418373679 -0.0080604038827181979 0.021290090277484658 -0.014499888904300748 0.0011434888921851274 -0.038697183797265083 0.048986538513894728 0.037905870219436463 -0.0062848092345887648 0.040892709919310773 -0.023119167756086627 -0.051574471275574289 0.015935729369948338 -0.022870833047825299 0.0047892897821642019 0.044269352910829229 0.037104127695571885 -0.034591768071927091 -0.053759282549864687 -0.0070288575481721842 0.037207626041837291 -0.049137773632293241 0.037381022473437352 -0.026777403694328097 -0.0068839166814933395 -0.031400919184740105 0.04735368698409554 -0.0023268750537656538 -0.0049984015089764404 -0.041977680735916761 -0.0086617006427612449 -0.008371788342253229 0.0015592480736720076 -0.0010588669033025737 0.03437698410990473 -0.039549927933301234 0.013850762080192145 -0.027828905035664681 0.0298785831555364 -0.030766541919802128 0.0026726297122810412 -0.022021870759566513 -0.0061768596386439639 -0.015246911746913786 0.00065475311890644849 -0.016984570878111893 0.020319269190906299 0.068523951372786482 0.0070262039955697039 0.0074715054606740439 -0.065909860810486817 -0.0021610810903069412 -0.059321106741973044
leaf_weight=143.56055764853954 23.602112948894501 72.766282960772514 5744.3022848665714 33.154220163822174 357.79774780571461 130.40921968221664 3850.905441775918 224.69937674701214 509.73482757806778 175.03626868128777 61.295706629753113 78.819537788629532 97.963771089911461 2018.3151319026947 15.803590476512911 37.05688439309597 15.873904779553412 81.920822590589523 47.068260103464127 59.752415716648102 23.802984610199928 308.57219731807709 192.53184938430786 289.68103075027466 58.490360468626022 75.102296516299248 94.823050707578659 17.037871301174164 80.682473823428154 33.0152208507061 25.81265614926815 30.747506469488144 62.217452809214592 88.219163805246353 59.990263134241104 17.904869168996811 130.71425031125546 1462.6646670848131 63.161213681101799 58.055862799286842 420.66466870903969 507.22681207954884 1950.98688814044 60.19310387969017 40.392536222934723 551.90183071792126 67.242977559566498 30.482004702091217 17.065485581755638 582.41837452352047 148.62904921174049 2888.9086876064539 61.546318084001541 3127.8580397516489 52.992849692702293 150.31425456702709 25.252569243311882 86.0359897762537 15.598775431513785 21.535639435052872 63.607281863689423 21.547047674655914
leaf_count=571 94 289 22836 133 1425 518 15314 893 2029 695 244 313 390 8025 63 147 63 326 187 238 95 1226 767 1152 232 298 378 68 321 131 103 122 248 351 239 71 520 5819 252 231 1674 2017 7760 239 161 2193 268 121 68 2316 592 11494 245 12439 211 597 100 342 62 86 253 86
internal_value=0.000435629 0.00392635 0.00338128 -0.000648639 -0.011063 -0.000453411 0.00242659 0.0017114 -0.00649362 -0.00118098 0.0023892 0.0146745 0.00145721 0.00045264 0.00127256 0.026267 -0.000310639 0.0212101 0.0109303 0.000445844 -0.0202317 -0.00183679 -0.00474195 -0.00348877 0.00763629 -0.00522018 -0.00698145 0.00919584 0.0135675 0.00318522 -0.00499924 0.00522541 -0.00105657 0.000868579 -0.00989187 0.00226686 -0.00570614 -0.00743044 -0.0192656 -0.000911425 -0.00213828 0.000502928 0.00166036 0.00582289 0.00440747 0.0100532 -0.0018807 -0.0137799 0.00811217 -0.004614 -0.00589712 -0.00513842 0.00597601 0.00173818 0.0111108 0.0122446 0.0127463 0.01932 0.0452115 -0.0132231 -0.0265729 -0.0166246
internal_weight=27845.5 6599.35 6397.6 21246.1 390.952 20855.2 4206.01 4075.6 653.295 16649.1 2583.72 351.82 176.783 2231.9 2146.8 68.7344 31.6775 201.755 128.989 2078.07 85.0987 14065.4 2977.76 2785.23 375.094 2410.13 2147.73 262.398 245.36 170.258 137.243 111.43 11087.7 316.604 166.114 106.124 2052.91 1763.23 300.565 11025.5 7536.03 3646.16 3225.49 1274.5 1214.31 639.842 574.47 87.94 47.5475 3889.87 3307.45 3158.83 269.916 3489.42 361.565 208.37 150.489 126.887 40.8513 237.404 106.69 85.1543
internal_count=110741 26238 25436 84503 1558 82945 16725 16207 2600 66220 10273 1398 703 8875 8536 273 126 802 513 8263 339 55947 11847 11080 1491 9589 8546 1043 975 677 546 443 44100 1259 661 422 8168 7016 1197 43852 29976 14501 12827 5067 4828 2543 2285 350 189 15475 13159 12567 1073 13876 1437 828 598 504 162 945 425 339
is_linear=0
shrinkage=0.05


Tree=5
num_leaves=63
num_cat=0
split_feature=3 8 4 10 1 11 8 8 8 8 6 8 5 4 2 2 4 6 7 11 1 7 8 6 3 4 1 4 11 8 6 7 2 6 8 4 0 10 0 1 7 1 7 7 6 0 8 7 8 5 1 5 11 7 2 0 11 4 6 1 1 7
split_gain=38.0494 15.6035 17.6939 15.7766 24.2888 15.5784 14.5398 29.6967 18.4524 18.0429 20.5188 18.316 17.9538 16.8418 16.7744 21.7036 14.6443 14.1627 31.6884 25.8362 16.4904 15.8718 13.6999 19.8165 16.9584 12.6603 12.472 17.4801 12.3973 21.5037 22.8477 15.8993 12.3893 18.8125 18.4486 17.2866 21.449 15.8784 15.5858 35.1361 17.1981 16.1666 14.7207 14.4656 13.2296 17.195 15.4175 13.9276 18.637 14.542 12.9624 14.2925 15.3391 15.9817 15.0217 23.2805 18.5151 20.4565 15.3834 15.0185 12.3338 16.4174
threshold=41.559953215843258 1929.5442550000005 0.11979166666666669 3.5000000000000004 0.2363162789587023 1912.9999999999884 1705.0056300000003 1672.3534350000002 1707.2526025 1686.9707225000002 -0.00069704901852835055 1702.1658325000001 0.00073035768573648252 0.030208333333333337 0.96074483535727051 0.88884963269959061 0.0031250000000000006 0.001136396343052293 1928.1991700000003 989.05000000000894 0.32913758492364115 1929.8137200000001 1716.56879 0.00023053217831636721 50.799189725994246 0.86423611111111132 0.64109240308070159 0.84409722222222239 995.94999999999357 1936.6897375000001 0.00019848719429294007 1936.8030800000001 0.90432172596728144 -0.0019198644409398333 1661.1008775000003 0.11145833333333334 0.28080628807257385 3.5000000000000004 0.2223055680065488 0.32913758492364115 1639.4494400000003 0.72533563790040734 1703.3767200000004 1785.3339200000003 -0.0010883737705153493 0.80603224552572683 1800.0833925000002 1714.8938900000001 1753.9625850000004 -0.00056380132089883783 0.27082561211813333 0.00022203840730650184 1178.9500000000091 1763.4986300000003 0.99378294513957999 0.57122151282122169 1480.3999999999976 0.97534722222222225 -0.0015014731290806658 0.73024684322030831 0.37279513733387709 1795.2608800000003
decision_type=2 2 2 2 2 2 2 2 2 2 2 2 2 2 2 2 2 2 2 2 2 2 2 2 2 2 2 2 2 2 2 2 2 2 2 2 2 2 2 2 2 2 2 2 2 2 2 2 2 2 2 2 2 2 2 2 2 2 2 2 2 2
left_child=32 3 -3 6 -5 60 7 12 14 -9 -11 26 16 22 15 -8 -2 18 -15 20 -19 -20 -10 24 -24 -7 27 -12 29 30 -4 -31 33 34 -1 43 37 -37 -35 -40 41 -41 -36 -34 46 47 -42 -46 49 -49 -38 52 -52 -54 59 -56 58 -58 -57 -55 61 -6
right_child=1 2 28 4 5 25 8 9 13 10 11 -13 -14 17 -16 -17 -18 19 21 -21 -22 -23 23 -25 -26 -27 -28 -29 -30 31 -32 -33 35 38 42 36 50 -39 39 40 44 -43 -44 -45 45 -47 -48 48 -50 -51 51 -53 53 54 55 56 57 -59 -60 -61 -62 -63
leaf_value=0.06394740756497401 0.025171889621240978 -0.032956943678451679 0.035847119279975012 0.023552739152198465 0.0093065349500813851 0.010063059625522701 0.022023985939500678 -0.015134572781533087 0.015007240447621476 0.029163149259802019 -0.0023954134451960878 -0.019407396717018566 -0.010180480549752263 0.00064339791374464427 0.037343252642596206 -0.031117383438932139 -0.00041540768910810724 -0.060857376321667912 0.077053416317081388 0.0029575478259115176 -0.010270634979519862 0.02068720961760669 -0.019076198046949017 -0.035186336572919301 0.0075407712040633859 0.04672919251362162 0.020830023852549666 -0.057128561416990423 -0.016850984777390488 -0.0037108074662014004 -0.0048137208416694603 -0.067848330899658485 0.031724925040159967 0.010843953131500141 -0.018849509517324031 -0.023634279986102246 -0.023304186720460807 0.022908358081221977 -0.02029190149301488 -0.0067925010145335335 -0.01230953795751244 -0.049380366958733241 0.030658446769789623 0.00062244418435743621 0.011274984887724051 0.055123384894629104 0.016168885588317587 0.026024104601000186 0.0040693172628981514 -0.024523278403597526 0.0077626307369781577 -0.0084741899457924843 0.0065224775015187602 0.014758920660963199 -0.025281487154179882 0.041531080663647364 -0.0024446094848996451 -0.06313835370836067 -0.0021709542446454646 -0.026731667829013334 -0.00087247527829064058 -0.0045265601236135515
leaf_weight=21.205169782042503 56.656948640942574 71.713163942098618 59.472879275679588 130.33548974990845 769.43079063296318 197.96339742839336 53.878116443753242 685.48099367320538 45.552235692739487 43.817228600382805 504.39269845187664 191.57416811585426 489.69003009796143 8494.3919880092144 62.251353830099106 29.863002806901932 4294.2647272199392 16.520690992474556 17.432694867253304 573.35394372045994 648.1475767493248 44.039587751030922 131.80062599480152 84.003472149372101 109.6088503152132 26.720288291573524 56.136981919407845 15.022046923637388 136.74846677482128 24.387102276086807 82.437585070729256 16.003376930952072 108.48814453184605 255.89291408658028 25.872850626707077 106.12420493364334 39.66477957367897 22.149676069617271 235.47211807966232 85.965144768357277 246.0188414901495 30.081291049718857 35.77765104174614 57.039190322160721 404.8818174302578 16.902193188667297 58.903836101293564 16.371362343430519 421.53048560023308 108.72056959569454 3098.8971436172724 177.68864008784294 548.95883376896381 120.81489856541157 163.9526205509901 38.0703956335783 66.627055570483208 17.537217065691948 42.747115954756737 26.615382134914398 2784.0998153835535 297.39164072275162
leaf_count=84 225 287 236 518 3058 787 214 2731 181 174 2007 763 1949 33781 247 119 17080 66 69 2280 2580 175 525 335 436 106 223 60 546 97 328 64 431 1018 103 423 158 88 938 342 979 120 142 227 1609 67 234 65 1676 433 12317 707 2182 480 653 151 265 70 170 106 11073 1183
internal_value=0.000413865 -0.000616274 -0.0105153 -0.000430784 0.00230531 0.00162583 -0.00112203 -0.00300687 3.63838e-05 -0.00916294 -0.0041152 -0.00601601 -0.00110378 -0.000217108 0.017686 0.00307319 -8.22143e-05 0.00017899 0.000902256 -0.00481944 -0.011528 0.0366719 -0.0106745 -0.0142695 -0.00699111 0.0144235 -0.00155865 -0.00397836 -0.00547108 0.00306527 0.0122267 -0.0291232 0.00373027 0.000401591 0.0237185 0.00514033 0.00455275 -0.0155975 -0.000625631 -0.00243195 0.00059497 -0.017832 0.00988146 0.0210073 0.00227434 0.00513416 -0.00680818 0.00424616 -0.000960066 -0.0179079 0.0051481 0.00541044 0.00600865 0.000707468 -0.0059937 -0.011938 0.00132229 -0.0150913 0.0184156 0.00726868 0.000879144 0.00545037
internal_weight=27843.6 21244.6 390.763 20853.8 4205.94 4075.61 16647.9 6337.04 10310.8 1496.42 810.943 767.126 4840.61 10164.9 145.992 83.7411 4350.92 9793.89 8555.86 1238.02 664.668 61.4723 370.965 325.413 241.409 224.684 575.552 519.415 319.049 182.301 141.91 40.3905 6598.97 1963.6 82.8557 4635.38 4469.85 128.274 1880.74 1624.85 1389.38 116.046 61.6505 165.527 1273.33 968.406 304.923 951.504 546.622 125.092 4341.57 4301.91 4124.22 1025.32 476.365 328.934 164.982 84.1643 80.8175 147.43 3850.92 1066.82
internal_count=110741 84503 1558 82945 16725 16207 66220 25212 41008 5958 3227 3053 19254 40428 580 333 17305 38951 34025 4926 2646 244 1477 1296 961 893 2290 2067 1271 725 564 161 26238 7810 329 18428 17770 511 7481 6463 5525 462 245 658 5063 3850 1213 3783 2174 498 17259 17101 16394 4077 1895 1309 656 335 321 586 15314 4241
is_linear=0
shrinkage=0.05


Tree=6
num_leaves=63
num_cat=0
split_feature=3 8 7 8 6 4 7 4 7 10 11 7 1 1 5 8 4 5 3 11 0 7 0 8 8 1 8 0 10 1 1 9 1 1 0 4 4 5 6 6 1 3 1 6 4 6 1 1 11 1 0 7 6 7 10 3 9 8 0 4 5 7
split_gain=35.0335 16.5465 17.2494 18.6147 16.3625 15.9459 15.495 21.3177 19.8178 20.067 21.7055 18.25 15.368 15.5916 18.5597 21.6894 15.1204 15.1165 17.914 14.9696 18.9277 15.8204 13.9774 13.9019 23.8508 21.3014 19.991 19.1306 16.0781 19.6543 15.4398 15.0946 15.9784 14.3858 19.2879 14.2558 15.3594 19.5661 15.7675 18.0553 13.9368 13.6412 13.4846 13.4377 13.3895 13.3839 19.988 14.2766 13.2901 13.2213 12.6815 12.6403 13.0158 12.5646 12.4462 21.5128 12.4243 20.9738 16.5118 24.1759 20.7001 18.4642
threshold=37.985755790875103 1929.5442550000005 1706.0866100000001 1709.6558775000001 0.0019015247627321987 0.0031250000000000006 1663.0286300000005 0.88090277777777792 1668.6854900000001 1.5000000000000002 1221.0000000000039 1698.4664400000001 0.2315272257622048 0.36300810471844763 0.00042113961925038806 1661.9708600000001 0.12395833333333335 0.00034620236153859457 47.39672229898882 1161.5000000000011 0.26979343269772654 1934.0731500000004 1.3263929439506932 1667.9923125000003 1665.1020050000002 0.2833779745504425 1672.3534350000002 0.86380526945229108 3.5000000000000004 0.36791934075172555 0.26511173894017021 4.5000000000000009 0.36791934075172555 0.26134752461359839 0.28609710565192659 0.20729166666666668 0.81631944444444449 -0.00029302940495934399 0.00054387255420018665 -0.00022328079450584235 0.40536754155961646 45.025201364934702 0.43409686665708086 0.0010441692856549836 0.85729166666666667 0.00057769725610634659 0.71495270747112671 0.46315510030715673 1425.450000000001 0.24906824856596252 0.23892774044008921 1700.8999900000001 0.00029635435926467229 1706.9737300000004 1.5000000000000002 49.869351953071408 19.500000000000004 1635.7098500000004 0.33880223018070194 0.10312500000000001 -0.00026997790568544783 1662.6976400000001
decision_type=2 2 2 2 2 2 2 2 2 2 2 2 2 2 2 2 2 2 2 2 2 2 2 2 2 2 2 2 2 2 2 2 2 2 2 2 2 2 2 2 2 2 2 2 2 2 2 2 2 2 2 2 2 2 2 2 2 2 2 2 2 2
left_child=56 2 5 4 49 -2 12 17 54 10 -10 41 -7 14 15 43 -17 23 -19 -3 -21 -22 -13 24 44 -26 30 45 31 51 -25 32 -28 -33 -35 40 37 48 39 -39 -36 -11 -41 -14 -8 -27 47 -47 -37 -4 -32 52 -30 -51 55 -9 57 -1 59 60 -59 -60
right_child=1 19 3 -5 -6 6 7 8 9 11 -12 22 13 -15 -16 16 -18 18 -20 20 21 -23 -24 26 25 27 28 -29 29 -31 50 33 -34 34 35 36 -38 38 -40 42 -42 -43 -44 -45 -46 46 -48 -49 -50 53 -52 -53 -54 -55 -56 -57 -58 58 61 -61 -62 -63
leaf_value=0.022503921164417313 0.019255825439411824 -0.0021188157060257487 0.046742825424304954 0.0006482277422142404 -0.024327396969302847 -0.021764080723695352 -0.00096970822787446713 0.041553582050364517 0.033949926590378515 0.0073838933172142773 -0.013109160230956256 0.039782645455240712 0.0055964409312869029 -0.0010228817705662666 -0.017346347961304003 0.0074941835415237136 0.067241139601901409 0.016416960819541124 -0.01329305191709617 -0.069862105171062991 -0.022072235260810508 0.02140472325440693 -0.018456162572113143 0.032359510195948842 -0.077874313434836751 -0.025360711144394872 -0.0057965150158621167 0.036127520373744774 0.0004955597226413502 -0.0055316843454046713 -0.033228288740273469 -0.02887022699384258 -0.025754706443050463 0.026932433729978042 -0.0042956198082088779 0.026091791044168158 -0.022088683788066953 0.0031477922439218219 0.012693473815537995 -0.046934470276216285 -0.043304499001189711 -0.034054511532346642 -0.012919033505451864 0.047229800055389251 -0.038954862758255021 -0.0073527327534001806 -0.040549379752731041 0.060573237510986137 -0.0098780346555084244 0.030753685160528593 0.0044704268224439658 0.060528841026485238 0.041901757847939619 0.007204905737978733 0.035536103234542059 -0.015171121334396107 0.013139126019188683 0.029977146851624777 -0.0035691718213807302 -0.010557008062516814 -0.0028738428230057887 0.0065467271704616695
leaf_weight=144.51310476660728 89.050824373960495 257.29292668402195 26.669866561889648 13644.525611162186 32.119703128933907 79.59730838239193 500.07404890656471 26.968798354268074 62.204863935709 26.158948481082916 40.428295850753784 23.944559514522552 715.8760062456131 3653.5269772261381 74.593859270215034 17.86266553401947 26.006822481751442 54.340341255068779 765.21531781554222 17.77967868745327 139.48287162184715 24.61651423573494 18.08284404873848 48.617988273501396 15.256138965487478 228.39037294685841 214.42678880691528 15.862958014011381 53.300971642136574 132.96088875830173 23.085949897766113 52.396431967616081 188.39052022993565 54.371225729584694 49.495556339621544 108.26411564648151 79.311116248369217 166.70575560629368 112.1525876969099 36.093447804450989 42.607214450836182 82.482604488730431 151.14471846818924 19.920532912015915 24.328024700284004 15.069522157311441 16.551745787262917 15.894773527979849 33.664901748299599 66.002558261156082 661.9169022589922 18.929733008146286 29.474602594971657 399.47744755446911 75.82271009683609 43.958694905042648 395.63732838630676 80.286241471767426 554.62647135555744 450.42250463366508 119.07096362113953 2416.393355473876
leaf_count=574 354 1024 106 54265 128 317 1989 107 247 104 161 95 2846 14532 297 71 103 216 3048 72 558 98 72 193 61 910 854 63 212 529 92 209 751 216 197 430 316 663 446 144 170 329 602 79 97 60 66 63 134 262 2632 75 117 1588 301 175 1574 319 2206 1793 474 9605
internal_value=0.000480378 -0.000265655 -8.32897e-05 0.00100347 0.010249 -0.00179709 -0.00200784 -0.00416113 0.00683198 -0.00163853 0.0154129 -0.0132536 1.44692e-05 0.000399029 0.0064803 0.0087599 0.0429135 -0.00528638 -0.0113231 -0.00988012 -0.0208595 -0.0155503 0.0147246 -0.00368461 -0.00921175 -0.0202794 -0.00164882 -0.0172678 -0.00491379 0.00712394 0.00513235 -0.00710525 -0.0151306 -0.0034574 -0.00186046 -0.00386897 -0.00139368 0.00130579 -0.00364369 -0.00882037 -0.0223413 -0.0240769 -0.0194761 0.0067236 -0.00273191 -0.0203377 0.00380572 0.0275154 0.0175599 0.0125056 0.00319991 0.0236688 0.0152394 0.010544 0.0214527 0.00639734 0.00471041 0.00382477 0.00307925 -0.00414072 0.0103561 0.0046583
internal_weight=27753.7 23592.7 23153.6 14168.8 524.27 8984.78 8895.73 4308.35 400.052 253.302 102.633 150.669 4587.38 4507.79 854.26 779.666 43.8695 3908.29 819.556 439.172 181.879 164.099 42.0274 3088.74 831.428 307.026 2257.31 291.769 1523.69 234.666 733.621 1289.02 402.817 886.207 833.811 779.439 687.337 608.026 466.097 353.944 92.1028 108.642 187.238 735.797 524.402 275.906 47.516 30.9643 141.929 492.15 685.003 101.705 82.7756 465.48 146.75 70.9275 4160.95 3765.31 3620.8 649.78 199.357 2971.02
internal_count=110391 93846 92094 56349 2084 35745 35391 17146 1591 1008 408 600 18245 17928 3396 3099 174 15555 3264 1752 728 656 167 12291 3309 1223 8982 1162 6065 933 2917 5132 1605 3527 3318 3102 2735 2419 1855 1409 367 433 746 2925 2086 1099 189 123 564 1956 2724 404 329 1850 583 282 16545 14971 14397 2586 793 11811
is_linear=0
shrinkage=0.05


Tree=7
num_leaves=63
num_cat=0
split_feature=3 8 7 8 6 2 4 1 4 7 4 7 10 11 7 1 1 7 8 4 5 6 11 3 0 8 7 8 2 1 2 1 3 6 1 7 7 0 2 1 8 8 1 11 8 10 1 1 4 4 4 6 3 6 3 0 10 7 6 1 3 1
split_gain=31.622 14.9481 15.5697 16.805 14.7727 14.7504 17.2553 18.7989 14.3967 13.9901 19.2442 17.8922 18.1166 19.5849 16.4837 13.8715 14.0727 16.9218 24.7291 15.7435 13.6509 14.6623 13.1368 17.9975 18.5376 12.9225 19.5564 15.1396 17.7558 13.5904 13.3239 12.8284 16.0695 14.0273 13.7725 27.2647 19.9124 12.618 12.551 21.2787 12.5384 20.8188 19.464 17.7465 17.089 14.3797 18.2449 13.5266 13.3552 19.6363 16.6354 18.1287 15.7001 14.3896 14.3387 13.8004 22.8204 15.7285 13.1284 13.7771 12.5002 12.4722
threshold=37.985755790875103 1929.5442550000005 1706.0866100000001 1709.6558775000001 0.0019015247627321987 0.74758708485588876 0.15312500000000004 0.45394982636392894 0.0031250000000000006 1663.0286300000005 0.88090277777777792 1668.6854900000001 1.5000000000000002 1221.0000000000039 1698.4664400000001 0.2315272257622048 0.36300810471844763 1659.8183500000002 1657.6190500000005 0.12395833333333335 0.00035274590905010067 -0.00014026650446552488 902.99999999999739 59.708211598860032 0.33683441761271576 1650.1402475000002 1649.0757900000001 1629.8165025000003 0.84946334969740145 0.31982327888239354 0.92800610711436782 1.033711282878327 56.260803757969583 0.00036657885175395149 0.51034485455401246 1931.3458200000002 1934.0731500000004 1.3263929439506932 0.73579101646466427 0.85730086451437371 1667.9923125000003 1665.1020050000002 0.2833779745504425 611.35000000000457 1672.3534350000002 3.5000000000000004 0.36791934075172555 0.26511173894017021 0.46076388888888892 0.83368055555555565 0.29131944444444452 0.00039330735242570919 42.129594785151752 -0.00026058660325284361 48.227363807748972 0.46915155561417882 1.5000000000000002 1696.0250800000001 0.00057769725610634659 0.71495270747112671 43.747805594525317 0.25351649838190216
decision_type=2 2 2 2 2 2 2 2 2 2 2 2 2 2 2 2 2 2 2 2 2 2 2 2 2 2 2 2 2 2 2 2 2 2 2 2 2 2 2 2 2 2 2 2 2 2 2 2 2 2 2 2 2 2 2 2 2 2 2 2 2 2
left_child=-1 2 8 4 -4 -3 -7 -8 -2 15 20 -12 13 -13 60 -10 17 18 22 -19 40 -22 -17 25 -25 26 27 28 -24 -28 -29 32 33 34 35 -9 -36 -16 39 -5 41 -11 -43 -44 47 48 -47 -42 50 -50 53 54 -51 -46 55 56 -52 -58 -45 -60 -14 -40
right_child=1 5 3 38 -6 6 7 31 9 10 11 12 14 -15 37 16 -18 19 -20 -21 21 -23 23 24 -26 -27 29 30 -30 -31 -32 -33 -34 -35 36 -37 -38 -39 61 -41 44 42 43 58 45 46 -48 -49 49 52 51 -53 -54 -55 -56 -57 57 -59 59 -61 -62 -63
leaf_value=0.0044754147471795175 0.018300821905448118 0.03914487139675394 0.011883124249031665 -0.0097542162506595396 -0.023124266199184191 -0.030140694455202323 0.0058241331386009731 -0.051736521462070917 -0.020678689220726767 -0.0027176091400698803 0.020387033382478048 0.03224606588832421 0.011870600623246189 -0.012457329797063099 0.037803800150526312 -0.0012455511356860029 -0.00097174606345953754 0.0058863654064042793 -0.055594409592411353 0.044430695071627252 0.0030230252661115325 -0.014139923145641829 0.034125385366155177 -0.018554198157577865 0.026748244221976789 0.049724133248297588 0.0076491825739264585 0.054697441187685575 -0.036333648361155095 -0.051879203040861466 0.019695246559806378 0.0232186439714719 -0.053036584057491315 0.029530805566517784 -0.011201758964302408 0.033009172270252372 -0.072791014985932281 -0.01753624945981716 0.007741037954162245 0.029565678215282762 0.030079662426528899 -0.074230844322012643 0.016555965009045197 -0.025746442654041659 0.0087966541873683163 0.022689417459257052 -0.0053271281075408239 0.002851225895008845 0.00259498800191627 0.016741648057982166 -0.05345939491813876 0.0070662251319659978 -0.038925411485686429 -0.010882973473887463 -0.049275664971173035 0.0085921260973802031 0.029732640335259509 -0.029144797482652082 0.027209684720758211 -0.032946546315636004 -0.031172812547929293 0.00057045293864275482
leaf_weight=4160.4895702004433 89.013830602169037 15.112590581178663 492.04296411573887 486.70302912592888 32.10174472630024 93.094099134206772 169.90705208480358 15.238057464361189 79.58668065071106 526.64136841893196 146.70130552351475 62.216674476861954 20.885509163141251 40.416811004281044 23.938130334019661 396.75785329937935 3653.4971826672554 53.834853038191795 17.289538189768791 52.16086257994175 154.0486036837101 647.43214799463749 16.124997332692146 74.089692324399948 32.481195271015167 31.781317695975304 24.402970314025879 41.871478512883186 20.070769459009171 15.792927950620649 77.530865430831909 16.8703832924366 33.775833547115326 16.088029786944389 30.598785668611526 25.163891822099686 22.979297280311584 18.079921260476112 637.38571332395077 37.025653600692749 48.842146694660187 15.205826267600058 36.214468583464622 216.19468854367733 123.18428219854832 101.90213283896446 135.22080148756504 689.77430544793606 495.07344861328602 16.610657542943954 47.828280478715897 42.725517421960831 53.338567450642586 377.66367067396641 59.578640177845955 32.445655599236488 19.643910646438599 26.843310803174973 25.925077825784683 15.039059951901434 87.671050801873207 12483.447091445327
leaf_count=16545 354 60 1956 1938 128 374 677 61 317 2095 583 247 83 161 95 1578 14532 214 69 207 613 2580 64 295 129 126 97 166 80 63 308 67 135 64 122 100 92 72 2535 147 194 61 144 862 490 405 538 2743 1970 66 191 170 213 1505 238 129 78 107 103 60 350 49645
internal_value=0.000456369 -0.000252423 -7.91471e-05 0.000953313 0.00973906 -0.00939435 -0.0111256 -0.00577145 -0.00170752 -0.00190776 -0.00395417 0.00649255 -0.00155751 0.014642 -0.0125993 1.37528e-05 0.000379094 0.00615684 0.00350801 0.0248542 -0.00502337 -0.0108411 0.00490608 0.0122104 -0.0047467 0.0201512 0.0153509 0.0233825 -0.00494457 -0.0157395 0.0319697 -0.0180303 -0.0228681 -0.0136105 -0.0209956 0.00104636 -0.037617 0.0139916 0.000615815 -0.00697445 -0.00352209 -0.0087602 -0.0190729 -0.016214 -0.00159536 -0.00460713 0.00671281 0.00465175 -0.00667999 -0.000908683 -0.0111475 -0.0223091 -0.0257063 -0.00604274 -0.0290445 -0.0195357 -0.029212 -0.0042652 -0.0208288 0.00512468 -0.0228916 0.000918787
internal_weight=27751.6 23591.1 23152.3 14168.7 524.145 438.828 423.715 330.621 8983.57 8894.56 4307.29 399.909 253.208 102.633 150.575 4587.27 4507.69 854.189 748.194 105.996 3907.38 801.481 730.904 334.146 106.571 227.575 195.794 155.598 36.1958 40.1959 119.402 160.714 143.844 110.068 93.98 40.4019 53.5781 42.0181 13644.6 523.729 3105.9 835.22 308.579 293.373 2270.68 1532.06 237.123 738.616 1294.94 565.023 729.913 229.065 69.9492 500.848 186.34 126.761 94.3155 46.4872 257.159 40.9641 108.557 13120.8
internal_count=110391 93846 92094 56349 2084 1752 1692 1318 35745 35391 17146 1591 1008 408 600 18245 17928 3396 2975 421 15555 3193 2906 1328 424 904 778 618 144 160 474 641 574 439 375 161 214 167 54265 2085 12362 3325 1230 1169 9037 6100 943 2937 5157 2249 2908 913 279 1995 743 505 376 185 1025 163 433 52180
is_linear=0
shrinkage=0.05


Tree=8
num_leaves=63
num_cat=0
split_feature=3 8 8 0 9 5 7 8 9 7 4 1 2 9 4 7 1 3 7 7 9 4 6 1 4 8 3 7 4 3 8 8 7 1 1 6 5 6 7 1 2 5 2 2 4 0 0 1 1 10 0 1 9 6 8 8 2 4 7 7 7 4
split_gain=25.8696 20.0065 16.8104 16.7792 15.3435 17.0783 15.0151 15.8494 18.0458 14.5384 15.2197 33.0053 18.5256 34.3487 34.0199 22.0663 21.5718 20.148 22.2266 18.9936 18.6979 34.6432 31.2725 20.5585 20.5703 17.8147 17.6944 19.5544 17.1326 15.3634 23.3244 14.593 18.3291 14.2981 15.9575 22.5247 20.2601 19.6405 15.8507 18.202 15.7819 15.0843 16.3971 14.5594 14.2703 14.1087 15.3753 14.0119 13.6878 13.6449 13.1319 13.1866 15.4038 20.7728 13.0445 19.0491 18.9969 16.0836 13.026 12.8648 29.7431 18.1958
threshold=35.47978780422271 1929.5442550000005 1705.0056300000003 2.0112684369429124 14.500000000000002 -0.00014997080351314415 1671.5632500000004 1670.8717350000004 15.500000000000002 1707.78655 0.93784722222222239 0.8182454836876274 0.97421501290843338 2.5000000000000004 0.48993055555555559 1899.8798800000002 0.25351649838190216 47.870051875605242 1805.4502200000002 1830.99576 5.5000000000000009 0.7093750000000002 0.001136396343052293 0.3835851390757144 0.63020833333333337 1783.3424775000001 72.266192125104638 1725.3824800000004 0.11145833333333334 71.683310762018422 1910.6109150000002 1755.8594850000002 1750.8435100000004 0.89052719649772771 0.54050835218137794 0.0010017130365049811 -1.6531020481047595e-05 -0.00041131599576382788 1630.4409000000003 0.32168854517684736 0.7673098858154439 -0.00024269546892674573 0.77573809184995801 0.79342855663862888 0.17812500000000003 0.8537336134486061 0.49148038005229738 1.6389150426965189 0.33274090656040906 3.5000000000000004 0.40547433802857163 0.29073646155386085 1.5000000000000002 -2.3808618722309657e-05 1760.0981850000001 1717.1044425000002 1.1870608419279423 0.10729166666666669 1644.2965900000002 1649.0757900000001 1647.2134900000003 0.0031250000000000006
decision_type=2 2 2 2 2 2 2 2 2 2 2 2 2 2 2 2 2 2 2 2 2 2 2 2 2 2 2 2 2 2 2 2 2 2 2 2 2 2 2 2 2 2 2 2 2 2 2 2 2 2 2 2 2 2 2 2 2 2 2 2 2 2
left_child=-1 2 6 9 -3 -6 33 8 45 -4 11 12 13 14 15 17 28 18 -11 20 23 22 -22 24 25 48 27 -12 -14 -15 -31 32 -29 34 35 36 -2 43 -37 -40 58 -35 -43 -38 -27 46 -8 -44 54 -9 51 -46 -53 -54 55 -18 57 -56 -36 60 -39 -61
right_child=1 4 3 -5 5 -7 7 49 -10 10 26 -13 16 29 -16 -17 19 -19 -20 -21 21 -23 -24 -25 -26 44 -28 31 -30 30 -32 -33 -34 41 40 38 37 59 39 -41 -42 42 47 -45 50 -47 -48 -49 -50 -51 -52 52 53 -55 56 -57 -58 -59 -60 61 -62 -63
leaf_value=0.0048851094622597204 0.0037036862529711751 -0.015512531837002739 0.011091743420979143 0.030561343684059623 0.044708254283572002 -0.0040065777508182122 0.017216848761928038 -0.0056862941001568374 -0.039982016269365504 0.006573739240979014 -0.031561834083779126 0.0099611440175575005 0.00077198837826206494 -0.0019567410527281193 0.043645789580842753 0.03783974976285949 0.015728925415063915 -0.0063511671238502309 0.054934620009165075 0.0067318096791048887 0.0088697251791358522 -0.0039564898889754528 -0.014579593550361598 -0.012262375468889457 0.028277281789337496 -0.04896466389727868 0.024473748835498191 -0.0026326205527782047 0.025999220015570548 -0.02322486805106843 0.034869024557421018 -0.0094294271583646571 0.038757901962752417 0.014784212496839741 -0.0081684792745905978 -0.018502192558773702 -0.063738487842451647 0.0006881434753251061 -0.036120566472715332 0.018914424372039954 -0.0053503167628877434 -0.039571875845105756 0.0041645531951177055 -0.013799048796453156 -0.024635627335907073 0.016712636041667655 -0.03709637563540135 -0.038415083808791266 0.012171715765899102 0.0051614462759081462 -0.041939806172203102 0.021098255819755576 0.010504364813572319 -0.045018748063743452 -0.027702277275649403 -0.018585488321166254 -0.035389538102331107 0.028217785469013906 0.02873972939203755 0.036953085247944543 0.042731502142467001 -0.0063080261823701819
leaf_weight=2840.4875220060349 1551.3824849277735 354.60785131156445 347.59002041816711 48.107224434614182 22.409475654363632 91.254353195428848 18.364647939801216 1804.7509274631739 67.077275961637497 104.36093893647194 80.293245747685432 979.04379014670849 111.84600681066513 6088.3311105072498 69.564878225326538 48.338937938213348 52.852877333760262 251.72255825996399 30.762188941240311 1456.2811676859856 1637.4518501162529 1271.2772428095341 155.70062050223351 540.09052167832851 60.449935346841812 25.07241278886795 43.549151763319969 89.989432871341705 168.98544508218765 158.14579102396965 19.396989017724991 456.78582829236984 38.059462532401085 292.78810942173004 38.446541860699654 36.651456356048584 15.524794086813925 539.48950506746769 15.801670417189596 305.22028422355652 2301.4464511424303 24.060820996761322 526.70699916779995 243.62821759283543 57.693929210305214 39.693760365247726 44.859115585684776 20.056844189763069 234.27767318487167 345.36347813904285 26.824569135904312 66.462230697274208 40.503596380352974 28.840575650334358 15.308247044682501 172.27332429587841 19.06502865254879 80.350275799632072 63.209105938673019 24.895718038082123 45.623447179794312 1026.3570281863213
leaf_count=11296 6170 1418 1382 191 89 364 73 7190 268 415 320 3891 445 24218 276 192 210 1002 122 5789 6508 5057 620 2150 240 100 173 358 672 630 77 1818 151 1164 153 146 62 2146 63 1213 9158 96 2095 970 230 158 179 80 931 1374 107 264 161 115 61 686 76 319 251 99 181 4085
internal_value=0.000364022 -0.000150994 4.49384e-05 0.00107935 -0.0103884 0.00559783 -0.00161557 -0.00510588 -0.0198031 0.000984974 0.000745667 0.00110826 0.000441139 -0.00136875 0.0111789 0.00598907 0.00241074 0.00200912 0.0175836 0.00177062 0.000159533 0.00235734 0.00683361 -0.00458322 0.000129909 -0.0019463 -0.00640267 -0.00842429 0.015952 -0.00237953 -0.016878 -0.00524769 0.00966972 -0.000470388 -0.00130899 0.000705763 -0.000533534 -0.00400148 0.0126489 0.0162054 -0.00449873 0.0055575 0.000824916 -0.0167907 -0.0132221 -0.00665136 -0.02132 0.00260261 0.00287328 -0.00394387 -0.0091547 -0.00460976 0.00389772 -0.012588 -0.00353666 -0.0105295 0.0101856 0.0192689 0.0147809 -0.00197603 0.00396642 -0.00528352
internal_weight=27775.8 24935.3 24467 15075.6 468.272 113.664 9391.4 2320.11 169.995 15027.5 14680 13971.3 12992.2 6770.62 504.75 435.185 6221.61 386.846 135.123 5940.78 4484.49 3064.43 1793.15 1420.07 879.975 819.525 708.677 665.128 280.831 6265.87 177.543 584.835 128.049 7071.29 6207.68 3804.57 3446.9 1895.52 357.673 321.022 2403.1 863.613 570.825 259.153 245.397 102.918 63.2238 546.764 574.127 2150.11 220.325 193.5 135.806 69.3442 339.85 225.126 114.724 95.6585 101.656 1636.37 585.113 1051.25
internal_count=110498 99202 97331 59957 1871 453 37374 9242 678 59766 58384 55564 51673 26932 2007 1731 24741 1539 537 23624 17835 12185 7128 5650 3500 3260 2820 2647 1117 24925 707 2327 509 28132 24697 15135 13713 7543 1422 1276 9562 3435 2271 1032 977 410 252 2175 2283 8564 877 770 540 276 1352 896 456 380 404 6511 2327 4184
is_linear=0
shrinkage=0.05


end of trees

feature_importances:
SMA200=77
ATR50=74
SMA50=70
VolRank=59
ATR14=58
AsianRangePips=44
ATR_ratio=37
HOUR=37
Mom_20=35
RSI14=33
Mom_5=21
DOW=13

parameters:
[boosting: gbdt]
[objective: binary]
[metric: binary_logloss,auc]
[tree_learner: serial]
[device_type: cpu]
[data_sample_strategy: bagging]
[data: ]
[valid: ]
[num_iterations: 2000]
[learning_rate: 0.05]
[num_leaves: 63]
[num_threads: 0]
[seed: 65]
[deterministic: 0]
[force_col_wise: 0]
[force_row_wise: 0]
[histogram_pool_size: -1]
[max_depth: -1]
[min_data_in_leaf: 60]
[min_sum_hessian_in_leaf: 0.001]
[bagging_fraction: 0.8]
[pos_bagging_fraction: 1]
[neg_bagging_fraction: 1]
[bagging_freq: 2]
[bagging_seed: 18237]
[bagging_by_query: 0]
[feature_fraction: 0.9]
[feature_fraction_bynode: 1]
[feature_fraction_seed: 26456]
[extra_trees: 0]
[extra_seed: 4890]
[early_stopping_round: 0]
[early_stopping_min_delta: 0]
[first_metric_only: 0]
[max_delta_step: 0]
[lambda_l1: 0]
[lambda_l2: 0]
[linear_lambda: 0]
[min_gain_to_split: 0]
[drop_rate: 0.1]
[max_drop: 50]
[skip_drop: 0.5]
[xgboost_dart_mode: 0]
[uniform_drop: 0]
[drop_seed: 2761]
[top_rate: 0.2]
[other_rate: 0.1]
[min_data_per_group: 100]
[max_cat_threshold: 32]
[cat_l2: 10]
[cat_smooth: 10]
[max_cat_to_onehot: 4]
[top_k: 20]
[monotone_constraints: ]
[monotone_constraints_method: basic]
[monotone_penalty: 0]
[feature_contri: ]
[forcedsplits_filename: ]
[refit_decay_rate: 0.9]
[cegb_tradeoff: 1]
[cegb_penalty_split: 0]
[cegb_penalty_feature_lazy: ]
[cegb_penalty_feature_coupled: ]
[path_smooth: 0]
[interaction_constraints: ]
[verbosity: -1]
[saved_feature_importance_type: 0]
[use_quantized_grad: 0]
[num_grad_quant_bins: 4]
[quant_train_renew_leaf: 0]
[stochastic_rounding: 1]
[linear_tree: 0]
[max_bin: 255]
[max_bin_by_feature: ]
[min_data_in_bin: 3]
[bin_construct_sample_cnt: 200000]
[data_random_seed: 250]
[is_enable_sparse: 1]
[enable_bundle: 1]
[use_missing: 1]
[zero_as_missing: 0]
[feature_pre_filter: 1]
[pre_partition: 0]
[two_round: 0]
[header: 0]
[label_column: ]
[weight_column: ]
[group_column: ]
[ignore_column: ]
[categorical_feature: ]
[forcedbins_filename: ]
[precise_float_parser: 0]
[parser_config_file: ]
[objective_seed: 23942]
[num_class: 1]
[is_unbalance: 1]
[scale_pos_weight: 1]
[sigmoid: 1]
[boost_from_average: 1]
[reg_sqrt: 0]
[alpha: 0.9]
[fair_c: 1]
[poisson_max_delta_step: 0.7]
[tweedie_variance_power: 1.5]
[lambdarank_truncation_level: 30]
[lambdarank_norm: 1]
[label_gain: ]
[lambdarank_position_bias_regularization: 0]
[eval_at: ]
[multi_error_top_k: 1]
[auc_mu_weights: ]
[num_machines: 1]
[local_listen_port: 12400]
[time_out: 120]
[machine_list_filename: ]
[machines: ]
[gpu_platform_id: -1]
[gpu_device_id: -1]
[gpu_use_dp: 0]
[num_gpu: 1]

end of parameters

pandas_categorical:[]
