tree
version=v4
num_class=1
num_tree_per_iteration=1
label_index=0
max_feature_idx=11
objective=binary sigmoid:1
feature_names=ATR14 ATR50 ATR_ratio RSI14 VolRank Mom_5 Mom_20 SMA50 SMA200 HOUR DOW AsianRangePips
feature_infos=[0.085809139558311889:5.1336937780927023] [0.13351088882008216:3.955485496605581] [0.43306304018240283:2.3203843423757] [7.0402154019573864:95.420860719570982] [0.00069444444444444447:1] [-0.010092246858839804:0.011039389153800094] [-0.01885415669980739:0.016611190863056402] [1762.2930200000001:2061.2022999999999] [1764.5735649999999:2053.8037099999997] [0:23] [0:4] [325.39999999999054:3978.4999999999854]
tree_sizes=6876 6891

Tree=0
num_leaves=63
num_cat=0
split_feature=5 5 4 3 3 9 4 3 7 0 4 10 3 9 11 4 4 7 11 8 7 7 5 0 0 10 1 8 4 11 10 1 1 9 11 7 3 7 2 2 1 7 9 7 1 2 11 3 1 1 9 0 3 1 10 11 11 7 1 5 7 0
split_gain=90.6484 41.8715 29.3512 22.8973 19.9677 18.6573 24.4408 18.5822 28.7186 17.019 16.7158 16.6854 20.1182 16.0347 25.8104 19.5607 24.1253 19.5268 17.2783 15.9041 15.0406 14.9719 14.9485 14.9143 14.7394 14.3998 14.1382 18.2814 18.4232 15.4254 14.0381 13.6356 18.4955 16.5348 16.1542 13.957 13.5717 15.3509 13.1474 13.1391 13.0733 25.666 12.8762 14.6615 12.7143 12.6439 12.367 17.9093 16.3515 12.3019 12.2904 12.245 12.1632 13.1386 12.7597 12.0444 11.7674 12.3697 15.9385 13.1406 12.02 11.7485
threshold=-0.00023399149149572193 0.0004684961210901229 0.48576388888888894 40.880931726939799 72.63462110477586 7.5000000000000009 0.0072916666666666676 25.545837886665513 1842.1436600000004 0.16590637279187434 0.71840277777777783 1.5000000000000002 73.492909534788168 2.5000000000000004 1872.7499999999852 0.3378472222222223 0.053125000000000006 1805.6171100000001 2542.5000000000073 1807.5548925000001 1935.6897400000003 1932.1116300000001 -0.00096458074020289153 0.76069641078020256 1.1367287245083006 1.5000000000000002 0.27692502465343954 1862.3387175000003 0.58993055555555574 803.99999999999648 3.5000000000000004 0.37567917647174481 1.0442356481754573 19.500000000000004 355.50000000000642 2046.4232300000003 59.839530337514866 1825.46505 1.1688357916133922 1.3526464100478204 0.23526291589184792 1820.9963600000003 1.5000000000000002 1804.0935100000002 0.24641503790758709 0.87691982068310925 371.00000000000369 55.670314864951941 0.17227017923790131 0.51229771532195623 22.500000000000004 0.41584376628676778 46.809221661288269 0.28288956492725664 3.5000000000000004 758.50000000000375 395.49999999999278 1935.6897400000003 0.33418050644562952 -0.00026621218341177361 1920.3742400000003 0.61972942391759855
decision_type=2 2 2 2 2 2 2 2 2 2 2 2 2 2 2 2 2 2 2 2 2 2 2 2 2 2 2 2 2 2 2 2 2 2 2 2 2 2 2 2 2 2 2 2 2 2 2 2 2 2 2 2 2 2 2 2 2 2 2 2 2 2
left_child=2 3 7 9 31 10 -7 8 -1 -2 13 40 -13 14 15 16 45 42 46 -19 21 -18 -4 -6 56 51 36 38 29 -29 -24 55 33 -33 -34 -36 37 -21 -28 -32 41 -8 52 -44 -42 -5 47 -15 -48 -35 -43 -10 -17 -54 -55 -3 -9 58 59 60 -58 -16
right_child=1 4 22 5 23 6 11 24 25 -11 -12 12 -14 18 61 17 20 19 -20 26 -22 -23 30 -25 -26 -27 27 28 -30 -31 39 32 34 49 35 -37 -38 -39 -40 -41 44 50 43 -45 -46 -47 48 -49 -50 -51 -52 -53 53 54 -56 -57 57 -59 -60 -61 -62 -63
leaf_value=0.047195382804764791 -0.0068964874819956324 0.0019626748897219274 0.01783683574779802 0.0056389501371635151 -0.0063283926787805027 -0.015845289131451851 0.019070778197119807 -0.013949030761328689 0.014078660042329326 0.0098217453005032367 0.010844349324100977 0.0069310828527646539 -0.022631579045677325 -0.0029749201926627944 0.039122238360903547 -0.0018051745828312933 -0.0042459321386554717 -0.035510724219419865 -0.029231794440120088 0.019114194087301299 -0.029231794440120088 0.033186482118390079 0.0088862657003632127 -0.027425124082114418 0.041250521607546761 0.020272809656545699 -0.0032599122862141429 0.065806407654595278 -0.018639186218578276 0.015902221258800048 0.018388204404437079 -0.0054366751430642585 0.044112662548581524 -0.010812200386319356 0.0044325000143897383 -0.036116871115995125 -0.0098726856151338371 0.07562069823329122 -0.037819300612825679 -0.012583983447074978 -0.020073958240849839 -0.048035943878513079 -0.0040911082470841426 0.047869785186585731 0.0018542844495158233 0.039975121685424095 0.023787792320202551 -0.034466711461873328 -0.0011028424419707791 0.024450532963144471 0.0086922619302356816 -0.044706860011466315 -0.00042765019670171298 0.031770520922473747 0.079203999664568564 0.024851191753701946 -0.0021385433262999182 -0.0030064886251104494 0.0099086001483005004 0.01413561190457463 -0.045122458312719937 0.010127045906519416
leaf_weight=65.083649575710297 164.41226375102997 154.10557118058205 864.93544441461563 64.14266961812973 276.9408743083477 144.64193674921989 233.94935926795006 91.744669854640961 15.030565470457075 2054.1247552335262 399.84232199192047 5424.4068874716759 58.166533321142197 138.58522239327431 69.351786226034164 34.081538677215576 885.16654172539711 26.583846926689148 56.419946998357773 38.32357257604599 58.676744878292084 27.544120222330093 2766.1997622251511 120.10688036680222 26.287317216396332 52.599602282047272 239.07984739542007 18.265795081853867 33.091757923364639 101.70262721180916 667.04151082038879 1922.7578926384449 25.033918917179108 35.341746389865875 773.99265599250793 21.819117546081543 21.555500000715256 17.511259317398071 31.099712491035461 36.095147252082825 67.439183950424194 23.079325258731842 88.96744629740715 16.020346224308014 3337.7093448638916 46.066723436117172 67.372224718332291 66.959614753723145 3197.8499757051468 82.398250579833984 16.285098671913147 21.572523534297943 27.815682083368301 123.95251315832138 16.008997201919556 91.664091795682907 503.95949849486351 456.35419607162476 1099.8402171432972 132.01829648017883 16.806659251451492 70.399446994066238
leaf_count=260 656 615 3453 256 1105 577 934 366 60 8199 1596 21650 232 553 277 136 3532 106 225 153 234 110 11041 479 105 210 954 73 132 406 2663 7672 100 141 3089 87 86 70 124 144 269 92 355 64 13320 184 269 267 12761 329 65 86 111 495 64 366 2011 1821 4390 527 67 281
internal_value=0.00446269 0.00283733 0.00947332 0.00383594 -0.00215172 0.0031471 0.0045476 0.00513671 0.0219408 0.00858278 0.00096863 0.00486958 0.00661744 0.000261301 0.00377163 0.00225829 -0.00217851 0.00801186 -0.00178428 0.00217534 -0.00469379 -0.00311628 0.011956 -0.0127102 0.00402256 0.0035146 0.0041765 0.00058348 0.0143898 0.0235004 0.0104898 -0.000802492 -0.00177324 -0.00432289 0.0045648 0.00332074 0.0238263 0.0368361 -0.00723796 0.0167983 0.00226448 0.0127857 0.01804 0.00383773 0.00141999 0.0199912 -0.0013381 -0.0132339 -0.000589267 0.0138658 -0.0245674 -0.0205674 0.0254267 0.0309584 0.037196 0.0104993 0.0035972 0.00432594 0.00623519 4.60526e-05 -0.00352576 0.024516
internal_weight=27826.4 21010.8 6815.57 17506.7 3504.16 15288.1 9305.68 2481.3 154.286 2218.54 5982.44 9161.04 5482.57 5582.6 2055.41 1915.66 1081.6 834.06 3527.19 527.214 971.387 912.711 4334.27 397.048 2327.01 89.2027 500.63 423.24 153.06 119.968 3469.34 3107.11 2861.34 2040.5 820.846 795.812 77.3903 55.8348 270.18 703.137 3678.46 273.314 306.847 104.988 3405.15 110.209 3470.77 205.545 3265.22 117.74 39.3644 36.6031 201.859 167.777 139.962 245.77 2300.72 2208.98 1752.62 652.784 520.766 139.751
internal_count=111055 83851 27204 69868 13983 61013 37139 9903 616 8855 23874 36562 21882 22278 8203 7645 4316 3329 14075 2104 3876 3642 17301 1584 9287 356 1998 1689 611 479 13848 12399 11418 8142 3276 3176 309 223 1078 2807 14680 1091 1225 419 13589 440 13850 820 13030 470 157 146 806 670 559 981 9182 8816 6995 2605 2078 558
is_linear=0
shrinkage=1


Tree=1
num_leaves=63
num_cat=0
split_feature=5 5 4 4 3 6 9 7 3 8 8 1 11 0 6 2 9 11 4 11 2 1 2 11 5 0 9 9 3 4 2 6 2 7 8 11 11 7 9 8 8 9 4 4 8 1 2 1 1 4 0 7 11 7 0 8 2 1 6 3 11 11
split_gain=81.8129 37.7899 26.4904 20.8167 21.5381 20.764 18.2297 17.5265 16.7764 26.2852 16.1831 26.639 18.8976 16.7056 19.7103 17.1959 15.8044 14.9755 14.7152 14.3331 14.2075 16.7569 14.1757 14.0762 13.4932 13.3079 13.1333 12.7519 12.7853 12.2255 13.3996 11.6707 11.6383 11.6041 14.5324 11.7526 21.8148 11.5386 11.3565 11.2739 11.5696 11.1766 24.8533 36.3488 25.7419 20.8159 22.419 18.5717 17.5215 17.2663 12.2681 17.5502 17.9536 16.7861 26.5686 20.2775 20.1597 15.2054 14.5126 13.0333 12.2099 11.8425
threshold=-0.00023399149149572193 0.0004684961210901229 0.48576388888888894 0.0038194444444444448 41.047011009146011 0.00079793774112213456 7.5000000000000009 1972.9996400000002 25.545837886665513 1815.207435 1941.2442525000004 0.79221538645238609 2267.0500000000065 0.47908410380764371 0.0011170873687592622 1.236834468829729 21.500000000000004 2188.3000000000043 0.42395833333333338 974.09999999998729 1.372058926322772 1.0442356481754573 0.77454560483894019 1305.5500000000054 -0.00096458074020289153 1.1367287245083006 19.500000000000004 1.0000000180025095e-35 56.96837115658311 0.11006944444444446 0.9028440761472647 0.0010879774008152323 1.5041644841377091 1913.9534000000001 1892.9261450000001 2018.7500000000002 859.0000000000033 1902.5134700000001 2.5000000000000004 1919.6055625000001 1928.3703525000001 1.5000000000000002 0.32118055555555564 0.053125000000000006 1805.6468075 0.43305978900114689 1.002653694917814 0.27259609389893519 0.28288956492725664 0.40729166666666672 0.37936427744802093 1809.6726300000003 859.0000000000033 1806.7292500000001 0.28229842315611842 1809.9329800000003 0.80645802920277088 0.32860870342403398 0.00023233804958211482 68.394002722090391 579.85000000001048 758.50000000000375
decision_type=2 2 2 2 2 2 2 2 2 2 2 2 2 2 2 2 2 2 2 2 2 2 2 2 2 2 2 2 2 2 2 2 2 2 2 2 2 2 2 2 2 2 2 2 2 2 2 2 2 2 2 2 2 2 2 2 2 2 2 2 2 2
left_child=2 3 8 7 -5 16 10 -2 9 -1 13 -12 -13 17 15 22 20 41 19 -11 21 29 -15 -16 -4 -10 33 -24 -29 30 -3 -28 -22 34 35 36 -7 -33 -17 -35 -41 42 43 -6 45 46 49 -46 -48 -44 51 52 53 56 55 -55 -43 -58 -54 -52 -49 -59
right_child=1 5 24 4 6 26 -8 -9 25 18 11 12 -14 14 23 38 -18 -19 -20 -21 32 -23 27 -25 -26 -27 31 28 -30 -31 -32 37 -34 39 -36 -37 -38 -39 -40 40 -42 50 44 -45 47 -47 48 60 -50 -51 59 -53 58 54 -56 -57 57 61 -60 -61 -62 -63
leaf_value=0.048319068083250295 -0.019866952614328668 0.041962206085981162 0.012643090545684242 0.0041111079606751325 0.02449738874028045 -0.016530522339630753 0.00024802833878668964 0.035250400366010744 -0.0008855376297824992 0.031441410455597875 -0.022903914198359136 0.038006467608248939 -0.0077223168488118948 0.049593512720396825 0.0013141623371669337 -0.027603109837513424 -0.040817877423804785 0.026464824211034483 -0.041062212872168012 -0.0079838200025113878 -0.035938752973714981 0.0083554443655979305 0.036962002025563316 -0.035780703653193469 0.0056626086569091291 0.03490008019084985 0.034668358610419017 0.010994834382615188 -0.008019271671871735 -0.0045936397752461824 -0.012490366607929487 0.018678781821946776 0.0020958824415589698 0.015429719209458759 -0.030866434368449082 -0.044899155280539144 0.0030710701390359273 -0.018481364527882387 0.0054154103942632625 -0.023723049862429541 -0.0052054065953633342 0.013995722696433753 0.015693639317934081 -0.011183109926852354 0.018809156715163637 0.0680829484139851 -0.0034419773530884644 -0.029445352605497962 0.033849464822354659 -0.053970019785790774 -0.010075468656116051 -0.00035772548404444329 -0.0050918428706446762 -0.052468431926713993 0.013439540087048034 0.006250125395555424 -0.0080819635537641033 -0.015839581414951023 0.02447412083040992 -0.047148072752620201 -0.0019564094717061139 -0.048836689319728614
leaf_weight=45.775575131177902 203.79528641700745 29.536871030926704 864.87109705805779 2238.7769909501076 82.371834486722946 555.44713273644447 9170.2509770840406 15.521636188030241 2300.687064319849 44.055149793624878 241.14885486662388 34.045700028538704 67.160122156143188 22.2722547352314 53.616832971572876 53.648416817188263 26.832545429468155 40.561179965734482 16.045349836349487 48.357900485396385 54.666753068566322 364.2439914047718 37.799139618873596 48.896659985184669 3469.2418302595615 26.276271969079971 27.037605613470078 409.3015956133604 112.76768827438354 1331.8775241076946 18.296142578125 35.814509972929955 31.819490522146225 53.85154116153717 128.37786921858788 27.339372217655182 190.66425794363022 50.129504725337029 50.606925264000893 102.5351574420929 475.61842587590218 92.178290992975235 17.526949971914291 534.83807821571827 81.126134172081947 21.507868140935898 42.597698152065277 55.656085342168808 120.8919475376606 18.059515684843063 666.89602667093277 1550.9881123751402 102.24206280708313 75.007073283195496 29.557700619101524 18.287694230675697 833.26958325505257 80.204488188028336 69.867517590522766 24.581413015723228 147.32971650362015 41.138378068804741
leaf_count=183 813 118 3453 8936 329 2216 36599 62 9182 176 962 136 268 89 214 214 107 162 64 193 218 1454 151 195 13848 105 108 1634 450 5315 73 143 127 215 512 109 761 200 202 409 1898 368 70 2134 324 86 170 222 483 72 2661 6190 408 299 118 73 3325 320 279 98 588 164
internal_value=-6.32992e-05 -0.00160743 0.00469698 -0.000658724 -0.000464521 -0.00634712 -0.00114525 -0.0159662 0.00057704 0.0165466 -0.00331893 -0.0138684 0.00766087 -0.00266648 0.00407103 0.00712529 -0.00272284 -0.00378627 0.00313685 0.010811 -0.0021644 -0.00118342 0.0104744 -0.0163793 0.00705556 -0.000481443 -0.0104346 0.0089182 0.00688776 -0.00370169 0.0211341 0.00601743 -0.0219453 -0.0116464 -0.0152871 -0.0127013 -0.0115215 -0.00299602 -0.0115755 -0.0064514 -0.0084895 -0.004047 0.000308245 -0.00642125 0.00853797 0.0213534 0.0163048 -0.00141189 0.0241331 -0.0196595 -0.00541025 -0.00398005 -0.00816725 -0.0103859 -0.0278705 -0.0409584 -0.00833387 -0.01049 0.0069104 -0.0113934 -0.00949352 -0.0270265
internal_weight=27825.7 21010.4 6815.31 17506.3 17287 3504.09 15048.2 219.317 2481.2 154.234 5877.95 342.355 101.206 5535.59 788.91 686.396 1857.27 4746.69 108.458 92.4131 1830.44 1743.95 582.141 102.513 4334.11 2326.96 1646.82 559.868 522.069 1379.71 47.833 112.982 86.4862 1533.83 901.829 773.451 746.111 85.944 104.255 632.005 578.154 4706.12 1121.91 617.21 504.696 220.584 199.076 284.112 163.49 35.5865 3584.22 2892.74 1341.75 1169.64 122.852 93.2948 1046.79 954.612 172.11 691.477 202.986 121.343
internal_count=111055 83851 27204 69868 68993 13983 60057 875 9903 616 23458 1366 404 22092 3149 2740 7412 18943 433 369 7305 6960 2324 409 17301 9287 6571 2235 2084 5506 191 451 345 6120 3598 3086 2977 343 416 2522 2307 18781 4478 2463 2015 881 795 1134 653 142 14303 11544 5354 4667 490 372 4177 3809 687 2759 810 484
is_linear=0
shrinkage=0.05


end of trees

feature_importances:
AsianRangePips=16
ATR50=15
SMA50=15
VolRank=13
RSI14=11
HOUR=11
ATR_ratio=10
ATR14=9
SMA200=9
Mom_5=7
Mom_20=4
DOW=4

parameters:
[boosting: gbdt]
[objective: binary]
[metric: binary_logloss,auc]
[tree_learner: serial]
[device_type: cpu]
[data_sample_strategy: bagging]
[data: ]
[valid: ]
[num_iterations: 2000]
[learning_rate: 0.05]
[num_leaves: 63]
[num_threads: 0]
[seed: 58]
[deterministic: 0]
[force_col_wise: 0]
[force_row_wise: 0]
[histogram_pool_size: -1]
[max_depth: -1]
[min_data_in_leaf: 60]
[min_sum_hessian_in_leaf: 0.001]
[bagging_fraction: 0.8]
[pos_bagging_fraction: 1]
[neg_bagging_fraction: 1]
[bagging_freq: 2]
[bagging_seed: 8535]
[bagging_by_query: 0]
[feature_fraction: 0.9]
[feature_fraction_bynode: 1]
[feature_fraction_seed: 21853]
[extra_trees: 0]
[extra_seed: 10171]
[early_stopping_round: 0]
[early_stopping_min_delta: 0]
[first_metric_only: 0]
[max_delta_step: 0]
[lambda_l1: 0]
[lambda_l2: 0]
[linear_lambda: 0]
[min_gain_to_split: 0]
[drop_rate: 0.1]
[max_drop: 50]
[skip_drop: 0.5]
[xgboost_dart_mode: 0]
[uniform_drop: 0]
[drop_seed: 8784]
[top_rate: 0.2]
[other_rate: 0.1]
[min_data_per_group: 100]
[max_cat_threshold: 32]
[cat_l2: 10]
[cat_smooth: 10]
[max_cat_to_onehot: 4]
[top_k: 20]
[monotone_constraints: ]
[monotone_constraints_method: basic]
[monotone_penalty: 0]
[feature_contri: ]
[forcedsplits_filename: ]
[refit_decay_rate: 0.9]
[cegb_tradeoff: 1]
[cegb_penalty_split: 0]
[cegb_penalty_feature_lazy: ]
[cegb_penalty_feature_coupled: ]
[path_smooth: 0]
[interaction_constraints: ]
[verbosity: -1]
[saved_feature_importance_type: 0]
[use_quantized_grad: 0]
[num_grad_quant_bins: 4]
[quant_train_renew_leaf: 0]
[stochastic_rounding: 1]
[linear_tree: 0]
[max_bin: 255]
[max_bin_by_feature: ]
[min_data_in_bin: 3]
[bin_construct_sample_cnt: 200000]
[data_random_seed: 228]
[is_enable_sparse: 1]
[enable_bundle: 1]
[use_missing: 1]
[zero_as_missing: 0]
[feature_pre_filter: 1]
[pre_partition: 0]
[two_round: 0]
[header: 0]
[label_column: ]
[weight_column: ]
[group_column: ]
[ignore_column: ]
[categorical_feature: ]
[forcedbins_filename: ]
[precise_float_parser: 0]
[parser_config_file: ]
[objective_seed: 17276]
[num_class: 1]
[is_unbalance: 1]
[scale_pos_weight: 1]
[sigmoid: 1]
[boost_from_average: 1]
[reg_sqrt: 0]
[alpha: 0.9]
[fair_c: 1]
[poisson_max_delta_step: 0.7]
[tweedie_variance_power: 1.5]
[lambdarank_truncation_level: 30]
[lambdarank_norm: 1]
[label_gain: ]
[lambdarank_position_bias_regularization: 0]
[eval_at: ]
[multi_error_top_k: 1]
[auc_mu_weights: ]
[num_machines: 1]
[local_listen_port: 12400]
[time_out: 120]
[machine_list_filename: ]
[machines: ]
[gpu_platform_id: -1]
[gpu_device_id: -1]
[gpu_use_dp: 0]
[num_gpu: 1]

end of parameters

pandas_categorical:[]
